################################################################################
# Neural network connection values (weights and biases).
################################################################################
# Col  Name       Description
################################################################################
# 1    connection Neural network connection value.
# 2    t          Connection type (a = weight, b = bias).
# 3    index      Index enumerating weights.
# 4    l_s        Starting point layer (end point layer for biases).
# 5    n_s        Starting point neuron in starting layer (end point neuron for biases).
# 6    l_e        End point layer.
# 7    n_e        End point neuron in end layer.
################################################################################
#                      1 2         3     4     5     6     7
#             connection t     index   l_s   n_s   l_e   n_e
############################################################
 -4.9500560713309610E-01 a         1     0     1     1     1
  1.3583162929682110E-01 a         2     0     1     1     2
  5.9657680357638809E-01 a         3     0     1     1     3
 -1.3457542398183007E+00 a         4     0     1     1     4
  5.4584787977250146E-03 a         5     0     1     1     5
 -6.6477796929326494E-01 a         6     0     1     1     6
  9.0695425547532585E-02 a         7     0     1     1     7
  8.4260454045805366E-01 a         8     0     1     1     8
 -9.7063067725669736E-03 a         9     0     1     1     9
 -4.7153117243253601E-01 a        10     0     1     1    10
 -1.0043642042242558E-01 a        11     0     1     1    11
 -1.2860811950211133E+00 a        12     0     1     1    12
  1.9624825891171527E-01 a        13     0     1     1    13
  4.0534381673751113E-01 a        14     0     1     1    14
  1.8699940262223183E-01 a        15     0     1     1    15
 -3.0906492739776491E-02 a        16     0     1     1    16
  3.5674155340232327E-01 a        17     0     1     1    17
  2.5920547962953827E-01 a        18     0     1     1    18
  5.9829530318549345E-02 a        19     0     1     1    19
  1.6819235687218503E-01 a        20     0     1     1    20
  4.8512196325584556E-01 a        21     0     1     1    21
  2.8387726557368503E-01 a        22     0     1     1    22
  5.2179590860794056E-01 a        23     0     1     1    23
  4.3064308340746837E-01 a        24     0     1     1    24
  2.6143495289544050E-01 a        25     0     1     1    25
  1.9094355501319862E-01 a        26     0     2     1     1
 -2.9257944614042042E-01 a        27     0     2     1     2
  6.8802537454265081E-02 a        28     0     2     1     3
  1.9690753911044603E-01 a        29     0     2     1     4
  1.8550711658997734E+00 a        30     0     2     1     5
  1.2628441078805481E+00 a        31     0     2     1     6
  1.2546831106805023E+00 a        32     0     2     1     7
  3.0854294238898228E-01 a        33     0     2     1     8
 -1.1226160879355567E+00 a        34     0     2     1     9
 -1.1909926648142271E+00 a        35     0     2     1    10
  4.2860422333531217E-01 a        36     0     2     1    11
  3.4292623134529965E-01 a        37     0     2     1    12
 -1.1736133295969584E-01 a        38     0     2     1    13
 -3.1179598333689196E-01 a        39     0     2     1    14
  6.2396911700050461E-01 a        40     0     2     1    15
  5.6353485627180733E-01 a        41     0     2     1    16
 -7.2431062050029071E-01 a        42     0     2     1    17
  1.1530638327233038E+00 a        43     0     2     1    18
  5.4770954920512017E-02 a        44     0     2     1    19
  6.8823144127057523E-01 a        45     0     2     1    20
 -7.0360936035935601E-02 a        46     0     2     1    21
 -2.1350514508305203E+00 a        47     0     2     1    22
  1.5135523946094520E+00 a        48     0     2     1    23
  1.7727937360239115E-02 a        49     0     2     1    24
 -9.3627923563994853E-02 a        50     0     2     1    25
  1.6427254380719909E+00 a        51     0     3     1     1
 -1.1182458812775892E-01 a        52     0     3     1     2
 -1.1008504944268682E+00 a        53     0     3     1     3
  8.0088700296188620E-01 a        54     0     3     1     4
  1.3145556041080012E-01 a        55     0     3     1     5
  1.1412028620703281E+00 a        56     0     3     1     6
  6.2125843012636392E-02 a        57     0     3     1     7
 -7.6824601365676304E-01 a        58     0     3     1     8
 -3.0339131926617452E-01 a        59     0     3     1     9
  1.0253148738119731E+00 a        60     0     3     1    10
  2.5854930437438955E-01 a        61     0     3     1    11
  8.2677392762358348E-01 a        62     0     3     1    12
 -1.1930194722245460E+00 a        63     0     3     1    13
 -2.4468937164734042E-02 a        64     0     3     1    14
 -1.0362945472415477E+00 a        65     0     3     1    15
  4.9873225321505177E-01 a        66     0     3     1    16
 -2.9905356730425897E-01 a        67     0     3     1    17
  1.2941298158835439E+00 a        68     0     3     1    18
  4.0781840310492717E-01 a        69     0     3     1    19
  8.5884950335794807E-01 a        70     0     3     1    20
 -1.0505464607807000E+00 a        71     0     3     1    21
 -6.6426829801913823E-01 a        72     0     3     1    22
 -4.6361508295814785E-01 a        73     0     3     1    23
  1.9193769136275879E-01 a        74     0     3     1    24
 -8.2369289432960391E-01 a        75     0     3     1    25
  8.9002415891289377E-01 a        76     0     4     1     1
  6.0164997774015971E-01 a        77     0     4     1     2
 -1.0854325195449796E-01 a        78     0     4     1     3
  5.3618180519973535E-01 a        79     0     4     1     4
 -2.6901356026710985E+00 a        80     0     4     1     5
 -2.2311646483174643E+00 a        81     0     4     1     6
 -3.1690674886087669E+00 a        82     0     4     1     7
  1.3802061866250465E-01 a        83     0     4     1     8
  8.4039713639868263E-01 a        84     0     4     1     9
  1.6567754385890161E+00 a        85     0     4     1    10
 -6.1826427393995165E-01 a        86     0     4     1    11
 -1.5495193429996912E+00 a        87     0     4     1    12
  1.3293523376809717E+00 a        88     0     4     1    13
  1.1626526218366160E-02 a        89     0     4     1    14
 -1.1902600398809775E+00 a        90     0     4     1    15
 -9.2231807512901776E-01 a        91     0     4     1    16
  1.0814069979251661E+00 a        92     0     4     1    17
 -2.0689151734370896E+00 a        93     0     4     1    18
  3.0674057148731896E-02 a        94     0     4     1    19
 -5.6227842465230571E-01 a        95     0     4     1    20
  6.1536815754184049E-01 a        96     0     4     1    21
  3.2215875937424636E+00 a        97     0     4     1    22
 -2.3185094592755813E+00 a        98     0     4     1    23
  1.3660198839305233E+00 a        99     0     4     1    24
  3.5419634424625251E-01 a       100     0     4     1    25
 -7.5950468644332614E-01 a       101     0     5     1     1
 -1.7777166829913660E+00 a       102     0     5     1     2
  1.6339599165282674E+00 a       103     0     5     1     3
 -1.3197716940632493E+00 a       104     0     5     1     4
  4.7813046102594536E-01 a       105     0     5     1     5
  4.4152337246125670E+00 a       106     0     5     1     6
  1.2355017203713552E+00 a       107     0     5     1     7
 -9.8392283180285289E-01 a       108     0     5     1     8
  2.0111722802403867E-01 a       109     0     5     1     9
  2.7063611412758709E-01 a       110     0     5     1    10
  5.2708999914790045E-01 a       111     0     5     1    11
  9.4767171815959272E-01 a       112     0     5     1    12
 -6.2618375709262641E-01 a       113     0     5     1    13
  7.3233004543826064E-01 a       114     0     5     1    14
 -1.1321444365953951E-02 a       115     0     5     1    15
  1.2597797084334292E-01 a       116     0     5     1    16
  3.0330896021349032E-03 a       117     0     5     1    17
  5.5142662398244578E-02 a       118     0     5     1    18
  5.6540301516793334E-01 a       119     0     5     1    19
 -7.0757472333854454E-01 a       120     0     5     1    20
  4.1589383173678207E-01 a       121     0     5     1    21
 -9.8602896111129168E-01 a       122     0     5     1    22
  2.7045541388350547E-01 a       123     0     5     1    23
 -2.5471114594697708E+00 a       124     0     5     1    24
 -1.4259729557382836E-01 a       125     0     5     1    25
  2.0609347765225913E-01 a       126     0     6     1     1
  1.2798776902831217E+00 a       127     0     6     1     2
 -2.0676904808371616E-01 a       128     0     6     1     3
  7.6929113049275044E-01 a       129     0     6     1     4
 -4.7838455165633603E-01 a       130     0     6     1     5
  1.4156459098545668E+00 a       131     0     6     1     6
  2.8935897248570364E-01 a       132     0     6     1     7
 -3.2430005252767596E-01 a       133     0     6     1     8
  6.6590226650808293E-01 a       134     0     6     1     9
 -8.8871419476849109E-02 a       135     0     6     1    10
 -4.7230160982512248E-01 a       136     0     6     1    11
  9.0755510085540170E-01 a       137     0     6     1    12
  8.3021715089557288E-02 a       138     0     6     1    13
 -5.0966525573258703E-01 a       139     0     6     1    14
  5.3885224369441764E-01 a       140     0     6     1    15
 -4.2893830043967640E-01 a       141     0     6     1    16
  2.1549813032730919E-01 a       142     0     6     1    17
  1.6221577638712509E-01 a       143     0     6     1    18
  7.5427368959460828E-01 a       144     0     6     1    19
  5.3547715814167929E-01 a       145     0     6     1    20
 -6.3497149838845732E-02 a       146     0     6     1    21
  1.8106763293812181E-01 a       147     0     6     1    22
 -1.1711721211596735E+00 a       148     0     6     1    23
 -5.5124889091846013E-02 a       149     0     6     1    24
 -1.5094971033778989E-01 a       150     0     6     1    25
  8.0001305267943978E-01 a       151     0     7     1     1
  1.5986979546626062E-01 a       152     0     7     1     2
 -1.6273823390048214E-01 a       153     0     7     1     3
 -4.1558539592382253E-02 a       154     0     7     1     4
 -3.8255582935309640E-01 a       155     0     7     1     5
 -2.1830732393383672E+00 a       156     0     7     1     6
 -4.6843998461690468E-02 a       157     0     7     1     7
  1.5227406338803053E+00 a       158     0     7     1     8
  1.5131589530004999E+00 a       159     0     7     1     9
  1.9164319906720437E+00 a       160     0     7     1    10
 -1.2898431027647603E+00 a       161     0     7     1    11
 -1.7568839743353970E+00 a       162     0     7     1    12
  7.4577952583761309E-01 a       163     0     7     1    13
 -1.0260974276722259E+00 a       164     0     7     1    14
 -9.7803972873981987E-02 a       165     0     7     1    15
  7.3960645442709483E-01 a       166     0     7     1    16
  2.6716010187228095E-01 a       167     0     7     1    17
  4.3604499247904049E-01 a       168     0     7     1    18
  3.0478759911991149E-01 a       169     0     7     1    19
 -8.5766579299580226E-01 a       170     0     7     1    20
  1.0849254310464118E+00 a       171     0     7     1    21
  1.4891800809280979E+00 a       172     0     7     1    22
 -2.5161191362225521E-01 a       173     0     7     1    23
  1.2375864260227722E-01 a       174     0     7     1    24
  7.3311290760624848E-01 a       175     0     7     1    25
 -5.6233578995572853E-01 a       176     0     8     1     1
  8.3619005103742705E-01 a       177     0     8     1     2
 -2.6940724558686280E-01 a       178     0     8     1     3
 -1.1811690335760514E+00 a       179     0     8     1     4
  1.7251988580113151E-01 a       180     0     8     1     5
  6.0606505357564455E-01 a       181     0     8     1     6
 -6.1749220299614072E-01 a       182     0     8     1     7
  2.0964666076757243E-01 a       183     0     8     1     8
 -6.0637968288134858E-01 a       184     0     8     1     9
  9.2982543131481230E-02 a       185     0     8     1    10
 -1.4005886142582217E-02 a       186     0     8     1    11
 -6.5380492939821333E-01 a       187     0     8     1    12
 -7.9060787093197482E-01 a       188     0     8     1    13
  4.0107281454835247E-01 a       189     0     8     1    14
  4.0295406209027063E-01 a       190     0     8     1    15
  8.2500831994657431E-01 a       191     0     8     1    16
  1.9788615551933139E-01 a       192     0     8     1    17
  4.5909654671627481E-01 a       193     0     8     1    18
 -2.0098823528854037E-01 a       194     0     8     1    19
  5.1608237151729790E-02 a       195     0     8     1    20
 -5.4301347584235593E-01 a       196     0     8     1    21
 -1.1745696428151156E+00 a       197     0     8     1    22
  6.0838047998158939E-01 a       198     0     8     1    23
 -7.9267876682804668E-03 a       199     0     8     1    24
  9.2408900423366150E-02 a       200     0     8     1    25
 -1.6283202875407476E-01 a       201     0     9     1     1
 -1.2477579997695782E+00 a       202     0     9     1     2
 -3.2008555225855556E-01 a       203     0     9     1     3
 -7.1807116021733808E-01 a       204     0     9     1     4
  6.9100358658946426E-02 a       205     0     9     1     5
 -2.8136688517411987E+00 a       206     0     9     1     6
 -5.3358286374998487E-01 a       207     0     9     1     7
  4.4763149125994534E-01 a       208     0     9     1     8
 -1.8023437766703965E-01 a       209     0     9     1     9
  1.6895239290776940E+00 a       210     0     9     1    10
 -4.3170792424526516E-01 a       211     0     9     1    11
  5.0660883214494590E-01 a       212     0     9     1    12
 -1.3800114194454594E+00 a       213     0     9     1    13
  6.5284328116941592E-01 a       214     0     9     1    14
 -1.7789430615964399E+00 a       215     0     9     1    15
 -6.1248301761640467E-01 a       216     0     9     1    16
 -1.2836074358590860E-01 a       217     0     9     1    17
  4.9209455511290767E-01 a       218     0     9     1    18
 -6.0688680074009371E-01 a       219     0     9     1    19
  5.5106330904555823E-01 a       220     0     9     1    20
 -7.1035659424803177E-01 a       221     0     9     1    21
 -2.3503596641559807E-01 a       222     0     9     1    22
  1.2544600564597539E+00 a       223     0     9     1    23
 -2.2616312346681382E+00 a       224     0     9     1    24
  3.7352953454209797E-01 a       225     0     9     1    25
 -6.6199843318477780E-01 a       226     0    10     1     1
 -2.3779918725977751E+00 a       227     0    10     1     2
  1.8706685065787403E+00 a       228     0    10     1     3
  5.6506304367126758E-01 a       229     0    10     1     4
 -7.7680382031345596E-01 a       230     0    10     1     5
  4.9614275189031325E+00 a       231     0    10     1     6
  7.2187309888494133E-01 a       232     0    10     1     7
 -3.6231245226909063E+00 a       233     0    10     1     8
 -1.2640771986095705E+00 a       234     0    10     1     9
 -2.3662637573212590E+00 a       235     0    10     1    10
  1.4934474769728587E+00 a       236     0    10     1    11
  1.5657882301487733E+00 a       237     0    10     1    12
 -2.7239463267877478E-01 a       238     0    10     1    13
  1.2105804672228768E+00 a       239     0    10     1    14
  9.4064614634791588E-01 a       240     0    10     1    15
 -7.8991829417298676E-01 a       241     0    10     1    16
  2.3514839409745791E-01 a       242     0    10     1    17
 -2.2869715489603326E-01 a       243     0    10     1    18
  2.3122339098366440E-01 a       244     0    10     1    19
  4.8834565028665922E-01 a       245     0    10     1    20
 -9.7096601102674887E-02 a       246     0    10     1    21
 -2.9079367181501778E+00 a       247     0    10     1    22
 -1.2600117942610669E+00 a       248     0    10     1    23
  1.1966292314393995E-01 a       249     0    10     1    24
 -1.5089037278550249E-01 a       250     0    10     1    25
  3.5540286450160004E-02 a       251     0    11     1     1
  4.6578186479471922E-01 a       252     0    11     1     2
 -1.2224484597001020E-01 a       253     0    11     1     3
  1.2778852939312650E+00 a       254     0    11     1     4
 -8.5564749198564882E-02 a       255     0    11     1     5
  2.4082197646215966E+00 a       256     0    11     1     6
  3.9981032863328120E-01 a       257     0    11     1     7
 -4.6585830729911554E-01 a       258     0    11     1     8
 -7.6920647616977700E-02 a       259     0    11     1     9
 -1.2209359452654021E+00 a       260     0    11     1    10
 -7.1212606737145509E-02 a       261     0    11     1    11
 -4.9866427672303387E-01 a       262     0    11     1    12
  1.1035294232943909E+00 a       263     0    11     1    13
  2.5702312438666020E-01 a       264     0    11     1    14
 -1.0733835338163830E-01 a       265     0    11     1    15
 -7.7790741578452130E-02 a       266     0    11     1    16
  6.8266834406296917E-01 a       267     0    11     1    17
  2.9889559376612071E-02 a       268     0    11     1    18
 -5.9489114661307818E-01 a       269     0    11     1    19
  2.0924151561085402E-01 a       270     0    11     1    20
 -3.2483807351563820E-01 a       271     0    11     1    21
 -4.5690202349604409E-01 a       272     0    11     1    22
 -1.1782649809019785E+00 a       273     0    11     1    23
  6.7664418532914383E-01 a       274     0    11     1    24
  6.6632916828553368E-01 a       275     0    11     1    25
  5.4138087323933037E-01 a       276     0    12     1     1
  2.4172993523399540E+00 a       277     0    12     1     2
 -2.0152383810996324E+00 a       278     0    12     1     3
  3.5681241571215716E-02 a       279     0    12     1     4
 -4.4308294888359651E-01 a       280     0    12     1     5
 -5.1952900580965373E+00 a       281     0    12     1     6
 -2.3216987129389421E+00 a       282     0    12     1     7
  2.5748425569912352E+00 a       283     0    12     1     8
  3.1930980931156849E-01 a       284     0    12     1     9
  2.3522940913842079E+00 a       285     0    12     1    10
 -1.0512552845345391E+00 a       286     0    12     1    11
 -5.2521456007172740E-01 a       287     0    12     1    12
 -6.8165709503319605E-01 a       288     0    12     1    13
 -3.4636425476034116E-01 a       289     0    12     1    14
 -1.8946711293980516E+00 a       290     0    12     1    15
  2.1176852522257347E-01 a       291     0    12     1    16
 -9.8915301096531780E-02 a       292     0    12     1    17
 -2.2883941322701555E+00 a       293     0    12     1    18
 -6.2485147391209250E-01 a       294     0    12     1    19
 -4.3285916777067518E-01 a       295     0    12     1    20
 -3.5666521444392441E-01 a       296     0    12     1    21
  4.0577128720329956E+00 a       297     0    12     1    22
  1.7585263181417551E-01 a       298     0    12     1    23
 -3.5760253294825028E-01 a       299     0    12     1    24
 -2.1955541976703141E-01 a       300     0    12     1    25
 -1.0322455729585196E+00 a       301     0    13     1     1
 -2.9267949083705702E-01 a       302     0    13     1     2
  5.6678876470816775E-01 a       303     0    13     1     3
 -4.6645461283863016E-01 a       304     0    13     1     4
 -2.5952198239924907E-03 a       305     0    13     1     5
 -1.4333728242442270E+00 a       306     0    13     1     6
  1.1589784092818391E-01 a       307     0    13     1     7
  2.4187145167772889E-01 a       308     0    13     1     8
  2.9244358343713034E-01 a       309     0    13     1     9
 -7.6646954736471928E-01 a       310     0    13     1    10
 -2.6212309449835236E-01 a       311     0    13     1    11
 -2.0822996606373667E-01 a       312     0    13     1    12
  8.0950243471889505E-01 a       313     0    13     1    13
 -3.7704036361979149E-01 a       314     0    13     1    14
  1.1883128420464752E+00 a       315     0    13     1    15
 -5.4826778936625364E-01 a       316     0    13     1    16
  2.0595268331295299E-01 a       317     0    13     1    17
 -9.6694021441863742E-01 a       318     0    13     1    18
  1.9820925676732540E-01 a       319     0    13     1    19
 -1.4335408698122645E+00 a       320     0    13     1    20
  1.5452243018734728E+00 a       321     0    13     1    21
  7.4193661570079006E-01 a       322     0    13     1    22
  1.2974608977953750E-01 a       323     0    13     1    23
 -5.0613515801631437E-01 a       324     0    13     1    24
  1.1573700013750032E-01 a       325     0    13     1    25
 -4.8819399194940538E-01 a       326     0    14     1     1
  5.5608149437206922E-01 a       327     0    14     1     2
 -9.8488330317485195E-01 a       328     0    14     1     3
 -1.2739153146273309E-02 a       329     0    14     1     4
  1.4876935693433941E+00 a       330     0    14     1     5
  2.1318279423435511E+00 a       331     0    14     1     6
  3.8206233962097258E+00 a       332     0    14     1     7
 -9.2535679253020120E-01 a       333     0    14     1     8
  5.3998481106183793E-01 a       334     0    14     1     9
 -2.2925231584770174E+00 a       335     0    14     1    10
  2.5908617134043244E-01 a       336     0    14     1    11
  9.5146180487432563E-01 a       337     0    14     1    12
 -4.6276391126170630E-01 a       338     0    14     1    13
  5.0691061077283783E-01 a       339     0    14     1    14
  1.9902441690738308E+00 a       340     0    14     1    15
  6.3116881456584784E-01 a       341     0    14     1    16
 -6.5989034085935305E-01 a       342     0    14     1    17
  2.9555721972716031E+00 a       343     0    14     1    18
 -5.0270049215331980E-01 a       344     0    14     1    19
  3.0553625424354397E-01 a       345     0    14     1    20
 -1.0105092458479643E+00 a       346     0    14     1    21
 -2.8169270126796513E+00 a       347     0    14     1    22
  1.4109612349151910E+00 a       348     0    14     1    23
 -4.6062859903226344E-01 a       349     0    14     1    24
 -9.7529843921820691E-01 a       350     0    14     1    25
  2.3573638137349395E-01 a       351     0    15     1     1
  6.9145310039162933E-01 a       352     0    15     1     2
 -2.1426282221898604E-01 a       353     0    15     1     3
  6.6896051156749847E-01 a       354     0    15     1     4
 -3.7205351032470985E-01 a       355     0    15     1     5
 -3.3292701656858799E+00 a       356     0    15     1     6
 -1.9663961284726368E+00 a       357     0    15     1     7
  7.0970772593076281E-01 a       358     0    15     1     8
 -5.8296826529323398E-01 a       359     0    15     1     9
  1.9242933995856551E-01 a       360     0    15     1    10
 -2.3465910150275587E-02 a       361     0    15     1    11
 -3.3639786693539508E-01 a       362     0    15     1    12
  4.1703365356986011E-01 a       363     0    15     1    13
 -5.2906964274951562E-01 a       364     0    15     1    14
 -2.4756954944929296E-01 a       365     0    15     1    15
 -1.0759686086308526E-01 a       366     0    15     1    16
  5.1589758248266622E-02 a       367     0    15     1    17
 -6.8885438180686409E-01 a       368     0    15     1    18
 -7.3847887425748729E-02 a       369     0    15     1    19
  8.1759812913680452E-01 a       370     0    15     1    20
 -7.4576704710800773E-02 a       371     0    15     1    21
  6.5430743078380738E-01 a       372     0    15     1    22
 -3.6449531354338055E-01 a       373     0    15     1    23
  2.0021778965561436E+00 a       374     0    15     1    24
  9.3482151569491090E-01 a       375     0    15     1    25
  2.6234185978860913E-01 a       376     0    16     1     1
 -1.6066888516923861E-01 a       377     0    16     1     2
  9.1962464024628199E-01 a       378     0    16     1     3
  1.1661353079812116E-01 a       379     0    16     1     4
  7.9826687690108689E-01 a       380     0    16     1     5
  7.1917634220427651E-01 a       381     0    16     1     6
  2.7421687254750082E-01 a       382     0    16     1     7
 -6.3053847218587344E-01 a       383     0    16     1     8
  1.2178357331086456E-01 a       384     0    16     1     9
 -2.1747391749885239E-01 a       385     0    16     1    10
  9.1290895798711558E-01 a       386     0    16     1    11
  9.7026927031163113E-01 a       387     0    16     1    12
 -1.6204479003551689E-01 a       388     0    16     1    13
 -2.8540152503152449E-01 a       389     0    16     1    14
  1.2509748776475820E+00 a       390     0    16     1    15
  2.4610058685663386E-01 a       391     0    16     1    16
  3.0493237084375296E-01 a       392     0    16     1    17
  3.2616356667559092E+00 a       393     0    16     1    18
 -9.9003888445317906E-02 a       394     0    16     1    19
  5.0762821581934636E-01 a       395     0    16     1    20
 -4.5241630946902994E-01 a       396     0    16     1    21
 -6.2148414520733786E-01 a       397     0    16     1    22
 -2.9202494801694678E-02 a       398     0    16     1    23
 -1.6037677985776977E+00 a       399     0    16     1    24
 -1.0585821631838681E+00 a       400     0    16     1    25
  6.1425139545631036E-01 a       401     0    17     1     1
 -5.8957034868586652E-02 a       402     0    17     1     2
  8.1004656087346005E-01 a       403     0    17     1     3
  2.2759775578866248E-01 a       404     0    17     1     4
  9.3381607477151862E-01 a       405     0    17     1     5
  4.7684829329810474E-01 a       406     0    17     1     6
  2.5931079071611762E-01 a       407     0    17     1     7
 -3.4108268225383237E-01 a       408     0    17     1     8
 -3.1091024993915134E-01 a       409     0    17     1     9
 -2.6208749972730783E-01 a       410     0    17     1    10
  1.0245792802465197E+00 a       411     0    17     1    11
  9.1960875328753333E-01 a       412     0    17     1    12
 -3.0429591992228966E-01 a       413     0    17     1    13
 -4.4430357250734825E-01 a       414     0    17     1    14
  1.1448564124280136E+00 a       415     0    17     1    15
  3.4419807635883537E-01 a       416     0    17     1    16
  1.7531660641685087E-01 a       417     0    17     1    17
  3.2787454775948390E+00 a       418     0    17     1    18
  4.0337898030385323E-02 a       419     0    17     1    19
  3.8179938024525745E-01 a       420     0    17     1    20
 -2.4553081465854074E-01 a       421     0    17     1    21
 -6.1176490029352970E-01 a       422     0    17     1    22
 -1.3927672137385155E-01 a       423     0    17     1    23
 -1.5567236143185219E+00 a       424     0    17     1    24
 -1.1274566802685755E+00 a       425     0    17     1    25
 -2.0409685607907219E-01 a       426     0    18     1     1
  7.2707254711557345E-01 a       427     0    18     1     2
 -4.4966871644493739E-01 a       428     0    18     1     3
 -3.8318350557808351E-01 a       429     0    18     1     4
 -3.2187651678173856E-01 a       430     0    18     1     5
 -9.7742786440104937E-02 a       431     0    18     1     6
 -1.3495904012116239E-01 a       432     0    18     1     7
  1.4378814064365705E-01 a       433     0    18     1     8
 -3.8621188963948234E-02 a       434     0    18     1     9
  5.7708886896437905E-01 a       435     0    18     1    10
 -7.8553451563153420E-01 a       436     0    18     1    11
 -1.9558633834888307E-02 a       437     0    18     1    12
  6.6045435651615458E-01 a       438     0    18     1    13
  1.9524759951500573E-01 a       439     0    18     1    14
 -5.3607288309851586E-01 a       440     0    18     1    15
 -1.3783427584960245E-01 a       441     0    18     1    16
 -2.9545162831795726E-02 a       442     0    18     1    17
 -1.8784600173145962E+00 a       443     0    18     1    18
  3.9362042241553777E-02 a       444     0    18     1    19
 -1.1153864851751905E-01 a       445     0    18     1    20
  2.7678578077151500E-01 a       446     0    18     1    21
  4.0142646502933477E-01 a       447     0    18     1    22
  9.5030223066722166E-02 a       448     0    18     1    23
  1.0829547547531093E+00 a       449     0    18     1    24
  9.5461870893129785E-01 a       450     0    18     1    25
  2.0105826797689086E-03 a       451     0    19     1     1
  4.2009834643344329E-01 a       452     0    19     1     2
 -5.3890120930250551E-01 a       453     0    19     1     3
 -4.5232287573887908E-01 a       454     0    19     1     4
 -3.6654757073970257E-01 a       455     0    19     1     5
 -6.6362867068264178E-02 a       456     0    19     1     6
 -3.6710222778019946E-01 a       457     0    19     1     7
  4.7553134647471484E-01 a       458     0    19     1     8
 -9.7586920776407862E-02 a       459     0    19     1     9
  4.3712970710762800E-01 a       460     0    19     1    10
 -7.5202362481180129E-01 a       461     0    19     1    11
 -1.1794452470581633E-01 a       462     0    19     1    12
  2.5642669598877743E-01 a       463     0    19     1    13
  2.2808701314793778E-01 a       464     0    19     1    14
 -5.8102187064963362E-01 a       465     0    19     1    15
 -7.4540022382629842E-02 a       466     0    19     1    16
 -1.8943571740085804E-01 a       467     0    19     1    17
 -2.0703225998716115E+00 a       468     0    19     1    18
  5.8478805912872960E-02 a       469     0    19     1    19
 -4.9986934937446464E-01 a       470     0    19     1    20
  2.2555733274865178E-01 a       471     0    19     1    21
  1.6451271930326514E-01 a       472     0    19     1    22
  6.3331570519141164E-02 a       473     0    19     1    23
  7.8234393044038597E-01 a       474     0    19     1    24
  9.0586848795399066E-01 a       475     0    19     1    25
  1.5744606830946850E-01 a       476     0    20     1     1
  4.4367049014612236E-01 a       477     0    20     1     2
  6.0203611703981030E-01 a       478     0    20     1     3
  3.8731831425181706E-01 a       479     0    20     1     4
 -1.6794843922378572E-01 a       480     0    20     1     5
 -2.1892836176986438E-01 a       481     0    20     1     6
  1.0082947152819882E-01 a       482     0    20     1     7
 -6.0519949039939243E-02 a       483     0    20     1     8
  4.8528064157556178E-01 a       484     0    20     1     9
  2.0786888317752972E-01 a       485     0    20     1    10
  5.5045178994167131E-02 a       486     0    20     1    11
  1.4680066468730760E-01 a       487     0    20     1    12
  2.2710444050638623E-01 a       488     0    20     1    13
  4.5960829063152370E-01 a       489     0    20     1    14
  3.3571486148530189E-01 a       490     0    20     1    15
 -1.0667929502862553E-01 a       491     0    20     1    16
  3.4838044800376855E-01 a       492     0    20     1    17
 -6.3922649090015338E-01 a       493     0    20     1    18
 -3.4743207925869782E-02 a       494     0    20     1    19
 -1.0284016004270007E-01 a       495     0    20     1    20
 -3.6970930256327833E-02 a       496     0    20     1    21
  6.2143849491091030E-01 a       497     0    20     1    22
  2.7234994164025800E-01 a       498     0    20     1    23
  3.1423734772303957E-01 a       499     0    20     1    24
  2.3165454414439474E-01 a       500     0    20     1    25
  3.6688550208507992E-01 a       501     0    21     1     1
  3.9084313225175227E-01 a       502     0    21     1     2
  5.2619453349656131E-01 a       503     0    21     1     3
  5.3622916651115227E-01 a       504     0    21     1     4
  3.8119801200373699E-02 a       505     0    21     1     5
 -9.5763188276531852E-02 a       506     0    21     1     6
  2.6719786103677651E-01 a       507     0    21     1     7
  2.8815849679600741E-01 a       508     0    21     1     8
  3.7715935203801049E-01 a       509     0    21     1     9
 -1.7770305070857730E-02 a       510     0    21     1    10
  2.2813323910994898E-01 a       511     0    21     1    11
 -1.0498926215111708E-01 a       512     0    21     1    12
  1.1951672254981394E-01 a       513     0    21     1    13
  6.0566467282389425E-01 a       514     0    21     1    14
 -9.7282983035725992E-03 a       515     0    21     1    15
  1.6080051404141979E-01 a       516     0    21     1    16
  9.2685076592394874E-02 a       517     0    21     1    17
 -2.9229018713875454E-01 a       518     0    21     1    18
  6.4154431064504788E-02 a       519     0    21     1    19
  1.4588873641992123E-03 a       520     0    21     1    20
 -1.1296731152996969E-01 a       521     0    21     1    21
  4.3133818257603207E-01 a       522     0    21     1    22
  2.0712646411670706E-02 a       523     0    21     1    23
  4.7914579054024860E-02 a       524     0    21     1    24
  2.7234055048799347E-02 a       525     0    21     1    25
 -5.2239316302397232E-01 a       526     0    22     1     1
 -6.2536950469144059E-01 a       527     0    22     1     2
  2.9623897821619966E-01 a       528     0    22     1     3
 -2.7279404604812152E-01 a       529     0    22     1     4
  2.0738197897201030E-01 a       530     0    22     1     5
  8.9564286599587109E-02 a       531     0    22     1     6
 -1.4798760400139888E-01 a       532     0    22     1     7
 -3.3809157616783508E-01 a       533     0    22     1     8
  6.2317326932782136E-02 a       534     0    22     1     9
 -2.8409548586466921E-01 a       535     0    22     1    10
 -2.9326537962692023E-01 a       536     0    22     1    11
  4.5005600113768196E-01 a       537     0    22     1    12
 -6.8386575778595984E-02 a       538     0    22     1    13
 -8.8210830040741151E-01 a       539     0    22     1    14
  5.6015985381361651E-03 a       540     0    22     1    15
 -2.0633799266289682E-01 a       541     0    22     1    16
 -2.7939865062192537E-01 a       542     0    22     1    17
 -2.4269147415504361E-01 a       543     0    22     1    18
  1.1827984566990704E-01 a       544     0    22     1    19
  2.2712394867043840E-02 a       545     0    22     1    20
  1.8296726626340590E-01 a       546     0    22     1    21
 -6.0117559684659938E-01 a       547     0    22     1    22
 -4.9751104746353858E-01 a       548     0    22     1    23
 -4.9916192496568312E-01 a       549     0    22     1    24
 -3.6566920610839578E-03 a       550     0    22     1    25
 -4.5474588711274866E-01 a       551     0    23     1     1
 -7.3207603443386915E-01 a       552     0    23     1     2
  7.4941682788686556E-02 a       553     0    23     1     3
 -3.6818362562495932E-01 a       554     0    23     1     4
 -6.3540139738289328E-02 a       555     0    23     1     5
 -3.4162320413675881E-02 a       556     0    23     1     6
 -4.0040099396624107E-01 a       557     0    23     1     7
 -1.9334294183569778E-01 a       558     0    23     1     8
 -2.5007837209727835E-01 a       559     0    23     1     9
 -3.1796882347053779E-01 a       560     0    23     1    10
 -1.5399515697691232E-01 a       561     0    23     1    11
  5.2695810846865321E-01 a       562     0    23     1    12
  9.9818713948961676E-02 a       563     0    23     1    13
 -4.0937787944200593E-01 a       564     0    23     1    14
 -5.7566336438311945E-02 a       565     0    23     1    15
 -4.2492599559556164E-02 a       566     0    23     1    16
 -2.1407952810252581E-01 a       567     0    23     1    17
 -2.4140546037487082E-02 a       568     0    23     1    18
 -2.2187802219274194E-01 a       569     0    23     1    19
  3.3748476660797902E-02 a       570     0    23     1    20
  4.6407256106069250E-01 a       571     0    23     1    21
 -5.1056979609248299E-01 a       572     0    23     1    22
 -1.7802385227571949E-01 a       573     0    23     1    23
 -5.9342309561202533E-01 a       574     0    23     1    24
  2.3030395703944848E-01 a       575     0    23     1    25
 -2.8786889006896971E-01 a       576     0    24     1     1
  5.2495975721031159E-02 a       577     0    24     1     2
 -9.6102179011130981E-02 a       578     0    24     1     3
 -1.3275639150626758E-01 a       579     0    24     1     4
 -2.7579247883196267E-01 a       580     0    24     1     5
  4.2944423549237483E-03 a       581     0    24     1     6
  1.5399083850712159E-01 a       582     0    24     1     7
 -1.3635122518873846E-01 a       583     0    24     1     8
  4.7148201999327330E-02 a       584     0    24     1     9
 -2.1166656548899368E-01 a       585     0    24     1    10
  7.0908036523174234E-01 a       586     0    24     1    11
 -3.3220804602451692E-01 a       587     0    24     1    12
 -4.8139108809987724E-01 a       588     0    24     1    13
  5.5092863589629038E-01 a       589     0    24     1    14
  9.0285254162173612E-01 a       590     0    24     1    15
 -2.7060781621440438E-01 a       591     0    24     1    16
 -5.1782955596219649E-01 a       592     0    24     1    17
 -3.4123970074274762E-01 a       593     0    24     1    18
  9.4176976668842960E-01 a       594     0    24     1    19
  3.8166758271261891E-01 a       595     0    24     1    20
  5.8604878814026144E-02 a       596     0    24     1    21
  5.2762688607466424E-01 a       597     0    24     1    22
 -1.4890586646636143E-02 a       598     0    24     1    23
 -1.5694073799343713E-01 a       599     0    24     1    24
 -6.0084198531829525E-01 a       600     0    24     1    25
 -7.6395662531971609E-02 a       601     0    25     1     1
 -8.0881468886242619E-03 a       602     0    25     1     2
  6.7602995165918700E-01 a       603     0    25     1     3
 -1.1507838011155741E-01 a       604     0    25     1     4
  6.6217048966999037E-01 a       605     0    25     1     5
 -1.0059252472065601E-01 a       606     0    25     1     6
 -2.1702156507316064E-01 a       607     0    25     1     7
 -1.3915280319847415E-01 a       608     0    25     1     8
  5.1143946743638386E-03 a       609     0    25     1     9
 -7.5576517474930260E-01 a       610     0    25     1    10
 -9.0169674995415561E-02 a       611     0    25     1    11
  3.6291721023868967E-01 a       612     0    25     1    12
  9.1626895930322597E-02 a       613     0    25     1    13
  3.5852444439577685E-01 a       614     0    25     1    14
  3.5136147360555053E-01 a       615     0    25     1    15
  3.9109937901658687E-01 a       616     0    25     1    16
  1.7341774477202890E-01 a       617     0    25     1    17
 -5.0163853544830571E-02 a       618     0    25     1    18
 -3.7330677410331664E-01 a       619     0    25     1    19
 -5.7423686677171693E-01 a       620     0    25     1    20
 -1.4349523368480452E-01 a       621     0    25     1    21
  1.2111073796783858E-02 a       622     0    25     1    22
  4.8137740481217117E-01 a       623     0    25     1    23
  8.2120521502058771E-02 a       624     0    25     1    24
  7.8601412493212119E-01 a       625     0    25     1    25
 -2.6335541278298996E-01 a       626     0    26     1     1
 -2.8845728081740657E-02 a       627     0    26     1     2
  3.5555676202259617E-01 a       628     0    26     1     3
 -1.6727806279049896E-02 a       629     0    26     1     4
  2.7714456563153334E-01 a       630     0    26     1     5
 -1.2580815177740619E-02 a       631     0    26     1     6
 -3.1721528829760864E-01 a       632     0    26     1     7
 -8.2537201573993010E-02 a       633     0    26     1     8
  8.5661188173228285E-03 a       634     0    26     1     9
 -8.0577971025131867E-01 a       635     0    26     1    10
 -1.7222533699429241E-01 a       636     0    26     1    11
  4.2780587793198543E-01 a       637     0    26     1    12
  5.5480704575145513E-02 a       638     0    26     1    13
  4.5938951877553258E-01 a       639     0    26     1    14
  2.4741243470936355E-01 a       640     0    26     1    15
  4.9341230096565292E-01 a       641     0    26     1    16
  3.2275849000140322E-01 a       642     0    26     1    17
 -1.9192492756614282E-01 a       643     0    26     1    18
 -2.6088565434583871E-01 a       644     0    26     1    19
 -5.5819021384394574E-01 a       645     0    26     1    20
  1.8135106879542437E-02 a       646     0    26     1    21
  2.1502602709315713E-01 a       647     0    26     1    22
  7.0737045222559380E-01 a       648     0    26     1    23
  1.7925852688558219E-01 a       649     0    26     1    24
  6.0626210115563406E-01 a       650     0    26     1    25
  3.6115310741921446E-02 a       651     0    27     1     1
 -4.5296769772569169E-02 a       652     0    27     1     2
  3.0093315963689299E-01 a       653     0    27     1     3
 -2.6434888206963969E-01 a       654     0    27     1     4
 -1.8935028501120463E-01 a       655     0    27     1     5
  1.1313395179543666E-01 a       656     0    27     1     6
  4.8365605597776959E-02 a       657     0    27     1     7
 -1.8748523055855212E-01 a       658     0    27     1     8
  9.7958248817511334E-02 a       659     0    27     1     9
 -5.9638448296411639E-01 a       660     0    27     1    10
  7.6070611410590835E-02 a       661     0    27     1    11
 -3.4538057936672145E-01 a       662     0    27     1    12
 -5.5712005298854217E-01 a       663     0    27     1    13
 -2.5594220862305928E-01 a       664     0    27     1    14
  2.0708729438588189E-01 a       665     0    27     1    15
 -9.5427333502784151E-01 a       666     0    27     1    16
 -2.0863107140752682E-01 a       667     0    27     1    17
  2.7739973134102586E-01 a       668     0    27     1    18
  3.0751521351078703E-01 a       669     0    27     1    19
  9.3371133924404970E-01 a       670     0    27     1    20
  7.7118926364035545E-01 a       671     0    27     1    21
  4.5971912144641203E-01 a       672     0    27     1    22
 -6.3836345698408037E-01 a       673     0    27     1    23
 -3.8352293630421969E-01 a       674     0    27     1    24
 -2.7162156849625661E-02 a       675     0    27     1    25
 -5.6199674023690001E-03 a       676     0    28     1     1
 -3.0064653375217916E-02 a       677     0    28     1     2
  1.2933013814869870E-01 a       678     0    28     1     3
 -1.8996583106789935E-01 a       679     0    28     1     4
  3.1616313338174884E-02 a       680     0    28     1     5
  4.9125149317565853E-01 a       681     0    28     1     6
  5.2296424861461577E-02 a       682     0    28     1     7
 -2.9108911984650421E-01 a       683     0    28     1     8
  1.9816178746156435E-01 a       684     0    28     1     9
 -6.3033642320417171E-01 a       685     0    28     1    10
 -1.6722305605766732E-01 a       686     0    28     1    11
 -1.8059792762350399E-01 a       687     0    28     1    12
 -2.4573298319875761E-01 a       688     0    28     1    13
  8.7168659805144048E-03 a       689     0    28     1    14
  4.3872954006820020E-01 a       690     0    28     1    15
 -9.1343028176936958E-01 a       691     0    28     1    16
 -6.4505367639596051E-02 a       692     0    28     1    17
 -4.5018310675889600E-02 a       693     0    28     1    18
  4.2555795580260397E-01 a       694     0    28     1    19
  1.0857389417573120E+00 a       695     0    28     1    20
  7.8667579162310686E-01 a       696     0    28     1    21
  3.3357595185710615E-01 a       697     0    28     1    22
 -8.2253596561531617E-01 a       698     0    28     1    23
 -5.9504750844972576E-01 a       699     0    28     1    24
 -3.5028883587927501E-01 a       700     0    28     1    25
 -1.2257621320396167E-01 a       701     0    29     1     1
  1.8653956598521176E-02 a       702     0    29     1     2
  4.7034480785663801E-02 a       703     0    29     1     3
  1.4364385354612491E-01 a       704     0    29     1     4
 -1.1681920208441529E-01 a       705     0    29     1     5
  2.1135983254239110E-01 a       706     0    29     1     6
 -1.7172099932371448E-01 a       707     0    29     1     7
  1.3587293286236035E-01 a       708     0    29     1     8
  9.4789123558445487E-02 a       709     0    29     1     9
  7.8180650163579127E-02 a       710     0    29     1    10
  9.1655379128348494E-02 a       711     0    29     1    11
  6.8029260414273970E-02 a       712     0    29     1    12
 -6.1965858212032023E-02 a       713     0    29     1    13
  4.9927276763761033E-02 a       714     0    29     1    14
  3.2569916386716147E-01 a       715     0    29     1    15
  3.4355126465358134E-02 a       716     0    29     1    16
 -3.8883227601053827E-01 a       717     0    29     1    17
 -5.8886153093230018E-02 a       718     0    29     1    18
  2.1445132752974973E-02 a       719     0    29     1    19
  5.8814503272357921E-01 a       720     0    29     1    20
  8.8590984786978827E-02 a       721     0    29     1    21
  3.0521131924324740E-01 a       722     0    29     1    22
 -5.0677980249262417E-03 a       723     0    29     1    23
  8.0138162568454241E-02 a       724     0    29     1    24
  2.7576305361195083E-02 a       725     0    29     1    25
 -1.4392033004687863E-01 a       726     0    30     1     1
  1.1674714591283160E-01 a       727     0    30     1     2
 -3.1187036163219040E-01 a       728     0    30     1     3
  1.2658287083221556E-01 a       729     0    30     1     4
  2.0580388223520635E-01 a       730     0    30     1     5
  6.4475878869018344E-03 a       731     0    30     1     6
  1.0953151613386244E-01 a       732     0    30     1     7
 -2.3260579777194068E-01 a       733     0    30     1     8
 -1.0154815482853718E-01 a       734     0    30     1     9
 -1.1678079644594559E-01 a       735     0    30     1    10
  5.7301081050673740E-02 a       736     0    30     1    11
  1.0575888996291721E-01 a       737     0    30     1    12
 -1.9361564205938814E-01 a       738     0    30     1    13
 -2.0128271421947783E-01 a       739     0    30     1    14
  3.5182616834288577E-01 a       740     0    30     1    15
  2.8749058066348931E-02 a       741     0    30     1    16
  3.2130959742172754E-02 a       742     0    30     1    17
 -1.7930354642193329E-02 a       743     0    30     1    18
  2.9335382450305203E-01 a       744     0    30     1    19
  4.2533749189727976E-01 a       745     0    30     1    20
  2.7352189605339600E-01 a       746     0    30     1    21
  3.5075645132133937E-01 a       747     0    30     1    22
  3.4612580526139158E-01 a       748     0    30     1    23
 -2.2216552351360522E-01 a       749     0    30     1    24
 -1.5878956148641143E-01 a       750     0    30     1    25
 -1.5080357076593659E-01 a       751     0    31     1     1
  3.4590221207697253E-02 a       752     0    31     1     2
 -3.0213049311065959E-01 a       753     0    31     1     3
  9.7942217595115233E-01 a       754     0    31     1     4
  5.9418235559945798E-01 a       755     0    31     1     5
  4.3195233674260430E-01 a       756     0    31     1     6
 -4.9631080904234143E-01 a       757     0    31     1     7
 -1.0024192704832888E+00 a       758     0    31     1     8
 -2.6087727616991124E-01 a       759     0    31     1     9
  5.6414061851555164E-01 a       760     0    31     1    10
  1.6727196931704028E-01 a       761     0    31     1    11
  1.5282995834590113E-01 a       762     0    31     1    12
  2.8281670901809386E-01 a       763     0    31     1    13
 -6.3568451252241032E-02 a       764     0    31     1    14
 -5.8053710609200893E-01 a       765     0    31     1    15
 -2.6474814404256114E-01 a       766     0    31     1    16
  2.9112148186225112E-01 a       767     0    31     1    17
 -9.2435582913831318E-02 a       768     0    31     1    18
 -4.2692294915506218E-01 a       769     0    31     1    19
  1.0245011437759224E+00 a       770     0    31     1    20
 -1.3308852569482474E-01 a       771     0    31     1    21
 -1.9081298950154018E+00 a       772     0    31     1    22
 -1.4795760791384982E+00 a       773     0    31     1    23
 -7.0814301678928915E-01 a       774     0    31     1    24
  2.1180976624023720E-01 a       775     0    31     1    25
  2.3903488451203753E-01 a       776     0    32     1     1
 -9.0411220052127747E-02 a       777     0    32     1     2
 -1.9703670092450767E-01 a       778     0    32     1     3
  1.6702702543696543E-01 a       779     0    32     1     4
 -1.2195085482752766E-02 a       780     0    32     1     5
 -1.5472493147065625E-01 a       781     0    32     1     6
  1.8995171213371956E-01 a       782     0    32     1     7
  5.0314341310035260E-01 a       783     0    32     1     8
  1.2468722374745704E-01 a       784     0    32     1     9
 -2.6105765679837550E-01 a       785     0    32     1    10
  5.8337083480258574E-02 a       786     0    32     1    11
  3.7966844889698015E-01 a       787     0    32     1    12
  3.0186390992268997E-01 a       788     0    32     1    13
  4.0025619690333119E-04 a       789     0    32     1    14
  1.3160912181262402E-01 a       790     0    32     1    15
 -2.4518539689509289E-02 a       791     0    32     1    16
 -2.7771851894329896E-01 a       792     0    32     1    17
 -3.1999332670742031E-01 a       793     0    32     1    18
  6.1303551068254532E-02 a       794     0    32     1    19
 -3.3558919777621388E-01 a       795     0    32     1    20
 -2.7055378283537018E-01 a       796     0    32     1    21
  5.9100723377442532E-01 a       797     0    32     1    22
  3.7031533416490031E-01 a       798     0    32     1    23
 -1.0030345165058097E-01 a       799     0    32     1    24
 -4.4241914840598806E-01 a       800     0    32     1    25
  1.5086854682955225E-01 a       801     0    33     1     1
  2.1488585515466443E-03 a       802     0    33     1     2
  3.4250653873852635E-02 a       803     0    33     1     3
  5.9523122417009766E-01 a       804     0    33     1     4
 -1.3116025417445412E-01 a       805     0    33     1     5
 -2.8107199073121564E-01 a       806     0    33     1     6
  2.0488842473707553E-01 a       807     0    33     1     7
  5.1016264459281890E-01 a       808     0    33     1     8
  8.4852889896993213E-03 a       809     0    33     1     9
 -3.6286615787670112E-01 a       810     0    33     1    10
  1.8336926228947414E-01 a       811     0    33     1    11
  3.0882137109056679E-01 a       812     0    33     1    12
  1.6507504160042694E-01 a       813     0    33     1    13
  9.0678727321528513E-02 a       814     0    33     1    14
  1.9679640842412083E-02 a       815     0    33     1    15
 -1.2295397592454078E-01 a       816     0    33     1    16
 -3.2671358287827307E-01 a       817     0    33     1    17
 -4.0768741091309159E-02 a       818     0    33     1    18
  5.2242801032067201E-02 a       819     0    33     1    19
 -3.0472101109053273E-01 a       820     0    33     1    20
 -2.9851939662014371E-01 a       821     0    33     1    21
  4.8832140121257994E-01 a       822     0    33     1    22
  2.8243593077835633E-01 a       823     0    33     1    23
  1.3373169966011031E-01 a       824     0    33     1    24
 -2.8230957824783925E-01 a       825     0    33     1    25
  4.9558815216964418E-02 a       826     0    34     1     1
 -1.1625345405668584E-02 a       827     0    34     1     2
  2.2520387376626347E-01 a       828     0    34     1     3
 -3.1455131099620059E-01 a       829     0    34     1     4
  1.6730642071532337E-01 a       830     0    34     1     5
 -6.9325602626531917E-03 a       831     0    34     1     6
 -1.6106977839006303E-01 a       832     0    34     1     7
  1.2864520291848650E-01 a       833     0    34     1     8
  2.4047492776290012E-02 a       834     0    34     1     9
 -6.2273852551227715E-01 a       835     0    34     1    10
  2.0335327690539992E-01 a       836     0    34     1    11
 -9.1564124955917370E-02 a       837     0    34     1    12
  1.4685806237987070E-01 a       838     0    34     1    13
  1.9231455101680434E-01 a       839     0    34     1    14
  1.8723117689730895E-01 a       840     0    34     1    15
 -1.3470919288807526E-01 a       841     0    34     1    16
 -1.1213755109357972E-01 a       842     0    34     1    17
 -3.8811647672339169E-03 a       843     0    34     1    18
 -1.6607100221417240E-01 a       844     0    34     1    19
  6.7444415566942223E-02 a       845     0    34     1    20
 -1.1990826003655723E-01 a       846     0    34     1    21
  3.1833208048250805E-01 a       847     0    34     1    22
  2.6699603486914530E-01 a       848     0    34     1    23
 -4.5078942772072819E-02 a       849     0    34     1    24
 -6.9351343089801731E-02 a       850     0    34     1    25
  2.8148362272057315E-01 a       851     0    35     1     1
  2.5262599299401572E-01 a       852     0    35     1     2
  2.1898249608116202E-01 a       853     0    35     1     3
 -5.4635739892930010E-02 a       854     0    35     1     4
  9.3110111369713394E-02 a       855     0    35     1     5
 -3.6354878748112407E-01 a       856     0    35     1     6
  1.0201902674627622E-01 a       857     0    35     1     7
  1.4073740665434917E-01 a       858     0    35     1     8
  4.6664301794685760E-02 a       859     0    35     1     9
 -5.1209581378183844E-01 a       860     0    35     1    10
  3.0998459986957938E-02 a       861     0    35     1    11
 -4.2050546763601104E-01 a       862     0    35     1    12
  9.8068244783679967E-02 a       863     0    35     1    13
 -7.7471532154796646E-04 a       864     0    35     1    14
  5.6758530734252639E-02 a       865     0    35     1    15
 -3.0542944909751768E-01 a       866     0    35     1    16
 -3.8028724297809097E-01 a       867     0    35     1    17
  1.5522009347130331E-01 a       868     0    35     1    18
 -1.2878764369336390E-01 a       869     0    35     1    19
 -2.2824674963539460E-01 a       870     0    35     1    20
  8.7830038710794825E-02 a       871     0    35     1    21
  5.4257308467183039E-02 a       872     0    35     1    22
  5.1229262978187429E-01 a       873     0    35     1    23
 -1.8995372373663588E-01 a       874     0    35     1    24
 -6.9443274751118070E-02 a       875     0    35     1    25
 -3.6041601500524661E-01 a       876     0    36     1     1
 -4.5838908978890980E-02 a       877     0    36     1     2
 -4.9261540898475745E-02 a       878     0    36     1     3
 -1.0664572530178149E-01 a       879     0    36     1     4
 -7.7283073725081430E-01 a       880     0    36     1     5
 -1.3504850032858468E-01 a       881     0    36     1     6
  1.8875742230188894E-01 a       882     0    36     1     7
 -5.2040715544736799E-02 a       883     0    36     1     8
  3.2514553508973559E-01 a       884     0    36     1     9
 -1.8110227595595310E-03 a       885     0    36     1    10
  6.6860861530110716E-01 a       886     0    36     1    11
 -1.7737084931228433E-03 a       887     0    36     1    12
 -5.3850457491602388E-01 a       888     0    36     1    13
  5.1149569131287398E-01 a       889     0    36     1    14
  1.1129633320926295E+00 a       890     0    36     1    15
  5.5301688201803992E-02 a       891     0    36     1    16
  1.1428721844172003E-01 a       892     0    36     1    17
 -4.4296273546022302E-01 a       893     0    36     1    18
  2.8747796488952571E-01 a       894     0    36     1    19
  2.4733194334128827E-01 a       895     0    36     1    20
 -1.1298475727080180E-02 a       896     0    36     1    21
  5.3525378913698884E-01 a       897     0    36     1    22
 -1.5834676114180721E-01 a       898     0    36     1    23
 -7.0641798422964275E-01 a       899     0    36     1    24
 -4.5945593791652362E-01 a       900     0    36     1    25
 -4.6246812282227384E-01 a       901     0    37     1     1
 -4.4557514652759767E-01 a       902     0    37     1     2
  2.1249375350213748E-01 a       903     0    37     1     3
 -5.4624724045635664E-01 a       904     0    37     1     4
  2.6829455336218455E-01 a       905     0    37     1     5
 -4.1770343892099282E-01 a       906     0    37     1     6
 -5.3372403038907013E-01 a       907     0    37     1     7
 -4.3880415544599510E-01 a       908     0    37     1     8
 -3.3866505846042516E-01 a       909     0    37     1     9
 -8.0624570650549721E-01 a       910     0    37     1    10
 -3.0066602874526299E-01 a       911     0    37     1    11
 -1.9057808929094122E-01 a       912     0    37     1    12
  3.4834397640873965E-01 a       913     0    37     1    13
  3.4188343524012649E-02 a       914     0    37     1    14
  4.7746807053883839E-03 a       915     0    37     1    15
 -2.4301460003833802E-01 a       916     0    37     1    16
  5.7421668810473392E-02 a       917     0    37     1    17
 -4.1711057589623135E-01 a       918     0    37     1    18
 -8.0523714832275842E-02 a       919     0    37     1    19
 -3.1708337112586149E-01 a       920     0    37     1    20
 -2.5660373835333761E-02 a       921     0    37     1    21
 -3.3020404597308700E-01 a       922     0    37     1    22
  9.7593458369357525E-03 a       923     0    37     1    23
  1.0000023380837916E-01 a       924     0    37     1    24
  3.2643696595657007E-01 a       925     0    37     1    25
 -1.4187180494405413E-01 a       926     0    38     1     1
 -4.8352978569997085E-01 a       927     0    38     1     2
  5.5556875578213760E-01 a       928     0    38     1     3
 -3.7562972759325308E-01 a       929     0    38     1     4
  5.6665038975882009E-01 a       930     0    38     1     5
 -3.1087989569521707E-01 a       931     0    38     1     6
 -5.9871865609179653E-01 a       932     0    38     1     7
 -4.5880938615368905E-01 a       933     0    38     1     8
 -2.0551891691743118E-01 a       934     0    38     1     9
 -1.1147455614372037E+00 a       935     0    38     1    10
 -1.3814048506047114E-01 a       936     0    38     1    11
  2.0731318331130133E-01 a       937     0    38     1    12
  4.4018976354415545E-01 a       938     0    38     1    13
  1.5402270284732514E-01 a       939     0    38     1    14
  1.4226080476185565E-01 a       940     0    38     1    15
 -3.1728358182803845E-01 a       941     0    38     1    16
  5.9005275161094647E-02 a       942     0    38     1    17
 -4.4711033742503070E-01 a       943     0    38     1    18
 -1.6983462466639937E-01 a       944     0    38     1    19
 -5.1888449893952893E-01 a       945     0    38     1    20
  2.8181532710275592E-01 a       946     0    38     1    21
 -5.4320373037497938E-01 a       947     0    38     1    22
  4.0173179578561680E-01 a       948     0    38     1    23
 -4.7026348460401345E-02 a       949     0    38     1    24
  2.5668803858161116E-01 a       950     0    38     1    25
  1.2904622265651519E-01 a       951     0    39     1     1
 -3.5382195216393582E-02 a       952     0    39     1     2
 -7.7037987214131479E-02 a       953     0    39     1     3
 -1.0866413608287008E-02 a       954     0    39     1     4
  1.9656352507848115E-01 a       955     0    39     1     5
 -3.3201028358492646E-02 a       956     0    39     1     6
 -6.8354913713670057E-02 a       957     0    39     1     7
 -2.6474867417002790E-01 a       958     0    39     1     8
  1.0669534572827082E-01 a       959     0    39     1     9
  3.1904073847000586E-01 a       960     0    39     1    10
  2.9916196814436480E-01 a       961     0    39     1    11
  1.7326501423048635E-01 a       962     0    39     1    12
 -1.2022987484535654E-01 a       963     0    39     1    13
  3.5985480935263700E-02 a       964     0    39     1    14
 -1.3875697851818292E-02 a       965     0    39     1    15
  2.1043149259357241E-01 a       966     0    39     1    16
  3.0077952993359525E-01 a       967     0    39     1    17
 -4.5455392331967916E-02 a       968     0    39     1    18
 -1.4936521686149346E-01 a       969     0    39     1    19
 -8.9618839914704193E-02 a       970     0    39     1    20
  1.6343066490528857E-01 a       971     0    39     1    21
  1.7648244947057090E-01 a       972     0    39     1    22
  8.4062637667446358E-02 a       973     0    39     1    23
  9.7900484329768070E-02 a       974     0    39     1    24
 -7.6251161153335703E-02 a       975     0    39     1    25
  1.1304250856440164E-01 a       976     0    40     1     1
  5.5177937393356490E-02 a       977     0    40     1     2
 -2.8249558369032687E-02 a       978     0    40     1     3
 -1.5588349170393048E-01 a       979     0    40     1     4
 -1.0403025791676089E-01 a       980     0    40     1     5
  7.9845127488164108E-02 a       981     0    40     1     6
 -2.2707096716694250E-01 a       982     0    40     1     7
  1.2754920859628011E-01 a       983     0    40     1     8
  6.9854026256482085E-02 a       984     0    40     1     9
  1.2900465408336381E-01 a       985     0    40     1    10
  5.1169664456818649E-02 a       986     0    40     1    11
  1.4088677166596711E-02 a       987     0    40     1    12
 -1.0186610895275634E-01 a       988     0    40     1    13
 -2.6578105570018784E-01 a       989     0    40     1    14
  3.4154522980693303E-01 a       990     0    40     1    15
  2.7897858597318537E-01 a       991     0    40     1    16
  3.2116659372452527E-01 a       992     0    40     1    17
  2.5712334622034311E-01 a       993     0    40     1    18
  7.3131165964739994E-02 a       994     0    40     1    19
 -2.2677079013337148E-01 a       995     0    40     1    20
 -1.0256609624966137E-01 a       996     0    40     1    21
 -2.1431225491909678E-01 a       997     0    40     1    22
  6.7687217032450023E-02 a       998     0    40     1    23
 -4.9731994104663807E-02 a       999     0    40     1    24
  2.2600160839891539E-01 a      1000     0    40     1    25
 -2.0238831230189561E-01 a      1001     0    41     1     1
  2.3668413733841293E-02 a      1002     0    41     1     2
 -4.8953262066633918E-02 a      1003     0    41     1     3
  1.1960157872761408E-01 a      1004     0    41     1     4
  5.6594046040273731E-02 a      1005     0    41     1     5
 -1.5851044107723616E-03 a      1006     0    41     1     6
 -2.0389821463752383E-01 a      1007     0    41     1     7
 -2.8753524123295824E-02 a      1008     0    41     1     8
  1.7692725144073537E-01 a      1009     0    41     1     9
  1.3949684260615672E-01 a      1010     0    41     1    10
  2.5219093332006021E-01 a      1011     0    41     1    11
 -1.3745059909424606E-01 a      1012     0    41     1    12
 -6.1150229948033256E-02 a      1013     0    41     1    13
  5.8200676525817577E-02 a      1014     0    41     1    14
  2.4453721328155134E-01 a      1015     0    41     1    15
  8.8489939797077324E-02 a      1016     0    41     1    16
 -4.7645934596022438E-01 a      1017     0    41     1    17
  1.8210559243822538E-01 a      1018     0    41     1    18
  4.4610872381064391E-02 a      1019     0    41     1    19
  6.0720940602544626E-02 a      1020     0    41     1    20
 -8.1203238915986367E-02 a      1021     0    41     1    21
  3.0429277420904283E-01 a      1022     0    41     1    22
 -9.2935783380367981E-02 a      1023     0    41     1    23
  8.0817878117951950E-02 a      1024     0    41     1    24
  2.2662364010725944E-01 a      1025     0    41     1    25
 -4.9279342966802869E-01 a      1026     0    42     1     1
 -1.6202049417139458E-02 a      1027     0    42     1     2
 -1.7737414191814710E-01 a      1028     0    42     1     3
  4.0308301778284278E-01 a      1029     0    42     1     4
 -1.7999451911469525E-01 a      1030     0    42     1     5
 -1.3582233956541317E-01 a      1031     0    42     1     6
  3.1201357605339281E-02 a      1032     0    42     1     7
 -5.6272913091897171E-02 a      1033     0    42     1     8
  6.8360337263214249E-02 a      1034     0    42     1     9
 -1.3452811489594213E-01 a      1035     0    42     1    10
  1.7709835509067612E-01 a      1036     0    42     1    11
 -2.7002555171050119E-01 a      1037     0    42     1    12
  2.1079040579119784E-01 a      1038     0    42     1    13
 -1.3050360803500963E-01 a      1039     0    42     1    14
  6.6970880923389986E-02 a      1040     0    42     1    15
 -2.2794991717900785E-02 a      1041     0    42     1    16
 -1.1386616243857545E-01 a      1042     0    42     1    17
 -1.3328194922061809E-01 a      1043     0    42     1    18
  2.9752339762366653E-01 a      1044     0    42     1    19
  2.1229308168007968E-01 a      1045     0    42     1    20
  2.9149668120204551E-02 a      1046     0    42     1    21
  9.5548284970856601E-02 a      1047     0    42     1    22
  1.6357214290288183E-01 a      1048     0    42     1    23
 -1.6655706981315332E-01 a      1049     0    42     1    24
  2.9814825023378838E-01 a      1050     0    42     1    25
 -6.3895409277005843E-01 a      1051     0    43     1     1
 -5.6029854560949000E-01 a      1052     0    43     1     2
 -8.8549605645353113E-01 a      1053     0    43     1     3
  6.4544409209463260E-01 a      1054     0    43     1     4
  9.6244394442666814E-01 a      1055     0    43     1     5
 -3.7267307223046692E-02 a      1056     0    43     1     6
 -4.3883162441281026E-01 a      1057     0    43     1     7
 -1.2011811677034978E+00 a      1058     0    43     1     8
 -1.4600048981701697E-01 a      1059     0    43     1     9
  2.3745570970436802E-01 a      1060     0    43     1    10
  8.2333290662607916E-01 a      1061     0    43     1    11
 -2.5513039103661150E-01 a      1062     0    43     1    12
  2.5150724146007070E-01 a      1063     0    43     1    13
  3.7213495793256046E-01 a      1064     0    43     1    14
 -1.0219206862135266E+00 a      1065     0    43     1    15
 -5.7347787620440660E-01 a      1066     0    43     1    16
  5.0902425766983395E-01 a      1067     0    43     1    17
 -1.0555796881782853E-01 a      1068     0    43     1    18
 -6.5215562336298516E-01 a      1069     0    43     1    19
  1.3968822461571602E+00 a      1070     0    43     1    20
  2.0037911001866748E-02 a      1071     0    43     1    21
 -1.4420175485899784E+00 a      1072     0    43     1    22
 -2.6977436313168840E-01 a      1073     0    43     1    23
 -7.0352283624583112E-01 a      1074     0    43     1    24
 -3.9344672791269802E-01 a      1075     0    43     1    25
  3.6626266812138752E-01 a      1076     0    44     1     1
  8.6992623848377221E-02 a      1077     0    44     1     2
  3.0023622617139795E-01 a      1078     0    44     1     3
  1.7485004528366696E-01 a      1079     0    44     1     4
 -1.8711053775609987E-01 a      1080     0    44     1     5
 -2.3556655682231101E-01 a      1081     0    44     1     6
  2.2940801812820932E-01 a      1082     0    44     1     7
  6.1474176759388481E-02 a      1083     0    44     1     8
 -1.0138413225690149E-01 a      1084     0    44     1     9
 -1.0187366992496313E-01 a      1085     0    44     1    10
  4.2469303718644255E-02 a      1086     0    44     1    11
  4.9620763333208739E-01 a      1087     0    44     1    12
  2.5046409542579112E-01 a      1088     0    44     1    13
  2.0326969039953735E-01 a      1089     0    44     1    14
  8.4080770611334621E-02 a      1090     0    44     1    15
 -8.4360312401640200E-02 a      1091     0    44     1    16
 -4.7057180234534701E-01 a      1092     0    44     1    17
 -2.3888515062243509E-01 a      1093     0    44     1    18
  1.3622075885773058E-01 a      1094     0    44     1    19
 -5.0837368756749191E-01 a      1095     0    44     1    20
 -1.9576830050720540E-01 a      1096     0    44     1    21
  1.3585623916503753E-01 a      1097     0    44     1    22
  2.8359854745650059E-02 a      1098     0    44     1    23
  2.8936198556450332E-01 a      1099     0    44     1    24
 -1.8110124009422804E-01 a      1100     0    44     1    25
  3.9304904251231132E-01 a      1101     0    45     1     1
  2.4183419123595268E-01 a      1102     0    45     1     2
  4.3928659785997443E-01 a      1103     0    45     1     3
  2.2153897583963009E-01 a      1104     0    45     1     4
  1.3994109646830019E-01 a      1105     0    45     1     5
 -9.7690469498568272E-02 a      1106     0    45     1     6
 -4.5702391572892472E-02 a      1107     0    45     1     7
  2.2355795540261403E-01 a      1108     0    45     1     8
 -2.6480545950761814E-01 a      1109     0    45     1     9
 -1.2866455226359802E-01 a      1110     0    45     1    10
  1.1291793825976048E-02 a      1111     0    45     1    11
  4.4771665714788628E-01 a      1112     0    45     1    12
  3.9082183581145147E-01 a      1113     0    45     1    13
 -5.8313933847016337E-02 a      1114     0    45     1    14
  7.4097651114082286E-02 a      1115     0    45     1    15
 -1.6217290524995800E-01 a      1116     0    45     1    16
 -2.3671646673494062E-01 a      1117     0    45     1    17
 -3.5972626587811390E-01 a      1118     0    45     1    18
  3.2992641284247265E-01 a      1119     0    45     1    19
 -5.4826180922180701E-01 a      1120     0    45     1    20
 -2.4154057510397858E-01 a      1121     0    45     1    21
  4.4265279211380543E-01 a      1122     0    45     1    22
  2.6458056617690623E-01 a      1123     0    45     1    23
  1.5033130842507408E-01 a      1124     0    45     1    24
 -9.0406739912759267E-04 a      1125     0    45     1    25
  7.7909829109206907E-02 a      1126     0    46     1     1
  6.0001995728756002E-02 a      1127     0    46     1     2
  4.4797476168937966E-01 a      1128     0    46     1     3
 -2.0302802371935988E-01 a      1129     0    46     1     4
 -2.0634339098915952E-01 a      1130     0    46     1     5
 -1.2004656714009397E-01 a      1131     0    46     1     6
  3.9697704547814204E-02 a      1132     0    46     1     7
 -2.7218420561839946E-01 a      1133     0    46     1     8
 -2.7687513131735703E-01 a      1134     0    46     1     9
 -2.6518597527805066E-01 a      1135     0    46     1    10
 -3.7355099185797680E-01 a      1136     0    46     1    11
  5.0346182022984118E-03 a      1137     0    46     1    12
 -7.7265097789957729E-02 a      1138     0    46     1    13
 -5.7020636091547278E-03 a      1139     0    46     1    14
  3.2277827590042850E-02 a      1140     0    46     1    15
 -2.3889492217060798E-01 a      1141     0    46     1    16
 -3.9758597996201955E-01 a      1142     0    46     1    17
 -2.6771953536074511E-01 a      1143     0    46     1    18
 -2.5822651351022352E-01 a      1144     0    46     1    19
 -1.4191239296164901E-01 a      1145     0    46     1    20
 -3.3468753543881397E-01 a      1146     0    46     1    21
  2.6517859957916506E-01 a      1147     0    46     1    22
  4.7463663558725600E-01 a      1148     0    46     1    23
  7.6125095494099432E-02 a      1149     0    46     1    24
 -1.8638048810592397E-01 a      1150     0    46     1    25
  7.0968249500856867E-02 a      1151     0    47     1     1
  1.0289062626729982E-01 a      1152     0    47     1     2
  2.8754061629010569E-01 a      1153     0    47     1     3
 -3.5793237840165487E-01 a      1154     0    47     1     4
  8.0675965499978103E-02 a      1155     0    47     1     5
 -3.9959084330819634E-02 a      1156     0    47     1     6
 -2.4276406940217066E-01 a      1157     0    47     1     7
 -2.6647684074652112E-01 a      1158     0    47     1     8
 -2.8578284747318305E-01 a      1159     0    47     1     9
 -4.2022393141062481E-01 a      1160     0    47     1    10
 -2.4891911920536974E-01 a      1161     0    47     1    11
 -4.0514426652697128E-01 a      1162     0    47     1    12
 -2.3382431012257527E-02 a      1163     0    47     1    13
 -1.8131619046141720E-01 a      1164     0    47     1    14
  1.1164438325460945E-03 a      1165     0    47     1    15
  6.2105872809555498E-02 a      1166     0    47     1    16
 -3.6035592351038265E-01 a      1167     0    47     1    17
  1.3718136117064639E-01 a      1168     0    47     1    18
 -9.0844781397343269E-02 a      1169     0    47     1    19
  1.2998852886310988E-01 a      1170     0    47     1    20
 -3.4789533905485170E-01 a      1171     0    47     1    21
  2.9687416441120074E-01 a      1172     0    47     1    22
  3.7585394484255918E-01 a      1173     0    47     1    23
 -8.6139679409645328E-02 a      1174     0    47     1    24
 -9.6431991567966363E-02 a      1175     0    47     1    25
  3.9197311075148972E-01 a      1176     0    48     1     1
 -1.2208124061228741E-01 a      1177     0    48     1     2
 -4.4625990937985938E-01 a      1178     0    48     1     3
 -9.8373888691401692E-02 a      1179     0    48     1     4
  6.3788910134340948E-01 a      1180     0    48     1     5
 -1.4593588580455744E-01 a      1181     0    48     1     6
  7.2528511750066522E-04 a      1182     0    48     1     7
  2.9519044687633328E-01 a      1183     0    48     1     8
 -2.4933437452804766E-01 a      1184     0    48     1     9
  2.2084105700277043E-01 a      1185     0    48     1    10
 -9.2819942167434411E-01 a      1186     0    48     1    11
  3.9242685188959603E-01 a      1187     0    48     1    12
  7.2482282478121418E-01 a      1188     0    48     1    13
 -7.0816654712733040E-01 a      1189     0    48     1    14
 -6.9352531129783701E-01 a      1190     0    48     1    15
  2.8321926052997531E-01 a      1191     0    48     1    16
 -1.4061627644080180E-01 a      1192     0    48     1    17
  2.7705305235451988E-01 a      1193     0    48     1    18
 -3.3706248318749993E-01 a      1194     0    48     1    19
 -4.9665083276743044E-02 a      1195     0    48     1    20
 -4.0625247187063729E-02 a      1196     0    48     1    21
 -7.2275455811685096E-01 a      1197     0    48     1    22
  6.2818040913609341E-01 a      1198     0    48     1    23
  5.1446105125720243E-01 a      1199     0    48     1    24
  3.9298036421508786E-01 a      1200     0    48     1    25
  2.9579901622248567E-01 a      1201     0    49     1     1
  3.6629638638576534E-01 a      1202     0    49     1     2
  2.4598695721288380E-01 a      1203     0    49     1     3
  3.7967527025136716E-01 a      1204     0    49     1     4
 -6.5028076882275176E-01 a      1205     0    49     1     5
  3.5024343733399854E-01 a      1206     0    49     1     6
  3.2350535276274156E-01 a      1207     0    49     1     7
  5.3930846887055384E-01 a      1208     0    49     1     8
  8.1741679858772431E-01 a      1209     0    49     1     9
  2.8222282147734223E-01 a      1210     0    49     1    10
  3.8221101445614442E-01 a      1211     0    49     1    11
 -4.4375942861682321E-01 a      1212     0    49     1    12
 -7.3811461051803320E-02 a      1213     0    49     1    13
  9.7239498343122607E-02 a      1214     0    49     1    14
 -5.0694772916327968E-01 a      1215     0    49     1    15
  6.6505580891334015E-01 a      1216     0    49     1    16
 -4.4173173601348259E-02 a      1217     0    49     1    17
  3.8185178648961199E-01 a      1218     0    49     1    18
 -1.4682186990921459E-01 a      1219     0    49     1    19
  2.9775577124556790E-01 a      1220     0    49     1    20
 -2.5684234846936105E-01 a      1221     0    49     1    21
  4.5100154065663917E-01 a      1222     0    49     1    22
 -2.3081797768041676E-01 a      1223     0    49     1    23
  1.1480239825284271E-01 a      1224     0    49     1    24
 -6.1017862046599181E-01 a      1225     0    49     1    25
  3.2622243412155294E-01 a      1226     0    50     1     1
  2.6098933220674847E-01 a      1227     0    50     1     2
  3.5952266434128793E-01 a      1228     0    50     1     3
  6.1117879370654049E-01 a      1229     0    50     1     4
 -5.8671617160977585E-01 a      1230     0    50     1     5
 -8.4364307297372723E-02 a      1231     0    50     1     6
  4.2079606196330011E-01 a      1232     0    50     1     7
  4.6777504414787985E-01 a      1233     0    50     1     8
  5.7002855816849007E-01 a      1234     0    50     1     9
  3.7208445890579767E-01 a      1235     0    50     1    10
  2.6538809004165687E-01 a      1236     0    50     1    11
 -3.9157123120483084E-01 a      1237     0    50     1    12
 -1.1818936193391871E-01 a      1238     0    50     1    13
  2.3224487055973059E-01 a      1239     0    50     1    14
 -1.1330277883278141E-01 a      1240     0    50     1    15
  7.8970711656273074E-01 a      1241     0    50     1    16
 -1.4088233027100680E-01 a      1242     0    50     1    17
  5.8184495558346025E-02 a      1243     0    50     1    18
 -4.2834209260300210E-01 a      1244     0    50     1    19
  1.3169709426077636E-01 a      1245     0    50     1    20
  4.4218315995874606E-02 a      1246     0    50     1    21
  1.8361882045325109E-01 a      1247     0    50     1    22
 -2.2014046123017361E-01 a      1248     0    50     1    23
  4.2109527083049636E-01 a      1249     0    50     1    24
 -2.2238274217160475E-01 a      1250     0    50     1    25
  1.5459042232367359E-01 a      1251     0    51     1     1
  2.1307493458231394E-02 a      1252     0    51     1     2
 -3.1357831088967736E-01 a      1253     0    51     1     3
 -2.0461051278490062E-02 a      1254     0    51     1     4
  4.4651002165376028E-02 a      1255     0    51     1     5
 -2.7937468947569466E-01 a      1256     0    51     1     6
 -2.5051597917805335E-01 a      1257     0    51     1     7
  3.1270442372516549E-01 a      1258     0    51     1     8
 -3.2668617981549836E-01 a      1259     0    51     1     9
  1.9482498087047329E-01 a      1260     0    51     1    10
  8.4395388064794255E-02 a      1261     0    51     1    11
  1.4262344070840829E-01 a      1262     0    51     1    12
  4.2753286832820542E-01 a      1263     0    51     1    13
 -1.4163879234599247E-01 a      1264     0    51     1    14
 -7.0424552474880650E-02 a      1265     0    51     1    15
  6.5901572054864732E-01 a      1266     0    51     1    16
 -6.7238150612284900E-02 a      1267     0    51     1    17
 -1.8738755118425038E-01 a      1268     0    51     1    18
 -1.1897547838158730E-01 a      1269     0    51     1    19
 -7.2868855815135281E-01 a      1270     0    51     1    20
 -2.0326146635561920E-01 a      1271     0    51     1    21
 -4.8949673876803951E-01 a      1272     0    51     1    22
  6.4587820324914191E-01 a      1273     0    51     1    23
  4.5601740357534076E-01 a      1274     0    51     1    24
  1.5160428161713307E-01 a      1275     0    51     1    25
  4.1545498223248642E-02 a      1276     0    52     1     1
  1.6475542611998070E-01 a      1277     0    52     1     2
 -2.3053397301765072E-01 a      1278     0    52     1     3
 -5.9377991070184787E-02 a      1279     0    52     1     4
  3.1002800625652704E-01 a      1280     0    52     1     5
 -1.4762381847752987E-01 a      1281     0    52     1     6
  7.1135763860341150E-02 a      1282     0    52     1     7
 -9.8096940378901404E-02 a      1283     0    52     1     8
 -2.5227613577413294E-01 a      1284     0    52     1     9
  6.3715656357749961E-01 a      1285     0    52     1    10
  6.7610305809861021E-02 a      1286     0    52     1    11
  2.6441924694972857E-01 a      1287     0    52     1    12
  3.5781572019870389E-01 a      1288     0    52     1    13
  2.9373950119799574E-01 a      1289     0    52     1    14
  4.0553882555124342E-02 a      1290     0    52     1    15
  7.2662221557460394E-01 a      1291     0    52     1    16
  1.4945170099629487E-01 a      1292     0    52     1    17
 -2.2726519013582841E-01 a      1293     0    52     1    18
 -2.7774563929361773E-01 a      1294     0    52     1    19
 -7.3007809784072741E-01 a      1295     0    52     1    20
 -3.3405746211593529E-01 a      1296     0    52     1    21
 -2.5773496349501951E-01 a      1297     0    52     1    22
  7.3531173502859437E-01 a      1298     0    52     1    23
  5.3548354791965236E-01 a      1299     0    52     1    24
  3.9181638627167545E-02 a      1300     0    52     1    25
  1.2907134313298863E-01 a      1301     0    53     1     1
 -9.7087355184043114E-02 a      1302     0    53     1     2
 -1.3185636887997965E-01 a      1303     0    53     1     3
 -3.4964432351741265E-02 a      1304     0    53     1     4
  1.4368187352667580E-01 a      1305     0    53     1     5
 -1.2985745449380182E-01 a      1306     0    53     1     6
  1.9674056139761106E-01 a      1307     0    53     1     7
 -2.3246267631975234E-01 a      1308     0    53     1     8
  4.1064868310942609E-02 a      1309     0    53     1     9
  2.0718362335513466E-01 a      1310     0    53     1    10
  2.0978234230663073E-01 a      1311     0    53     1    11
  2.8686619031190680E-01 a      1312     0    53     1    12
  2.3460941953589629E-01 a      1313     0    53     1    13
 -1.2028731867760291E-01 a      1314     0    53     1    14
 -3.2163839675480299E-01 a      1315     0    53     1    15
  7.8555962365064458E-02 a      1316     0    53     1    16
  3.6630999624566452E-02 a      1317     0    53     1    17
  1.4304159404832051E-01 a      1318     0    53     1    18
 -5.3710547815847248E-02 a      1319     0    53     1    19
 -3.5323873256590688E-01 a      1320     0    53     1    20
 -1.0847827344473070E-01 a      1321     0    53     1    21
  4.2384027163093804E-03 a      1322     0    53     1    22
  8.6776774514882443E-02 a      1323     0    53     1    23
  1.4766198323148727E-01 a      1324     0    53     1    24
 -3.2342815209651363E-02 a      1325     0    53     1    25
  2.0567091985803129E-01 a      1326     0    54     1     1
 -1.2195373149885189E-01 a      1327     0    54     1     2
 -7.7510278270556537E-02 a      1328     0    54     1     3
 -5.0228249057051103E-02 a      1329     0    54     1     4
  8.5641097027213620E-02 a      1330     0    54     1     5
 -1.2480767707177619E-04 a      1331     0    54     1     6
 -2.5225321348190072E-01 a      1332     0    54     1     7
 -1.1406794738953682E-01 a      1333     0    54     1     8
 -4.1203427675031029E-01 a      1334     0    54     1     9
  1.9501525992783103E-01 a      1335     0    54     1    10
 -9.9660394804826830E-02 a      1336     0    54     1    11
 -3.2671506804102544E-02 a      1337     0    54     1    12
  3.5690404781619611E-02 a      1338     0    54     1    13
  7.0382681149788726E-02 a      1339     0    54     1    14
  7.8433715596045769E-02 a      1340     0    54     1    15
  2.9646896707500570E-01 a      1341     0    54     1    16
  3.4359544395766245E-02 a      1342     0    54     1    17
 -8.1795127270646320E-02 a      1343     0    54     1    18
  1.2742379013337371E-01 a      1344     0    54     1    19
 -3.2906927801145436E-01 a      1345     0    54     1    20
 -2.6372789916464585E-02 a      1346     0    54     1    21
 -3.5423532803964086E-01 a      1347     0    54     1    22
 -6.1692367751739627E-02 a      1348     0    54     1    23
  5.2224604381022763E-02 a      1349     0    54     1    24
 -2.8426641427852795E-01 a      1350     0    54     1    25
  1.5035120475409125E-01 a      1351     0    55     1     1
  1.4794753090567112E+00 a      1352     0    55     1     2
  3.9084371261553874E-01 a      1353     0    55     1     3
 -7.8382064364315468E-02 a      1354     0    55     1     4
 -1.8417103076408878E-01 a      1355     0    55     1     5
  1.4835329921188178E-01 a      1356     0    55     1     6
 -2.9624593994637211E-01 a      1357     0    55     1     7
  8.5598862108656293E-01 a      1358     0    55     1     8
 -5.5007234163762242E-01 a      1359     0    55     1     9
 -4.6017696809371282E-03 a      1360     0    55     1    10
 -9.3082494397871662E-01 a      1361     0    55     1    11
  2.8124816523590973E-01 a      1362     0    55     1    12
 -1.6021003539424428E-01 a      1363     0    55     1    13
 -2.6201015014366547E-02 a      1364     0    55     1    14
  4.8048792878376889E-01 a      1365     0    55     1    15
  3.6998359043853563E-01 a      1366     0    55     1    16
 -1.0319504066909104E+00 a      1367     0    55     1    17
  8.3332452880596775E-01 a      1368     0    55     1    18
  7.5082265605076193E-01 a      1369     0    55     1    19
 -1.0494731006320555E+00 a      1370     0    55     1    20
 -9.0349399202728289E-02 a      1371     0    55     1    21
  1.0423782448112084E+00 a      1372     0    55     1    22
  9.2635796316336305E-01 a      1373     0    55     1    23
  5.8907672504469921E-01 a      1374     0    55     1    24
 -2.2941344175329226E-02 a      1375     0    55     1    25
 -3.1707848389872068E-01 a      1376     0    56     1     1
 -3.2457105229568883E-01 a      1377     0    56     1     2
 -2.2829520565413697E-01 a      1378     0    56     1     3
 -2.6124615696696617E-02 a      1379     0    56     1     4
 -1.1074800436202023E-01 a      1380     0    56     1     5
  7.9659947155902966E-02 a      1381     0    56     1     6
  1.3199855329630511E-01 a      1382     0    56     1     7
 -2.6884332323517279E-01 a      1383     0    56     1     8
  1.9781215214552980E-01 a      1384     0    56     1     9
  3.4865016979975905E-01 a      1385     0    56     1    10
  6.3720521016787032E-02 a      1386     0    56     1    11
 -6.3559116359445555E-02 a      1387     0    56     1    12
 -9.1593746286427774E-02 a      1388     0    56     1    13
  1.8421629943445361E-01 a      1389     0    56     1    14
 -1.5135355007867402E-01 a      1390     0    56     1    15
 -2.2222965226542012E-02 a      1391     0    56     1    16
  2.4538502636752224E-01 a      1392     0    56     1    17
  7.2305774909315126E-02 a      1393     0    56     1    18
 -9.0626984037081804E-02 a      1394     0    56     1    19
  2.3954211891115895E-01 a      1395     0    56     1    20
  3.4050035435103149E-01 a      1396     0    56     1    21
 -3.7833689897543718E-03 a      1397     0    56     1    22
 -3.9706335992901864E-01 a      1398     0    56     1    23
 -3.2478439867101486E-02 a      1399     0    56     1    24
  2.8864314342495190E-01 a      1400     0    56     1    25
  8.5320866994108527E-02 a      1401     0    57     1     1
 -2.1023747992463834E-01 a      1402     0    57     1     2
 -2.2616936325223874E-01 a      1403     0    57     1     3
  4.6186962696940323E-02 a      1404     0    57     1     4
  1.1279260845358020E-01 a      1405     0    57     1     5
 -2.6868291604977147E-02 a      1406     0    57     1     6
  1.4805800991944043E-01 a      1407     0    57     1     7
 -1.5156349718060783E-01 a      1408     0    57     1     8
  1.4657788536341934E-01 a      1409     0    57     1     9
  4.0535587511367557E-02 a      1410     0    57     1    10
  1.1792070010798177E-01 a      1411     0    57     1    11
 -1.5628207193364171E-01 a      1412     0    57     1    12
 -2.1272968667929111E-02 a      1413     0    57     1    13
 -1.0753223170726291E-01 a      1414     0    57     1    14
 -1.4081118573764032E-01 a      1415     0    57     1    15
 -1.7073935407145496E-01 a      1416     0    57     1    16
  4.1559345833118971E-01 a      1417     0    57     1    17
 -1.1028118081981253E-01 a      1418     0    57     1    18
 -3.0994794892925714E-01 a      1419     0    57     1    19
  4.1652678431266504E-01 a      1420     0    57     1    20
  3.2353881967363018E-01 a      1421     0    57     1    21
 -1.5822766920546620E-02 a      1422     0    57     1    22
 -3.6952430669123637E-01 a      1423     0    57     1    23
 -2.6461488489977744E-02 a      1424     0    57     1    24
  6.7118992497323449E-02 a      1425     0    57     1    25
  8.2473354997795359E-02 a      1426     0    58     1     1
  1.0723714726893815E-01 a      1427     0    58     1     2
 -1.7060274624832011E-01 a      1428     0    58     1     3
  1.8421083698040375E-01 a      1429     0    58     1     4
  3.9737879905277849E-02 a      1430     0    58     1     5
  1.1757128045728464E-01 a      1431     0    58     1     6
  1.8537677214541234E-01 a      1432     0    58     1     7
  5.4479217328397667E-02 a      1433     0    58     1     8
  9.0543976586289571E-02 a      1434     0    58     1     9
  1.4631217410094433E-01 a      1435     0    58     1    10
  1.2587748276490332E-01 a      1436     0    58     1    11
  3.2234144626000444E-01 a      1437     0    58     1    12
  1.2848316797202208E-01 a      1438     0    58     1    13
 -2.7085593000729546E-02 a      1439     0    58     1    14
 -4.4943459535457309E-01 a      1440     0    58     1    15
  2.5138114083373887E-02 a      1441     0    58     1    16
  3.3337311303832828E-01 a      1442     0    58     1    17
  4.0193860285173677E-01 a      1443     0    58     1    18
  1.1764687299635455E-01 a      1444     0    58     1    19
  1.6348063438452098E-01 a      1445     0    58     1    20
  7.6502488824522624E-02 a      1446     0    58     1    21
 -3.9143080829620119E-01 a      1447     0    58     1    22
 -2.8062650835135605E-01 a      1448     0    58     1    23
 -2.4584172342880270E-01 a      1449     0    58     1    24
  2.4944151948404678E-01 a      1450     0    58     1    25
  1.7471150036308380E-01 a      1451     0    59     1     1
 -1.3965165164726259E-01 a      1452     0    59     1     2
 -3.3355911670195459E-01 a      1453     0    59     1     3
  7.0311399985549292E-02 a      1454     0    59     1     4
  5.7892484887180483E-02 a      1455     0    59     1     5
  3.7640287932052197E-01 a      1456     0    59     1     6
  1.1989921236381784E-01 a      1457     0    59     1     7
  3.1337393213843001E-01 a      1458     0    59     1     8
  1.5684914728861837E-01 a      1459     0    59     1     9
  2.2118179835433610E-01 a      1460     0    59     1    10
  2.7973557475323174E-01 a      1461     0    59     1    11
  1.7045299564347394E-01 a      1462     0    59     1    12
  1.8104426212334068E-01 a      1463     0    59     1    13
 -5.8867445382585724E-02 a      1464     0    59     1    14
 -3.4714830622479415E-01 a      1465     0    59     1    15
 -3.8786690051074366E-02 a      1466     0    59     1    16
  2.9821754863610456E-01 a      1467     0    59     1    17
 -4.7336784428269593E-02 a      1468     0    59     1    18
 -2.6473970551185534E-02 a      1469     0    59     1    19
  1.6079954853804393E-01 a      1470     0    59     1    20
  2.9030745957688908E-01 a      1471     0    59     1    21
 -3.9378417648033914E-01 a      1472     0    59     1    22
 -3.4313321426628318E-01 a      1473     0    59     1    23
  6.5259147382757191E-02 a      1474     0    59     1    24
  1.3730992891517371E-01 a      1475     0    59     1    25
  1.1807679184346397E-01 a      1476     0    60     1     1
 -2.0652386179552767E-01 a      1477     0    60     1     2
 -5.1855042629422210E-01 a      1478     0    60     1     3
 -1.4595682211469297E-02 a      1479     0    60     1     4
  4.7334833166185336E-01 a      1480     0    60     1     5
  1.8879567058430288E-01 a      1481     0    60     1     6
 -3.3090214195313289E-01 a      1482     0    60     1     7
 -4.2919407671198853E-02 a      1483     0    60     1     8
 -3.3156150683999480E-01 a      1484     0    60     1     9
  2.8548275915494725E-01 a      1485     0    60     1    10
 -8.6363917108300936E-01 a      1486     0    60     1    11
  2.1854056781956327E-01 a      1487     0    60     1    12
  2.0130788100726727E-03 a      1488     0    60     1    13
 -5.2805498429782838E-01 a      1489     0    60     1    14
 -5.6947987995098137E-01 a      1490     0    60     1    15
  4.8937617339723949E-01 a      1491     0    60     1    16
  3.4292478431605655E-01 a      1492     0    60     1    17
  5.4095265507734125E-01 a      1493     0    60     1    18
 -5.5087598404573446E-01 a      1494     0    60     1    19
 -2.1916848269679254E-01 a      1495     0    60     1    20
  3.4966730850436906E-01 a      1496     0    60     1    21
 -5.0599809833231402E-01 a      1497     0    60     1    22
  2.7943114582264572E-01 a      1498     0    60     1    23
  3.9061592667959311E-01 a      1499     0    60     1    24
  5.6123461400283448E-01 a      1500     0    60     1    25
  1.0173108387459304E-01 a      1501     0    61     1     1
 -4.2546742449003377E-01 a      1502     0    61     1     2
  5.1804490772753198E-01 a      1503     0    61     1     3
 -1.2322460376954322E-01 a      1504     0    61     1     4
 -2.7360657565973767E-01 a      1505     0    61     1     5
  1.6662333972844276E-01 a      1506     0    61     1     6
  7.1936389731352957E-01 a      1507     0    61     1     7
  6.7926054361807386E-01 a      1508     0    61     1     8
  7.5416882347272285E-02 a      1509     0    61     1     9
  3.2633607549739291E-01 a      1510     0    61     1    10
  1.2554835706209100E-01 a      1511     0    61     1    11
 -8.1892704106396430E-01 a      1512     0    61     1    12
 -6.2347315507748247E-02 a      1513     0    61     1    13
 -2.4941976991413778E-01 a      1514     0    61     1    14
 -5.5772228698844784E-01 a      1515     0    61     1    15
 -8.2538165694299093E-01 a      1516     0    61     1    16
 -4.5035688184022959E-01 a      1517     0    61     1    17
 -4.6040984289809156E-01 a      1518     0    61     1    18
  9.5826861284026177E-02 a      1519     0    61     1    19
  5.0621063122512029E-02 a      1520     0    61     1    20
  1.6275134730019883E-01 a      1521     0    61     1    21
 -1.6547591210948032E-01 a      1522     0    61     1    22
 -1.1872319160858753E+00 a      1523     0    61     1    23
  2.2005609611867141E-01 a      1524     0    61     1    24
 -6.2284242277895163E-01 a      1525     0    61     1    25
  3.5912154755787595E-01 a      1526     0    62     1     1
 -3.2524150816502645E-01 a      1527     0    62     1     2
  1.1348421123426312E-01 a      1528     0    62     1     3
 -9.4055294144352444E-02 a      1529     0    62     1     4
 -5.3604208063260772E-01 a      1530     0    62     1     5
 -2.1100437670867377E-03 a      1531     0    62     1     6
  8.1861117938526284E-01 a      1532     0    62     1     7
  3.8382190283381024E-01 a      1533     0    62     1     8
  2.1956697059218633E-01 a      1534     0    62     1     9
  4.6441944243975485E-02 a      1535     0    62     1    10
  2.3229186618771772E-01 a      1536     0    62     1    11
 -6.9000558029063574E-01 a      1537     0    62     1    12
  1.4263720780714140E-01 a      1538     0    62     1    13
 -4.1940264816766804E-01 a      1539     0    62     1    14
 -5.7223352612132172E-01 a      1540     0    62     1    15
 -8.8147179801260478E-01 a      1541     0    62     1    16
 -2.3215126613371539E-01 a      1542     0    62     1    17
 -6.2707200253284401E-01 a      1543     0    62     1    18
 -5.6501919948154587E-02 a      1544     0    62     1    19
  1.5476281508810708E-01 a      1545     0    62     1    20
  4.8722066168177834E-02 a      1546     0    62     1    21
 -1.2686510357278491E-01 a      1547     0    62     1    22
 -1.0376098201948543E+00 a      1548     0    62     1    23
  3.2026344506845289E-01 a      1549     0    62     1    24
 -8.9746489826698317E-01 a      1550     0    62     1    25
  2.4178907018419593E-01 a      1551     0    63     1     1
  1.0483291470855266E-01 a      1552     0    63     1     2
 -6.5902845335116103E-02 a      1553     0    63     1     3
  1.5998041655208331E-01 a      1554     0    63     1     4
 -7.7362376161368540E-02 a      1555     0    63     1     5
  4.1538521636557725E-03 a      1556     0    63     1     6
 -1.8716660000161867E-01 a      1557     0    63     1     7
  2.1378758418217743E-02 a      1558     0    63     1     8
 -6.2944911670971340E-02 a      1559     0    63     1     9
  2.0742365893148929E-01 a      1560     0    63     1    10
  3.4174857854462581E-01 a      1561     0    63     1    11
  2.5435910842396037E-01 a      1562     0    63     1    12
  3.3456112345595063E-01 a      1563     0    63     1    13
  2.2280707727704840E-01 a      1564     0    63     1    14
 -3.7339412232645620E-02 a      1565     0    63     1    15
 -2.4864845275671375E-02 a      1566     0    63     1    16
  5.3920019233606113E-02 a      1567     0    63     1    17
 -7.7381703883074799E-03 a      1568     0    63     1    18
 -3.1235880300806367E-02 a      1569     0    63     1    19
 -5.4023179902007179E-01 a      1570     0    63     1    20
 -2.4504131058801254E-01 a      1571     0    63     1    21
 -2.1299701128783752E-01 a      1572     0    63     1    22
 -2.0520618809241992E-01 a      1573     0    63     1    23
 -5.5440288015497434E-02 a      1574     0    63     1    24
 -1.1425863837119868E-01 a      1575     0    63     1    25
  3.0411428788943456E-01 a      1576     0    64     1     1
 -1.6273084202325830E-01 a      1577     0    64     1     2
 -1.7215183553915353E-01 a      1578     0    64     1     3
 -1.0310491783733232E-01 a      1579     0    64     1     4
  3.4451554265667383E-01 a      1580     0    64     1     5
  5.9957634151963632E-02 a      1581     0    64     1     6
  2.3428503780632423E-01 a      1582     0    64     1     7
 -2.2649823153964457E-01 a      1583     0    64     1     8
  1.1898506937844508E-01 a      1584     0    64     1     9
  2.5311711895621081E-01 a      1585     0    64     1    10
  1.6704916478020496E-01 a      1586     0    64     1    11
 -4.9079074646566495E-02 a      1587     0    64     1    12
  1.5521236725166834E-01 a      1588     0    64     1    13
  2.5996991109856332E-01 a      1589     0    64     1    14
 -1.4004520291081460E-01 a      1590     0    64     1    15
 -7.9728720770914543E-02 a      1591     0    64     1    16
  2.4349805765194932E-01 a      1592     0    64     1    17
 -8.3967120351852373E-02 a      1593     0    64     1    18
 -7.5463157140923567E-02 a      1594     0    64     1    19
 -4.9729214557554047E-01 a      1595     0    64     1    20
 -5.8560796966941109E-02 a      1596     0    64     1    21
 -4.1828343595116330E-01 a      1597     0    64     1    22
 -3.1086922808889511E-01 a      1598     0    64     1    23
  1.1021897853300905E-01 a      1599     0    64     1    24
 -2.5976124598594538E-02 a      1600     0    64     1    25
 -2.3922591585903634E-03 a      1601     0    65     1     1
  5.8776002243341319E-01 a      1602     0    65     1     2
 -8.6746176609199518E-02 a      1603     0    65     1     3
 -7.6599945448246820E-01 a      1604     0    65     1     4
 -4.3647740010678010E-01 a      1605     0    65     1     5
 -1.1187865125317866E+00 a      1606     0    65     1     6
  3.2870047204649949E-01 a      1607     0    65     1     7
  1.2164502256458318E+00 a      1608     0    65     1     8
  2.5006325138601221E-01 a      1609     0    65     1     9
 -2.8583636960187880E-01 a      1610     0    65     1    10
 -3.0836069053368276E-01 a      1611     0    65     1    11
  1.3859498025352246E-01 a      1612     0    65     1    12
 -8.5984296690600370E-01 a      1613     0    65     1    13
 -3.8679414479707353E-03 a      1614     0    65     1    14
  7.1290795652466976E-01 a      1615     0    65     1    15
  3.6940358268684498E-01 a      1616     0    65     1    16
 -1.1458762160950853E+00 a      1617     0    65     1    17
  2.8956034650771345E-01 a      1618     0    65     1    18
  5.5744552410960979E-01 a      1619     0    65     1    19
 -3.4609149642179809E-01 a      1620     0    65     1    20
 -4.9339337814251288E-01 a      1621     0    65     1    21
  1.9587962477722975E+00 a      1622     0    65     1    22
  3.0533932141479818E+00 a      1623     0    65     1    23
