################################################################################
# Neural network connection values (weights and biases).
################################################################################
# Col  Name       Description
################################################################################
# 1    connection Neural network connection value.
# 2    t          Connection type (a = weight, b = bias).
# 3    index      Index enumerating weights.
# 4    l_s        Starting point layer (end point layer for biases).
# 5    n_s        Starting point neuron in starting layer (end point neuron for biases).
# 6    l_e        End point layer.
# 7    n_e        End point neuron in end layer.
################################################################################
#                      1 2         3     4     5     6     7
#             connection t     index   l_s   n_s   l_e   n_e
############################################################
  6.4622585066277338E-01 a         1     0     1     1     1
  8.2983178973032978E-01 a         2     0     1     1     2
 -3.5163782062241694E-01 a         3     0     1     1     3
  7.7227697772154758E-01 a         4     0     1     1     4
 -1.5137859226677850E+00 a         5     0     1     1     5
  5.7577140943688465E-01 a         6     0     1     1     6
 -1.3521098415128965E-01 a         7     0     1     1     7
 -8.4751948825657653E-01 a         8     0     1     1     8
  1.4412309110019236E-01 a         9     0     1     1     9
 -1.4020320065621803E+00 a        10     0     1     1    10
 -5.6014717513761902E-01 a        11     0     1     1    11
 -1.3370623153874510E+00 a        12     0     1     1    12
 -1.6193031862332099E+00 a        13     0     1     1    13
 -2.8897218259983584E+00 a        14     0     1     1    14
  9.2679631664327211E-01 a        15     0     1     1    15
 -2.3651787127477166E+00 a        16     0     1     1    16
 -2.5043886937894250E-01 a        17     0     1     1    17
  5.7986955721172806E-01 a        18     0     1     1    18
  1.3695619782105735E+00 a        19     0     1     1    19
  1.7059722207746433E+00 a        20     0     1     1    20
 -5.2773706403799858E-01 a        21     0     1     1    21
 -2.0593555995645205E-01 a        22     0     1     1    22
  1.6709435920080520E+00 a        23     0     1     1    23
  2.1927679238795353E-01 a        24     0     1     1    24
  4.4900845377594750E-01 a        25     0     1     1    25
 -2.4629479497105953E+00 a        26     0     2     1     1
  2.6499305953135576E-03 a        27     0     2     1     2
  1.6256690259659323E+00 a        28     0     2     1     3
  1.0616365908346873E-01 a        29     0     2     1     4
 -1.7363213784759539E+00 a        30     0     2     1     5
 -5.9481509148364342E-01 a        31     0     2     1     6
 -9.4082986251215261E-01 a        32     0     2     1     7
  2.1437656614886453E+00 a        33     0     2     1     8
  1.1747276404336447E-01 a        34     0     2     1     9
  4.2580691482837505E+00 a        35     0     2     1    10
 -1.0222928631490196E+00 a        36     0     2     1    11
 -7.8763495714240839E-01 a        37     0     2     1    12
  9.7354618138064963E-01 a        38     0     2     1    13
 -7.0850975279459316E-01 a        39     0     2     1    14
  1.2189393846362333E+00 a        40     0     2     1    15
  6.6955160137389247E-01 a        41     0     2     1    16
  2.5683750419863516E-01 a        42     0     2     1    17
  1.2529807800123932E-01 a        43     0     2     1    18
  4.5493278120110581E-01 a        44     0     2     1    19
 -1.0152427823599308E+00 a        45     0     2     1    20
 -5.2148227350456844E-01 a        46     0     2     1    21
 -1.8311555815442908E+00 a        47     0     2     1    22
 -2.2950149206199053E+00 a        48     0     2     1    23
  4.8290834028902224E-01 a        49     0     2     1    24
 -3.5403185703265078E-01 a        50     0     2     1    25
  9.4691430708833624E-01 a        51     0     3     1     1
 -2.1548297570393546E-01 a        52     0     3     1     2
 -8.1189204721485075E-01 a        53     0     3     1     3
 -1.7747250183573788E+00 a        54     0     3     1     4
  2.3773941833623127E-01 a        55     0     3     1     5
  6.2917796048002156E-02 a        56     0     3     1     6
  2.2842907831206391E-01 a        57     0     3     1     7
  7.0308196534127926E-02 a        58     0     3     1     8
  6.8275028330600573E-01 a        59     0     3     1     9
  2.5430583085282177E-01 a        60     0     3     1    10
  9.3379895588304984E-01 a        61     0     3     1    11
 -1.3806192386703321E-02 a        62     0     3     1    12
  1.1901607151259046E+00 a        63     0     3     1    13
  4.0770022358498059E-01 a        64     0     3     1    14
 -5.7737968820602892E-01 a        65     0     3     1    15
 -2.8106456306418293E-01 a        66     0     3     1    16
  3.3668280358087921E-01 a        67     0     3     1    17
  1.0434230734130072E+00 a        68     0     3     1    18
 -2.1024474858473413E-01 a        69     0     3     1    19
 -1.5053329656094232E+00 a        70     0     3     1    20
  7.6773270016073314E-01 a        71     0     3     1    21
  1.3896263002173503E-01 a        72     0     3     1    22
 -3.0798021953258015E-01 a        73     0     3     1    23
  3.2292901619505099E-01 a        74     0     3     1    24
 -1.3485077265307652E+00 a        75     0     3     1    25
  2.1825272119058819E-01 a        76     0     4     1     1
  3.8960563161245565E-01 a        77     0     4     1     2
  8.8471126696830937E-01 a        78     0     4     1     3
 -5.9178597908188202E-01 a        79     0     4     1     4
  9.3900486696718632E-01 a        80     0     4     1     5
  1.0621007442016108E+00 a        81     0     4     1     6
  8.6075355353728872E-02 a        82     0     4     1     7
  1.7087877623278851E+00 a        83     0     4     1     8
 -4.8421516736937348E-01 a        84     0     4     1     9
 -1.2675368969118345E-01 a        85     0     4     1    10
 -1.2792810668632401E-02 a        86     0     4     1    11
  4.3315277728855139E-01 a        87     0     4     1    12
 -7.6423854687904846E-01 a        88     0     4     1    13
 -5.6151261131650443E-01 a        89     0     4     1    14
 -1.3079861169133400E+00 a        90     0     4     1    15
  1.2801331254997621E+00 a        91     0     4     1    16
  6.0485377229562232E-01 a        92     0     4     1    17
 -1.2508514432142592E+00 a        93     0     4     1    18
  6.6074440767771792E-01 a        94     0     4     1    19
  1.4930287001960261E+00 a        95     0     4     1    20
  6.5830855737369487E-01 a        96     0     4     1    21
  9.6278097257921680E-01 a        97     0     4     1    22
  1.0669466971640333E+00 a        98     0     4     1    23
 -2.3573359162406046E-02 a        99     0     4     1    24
 -5.4120783683291840E-01 a       100     0     4     1    25
 -8.1436702037130757E-02 a       101     0     5     1     1
 -1.1289021293995229E+00 a       102     0     5     1     2
  4.1662839106835570E-01 a       103     0     5     1     3
 -1.1508757065332582E+00 a       104     0     5     1     4
  4.2231562019295364E-02 a       105     0     5     1     5
  3.5289808263995442E-01 a       106     0     5     1     6
  1.5074496801423349E+00 a       107     0     5     1     7
 -2.2064294091546136E-01 a       108     0     5     1     8
  6.1568933524481217E-01 a       109     0     5     1     9
 -4.3346007713187716E-02 a       110     0     5     1    10
  1.1970454372371793E+00 a       111     0     5     1    11
 -1.1328561538750982E-01 a       112     0     5     1    12
  1.4137273637564667E+00 a       113     0     5     1    13
  2.0844281636904149E+00 a       114     0     5     1    14
  6.5691433461667881E-01 a       115     0     5     1    15
  5.3389157158091760E-01 a       116     0     5     1    16
  2.6389350153592062E-02 a       117     0     5     1    17
 -1.7668502714638668E+00 a       118     0     5     1    18
 -6.2518084565361987E-01 a       119     0     5     1    19
 -1.0261740590673689E+00 a       120     0     5     1    20
  1.3290110615242230E-03 a       121     0     5     1    21
  1.7392399614890670E+00 a       122     0     5     1    22
 -1.9646823717718422E+00 a       123     0     5     1    23
  4.5243453310198517E-01 a       124     0     5     1    24
  1.5478215846225065E+00 a       125     0     5     1    25
  7.6659139760133388E-01 a       126     0     6     1     1
  1.9273232919537466E+00 a       127     0     6     1     2
 -1.3862731358903417E+00 a       128     0     6     1     3
 -1.1044827485303230E+00 a       129     0     6     1     4
  1.4901788598481207E+00 a       130     0     6     1     5
  1.0429573487056212E+00 a       131     0     6     1     6
 -1.2324502678418057E+00 a       132     0     6     1     7
 -3.6165835868447123E+00 a       133     0     6     1     8
 -6.9262529190344735E-01 a       134     0     6     1     9
 -3.8164999319110668E+00 a       135     0     6     1    10
 -2.2269831677161496E+00 a       136     0     6     1    11
  2.5587957679667186E+00 a       137     0     6     1    12
  5.0636099809137280E-01 a       138     0     6     1    13
 -1.0470954561862034E+00 a       139     0     6     1    14
 -7.4679367350501524E-01 a       140     0     6     1    15
 -1.8914359672639780E+00 a       141     0     6     1    16
  1.6701380205017943E-01 a       142     0     6     1    17
  2.1109714736110352E-01 a       143     0     6     1    18
 -8.0038487665485325E-01 a       144     0     6     1    19
  9.2127134803663524E-01 a       145     0     6     1    20
  1.5931810328779898E+00 a       146     0     6     1    21
 -4.8768369846683521E-02 a       147     0     6     1    22
  3.3242665685185435E+00 a       148     0     6     1    23
 -2.9373979556446335E+00 a       149     0     6     1    24
 -1.8314141022073140E+00 a       150     0     6     1    25
 -1.2505758509096263E+00 a       151     0     7     1     1
 -7.7259518007724037E-01 a       152     0     7     1     2
  3.8139196044350329E-02 a       153     0     7     1     3
  4.1184832660129692E-02 a       154     0     7     1     4
 -1.1522424600508295E-01 a       155     0     7     1     5
 -7.1454393207392897E-01 a       156     0     7     1     6
 -1.1329231281959802E+00 a       157     0     7     1     7
 -2.1669527971879510E+00 a       158     0     7     1     8
  5.8622261840858370E-01 a       159     0     7     1     9
  1.5546191447336472E-01 a       160     0     7     1    10
 -6.4159049884459418E-01 a       161     0     7     1    11
  1.1737281251512313E+00 a       162     0     7     1    12
  5.8285202075071196E-01 a       163     0     7     1    13
  3.6718261263158264E-01 a       164     0     7     1    14
 -1.3350569488341930E+00 a       165     0     7     1    15
 -1.3594209646817554E+00 a       166     0     7     1    16
 -1.6697771773692643E-01 a       167     0     7     1    17
  2.0575062457566098E+00 a       168     0     7     1    18
 -1.1781661705403002E+00 a       169     0     7     1    19
 -1.3446068984655788E+00 a       170     0     7     1    20
 -4.3685968931827174E-01 a       171     0     7     1    21
 -8.3484674265658432E-01 a       172     0     7     1    22
 -2.0024219774648100E+00 a       173     0     7     1    23
  2.4800452246850468E-01 a       174     0     7     1    24
  9.5957396720982957E-01 a       175     0     7     1    25
  5.1942919118033593E-01 a       176     0     8     1     1
 -6.2024470113168972E-01 a       177     0     8     1     2
 -4.6593185445448981E-01 a       178     0     8     1     3
 -7.3286174255662873E-01 a       179     0     8     1     4
  7.0548341586436358E-01 a       180     0     8     1     5
  1.8803692313605791E-01 a       181     0     8     1     6
  3.5847748482973379E-01 a       182     0     8     1     7
 -7.3026827772763114E-01 a       183     0     8     1     8
 -8.2847019419539047E-01 a       184     0     8     1     9
 -1.2073080418656572E+00 a       185     0     8     1    10
 -3.8931064610567467E-01 a       186     0     8     1    11
  1.2023263822858394E+00 a       187     0     8     1    12
  6.8761303714919453E-01 a       188     0     8     1    13
  1.5707634442926346E-01 a       189     0     8     1    14
 -1.6628130463683588E+00 a       190     0     8     1    15
  5.8314462306592252E-01 a       191     0     8     1    16
  7.3037696077319150E-02 a       192     0     8     1    17
  1.0217045454751095E-01 a       193     0     8     1    18
 -2.4397920000496570E-01 a       194     0     8     1    19
 -1.5052178220284951E+00 a       195     0     8     1    20
 -1.1297376719310034E-01 a       196     0     8     1    21
  2.5186937554327365E-01 a       197     0     8     1    22
 -9.1840529315556763E-01 a       198     0     8     1    23
 -1.3405969937227904E+00 a       199     0     8     1    24
 -1.3875260652158599E+00 a       200     0     8     1    25
  1.4069942825817088E+00 a       201     0     9     1     1
  1.1595004856906865E-01 a       202     0     9     1     2
  2.2723015623052123E+00 a       203     0     9     1     3
  1.6438678709926704E+00 a       204     0     9     1     4
  2.8923846475831111E-01 a       205     0     9     1     5
  9.4275494967197615E-01 a       206     0     9     1     6
  3.7043447900758070E-01 a       207     0     9     1     7
  7.2483149021766513E-01 a       208     0     9     1     8
  3.8740912539813216E-01 a       209     0     9     1     9
  4.8818423530374258E+00 a       210     0     9     1    10
  3.4015077460295262E+00 a       211     0     9     1    11
 -2.6600647598978484E+00 a       212     0     9     1    12
  1.0967280573868929E+00 a       213     0     9     1    13
  3.5452555626929625E+00 a       214     0     9     1    14
  2.4874660603905405E+00 a       215     0     9     1    15
  5.9445890116096478E-01 a       216     0     9     1    16
  1.8967786485334335E+00 a       217     0     9     1    17
 -2.1010453690636455E+00 a       218     0     9     1    18
  1.1951508400037381E+00 a       219     0     9     1    19
  2.9494073777258873E+00 a       220     0     9     1    20
 -1.5964218002064517E-02 a       221     0     9     1    21
 -2.5657356964264860E-01 a       222     0     9     1    22
 -2.3055440349155845E+00 a       223     0     9     1    23
  1.1010982150193973E+00 a       224     0     9     1    24
  2.2910746578970103E+00 a       225     0     9     1    25
 -4.4554990952495432E-01 a       226     0    10     1     1
  8.0696903265201114E-01 a       227     0    10     1     2
  1.0353789922069547E+00 a       228     0    10     1     3
  5.1295067671679052E-02 a       229     0    10     1     4
 -2.8334836403742336E-01 a       230     0    10     1     5
  4.3268726594473050E-01 a       231     0    10     1     6
 -1.3994721815593489E+00 a       232     0    10     1     7
  6.7019210345933222E-01 a       233     0    10     1     8
  3.9048866378296643E-01 a       234     0    10     1     9
  2.7464499510478935E-01 a       235     0    10     1    10
 -1.0227647404953262E+00 a       236     0    10     1    11
 -4.3453656670943230E-01 a       237     0    10     1    12
  1.3907524508451008E+00 a       238     0    10     1    13
  6.9414878286674653E-01 a       239     0    10     1    14
  1.1602685061263078E+00 a       240     0    10     1    15
  4.8476672490892592E-01 a       241     0    10     1    16
 -7.3058937853712547E-01 a       242     0    10     1    17
 -6.3793272864153461E-01 a       243     0    10     1    18
 -3.5576111632226609E-01 a       244     0    10     1    19
  1.1840237989906410E+00 a       245     0    10     1    20
  5.0203228803961142E-01 a       246     0    10     1    21
 -1.5149040599327554E-01 a       247     0    10     1    22
  3.2426005208724368E-01 a       248     0    10     1    23
  1.9912745501417799E+00 a       249     0    10     1    24
  1.6436571797424204E-01 a       250     0    10     1    25
 -3.2463920477805780E-01 a       251     0    11     1     1
 -3.2839596678363385E+00 a       252     0    11     1     2
  3.1397766958440374E+00 a       253     0    11     1     3
  2.1608968637831968E-01 a       254     0    11     1     4
 -2.7346744652714565E+00 a       255     0    11     1     5
 -5.8166435082162715E-01 a       256     0    11     1     6
 -1.2528058703362264E+00 a       257     0    11     1     7
  3.1185101980141541E+00 a       258     0    11     1     8
  1.7733440950912680E+00 a       259     0    11     1     9
  7.5228468037162344E+00 a       260     0    11     1    10
  5.7862876723784074E-01 a       261     0    11     1    11
 -2.5985447191471600E+00 a       262     0    11     1    12
  1.7832511676417233E+00 a       263     0    11     1    13
  1.2256626437252154E+00 a       264     0    11     1    14
  1.8726749404162344E+00 a       265     0    11     1    15
 -1.2678105001405011E+00 a       266     0    11     1    16
  1.1401940372209627E+00 a       267     0    11     1    17
 -4.4825817097036053E-01 a       268     0    11     1    18
  1.4331891566001582E+00 a       269     0    11     1    19
  2.6548273771109326E-01 a       270     0    11     1    20
  2.3093863508031967E+00 a       271     0    11     1    21
 -1.8908741180629187E+00 a       272     0    11     1    22
  8.8981532806643726E-01 a       273     0    11     1    23
  1.9001898780729927E+00 a       274     0    11     1    24
 -6.8344175576527189E-01 a       275     0    11     1    25
  7.7016381029267689E-01 a       276     0    12     1     1
  1.6290593976578599E-01 a       277     0    12     1     2
  4.3747374384101789E-01 a       278     0    12     1     3
 -3.7367035046720115E-01 a       279     0    12     1     4
  8.2747183143330516E-02 a       280     0    12     1     5
  1.5780725765061820E+00 a       281     0    12     1     6
 -9.6044806088669876E-01 a       282     0    12     1     7
  1.6075045126780401E+00 a       283     0    12     1     8
  1.1112641142634905E+00 a       284     0    12     1     9
  1.8721767573290187E+00 a       285     0    12     1    10
  2.6586150638475732E+00 a       286     0    12     1    11
 -4.5212913147862027E-01 a       287     0    12     1    12
 -2.1456774502537352E+00 a       288     0    12     1    13
  6.6092897555254970E-01 a       289     0    12     1    14
  2.1847602682200602E+00 a       290     0    12     1    15
 -1.2268606822752732E+00 a       291     0    12     1    16
  9.9619378047650287E-01 a       292     0    12     1    17
  1.8449445969221837E-01 a       293     0    12     1    18
 -1.0259970908707361E+00 a       294     0    12     1    19
 -1.3891901150328749E+00 a       295     0    12     1    20
  2.9338878488832298E-01 a       296     0    12     1    21
  1.3011947869272129E+00 a       297     0    12     1    22
  6.3843018029310461E-01 a       298     0    12     1    23
 -4.9985318389563699E-01 a       299     0    12     1    24
  7.5448870452469363E-01 a       300     0    12     1    25
 -1.9478144710659655E+00 a       301     0    13     1     1
 -1.4114465659896889E+00 a       302     0    13     1     2
  1.6937076112291602E+00 a       303     0    13     1     3
  1.1084915459551996E+00 a       304     0    13     1     4
  1.1354588072759595E+00 a       305     0    13     1     5
  6.8116348725592946E-01 a       306     0    13     1     6
 -1.5988462285327643E+00 a       307     0    13     1     7
 -1.1839284576694318E+00 a       308     0    13     1     8
 -4.8411593134936801E+00 a       309     0    13     1     9
 -1.1447217113680077E+00 a       310     0    13     1    10
 -2.4941004553821093E+00 a       311     0    13     1    11
  8.9436660598157014E-01 a       312     0    13     1    12
 -3.1980075584928724E-01 a       313     0    13     1    13
  8.6222577422849567E-01 a       314     0    13     1    14
 -4.0393101223023828E+00 a       315     0    13     1    15
 -1.0403954721674633E+00 a       316     0    13     1    16
  4.2789760696867196E-01 a       317     0    13     1    17
  5.3146141674861569E-01 a       318     0    13     1    18
  7.9345554783151362E-01 a       319     0    13     1    19
 -9.2593758794160985E-01 a       320     0    13     1    20
 -4.4483975022839800E-01 a       321     0    13     1    21
 -5.0717582297776176E-01 a       322     0    13     1    22
 -4.1408437889450983E-01 a       323     0    13     1    23
  3.4600155503832458E-01 a       324     0    13     1    24
  1.5107093805687259E+00 a       325     0    13     1    25
  1.1450159107294244E+00 a       326     0    14     1     1
  1.1214898059097758E+00 a       327     0    14     1     2
  3.9886131538880726E-01 a       328     0    14     1     3
  5.4908908836962789E-01 a       329     0    14     1     4
  2.9411915961688090E-01 a       330     0    14     1     5
  9.4956453720337053E-01 a       331     0    14     1     6
 -5.7113726645935914E-01 a       332     0    14     1     7
 -7.1134523461982480E-01 a       333     0    14     1     8
  2.1962000717465338E+00 a       334     0    14     1     9
 -8.7325145641369917E-01 a       335     0    14     1    10
  5.5238903628312286E-01 a       336     0    14     1    11
 -8.1347621569754891E-01 a       337     0    14     1    12
 -1.4520429510706510E+00 a       338     0    14     1    13
  5.0285833744112107E-01 a       339     0    14     1    14
  1.9884586117001839E+00 a       340     0    14     1    15
 -1.6881823820442747E+00 a       341     0    14     1    16
  8.8839505313742118E-01 a       342     0    14     1    17
  2.1593894646732150E+00 a       343     0    14     1    18
  2.0162668944347222E+00 a       344     0    14     1    19
  1.8093462510311880E+00 a       345     0    14     1    20
 -1.8918537621810547E-01 a       346     0    14     1    21
 -1.2538301514264356E+00 a       347     0    14     1    22
 -1.0481559668245422E+00 a       348     0    14     1    23
  2.3635292119717610E-01 a       349     0    14     1    24
  1.0706945938109313E+00 a       350     0    14     1    25
  2.7264707078562558E+00 a       351     0    15     1     1
  2.0314712482221351E+00 a       352     0    15     1     2
  2.1113826819149906E-01 a       353     0    15     1     3
 -8.1551116796419398E-01 a       354     0    15     1     4
 -5.7539304938881553E-01 a       355     0    15     1     5
  1.5117423853818370E+00 a       356     0    15     1     6
 -2.8186683329685425E-01 a       357     0    15     1     7
  1.8914561255883979E+00 a       358     0    15     1     8
  3.4710718633781723E+00 a       359     0    15     1     9
  1.4672139223983067E+00 a       360     0    15     1    10
  3.5703721354712279E+00 a       361     0    15     1    11
 -1.7270978404599732E-01 a       362     0    15     1    12
  9.6153088531758946E-01 a       363     0    15     1    13
  5.4683268342314728E-01 a       364     0    15     1    14
  2.0681549033844759E+00 a       365     0    15     1    15
  3.8996919478687675E-01 a       366     0    15     1    16
  3.9755826110589978E+00 a       367     0    15     1    17
  3.7904241547194795E-01 a       368     0    15     1    18
  5.4377494382696276E-02 a       369     0    15     1    19
 -1.9641690462401584E-01 a       370     0    15     1    20
  7.8475637888415384E-01 a       371     0    15     1    21
  3.7378090313268691E-01 a       372     0    15     1    22
 -1.7182587498184604E-01 a       373     0    15     1    23
  2.5779563807458685E+00 a       374     0    15     1    24
  3.5372685088080746E-01 a       375     0    15     1    25
 -1.6362041272848293E+00 a       376     0    16     1     1
 -1.2460710890741278E+00 a       377     0    16     1     2
 -5.0182118477690618E-01 a       378     0    16     1     3
 -5.9409134386308082E-01 a       379     0    16     1     4
  8.0384497149075873E-01 a       380     0    16     1     5
 -9.5684390944186115E-01 a       381     0    16     1     6
  3.0989366980528921E-01 a       382     0    16     1     7
 -1.4149753251946089E+00 a       383     0    16     1     8
 -2.5156450105626269E+00 a       384     0    16     1     9
 -3.5367391836376734E+00 a       385     0    16     1    10
 -2.2696524268484826E+00 a       386     0    16     1    11
  1.2780675592263926E+00 a       387     0    16     1    12
  8.7037947703290797E-01 a       388     0    16     1    13
 -1.0672068021325629E+00 a       389     0    16     1    14
 -2.6350526442014393E+00 a       390     0    16     1    15
 -2.4809410312582481E-01 a       391     0    16     1    16
 -1.0285056776039103E+00 a       392     0    16     1    17
 -1.3445078363063736E+00 a       393     0    16     1    18
  1.1850817262158000E+00 a       394     0    16     1    19
  6.8742674493616318E-02 a       395     0    16     1    20
  9.3187317420927410E-02 a       396     0    16     1    21
 -1.4437710506002872E+00 a       397     0    16     1    22
  2.9623953332683334E-01 a       398     0    16     1    23
  2.9668978020619924E-01 a       399     0    16     1    24
 -5.9360718176793370E-01 a       400     0    16     1    25
  1.6765441969566486E+00 a       401     0    17     1     1
  1.7499869078944639E+00 a       402     0    17     1     2
 -1.6231243620445348E+00 a       403     0    17     1     3
 -1.1839551577267218E+00 a       404     0    17     1     4
 -3.7577906134281305E+00 a       405     0    17     1     5
  1.6481176474932438E-01 a       406     0    17     1     6
  3.7185858770557700E-01 a       407     0    17     1     7
  4.2289462777138753E-01 a       408     0    17     1     8
  4.6989577909461904E+00 a       409     0    17     1     9
  2.6932630892246645E+00 a       410     0    17     1    10
  4.5909838502200033E+00 a       411     0    17     1    11
 -2.1018816402211579E-01 a       412     0    17     1    12
 -5.5065039751566969E-01 a       413     0    17     1    13
 -2.9172245499902322E-01 a       414     0    17     1    14
  4.9068297017489737E+00 a       415     0    17     1    15
  2.3131749638956309E+00 a       416     0    17     1    16
  1.2452125658517356E-01 a       417     0    17     1    17
 -1.0409994430306242E-01 a       418     0    17     1    18
 -1.2044006775367332E-01 a       419     0    17     1    19
  1.0029213535724539E+00 a       420     0    17     1    20
 -1.5428300446259824E-01 a       421     0    17     1    21
 -8.2111138215603163E-01 a       422     0    17     1    22
 -8.8107412758663994E-01 a       423     0    17     1    23
 -1.3682492712376229E-01 a       424     0    17     1    24
 -3.2811408141869708E-01 a       425     0    17     1    25
 -1.8200740581038604E+00 a       426     0    18     1     1
 -1.5220637525818106E+00 a       427     0    18     1     2
 -1.5825206685332602E+00 a       428     0    18     1     3
 -3.0119679415795821E+00 a       429     0    18     1     4
 -7.4275036951581253E-01 a       430     0    18     1     5
 -2.4789332751757822E+00 a       431     0    18     1     6
  2.7965701150241000E+00 a       432     0    18     1     7
 -1.8800960294715974E+00 a       433     0    18     1     8
 -3.0834818760186113E+00 a       434     0    18     1     9
  1.5794896582655824E+00 a       435     0    18     1    10
 -1.4439465441066788E+00 a       436     0    18     1    11
 -6.8587870320226096E-01 a       437     0    18     1    12
  2.3113768256371661E-01 a       438     0    18     1    13
 -1.4128896601848595E+00 a       439     0    18     1    14
 -2.1681393665150255E+00 a       440     0    18     1    15
  2.9828718361860465E+00 a       441     0    18     1    16
 -7.5337670831129644E-01 a       442     0    18     1    17
 -3.5456205287694469E+00 a       443     0    18     1    18
 -3.9470597914339702E+00 a       444     0    18     1    19
 -1.7933754233508725E+00 a       445     0    18     1    20
  1.9268899155147492E+00 a       446     0    18     1    21
  2.4117056677252369E+00 a       447     0    18     1    22
  2.5826499152430547E+00 a       448     0    18     1    23
 -4.3531515352307654E-01 a       449     0    18     1    24
 -1.4316974825900477E+00 a       450     0    18     1    25
 -1.3308414673557227E+00 a       451     0    19     1     1
 -2.6233654722070763E+00 a       452     0    19     1     2
 -7.7938022256753070E-01 a       453     0    19     1     3
  5.0519626035261778E-01 a       454     0    19     1     4
  4.1987086990225189E+00 a       455     0    19     1     5
 -2.0937360495167989E+00 a       456     0    19     1     6
  2.7121086130968697E-01 a       457     0    19     1     7
 -2.9809825985025999E+00 a       458     0    19     1     8
 -5.3797591361733952E+00 a       459     0    19     1     9
 -1.7340716619700491E+00 a       460     0    19     1    10
 -6.6674134446277797E+00 a       461     0    19     1    11
  2.1769492348130428E+00 a       462     0    19     1    12
 -1.6026841074381739E+00 a       463     0    19     1    13
 -1.8984782522371688E+00 a       464     0    19     1    14
 -5.4005578814842607E+00 a       465     0    19     1    15
 -3.2928839006449357E+00 a       466     0    19     1    16
 -3.8525955922942252E+00 a       467     0    19     1    17
  1.1778667396959632E+00 a       468     0    19     1    18
  1.7643901069045029E-01 a       469     0    19     1    19
 -1.3906214331295392E+00 a       470     0    19     1    20
 -4.0375329701721940E-01 a       471     0    19     1    21
 -1.6521571008974547E+00 a       472     0    19     1    22
  2.6277756160791719E+00 a       473     0    19     1    23
 -2.8485958397077500E+00 a       474     0    19     1    24
  1.9366771473065845E+00 a       475     0    19     1    25
 -7.0774993435349320E-01 a       476     0    20     1     1
  7.1615239754584858E-01 a       477     0    20     1     2
 -6.3016918943440126E-01 a       478     0    20     1     3
  2.8285865848872743E-01 a       479     0    20     1     4
 -9.1259839047083646E-01 a       480     0    20     1     5
  1.7886472232499059E-01 a       481     0    20     1     6
  8.8060322598231910E-01 a       482     0    20     1     7
  1.0692058556513335E+00 a       483     0    20     1     8
  2.3391505863392510E+00 a       484     0    20     1     9
  2.0975934189746668E+00 a       485     0    20     1    10
  6.9887174775742866E-01 a       486     0    20     1    11
 -1.5024306334469784E+00 a       487     0    20     1    12
 -1.7651588967925604E-02 a       488     0    20     1    13
  8.2292976998909173E-01 a       489     0    20     1    14
  2.3534338528627383E-01 a       490     0    20     1    15
  2.3546679764431948E+00 a       491     0    20     1    16
  2.1809250153823515E-01 a       492     0    20     1    17
  5.7885809759001627E-01 a       493     0    20     1    18
 -1.0337376028562411E+00 a       494     0    20     1    19
  5.9189292746037736E-01 a       495     0    20     1    20
 -4.8052157446083238E-01 a       496     0    20     1    21
 -4.9374493770976347E-01 a       497     0    20     1    22
 -5.5863266011603074E-01 a       498     0    20     1    23
  6.4445487157550474E-01 a       499     0    20     1    24
  1.6306917796506575E+00 a       500     0    20     1    25
  1.3256482497045363E+00 a       501     0    21     1     1
 -1.4125204738361374E+00 a       502     0    21     1     2
  1.1547683109442275E-01 a       503     0    21     1     3
  9.8471745562306945E-01 a       504     0    21     1     4
  2.4907031374415736E+00 a       505     0    21     1     5
 -9.0616263471653125E-01 a       506     0    21     1     6
  1.7825938369832990E+00 a       507     0    21     1     7
 -4.6754022106044141E-01 a       508     0    21     1     8
 -1.3786197072994280E+00 a       509     0    21     1     9
 -1.1992446655867504E+00 a       510     0    21     1    10
 -2.1582441676210218E+00 a       511     0    21     1    11
 -9.4917535676669232E-02 a       512     0    21     1    12
  8.7054442082327099E-02 a       513     0    21     1    13
 -1.1726370677924594E+00 a       514     0    21     1    14
 -2.1056650590488690E+00 a       515     0    21     1    15
 -8.8407525691664901E-01 a       516     0    21     1    16
  7.7202861525110147E-02 a       517     0    21     1    17
  9.2877052219689482E-01 a       518     0    21     1    18
  9.1397642504796051E-01 a       519     0    21     1    19
  3.3645950038505174E-01 a       520     0    21     1    20
  1.4012319477534549E+00 a       521     0    21     1    21
  2.3918417297795211E+00 a       522     0    21     1    22
  2.8250509191795015E+00 a       523     0    21     1    23
 -1.8770145166588376E-01 a       524     0    21     1    24
  3.9872982554950076E-01 a       525     0    21     1    25
 -1.9291587343535394E-01 a       526     0    22     1     1
  4.5691806607292162E-01 a       527     0    22     1     2
  1.8813685720733782E+00 a       528     0    22     1     3
  4.2827461122905355E+00 a       529     0    22     1     4
  6.1310495455060919E-02 a       530     0    22     1     5
  1.4535311306780589E+00 a       531     0    22     1     6
 -2.1163153906281802E+00 a       532     0    22     1     7
  2.1291332668333034E+00 a       533     0    22     1     8
  1.7749462201656314E+00 a       534     0    22     1     9
 -1.3126789264244996E+00 a       535     0    22     1    10
 -9.6262287160961935E-01 a       536     0    22     1    11
  6.6033432497364442E-01 a       537     0    22     1    12
 -1.1147251144146906E+00 a       538     0    22     1    13
 -5.2585900256992568E-01 a       539     0    22     1    14
  1.0813472625475264E+00 a       540     0    22     1    15
 -7.3361906878986993E-01 a       541     0    22     1    16
 -2.2829597098175811E-02 a       542     0    22     1    17
 -4.9448593223001486E-01 a       543     0    22     1    18
  2.5165757396674873E+00 a       544     0    22     1    19
  2.4540595171762858E+00 a       545     0    22     1    20
 -1.2922428008785423E+00 a       546     0    22     1    21
 -1.2796353060374013E+00 a       547     0    22     1    22
 -1.2118678049659131E+00 a       548     0    22     1    23
 -9.0387539610948009E-01 a       549     0    22     1    24
  1.6437383152061300E+00 a       550     0    22     1    25
 -1.7070315448361570E+00 a       551     0    23     1     1
  1.5079906014877544E+00 a       552     0    23     1     2
 -1.4801433731483817E+00 a       553     0    23     1     3
 -2.7382467533988147E-01 a       554     0    23     1     4
 -5.3609203042089435E+00 a       555     0    23     1     5
  6.5408238312419442E-01 a       556     0    23     1     6
  6.4753849993476043E-01 a       557     0    23     1     7
  2.0037180262669640E-01 a       558     0    23     1     8
  2.6711166371276791E+00 a       559     0    23     1     9
  7.2626564452621756E-01 a       560     0    23     1    10
  4.4963526940953829E+00 a       561     0    23     1    11
 -2.6465427074615757E+00 a       562     0    23     1    12
  2.5378438143342824E-01 a       563     0    23     1    13
  1.0724599638536576E+00 a       564     0    23     1    14
  4.4931477968495530E+00 a       565     0    23     1    15
  7.2050412948376052E-01 a       566     0    23     1    16
 -1.5769946885316315E+00 a       567     0    23     1    17
 -7.2923448965280135E-01 a       568     0    23     1    18
  1.2433926985482044E-01 a       569     0    23     1    19
 -2.4870059070311489E-02 a       570     0    23     1    20
  5.4417815498489697E-01 a       571     0    23     1    21
  8.1160517990754688E-01 a       572     0    23     1    22
 -2.6059188169805925E+00 a       573     0    23     1    23
  1.8901331247598021E+00 a       574     0    23     1    24
  3.3484487125681106E-01 a       575     0    23     1    25
  3.2846828457928806E-01 a       576     0    24     1     1
  5.6871478756169347E-01 a       577     0    24     1     2
 -7.0719528052078207E-01 a       578     0    24     1     3
  7.8475345252286766E-01 a       579     0    24     1     4
  8.0559930709803496E-01 a       580     0    24     1     5
  4.0265539952124008E-01 a       581     0    24     1     6
 -7.0426181843930324E-01 a       582     0    24     1     7
  7.8142477041097919E-02 a       583     0    24     1     8
  2.3478872116664695E-01 a       584     0    24     1     9
  1.2419476030820986E+00 a       585     0    24     1    10
 -1.2042507064077970E+00 a       586     0    24     1    11
  6.5084129501237642E-01 a       587     0    24     1    12
 -2.2374755536202890E+00 a       588     0    24     1    13
  3.9533964277749817E-01 a       589     0    24     1    14
 -1.5476385809485504E+00 a       590     0    24     1    15
 -9.2941510106857875E-02 a       591     0    24     1    16
  3.1737353303696259E-01 a       592     0    24     1    17
  9.7196153937876317E-01 a       593     0    24     1    18
  3.8145527750813563E-01 a       594     0    24     1    19
 -9.5542098647468099E-01 a       595     0    24     1    20
  2.0295631908779859E+00 a       596     0    24     1    21
 -1.2016507025206569E+00 a       597     0    24     1    22
  1.2734948606784129E+00 a       598     0    24     1    23
 -5.0483897130947319E-01 a       599     0    24     1    24
 -4.3629035540407707E-01 a       600     0    24     1    25
  7.2384168457705858E-02 a       601     0    25     1     1
  8.5273147196595989E-01 a       602     0    25     1     2
 -1.1608539970728084E-01 a       603     0    25     1     3
  8.4898994430055208E-01 a       604     0    25     1     4
  3.2322313873960778E-01 a       605     0    25     1     5
 -6.3312630343146958E-01 a       606     0    25     1     6
  1.1560953999315322E+00 a       607     0    25     1     7
  3.5622790115580927E-01 a       608     0    25     1     8
  2.8219999332965318E-01 a       609     0    25     1     9
 -8.6366923669390938E-01 a       610     0    25     1    10
  1.9360537560574851E+00 a       611     0    25     1    11
 -8.5535681840857447E-01 a       612     0    25     1    12
 -7.1911333033105196E-01 a       613     0    25     1    13
  1.9134645053962169E+00 a       614     0    25     1    14
  5.4593415041414362E-01 a       615     0    25     1    15
  1.6815014303713238E+00 a       616     0    25     1    16
 -9.7123494640387209E-01 a       617     0    25     1    17
 -1.6044388524428477E+00 a       618     0    25     1    18
  6.2973141311995801E-02 a       619     0    25     1    19
 -1.2129462846433751E-01 a       620     0    25     1    20
 -1.4998042583844879E+00 a       621     0    25     1    21
  2.8639073804149047E+00 a       622     0    25     1    22
 -2.7194309112557140E+00 a       623     0    25     1    23
  2.9556118218466896E+00 a       624     0    25     1    24
  2.2319631698996467E+00 a       625     0    25     1    25
  1.4109811098327183E+00 a       626     0    26     1     1
 -5.5799569538644966E-01 a       627     0    26     1     2
 -5.0281156610570754E-01 a       628     0    26     1     3
  4.3995346220002624E-01 a       629     0    26     1     4
  9.9413239459185077E-01 a       630     0    26     1     5
 -5.0019968790394398E-01 a       631     0    26     1     6
  7.4830704246514967E-01 a       632     0    26     1     7
  1.4333974741630073E+00 a       633     0    26     1     8
 -1.4725061727630591E-02 a       634     0    26     1     9
 -9.8966650541570322E-01 a       635     0    26     1    10
 -6.1616827491198378E-01 a       636     0    26     1    11
 -1.1452504855164345E+00 a       637     0    26     1    12
 -4.8683332741973240E-01 a       638     0    26     1    13
  1.0720792462513309E-02 a       639     0    26     1    14
  1.2854822671075183E+00 a       640     0    26     1    15
  1.7473166961544770E-01 a       641     0    26     1    16
  3.0087709048954919E-01 a       642     0    26     1    17
 -9.3141520965445068E-01 a       643     0    26     1    18
  6.0506632287189333E-01 a       644     0    26     1    19
 -1.4662530816080854E-01 a       645     0    26     1    20
 -5.9470644076228119E-01 a       646     0    26     1    21
 -3.4788912215837459E-01 a       647     0    26     1    22
  2.2880387568011122E+00 a       648     0    26     1    23
 -1.0435931635527225E+00 a       649     0    26     1    24
 -1.1296965325740436E+00 a       650     0    26     1    25
  5.3930717125813310E-01 a       651     0    27     1     1
 -1.7231756285231459E-01 a       652     0    27     1     2
  1.0922582891421555E+00 a       653     0    27     1     3
  5.7823462523038038E-01 a       654     0    27     1     4
 -5.2584474206732723E-01 a       655     0    27     1     5
 -4.2122126293458401E-01 a       656     0    27     1     6
 -1.3431165922701647E+00 a       657     0    27     1     7
  3.4628228680717149E-01 a       658     0    27     1     8
 -9.3513879346470152E-01 a       659     0    27     1     9
  1.4321505648808543E+00 a       660     0    27     1    10
  8.9834329266263924E-01 a       661     0    27     1    11
 -5.2609832004441925E-01 a       662     0    27     1    12
  2.4751422394723710E-01 a       663     0    27     1    13
 -9.3187975046099258E-01 a       664     0    27     1    14
  2.3664778976084266E-01 a       665     0    27     1    15
  5.8682172903472260E-02 a       666     0    27     1    16
  1.4241181448537979E-01 a       667     0    27     1    17
  4.7843492401387228E-01 a       668     0    27     1    18
  6.1802840747966592E-01 a       669     0    27     1    19
  1.1018860986146712E+00 a       670     0    27     1    20
 -1.3035093935072364E+00 a       671     0    27     1    21
 -5.8234319954203133E-02 a       672     0    27     1    22
  1.4754285144624216E-01 a       673     0    27     1    23
 -1.1194728644633700E+00 a       674     0    27     1    24
 -6.4462293835783679E-01 a       675     0    27     1    25
 -1.1878874559344217E-01 a       676     0    28     1     1
  2.2714044378691680E+00 a       677     0    28     1     2
 -4.8959781131154649E+00 a       678     0    28     1     3
 -2.9749361077905410E+00 a       679     0    28     1     4
  9.0397089722051693E-01 a       680     0    28     1     5
  1.7877390589509273E-01 a       681     0    28     1     6
  4.0939727954681066E-02 a       682     0    28     1     7
 -2.5599110929035773E+00 a       683     0    28     1     8
 -1.7678705269576864E+00 a       684     0    28     1     9
 -1.0787447155380098E+01 a       685     0    28     1    10
 -3.4214135064838223E+00 a       686     0    28     1    11
  4.6717208261178103E+00 a       687     0    28     1    12
 -2.0033709025420765E+00 a       688     0    28     1    13
 -4.8280421606502273E+00 a       689     0    28     1    14
 -4.9467929184277493E+00 a       690     0    28     1    15
  7.4266269879832902E-01 a       691     0    28     1    16
 -3.5590738106068089E+00 a       692     0    28     1    17
  2.5602203044458003E+00 a       693     0    28     1    18
 -2.2417481588054633E+00 a       694     0    28     1    19
 -3.9128836838604295E+00 a       695     0    28     1    20
 -2.9782055628597082E+00 a       696     0    28     1    21
  3.8491473049706140E-02 a       697     0    28     1    22
  1.7897420571416165E+00 a       698     0    28     1    23
 -3.7358230187874941E+00 a       699     0    28     1    24
 -1.4253027656747939E+00 a       700     0    28     1    25
 -2.0416962449595741E-01 a       701     0    29     1     1
  3.5582327039516436E-02 a       702     0    29     1     2
 -1.7996143563341074E-01 a       703     0    29     1     3
  5.0869071535878307E-01 a       704     0    29     1     4
  5.0158782207905361E-01 a       705     0    29     1     5
  2.8731611468450724E-01 a       706     0    29     1     6
  5.3423652074316685E-01 a       707     0    29     1     7
 -7.7656008249625652E-02 a       708     0    29     1     8
 -1.1243836736050110E-01 a       709     0    29     1     9
 -1.0425464357807364E+00 a       710     0    29     1    10
  5.5235407729592878E-01 a       711     0    29     1    11
  1.5797129526565601E-01 a       712     0    29     1    12
 -8.5026547620590986E-01 a       713     0    29     1    13
  2.4193998914481354E-01 a       714     0    29     1    14
  5.2428332714830761E-01 a       715     0    29     1    15
 -2.8516197483928751E-01 a       716     0    29     1    16
  6.7505519572843609E-01 a       717     0    29     1    17
 -8.6472045133754685E-02 a       718     0    29     1    18
 -2.9715107167818289E-01 a       719     0    29     1    19
  5.3589048523978611E-01 a       720     0    29     1    20
 -4.1687390305991022E-02 a       721     0    29     1    21
  4.5370192918195523E-01 a       722     0    29     1    22
 -5.2381360503511176E-01 a       723     0    29     1    23
  2.7857298276873088E-01 a       724     0    29     1    24
  2.2777177531578305E-01 a       725     0    29     1    25
  5.7209170090704455E-02 a       726     0    30     1     1
 -1.7547449358972186E-01 a       727     0    30     1     2
 -1.7563126232097720E-01 a       728     0    30     1     3
 -5.3137292899189825E-01 a       729     0    30     1     4
  4.8468185918105849E-01 a       730     0    30     1     5
 -6.4642494869992650E-01 a       731     0    30     1     6
 -3.9383566855663399E-01 a       732     0    30     1     7
  1.1350880251941600E+00 a       733     0    30     1     8
 -2.2385953694503447E-01 a       734     0    30     1     9
 -6.8799987121087758E-02 a       735     0    30     1    10
 -8.3632251726096074E-01 a       736     0    30     1    11
 -8.5518471051932540E-02 a       737     0    30     1    12
  1.1681873531049825E+00 a       738     0    30     1    13
  1.7684233799900023E-01 a       739     0    30     1    14
  3.4462171530845687E-01 a       740     0    30     1    15
  9.3670155600180138E-01 a       741     0    30     1    16
 -3.1789253224396125E-01 a       742     0    30     1    17
  3.0185401058833033E-01 a       743     0    30     1    18
  8.7443748775548291E-01 a       744     0    30     1    19
 -4.9590844591227912E-01 a       745     0    30     1    20
 -4.4691079093095409E-01 a       746     0    30     1    21
  4.1891078934853726E-01 a       747     0    30     1    22
  3.3684358168834316E-01 a       748     0    30     1    23
  3.0189694447742466E-01 a       749     0    30     1    24
 -1.2378947706743371E+00 a       750     0    30     1    25
 -1.1750484531393700E-01 a       751     0    31     1     1
 -2.5196586686507394E-01 a       752     0    31     1     2
 -1.1901360632182725E-01 a       753     0    31     1     3
 -5.3262414561390725E-01 a       754     0    31     1     4
  4.2895480859742863E-01 a       755     0    31     1     5
 -4.8449555278054762E-01 a       756     0    31     1     6
 -1.5674967011851906E-01 a       757     0    31     1     7
  1.1202595922988674E+00 a       758     0    31     1     8
 -4.0030831768644487E-01 a       759     0    31     1     9
 -3.1787908406225368E-01 a       760     0    31     1    10
 -9.5065738100839692E-01 a       761     0    31     1    11
  1.0422407973552778E-02 a       762     0    31     1    12
  1.3487452744122419E+00 a       763     0    31     1    13
  1.5050797747694011E-01 a       764     0    31     1    14
  3.3699562171889624E-01 a       765     0    31     1    15
  1.0766507040215663E+00 a       766     0    31     1    16
 -2.6137253437246760E-01 a       767     0    31     1    17
  2.8918770956615419E-01 a       768     0    31     1    18
  1.0403913952300230E+00 a       769     0    31     1    19
 -3.7109566346718414E-01 a       770     0    31     1    20
 -1.9583599298997276E-01 a       771     0    31     1    21
  4.5597970543189409E-01 a       772     0    31     1    22
  4.5680022386411484E-01 a       773     0    31     1    23
  1.2955448079713408E-01 a       774     0    31     1    24
 -1.4051663843099880E+00 a       775     0    31     1    25
  1.4926641045321352E+00 a       776     0    32     1     1
 -7.4267270785658657E-01 a       777     0    32     1     2
  1.7252194031649775E+00 a       778     0    32     1     3
 -4.2179079275697945E-01 a       779     0    32     1     4
  2.8489856563757460E-01 a       780     0    32     1     5
 -9.6649253162368709E-01 a       781     0    32     1     6
  4.6706868177377175E-01 a       782     0    32     1     7
  2.6928433895601528E-01 a       783     0    32     1     8
  4.8649965234561576E-01 a       784     0    32     1     9
  1.4706987081977354E+00 a       785     0    32     1    10
  3.4153137327980809E-01 a       786     0    32     1    11
  2.3395410166597408E+00 a       787     0    32     1    12
 -1.3464094486868901E+00 a       788     0    32     1    13
  1.7100881524995395E+00 a       789     0    32     1    14
 -1.0164128247256381E+00 a       790     0    32     1    15
  7.7602094135711985E-01 a       791     0    32     1    16
  8.5147698829799279E-01 a       792     0    32     1    17
 -1.4854317575702336E+00 a       793     0    32     1    18
  4.2964240466482650E-01 a       794     0    32     1    19
  3.7373864653270811E-01 a       795     0    32     1    20
 -1.2677994749506891E+00 a       796     0    32     1    21
 -1.3002597038978165E+00 a       797     0    32     1    22
  1.8770259646656789E-01 a       798     0    32     1    23
  4.8672513360240977E-02 a       799     0    32     1    24
  1.3547500295890276E+00 a       800     0    32     1    25
  1.4195562991277242E+00 a       801     0    33     1     1
 -6.7339942860191171E-01 a       802     0    33     1     2
  1.8490549064016326E+00 a       803     0    33     1     3
 -5.4841917323644551E-01 a       804     0    33     1     4
  1.9282314177892937E-01 a       805     0    33     1     5
 -1.1785752477516949E+00 a       806     0    33     1     6
  2.6150929947017826E-01 a       807     0    33     1     7
  8.7899846547769639E-02 a       808     0    33     1     8
  4.4478301251815472E-01 a       809     0    33     1     9
  1.3573003659633303E+00 a       810     0    33     1    10
  4.9096531112078179E-01 a       811     0    33     1    11
  2.0376676511553842E+00 a       812     0    33     1    12
 -1.2619123774484140E+00 a       813     0    33     1    13
  1.7097600746348389E+00 a       814     0    33     1    14
 -1.2045857164926970E+00 a       815     0    33     1    15
  8.6450360489386768E-01 a       816     0    33     1    16
  9.3333142095400812E-01 a       817     0    33     1    17
 -1.6188992420446575E+00 a       818     0    33     1    18
  6.4563218648629184E-01 a       819     0    33     1    19
  3.9431827840940292E-01 a       820     0    33     1    20
 -1.1808521147765021E+00 a       821     0    33     1    21
 -1.1300041710643185E+00 a       822     0    33     1    22
  3.4077713892810146E-01 a       823     0    33     1    23
 -1.4238217116427937E-01 a       824     0    33     1    24
  1.4301944028967541E+00 a       825     0    33     1    25
 -8.4206914025648427E-01 a       826     0    34     1     1
  1.7506381032699639E-01 a       827     0    34     1     2
  4.2921869488107153E-02 a       828     0    34     1     3
  1.2113271024023438E+00 a       829     0    34     1     4
  2.8615110187896348E-01 a       830     0    34     1     5
  1.3787435480541452E+00 a       831     0    34     1     6
  5.6230988525253056E-01 a       832     0    34     1     7
  4.4772528984825122E-01 a       833     0    34     1     8
 -2.9210068572860626E-01 a       834     0    34     1     9
 -6.1824233202893220E-01 a       835     0    34     1    10
  3.7233886248653369E-01 a       836     0    34     1    11
  8.9497237334645918E-01 a       837     0    34     1    12
 -2.3372538475556359E-01 a       838     0    34     1    13
  1.1461892672254770E+00 a       839     0    34     1    14
 -5.1772584954766665E-01 a       840     0    34     1    15
 -4.4346597647518354E-01 a       841     0    34     1    16
  3.9353506407219585E-01 a       842     0    34     1    17
  4.2102963942230909E-01 a       843     0    34     1    18
  1.7723118372383678E-01 a       844     0    34     1    19
 -1.8512033921789903E-01 a       845     0    34     1    20
 -2.1327252431945831E-01 a       846     0    34     1    21
 -9.5635306188443869E-01 a       847     0    34     1    22
 -4.0100064067584085E-01 a       848     0    34     1    23
  4.3721326594563253E-01 a       849     0    34     1    24
  4.6758530707036372E-01 a       850     0    34     1    25
  1.7866761961805946E+00 a       851     0    35     1     1
 -1.3365203065334323E+00 a       852     0    35     1     2
 -9.1157871251526579E-02 a       853     0    35     1     3
 -2.6731277300370841E+00 a       854     0    35     1     4
  5.2823743889016905E-01 a       855     0    35     1     5
  1.3342103799537608E+00 a       856     0    35     1     6
  2.6352939923422863E-01 a       857     0    35     1     7
 -1.9684167381278979E+00 a       858     0    35     1     8
  2.1180820830555365E+00 a       859     0    35     1     9
 -1.3410846241099186E+00 a       860     0    35     1    10
 -2.5430043366876203E+00 a       861     0    35     1    11
 -3.2219062538308030E-01 a       862     0    35     1    12
 -2.0437200420409388E-01 a       863     0    35     1    13
  1.7254427327962929E+00 a       864     0    35     1    14
 -8.6310429331056260E-01 a       865     0    35     1    15
 -4.0925396400014802E-01 a       866     0    35     1    16
  1.0183075021033472E+00 a       867     0    35     1    17
  1.1302781619215574E+00 a       868     0    35     1    18
 -9.6740992101568724E-01 a       869     0    35     1    19
 -3.0508606738928101E+00 a       870     0    35     1    20
 -8.7820624376402856E-01 a       871     0    35     1    21
 -9.8897466558306557E-01 a       872     0    35     1    22
  8.4647081569137006E-01 a       873     0    35     1    23
 -2.9728456439059081E+00 a       874     0    35     1    24
 -1.1932545255457014E+00 a       875     0    35     1    25
  1.9170640868919291E+00 a       876     0    36     1     1
 -1.2931640777380244E+00 a       877     0    36     1     2
  2.3883075978428221E-02 a       878     0    36     1     3
 -2.4699386618026589E+00 a       879     0    36     1     4
  4.3857959850279976E-01 a       880     0    36     1     5
  1.1618191772408546E+00 a       881     0    36     1     6
  4.0472065823039882E-01 a       882     0    36     1     7
 -2.0089221947957925E+00 a       883     0    36     1     8
  2.3040658202074242E+00 a       884     0    36     1     9
 -1.4263283038860664E+00 a       885     0    36     1    10
 -2.4039593527580774E+00 a       886     0    36     1    11
 -5.0620596289407926E-01 a       887     0    36     1    12
 -4.5769748429821500E-01 a       888     0    36     1    13
  1.7129117600493315E+00 a       889     0    36     1    14
 -1.0078053596172618E+00 a       890     0    36     1    15
 -1.6463423256076026E-01 a       891     0    36     1    16
  9.3940892562751155E-01 a       892     0    36     1    17
  8.3307829574559145E-01 a       893     0    36     1    18
 -7.2276338760955816E-01 a       894     0    36     1    19
 -3.1424584039628942E+00 a       895     0    36     1    20
 -8.9455715523497137E-01 a       896     0    36     1    21
 -1.2084593829979702E+00 a       897     0    36     1    22
  7.7539411995055918E-01 a       898     0    36     1    23
 -3.0332642085931711E+00 a       899     0    36     1    24
 -1.0321925329346151E+00 a       900     0    36     1    25
 -3.6183694774198699E-01 a       901     0    37     1     1
  6.0852804513112568E-01 a       902     0    37     1     2
 -6.2510183652607088E-01 a       903     0    37     1     3
  7.1561011632393312E-01 a       904     0    37     1     4
  3.3194719735177285E-02 a       905     0    37     1     5
  1.3327857133208989E+00 a       906     0    37     1     6
 -1.5074778701705682E+00 a       907     0    37     1     7
 -1.0471849890042568E+00 a       908     0    37     1     8
 -2.6847358589888565E-01 a       909     0    37     1     9
 -5.6609071933278621E-01 a       910     0    37     1    10
 -3.8750215703356217E-01 a       911     0    37     1    11
 -2.0677578363880751E+00 a       912     0    37     1    12
  8.9475031669828875E-01 a       913     0    37     1    13
 -1.1076391090155961E+00 a       914     0    37     1    14
  6.7287324839142482E-01 a       915     0    37     1    15
  6.0372552997403939E-01 a       916     0    37     1    16
 -6.3286775996940081E-01 a       917     0    37     1    17
  8.5791750787300680E-01 a       918     0    37     1    18
 -3.0585931218234869E-01 a       919     0    37     1    19
 -3.3179912614059767E-02 a       920     0    37     1    20
  9.4179028020187316E-01 a       921     0    37     1    21
  1.2226360513640522E+00 a       922     0    37     1    22
  2.9830821409947827E-01 a       923     0    37     1    23
 -2.0089639558952122E-01 a       924     0    37     1    24
 -9.5248601513118802E-01 a       925     0    37     1    25
 -3.1608980290383554E-01 a       926     0    38     1     1
  5.0100899805961208E-01 a       927     0    38     1     2
 -6.6992822057905399E-01 a       928     0    38     1     3
  6.4373211936965746E-01 a       929     0    38     1     4
  2.0408205679029345E-01 a       930     0    38     1     5
  1.5234500027895783E+00 a       931     0    38     1     6
 -1.4971687205551079E+00 a       932     0    38     1     7
 -7.4982801576794800E-01 a       933     0    38     1     8
 -3.9406584686046103E-01 a       934     0    38     1     9
 -5.9952674385263149E-01 a       935     0    38     1    10
 -2.8011035687415442E-01 a       936     0    38     1    11
 -1.8949483438570676E+00 a       937     0    38     1    12
  9.1190107825574795E-01 a       938     0    38     1    13
 -9.9814915482459221E-01 a       939     0    38     1    14
  5.1854958800061524E-01 a       940     0    38     1    15
  6.8543102504754472E-01 a       941     0    38     1    16
 -6.7501454154036289E-01 a       942     0    38     1    17
  8.5170808582843649E-01 a       943     0    38     1    18
 -3.5408768734204321E-01 a       944     0    38     1    19
  1.1122965067744198E-01 a       945     0    38     1    20
  1.1201344252193275E+00 a       946     0    38     1    21
  1.0313895186659534E+00 a       947     0    38     1    22
 -3.0785150377278536E-02 a       948     0    38     1    23
 -3.9327296656504113E-01 a       949     0    38     1    24
 -8.6299674483093769E-01 a       950     0    38     1    25
 -7.6152974203863422E-01 a       951     0    39     1     1
  6.5351440010864426E-01 a       952     0    39     1     2
  5.2441555433690845E-01 a       953     0    39     1     3
  1.5187126867920511E+00 a       954     0    39     1     4
  4.9244813498581963E-01 a       955     0    39     1     5
 -1.3452730450732271E+00 a       956     0    39     1     6
 -4.9214312761677370E-01 a       957     0    39     1     7
  1.4568019602916846E+00 a       958     0    39     1     8
 -1.9143568804999438E+00 a       959     0    39     1     9
  6.5912340371996281E-01 a       960     0    39     1    10
  2.0700971457651662E+00 a       961     0    39     1    11
 -2.1251855210836518E-01 a       962     0    39     1    12
  6.2371158340224153E-01 a       963     0    39     1    13
 -1.2372787876534264E+00 a       964     0    39     1    14
  1.5234545803711688E+00 a       965     0    39     1    15
  3.8515766262547008E-01 a       966     0    39     1    16
 -9.3002639444327129E-01 a       967     0    39     1    17
 -3.8893249990536338E-01 a       968     0    39     1    18
  1.6100903614301582E-01 a       969     0    39     1    19
  2.1260289007894908E+00 a       970     0    39     1    20
  5.8141363006630342E-01 a       971     0    39     1    21
  7.4522549703553775E-01 a       972     0    39     1    22
 -1.2265573609841986E-01 a       973     0    39     1    23
  2.1926573298371377E+00 a       974     0    39     1    24
  3.2261955545625776E-01 a       975     0    39     1    25
 -5.4139898676138698E-01 a       976     0    40     1     1
  7.9166791623663912E-01 a       977     0    40     1     2
  4.3375598176033220E-01 a       978     0    40     1     3
  1.6389884179091918E+00 a       979     0    40     1     4
  4.5858322647907745E-01 a       980     0    40     1     5
 -1.3475194405389774E+00 a       981     0    40     1     6
 -5.9438484326471708E-01 a       982     0    40     1     7
  1.3026059058335067E+00 a       983     0    40     1     8
 -2.0014423710264841E+00 a       984     0    40     1     9
  7.5281459899639813E-01 a       985     0    40     1    10
  2.0730963612663151E+00 a       986     0    40     1    11
 -3.0030374231772838E-01 a       987     0    40     1    12
  4.3229453510588789E-01 a       988     0    40     1    13
 -1.0593245243904934E+00 a       989     0    40     1    14
  1.3938751155245412E+00 a       990     0    40     1    15
  5.1752847336397190E-01 a       991     0    40     1    16
 -9.2174063302043652E-01 a       992     0    40     1    17
 -3.5504770131670182E-01 a       993     0    40     1    18
 -1.3983987995133040E-01 a       994     0    40     1    19
  2.1451221493388761E+00 a       995     0    40     1    20
  5.9500086321677248E-01 a       996     0    40     1    21
  7.9970488101896342E-01 a       997     0    40     1    22
 -1.9222050243539604E-01 a       998     0    40     1    23
  2.1429192206302763E+00 a       999     0    40     1    24
  3.5336276693141538E-01 a      1000     0    40     1    25
 -6.8972909045504771E-01 a      1001     0    41     1     1
  3.8557103034314855E-01 a      1002     0    41     1     2
  7.1972930310599159E-01 a      1003     0    41     1     3
 -4.9977487626218348E-01 a      1004     0    41     1     4
 -2.7751893463732830E-01 a      1005     0    41     1     5
 -9.3618897109511184E-02 a      1006     0    41     1     6
 -1.0992517419452033E+00 a      1007     0    41     1     7
 -4.0696341498444179E-02 a      1008     0    41     1     8
 -3.1564477029053828E-01 a      1009     0    41     1     9
  1.6435213243126936E+00 a      1010     0    41     1    10
  3.4021973130257938E-01 a      1011     0    41     1    11
  1.2636009815797125E-01 a      1012     0    41     1    12
  1.4085907996027611E+00 a      1013     0    41     1    13
  6.2034792593658739E-01 a      1014     0    41     1    14
  1.0951254417077634E+00 a      1015     0    41     1    15
 -7.9431606697210033E-01 a      1016     0    41     1    16
  5.3261617956645324E-01 a      1017     0    41     1    17
 -7.1266019075824705E-01 a      1018     0    41     1    18
 -1.3961903485422482E+00 a      1019     0    41     1    19
 -5.6728501456115543E-01 a      1020     0    41     1    20
  6.2822964179791196E-01 a      1021     0    41     1    21
  9.0274679327378454E-02 a      1022     0    41     1    22
 -4.4911906783064126E-01 a      1023     0    41     1    23
 -1.7319959625061146E-01 a      1024     0    41     1    24
 -4.7963740666492327E-01 a      1025     0    41     1    25
 -6.7207747590113620E-01 a      1026     0    42     1     1
  1.3519008888530246E-01 a      1027     0    42     1     2
  5.7241753250665128E-01 a      1028     0    42     1     3
 -4.9014900811022105E-01 a      1029     0    42     1     4
  1.1478601980279356E-02 a      1030     0    42     1     5
 -9.4549706067249176E-02 a      1031     0    42     1     6
 -8.3436778793855670E-01 a      1032     0    42     1     7
 -2.8744661223097483E-02 a      1033     0    42     1     8
 -2.8999462223414829E-01 a      1034     0    42     1     9
  1.4868554404264678E+00 a      1035     0    42     1    10
  3.1755356603514578E-01 a      1036     0    42     1    11
  1.3582811849664869E-01 a      1037     0    42     1    12
  1.0891527426790313E+00 a      1038     0    42     1    13
  4.8075386885463178E-01 a      1039     0    42     1    14
  1.1779740563352290E+00 a      1040     0    42     1    15
 -7.6202291892312024E-01 a      1041     0    42     1    16
  5.3780709426393558E-01 a      1042     0    42     1    17
 -8.2729338616756010E-01 a      1043     0    42     1    18
 -1.4952778850975990E+00 a      1044     0    42     1    19
 -5.3485537059194044E-01 a      1045     0    42     1    20
  7.7339344533197574E-01 a      1046     0    42     1    21
  3.9965254773464763E-02 a      1047     0    42     1    22
 -5.3551289307627625E-01 a      1048     0    42     1    23
 -3.0635222672932882E-01 a      1049     0    42     1    24
 -5.1114092658269872E-01 a      1050     0    42     1    25
  1.0784579575310382E+00 a      1051     0    43     1     1
 -9.5219960883700772E-01 a      1052     0    43     1     2
  1.1168791669119249E+00 a      1053     0    43     1     3
  3.7585785685281159E-01 a      1054     0    43     1     4
 -1.0365316486119160E+00 a      1055     0    43     1     5
 -4.6683488542530055E-01 a      1056     0    43     1     6
 -8.6025943459186627E-01 a      1057     0    43     1     7
  3.4674110909431830E+00 a      1058     0    43     1     8
  8.6090099355561478E-01 a      1059     0    43     1     9
  1.4430890569670527E+00 a      1060     0    43     1    10
  2.9877753622152512E+00 a      1061     0    43     1    11
 -1.1992182518345114E+00 a      1062     0    43     1    12
  3.0451222531346395E-03 a      1063     0    43     1    13
  1.6043778367742982E+00 a      1064     0    43     1    14
 -3.4204820107535167E-01 a      1065     0    43     1    15
  1.9218942766814603E-01 a      1066     0    43     1    16
 -1.1298779336520435E+00 a      1067     0    43     1    17
 -1.8438728053916187E-01 a      1068     0    43     1    18
  1.2106616092101739E+00 a      1069     0    43     1    19
 -9.6117509980781790E-01 a      1070     0    43     1    20
  7.7351514470800820E-01 a      1071     0    43     1    21
 -1.8133278545785139E-01 a      1072     0    43     1    22
 -2.2613473549035841E+00 a      1073     0    43     1    23
 -1.8046995031222639E-02 a      1074     0    43     1    24
  2.1243794631141544E+00 a      1075     0    43     1    25
 -6.9343066953723692E-02 a      1076     0    44     1     1
  5.8656232056263957E-01 a      1077     0    44     1     2
 -3.4133188622238758E-01 a      1078     0    44     1     3
 -4.3560346972284239E-02 a      1079     0    44     1     4
 -3.5449561266677748E-01 a      1080     0    44     1     5
 -3.9923870483848140E-01 a      1081     0    44     1     6
  1.3261809076220649E-01 a      1082     0    44     1     7
 -3.2947608653524404E-02 a      1083     0    44     1     8
 -3.6147037613711125E-01 a      1084     0    44     1     9
 -6.8456145555759379E-02 a      1085     0    44     1    10
  8.4607353233301333E-02 a      1086     0    44     1    11
 -4.8530899024221069E-01 a      1087     0    44     1    12
 -1.5834371105543016E-01 a      1088     0    44     1    13
  1.7382028065907520E-01 a      1089     0    44     1    14
  5.8098325668974504E-01 a      1090     0    44     1    15
  1.4856351782021149E-01 a      1091     0    44     1    16
 -6.8184930749820516E-02 a      1092     0    44     1    17
 -1.0496832555114452E-01 a      1093     0    44     1    18
 -2.0767803748175909E-01 a      1094     0    44     1    19
  2.3939661159565595E-01 a      1095     0    44     1    20
 -6.0357821975779366E-02 a      1096     0    44     1    21
 -2.3328590931741672E-01 a      1097     0    44     1    22
 -2.5701969628345832E-02 a      1098     0    44     1    23
 -7.0780336300454896E-02 a      1099     0    44     1    24
 -4.9980808068791399E-01 a      1100     0    44     1    25
  1.4782142796704695E-01 a      1101     0    45     1     1
  3.8468791514441003E-01 a      1102     0    45     1     2
 -1.0564988163855543E-01 a      1103     0    45     1     3
 -1.3550156726040768E-01 a      1104     0    45     1     4
 -1.6999392679957773E-01 a      1105     0    45     1     5
 -3.1422484733624173E-01 a      1106     0    45     1     6
  2.7080795212783204E-01 a      1107     0    45     1     7
  4.4580649295473201E-02 a      1108     0    45     1     8
 -2.4950110498206157E-01 a      1109     0    45     1     9
  8.7303493580405164E-02 a      1110     0    45     1    10
  2.9141617462667656E-02 a      1111     0    45     1    11
 -5.4021929452060569E-01 a      1112     0    45     1    12
 -1.2675221804792416E-01 a      1113     0    45     1    13
  6.1592651061571628E-02 a      1114     0    45     1    14
  4.7200468715965177E-01 a      1115     0    45     1    15
  3.7360922135588559E-02 a      1116     0    45     1    16
 -1.7750031226173901E-01 a      1117     0    45     1    17
 -2.8931717408868607E-01 a      1118     0    45     1    18
 -1.2567534388562573E-01 a      1119     0    45     1    19
  5.6712459253461529E-02 a      1120     0    45     1    20
 -4.8198937397128119E-02 a      1121     0    45     1    21
 -1.0432979299149917E-01 a      1122     0    45     1    22
  2.0141067845243146E-01 a      1123     0    45     1    23
  7.9847580020072903E-02 a      1124     0    45     1    24
 -5.0483522168607853E-01 a      1125     0    45     1    25
 -4.7238772662671646E-01 a      1126     0    46     1     1
 -6.0342197038770573E-01 a      1127     0    46     1     2
  3.1200078976866441E-02 a      1128     0    46     1     3
 -4.6591789623818863E-01 a      1129     0    46     1     4
 -3.3994225805111289E-01 a      1130     0    46     1     5
  4.2219780523344586E-01 a      1131     0    46     1     6
 -6.1033647739593877E-01 a      1132     0    46     1     7
 -1.1188355008090187E-02 a      1133     0    46     1     8
 -2.0535910951717246E-01 a      1134     0    46     1     9
  1.5400357144753773E+00 a      1135     0    46     1    10
  8.1249121270198632E-01 a      1136     0    46     1    11
 -1.0795166915999928E-01 a      1137     0    46     1    12
  5.4029916164834393E-02 a      1138     0    46     1    13
  1.6431412977643511E-01 a      1139     0    46     1    14
  1.2071356960678985E+00 a      1140     0    46     1    15
 -1.0790086676176514E+00 a      1141     0    46     1    16
  3.7239788724859674E-01 a      1142     0    46     1    17
 -4.5727326390695833E-01 a      1143     0    46     1    18
 -9.2485816260877296E-01 a      1144     0    46     1    19
 -7.9934896492532592E-01 a      1145     0    46     1    20
  3.7470973474484032E-01 a      1146     0    46     1    21
 -4.6224545223373603E-01 a      1147     0    46     1    22
 -3.7604810974287084E-01 a      1148     0    46     1    23
  5.9128152850681814E-01 a      1149     0    46     1    24
 -4.8750225058134133E-01 a      1150     0    46     1    25
 -7.5428678782588954E-01 a      1151     0    47     1     1
 -5.0120607923665050E-01 a      1152     0    47     1     2
  2.2679423172813107E-01 a      1153     0    47     1     3
 -2.9701758438973880E-01 a      1154     0    47     1     4
 -5.3217753806691492E-01 a      1155     0    47     1     5
  6.9067884746695607E-01 a      1156     0    47     1     6
 -8.4491053343245626E-01 a      1157     0    47     1     7
 -9.0153991431635994E-02 a      1158     0    47     1     8
 -5.2482182015576195E-02 a      1159     0    47     1     9
  1.5177574519263286E+00 a      1160     0    47     1    10
  5.1378778855391005E-01 a      1161     0    47     1    11
  5.3377968825372032E-02 a      1162     0    47     1    12
  2.2080316330612923E-01 a      1163     0    47     1    13
  4.0717481874776008E-02 a      1164     0    47     1    14
  1.2036477902283544E+00 a      1165     0    47     1    15
 -7.8567422067174952E-01 a      1166     0    47     1    16
  2.0331086133743254E-01 a      1167     0    47     1    17
 -3.4723285844930352E-01 a      1168     0    47     1    18
 -1.1187681303567012E+00 a      1169     0    47     1    19
 -9.1054330881339507E-01 a      1170     0    47     1    20
  2.9662037676212311E-01 a      1171     0    47     1    21
 -6.9973969805884362E-01 a      1172     0    47     1    22
 -1.3581946255549285E-01 a      1173     0    47     1    23
  5.2452434190417296E-01 a      1174     0    47     1    24
 -6.5920813779948750E-01 a      1175     0    47     1    25
  2.1722302189893863E-02 a      1176     0    48     1     1
 -3.3689185979213238E-01 a      1177     0    48     1     2
 -7.6774850551385376E-01 a      1178     0    48     1     3
 -2.8698822855824441E-01 a      1179     0    48     1     4
 -4.7095399575464908E-02 a      1180     0    48     1     5
 -3.7162777328018731E-01 a      1181     0    48     1     6
  2.2970334265755693E-01 a      1182     0    48     1     7
 -7.1191423175236590E-01 a      1183     0    48     1     8
 -2.0943283916923333E-01 a      1184     0    48     1     9
 -4.1097178531520523E-01 a      1185     0    48     1    10
  8.1196582910401549E-01 a      1186     0    48     1    11
 -2.8970403968149278E-01 a      1187     0    48     1    12
 -1.8451884282584201E+00 a      1188     0    48     1    13
  5.5320980164383760E-01 a      1189     0    48     1    14
  6.6843075396104526E-02 a      1190     0    48     1    15
  4.2592677860060257E-01 a      1191     0    48     1    16
 -2.5177830884510810E-01 a      1192     0    48     1    17
  5.9431258585234159E-01 a      1193     0    48     1    18
 -9.6544646368381759E-01 a      1194     0    48     1    19
 -2.7941442752160178E-02 a      1195     0    48     1    20
 -3.7101581816997936E-01 a      1196     0    48     1    21
  9.0931672514329809E-01 a      1197     0    48     1    22
  7.9703197972648610E-01 a      1198     0    48     1    23
  8.7486046707026655E-01 a      1199     0    48     1    24
 -6.9460803251670811E-01 a      1200     0    48     1    25
  9.4610344741165142E-01 a      1201     0    49     1     1
 -9.0189658169061146E-02 a      1202     0    49     1     2
  4.4618347986794110E-01 a      1203     0    49     1     3
 -4.5420950583747155E-01 a      1204     0    49     1     4
 -2.1928112504788472E-01 a      1205     0    49     1     5
  4.8927252946216543E-01 a      1206     0    49     1     6
 -2.7879210403450646E-02 a      1207     0    49     1     7
 -4.4834637309604491E-01 a      1208     0    49     1     8
  6.4175387781068971E-01 a      1209     0    49     1     9
  2.2881614231485045E-01 a      1210     0    49     1    10
 -3.5981481709312657E-01 a      1211     0    49     1    11
 -7.6236991168301918E-02 a      1212     0    49     1    12
  8.2598573441501177E-02 a      1213     0    49     1    13
 -4.3431126901529676E-01 a      1214     0    49     1    14
  7.3847631491763516E-02 a      1215     0    49     1    15
  3.3440067923472855E-01 a      1216     0    49     1    16
 -7.3322520896543897E-02 a      1217     0    49     1    17
 -2.4277857331580238E-01 a      1218     0    49     1    18
  5.6121103876429212E-01 a      1219     0    49     1    19
  3.4784211545458887E-01 a      1220     0    49     1    20
  2.0883180508896340E-01 a      1221     0    49     1    21
  3.5190723859956169E-01 a      1222     0    49     1    22
 -9.7637864609892683E-02 a      1223     0    49     1    23
 -3.6331840850014901E-01 a      1224     0    49     1    24
  4.8563354085943516E-01 a      1225     0    49     1    25
  7.4614018891896217E-01 a      1226     0    50     1     1
  2.2966004334208607E-02 a      1227     0    50     1     2
  3.4655062679036686E-01 a      1228     0    50     1     3
 -3.6310229250520198E-01 a      1229     0    50     1     4
 -3.2798815296309347E-02 a      1230     0    50     1     5
  3.2035123986656355E-01 a      1231     0    50     1     6
 -2.4527008149299685E-03 a      1232     0    50     1     7
 -4.1097575390518526E-01 a      1233     0    50     1     8
  6.6871771189524687E-01 a      1234     0    50     1     9
  1.0608025459025193E-01 a      1235     0    50     1    10
 -2.9419354335961168E-01 a      1236     0    50     1    11
 -5.4849729364432991E-02 a      1237     0    50     1    12
  9.7455536599581200E-02 a      1238     0    50     1    13
 -4.0494581359211207E-01 a      1239     0    50     1    14
  4.7434635147130248E-02 a      1240     0    50     1    15
  2.6710783098750884E-01 a      1241     0    50     1    16
 -4.0797546935218629E-03 a      1242     0    50     1    17
 -1.4386574399369514E-01 a      1243     0    50     1    18
  7.1300049255479159E-01 a      1244     0    50     1    19
  4.1099046949732637E-01 a      1245     0    50     1    20
  2.8553475887640456E-01 a      1246     0    50     1    21
  1.4955369578340108E-01 a      1247     0    50     1    22
 -1.6111829368035174E-01 a      1248     0    50     1    23
 -1.2714160465795321E-01 a      1249     0    50     1    24
  4.6796368323426957E-01 a      1250     0    50     1    25
  4.7868329544428961E-01 a      1251     0    51     1     1
  5.9149389723448087E-01 a      1252     0    51     1     2
 -7.3636524596237851E-01 a      1253     0    51     1     3
  9.5552469727043110E-01 a      1254     0    51     1     4
  3.5721656698492005E-01 a      1255     0    51     1     5
 -7.6265304725112704E-01 a      1256     0    51     1     6
  8.8516531804016430E-01 a      1257     0    51     1     7
  6.3710257913813340E-01 a      1258     0    51     1     8
 -1.7483103304881145E-01 a      1259     0    51     1     9
 -1.2451682108471847E+00 a      1260     0    51     1    10
 -9.0969775066463165E-01 a      1261     0    51     1    11
  5.0338303341802060E-01 a      1262     0    51     1    12
 -1.1681898886857525E-01 a      1263     0    51     1    13
  1.8651561553528562E-01 a      1264     0    51     1    14
 -1.0572837816750957E+00 a      1265     0    51     1    15
  1.0374231551682953E+00 a      1266     0    51     1    16
 -1.1557856585481796E-01 a      1267     0    51     1    17
  3.3139985820830614E-01 a      1268     0    51     1    18
  7.0725905012993484E-01 a      1269     0    51     1    19
  5.3744101944367240E-01 a      1270     0    51     1    20
 -7.3346219109334081E-03 a      1271     0    51     1    21
 -3.9034322701335201E-02 a      1272     0    51     1    22
  1.5846790049732001E-01 a      1273     0    51     1    23
 -7.2609478934881100E-01 a      1274     0    51     1    24
  8.0415396454380317E-01 a      1275     0    51     1    25
  3.0796867747906126E-01 a      1276     0    52     1     1
  6.4835697446871488E-01 a      1277     0    52     1     2
 -4.4763083249882069E-01 a      1278     0    52     1     3
  1.1322139416757293E+00 a      1279     0    52     1     4
  3.9523745307773950E-01 a      1280     0    52     1     5
 -7.5353161110352440E-01 a      1281     0    52     1     6
  1.1495336815532766E+00 a      1282     0    52     1     7
  5.0759239477685547E-01 a      1283     0    52     1     8
 -2.3386530989782417E-01 a      1284     0    52     1     9
 -1.2104746997639488E+00 a      1285     0    52     1    10
 -9.8069254450050702E-01 a      1286     0    52     1    11
  3.9381771000414467E-01 a      1287     0    52     1    12
 -1.7921331061836850E-02 a      1288     0    52     1    13
 -8.1937801563281856E-02 a      1289     0    52     1    14
 -1.1858967677585488E+00 a      1290     0    52     1    15
  9.3146195929687636E-01 a      1291     0    52     1    16
  2.5093941460651345E-02 a      1292     0    52     1    17
  2.0400377530053387E-01 a      1293     0    52     1    18
  6.2537887045923735E-01 a      1294     0    52     1    19
  6.7992543233456548E-01 a      1295     0    52     1    20
  8.2045209489616439E-02 a      1296     0    52     1    21
 -5.5705001637367746E-02 a      1297     0    52     1    22
  5.8601201628406333E-02 a      1298     0    52     1    23
 -9.6034246141415391E-01 a      1299     0    52     1    24
  8.4894822814088045E-01 a      1300     0    52     1    25
 -3.7021111781330968E-01 a      1301     0    53     1     1
  5.5755842118883375E-02 a      1302     0    53     1     2
 -1.3047286798635889E+00 a      1303     0    53     1     3
 -1.6558810322916628E-01 a      1304     0    53     1     4
  1.4083946872056772E+00 a      1305     0    53     1     5
 -3.3514594258750580E-01 a      1306     0    53     1     6
  8.3103810465658112E-01 a      1307     0    53     1     7
 -1.2697287186857904E+00 a      1308     0    53     1     8
  2.1228291786247794E-01 a      1309     0    53     1     9
 -2.3273220980673104E+00 a      1310     0    53     1    10
 -2.2178069427462388E+00 a      1311     0    53     1    11
  1.3583958328792136E+00 a      1312     0    53     1    12
  2.4636415244477616E+00 a      1313     0    53     1    13
 -8.7040538023592917E-01 a      1314     0    53     1    14
 -6.1152457234765312E-01 a      1315     0    53     1    15
  5.8487811954896829E-01 a      1316     0    53     1    16
 -7.6972308828157798E-01 a      1317     0    53     1    17
  6.0969995406502231E-01 a      1318     0    53     1    18
 -1.8796593681259280E-01 a      1319     0    53     1    19
  6.7208179161552484E-01 a      1320     0    53     1    20
 -7.8385627452634143E-01 a      1321     0    53     1    21
 -5.7054689919470290E-02 a      1322     0    53     1    22
  1.3183216749123856E+00 a      1323     0    53     1    23
 -7.2921786632237939E-01 a      1324     0    53     1    24
 -1.5296958349691780E+00 a      1325     0    53     1    25
  5.5214525954452509E-01 a      1326     0    54     1     1
 -4.9722410644540299E-01 a      1327     0    54     1     2
 -1.2400850451207694E+00 a      1328     0    54     1     3
  1.1302564573564984E+00 a      1329     0    54     1     4
  1.3945943179767540E-02 a      1330     0    54     1     5
  3.0130844452932921E-02 a      1331     0    54     1     6
  1.2853019078774195E+00 a      1332     0    54     1     7
  8.5539493144012002E-01 a      1333     0    54     1     8
 -3.6182174040431940E-02 a      1334     0    54     1     9
 -1.6485243805937293E+00 a      1335     0    54     1    10
 -8.0153352123474297E-02 a      1336     0    54     1    11
  7.4149015320394654E-02 a      1337     0    54     1    12
 -1.7045039622495006E+00 a      1338     0    54     1    13
 -7.6517101039758495E-01 a      1339     0    54     1    14
 -1.0312940679875768E+00 a      1340     0    54     1    15
  1.0537984471453263E+00 a      1341     0    54     1    16
 -3.1356430516705230E-01 a      1342     0    54     1    17
  9.9363400534389212E-01 a      1343     0    54     1    18
  1.2571069506491976E+00 a      1344     0    54     1    19
  4.0678104541920912E-01 a      1345     0    54     1    20
 -7.8731412899417486E-01 a      1346     0    54     1    21
 -9.9775242957610799E-01 a      1347     0    54     1    22
  7.3401180777261787E-01 a      1348     0    54     1    23
  4.1321155363153317E-01 a      1349     0    54     1    24
  1.1297111204930610E+00 a      1350     0    54     1    25
  4.1965269105454162E-01 a      1351     0    55     1     1
 -4.8887772498886845E-01 a      1352     0    55     1     2
 -1.1727027488172339E+00 a      1353     0    55     1     3
  1.3077035697380262E+00 a      1354     0    55     1     4
  1.1493785654867418E-01 a      1355     0    55     1     5
  1.2364048900755248E-01 a      1356     0    55     1     6
  1.2566043481528133E+00 a      1357     0    55     1     7
  6.8833484976252313E-01 a      1358     0    55     1     8
  4.6295223234595298E-02 a      1359     0    55     1     9
 -1.5841717424110753E+00 a      1360     0    55     1    10
 -9.9296124444627445E-02 a      1361     0    55     1    11
  3.2801262926774288E-01 a      1362     0    55     1    12
 -1.6652888927639353E+00 a      1363     0    55     1    13
 -5.3024219183976296E-01 a      1364     0    55     1    14
 -1.1994273451567146E+00 a      1365     0    55     1    15
  9.9914516720754809E-01 a      1366     0    55     1    16
 -1.7664792101792995E-01 a      1367     0    55     1    17
  8.4598946170807354E-01 a      1368     0    55     1    18
  1.5205162815222384E+00 a      1369     0    55     1    19
  2.5047442343244863E-01 a      1370     0    55     1    20
 -8.3802350920169089E-01 a      1371     0    55     1    21
 -1.0033738600413771E+00 a      1372     0    55     1    22
  6.1548468375228749E-01 a      1373     0    55     1    23
  4.3009098313694960E-01 a      1374     0    55     1    24
  9.7203040330686563E-01 a      1375     0    55     1    25
  4.7883715411515732E-01 a      1376     0    56     1     1
 -1.0898975582104191E-01 a      1377     0    56     1     2
 -1.8873490290581441E-01 a      1378     0    56     1     3
  3.6011285486193889E-01 a      1379     0    56     1     4
  1.1682965629681123E-01 a      1380     0    56     1     5
  9.1773479779535844E-02 a      1381     0    56     1     6
  1.2805008757907027E-01 a      1382     0    56     1     7
  3.8632746427518135E-02 a      1383     0    56     1     8
  2.2178657949673228E-01 a      1384     0    56     1     9
 -2.2867023997842476E-01 a      1385     0    56     1    10
 -2.2643811521597440E-01 a      1386     0    56     1    11
  2.0209556627701625E-01 a      1387     0    56     1    12
 -4.0349900516352377E-01 a      1388     0    56     1    13
 -1.1204228724738514E+00 a      1389     0    56     1    14
  3.0250294140573092E-01 a      1390     0    56     1    15
  9.0502954194682683E-01 a      1391     0    56     1    16
 -5.4395523738506757E-01 a      1392     0    56     1    17
  1.1006370431464660E+00 a      1393     0    56     1    18
  1.0786163128611823E+00 a      1394     0    56     1    19
  2.3970738161815413E+00 a      1395     0    56     1    20
 -3.6177960292828115E-01 a      1396     0    56     1    21
 -2.7303512157020576E-01 a      1397     0    56     1    22
  5.9998106069261703E-01 a      1398     0    56     1    23
  4.8281350164984616E-01 a      1399     0    56     1    24
  1.2465569187404411E-02 a      1400     0    56     1    25
  3.5774917080910346E-01 a      1401     0    57     1     1
 -2.5093949739500004E-01 a      1402     0    57     1     2
 -3.3653935142261815E-01 a      1403     0    57     1     3
  4.0156440771875362E-01 a      1404     0    57     1     4
  9.0700767133806370E-02 a      1405     0    57     1     5
  2.5408302725870802E-01 a      1406     0    57     1     6
  5.0282338450850200E-02 a      1407     0    57     1     7
  1.4525667367157546E-01 a      1408     0    57     1     8
  5.0234118676025674E-01 a      1409     0    57     1     9
 -5.0963941710590344E-01 a      1410     0    57     1    10
 -1.3597135151805525E-03 a      1411     0    57     1    11
  3.5523740675560589E-01 a      1412     0    57     1    12
 -2.8717974672662178E-01 a      1413     0    57     1    13
 -1.1274722571937148E+00 a      1414     0    57     1    14
  1.4857962437352426E-01 a      1415     0    57     1    15
  6.4202755401726408E-01 a      1416     0    57     1    16
 -4.9467165861273454E-01 a      1417     0    57     1    17
  1.0067231357181077E+00 a      1418     0    57     1    18
  1.1206313272418955E+00 a      1419     0    57     1    19
  2.1862664286669111E+00 a      1420     0    57     1    20
 -2.8076342678397659E-01 a      1421     0    57     1    21
 -2.8290613184998531E-01 a      1422     0    57     1    22
  6.0156134349174928E-01 a      1423     0    57     1    23
  3.7866812458768290E-01 a      1424     0    57     1    24
  3.4524668081996987E-02 a      1425     0    57     1    25
 -1.2169929240900772E-01 a      1426     0    58     1     1
 -3.5524382799387710E-01 a      1427     0    58     1     2
  9.4723361387650112E-02 a      1428     0    58     1     3
  6.4165006974787897E-01 a      1429     0    58     1     4
  1.5741325983934390E-01 a      1430     0    58     1     5
  1.2435738485914996E-01 a      1431     0    58     1     6
 -1.1846458533819371E+00 a      1432     0    58     1     7
  1.4054875297815401E+00 a      1433     0    58     1     8
  5.2237558713389464E-03 a      1434     0    58     1     9
  1.7401160578039818E+00 a      1435     0    58     1    10
  7.7554391035762893E-01 a      1436     0    58     1    11
 -8.8914067941732677E-02 a      1437     0    58     1    12
 -1.5404434270444012E-01 a      1438     0    58     1    13
  3.0933582421151511E-02 a      1439     0    58     1    14
  1.1319327734665159E+00 a      1440     0    58     1    15
 -7.6707623333291064E-01 a      1441     0    58     1    16
 -8.3017603528844283E-02 a      1442     0    58     1    17
 -4.0550363154151121E-02 a      1443     0    58     1    18
 -3.2626200910278613E-01 a      1444     0    58     1    19
 -1.7926115271254248E-01 a      1445     0    58     1    20
 -3.5044399741759609E-02 a      1446     0    58     1    21
 -8.3150550862734318E-01 a      1447     0    58     1    22
  4.5530280130812584E-01 a      1448     0    58     1    23
 -1.1724506358223650E-02 a      1449     0    58     1    24
  1.3802337230056503E+00 a      1450     0    58     1    25
 -3.4732742593021332E-01 a      1451     0    59     1     1
 -4.7999442125532638E-01 a      1452     0    59     1     2
  3.3449987629799727E-01 a      1453     0    59     1     3
  6.8501667585463610E-01 a      1454     0    59     1     4
 -7.6851069711652856E-02 a      1455     0    59     1     5
  1.9520972637854503E-01 a      1456     0    59     1     6
 -1.0530278443667993E+00 a      1457     0    59     1     7
  1.3075360712487156E+00 a      1458     0    59     1     8
  1.6469196279018203E-01 a      1459     0    59     1     9
  1.6149824122435605E+00 a      1460     0    59     1    10
  9.7402277035933493E-01 a      1461     0    59     1    11
  1.6974107341441980E-01 a      1462     0    59     1    12
 -9.7302094757024775E-03 a      1463     0    59     1    13
  1.4363622072914203E-01 a      1464     0    59     1    14
  9.0204803801908284E-01 a      1465     0    59     1    15
 -7.3298039768272161E-01 a      1466     0    59     1    16
 -3.2446189986797347E-01 a      1467     0    59     1    17
 -7.9551591275022239E-03 a      1468     0    59     1    18
 -4.1790210916177789E-01 a      1469     0    59     1    19
 -2.3507741949034485E-02 a      1470     0    59     1    20
 -2.5215562391877627E-01 a      1471     0    59     1    21
 -9.6844302313270103E-01 a      1472     0    59     1    22
  1.9837840286210917E-01 a      1473     0    59     1    23
 -6.9299377771826418E-02 a      1474     0    59     1    24
  1.2153434329636466E+00 a      1475     0    59     1    25
 -3.3264672478100110E-02 a      1476     0    60     1     1
  1.0045252147409087E-01 a      1477     0    60     1     2
 -5.6433403284471710E-02 a      1478     0    60     1     3
  1.2016760282369141E-01 a      1479     0    60     1     4
 -3.5472510836130089E-01 a      1480     0    60     1     5
  3.9009406145290981E-01 a      1481     0    60     1     6
 -3.7662865436005927E-01 a      1482     0    60     1     7
  3.7753135128410456E-02 a      1483     0    60     1     8
 -7.0157029126679454E-02 a      1484     0    60     1     9
  2.8683886809838371E-01 a      1485     0    60     1    10
 -2.5317052459377948E-01 a      1486     0    60     1    11
 -9.5565334663563303E-02 a      1487     0    60     1    12
 -1.3143219822571464E-01 a      1488     0    60     1    13
 -5.7360125608754989E-02 a      1489     0    60     1    14
 -1.6351683203390230E-01 a      1490     0    60     1    15
  7.9180490360846378E-01 a      1491     0    60     1    16
  7.2452486125798010E-01 a      1492     0    60     1    17
 -6.2315022435172962E-01 a      1493     0    60     1    18
  4.0360701236387514E-01 a      1494     0    60     1    19
  5.1449302206659298E-01 a      1495     0    60     1    20
  1.7950611118051049E-01 a      1496     0    60     1    21
 -1.8473217201544279E-01 a      1497     0    60     1    22
  3.0587533307465298E-01 a      1498     0    60     1    23
 -2.1671800337942101E-01 a      1499     0    60     1    24
 -2.1901579359468526E-01 a      1500     0    60     1    25
  1.1793187672340708E+00 a      1501     0    61     1     1
  8.1115395598263151E-01 a      1502     0    61     1     2
 -5.0476182924950164E-01 a      1503     0    61     1     3
  5.2252083080282419E-01 a      1504     0    61     1     4
 -9.0645867676225877E-01 a      1505     0    61     1     5
 -2.1545407330864470E-02 a      1506     0    61     1     6
  7.6869278042052080E-01 a      1507     0    61     1     7
 -9.4498530624310906E-01 a      1508     0    61     1     8
  2.4091369338678442E-01 a      1509     0    61     1     9
  5.3467039935256522E-01 a      1510     0    61     1    10
 -1.1162532812345718E+00 a      1511     0    61     1    11
  1.3852138877832357E-01 a      1512     0    61     1    12
  4.6573675530674669E-01 a      1513     0    61     1    13
  1.0327729426164936E-01 a      1514     0    61     1    14
  8.5137423495618292E-01 a      1515     0    61     1    15
 -2.6407111788208681E-01 a      1516     0    61     1    16
  4.1819643363423564E-01 a      1517     0    61     1    17
 -6.2453224714329303E-01 a      1518     0    61     1    18
 -4.9019119429469564E-02 a      1519     0    61     1    19
 -2.9219277819181152E-02 a      1520     0    61     1    20
 -4.0645423922167451E-01 a      1521     0    61     1    21
 -1.9009129784142878E-01 a      1522     0    61     1    22
 -5.1007390391994689E-01 a      1523     0    61     1    23
  1.0813678512834635E-01 a      1524     0    61     1    24
 -1.4169788066938524E-01 a      1525     0    61     1    25
  1.0355282247502191E+00 a      1526     0    62     1     1
  8.9989625233444193E-01 a      1527     0    62     1     2
 -4.6917319756103504E-01 a      1528     0    62     1     3
  5.0888566710179017E-01 a      1529     0    62     1     4
 -7.2548101944231846E-01 a      1530     0    62     1     5
 -1.1130165143271269E-01 a      1531     0    62     1     6
  7.5626314149220686E-01 a      1532     0    62     1     7
 -1.1459903934831837E+00 a      1533     0    62     1     8
  4.7041257393553226E-01 a      1534     0    62     1     9
  4.8536865778848148E-01 a      1535     0    62     1    10
 -9.8796965712519003E-01 a      1536     0    62     1    11
  4.0011164001820926E-01 a      1537     0    62     1    12
  4.9203209296723438E-01 a      1538     0    62     1    13
  3.1930852313404745E-01 a      1539     0    62     1    14
  5.4889405183068241E-01 a      1540     0    62     1    15
 -1.2784884804099408E-01 a      1541     0    62     1    16
  4.3898376782875603E-01 a      1542     0    62     1    17
 -3.2829672923707853E-01 a      1543     0    62     1    18
  1.0994674971451632E-02 a      1544     0    62     1    19
 -1.1245014550109832E-01 a      1545     0    62     1    20
 -4.9038487805806819E-01 a      1546     0    62     1    21
 -4.6876591835658399E-01 a      1547     0    62     1    22
 -5.1758500489626558E-01 a      1548     0    62     1    23
  2.2040066460604027E-01 a      1549     0    62     1    24
 -2.0318922380200433E-01 a      1550     0    62     1    25
 -1.4684985901221713E-02 a      1551     0    63     1     1
 -2.9397631385208467E-01 a      1552     0    63     1     2
  8.6374058760045211E-02 a      1553     0    63     1     3
  4.8546074862957346E-02 a      1554     0    63     1     4
 -2.6931192931533443E-01 a      1555     0    63     1     5
 -1.4969273736119768E-01 a      1556     0    63     1     6
 -9.6488843040754557E-02 a      1557     0    63     1     7
 -5.1012225620309926E-01 a      1558     0    63     1     8
 -1.4549535723979073E-01 a      1559     0    63     1     9
  3.3392828153991322E-01 a      1560     0    63     1    10
  4.4591863033509732E-01 a      1561     0    63     1    11
  4.4063640735995546E-01 a      1562     0    63     1    12
  5.1372246284421913E-02 a      1563     0    63     1    13
  3.1520455813517323E-01 a      1564     0    63     1    14
 -1.8488597383438243E-01 a      1565     0    63     1    15
  2.1119356948080634E-01 a      1566     0    63     1    16
  4.2661296820350741E-01 a      1567     0    63     1    17
  1.2069767718773210E-01 a      1568     0    63     1    18
 -1.9326142293047172E-01 a      1569     0    63     1    19
  1.8785127258392451E-01 a      1570     0    63     1    20
  3.3158035202028363E-01 a      1571     0    63     1    21
 -1.3092265743886164E-01 a      1572     0    63     1    22
  1.2983620709768817E-01 a      1573     0    63     1    23
 -4.2001984310305923E-01 a      1574     0    63     1    24
 -6.0822319788073301E-02 a      1575     0    63     1    25
  1.0012854197268518E-01 a      1576     0    64     1     1
 -1.0031111662968280E-01 a      1577     0    64     1     2
  2.3630677296160009E-02 a      1578     0    64     1     3
  1.5641553092750299E-01 a      1579     0    64     1     4
 -2.0966220083970040E-02 a      1580     0    64     1     5
 -1.9629139421099975E-01 a      1581     0    64     1     6
 -2.4601197425014085E-01 a      1582     0    64     1     7
 -3.2500599213960879E-01 a      1583     0    64     1     8
 -1.0597553847430652E-01 a      1584     0    64     1     9
  3.8732277970147622E-01 a      1585     0    64     1    10
  4.8731045863827305E-01 a      1586     0    64     1    11
  5.7504413241176666E-01 a      1587     0    64     1    12
  1.4771531439817087E-01 a      1588     0    64     1    13
  1.5931721917082664E-01 a      1589     0    64     1    14
 -2.4367710272726834E-01 a      1590     0    64     1    15
  2.1149149747575208E-01 a      1591     0    64     1    16
  6.1736620584352364E-01 a      1592     0    64     1    17
  6.2154871115699714E-02 a      1593     0    64     1    18
  9.3980902358846166E-02 a      1594     0    64     1    19
  3.9595018212008054E-01 a      1595     0    64     1    20
  5.3836608040759737E-01 a      1596     0    64     1    21
 -6.6300483062632851E-02 a      1597     0    64     1    22
  1.5625425706621082E-03 a      1598     0    64     1    23
 -3.5238385909724262E-01 a      1599     0    64     1    24
  9.8609189852490800E-02 a      1600     0    64     1    25
  1.8848416653043343E-01 a      1601     0    65     1     1
  1.1566835249498464E-01 a      1602     0    65     1     2
  1.0121646377128136E-01 a      1603     0    65     1     3
 -1.6497363198611598E-01 a      1604     0    65     1     4
 -2.0713390865108877E-01 a      1605     0    65     1     5
 -7.2275878986927583E-02 a      1606     0    65     1     6
 -1.1552971445472658E-01 a      1607     0    65     1     7
  1.4604085831718583E-01 a      1608     0    65     1     8
  1.6914417779854501E-01 a      1609     0    65     1     9
  1.8133853278624779E-01 a      1610     0    65     1    10
 -1.6656529757060470E-01 a      1611     0    65     1    11
  1.5102751266250122E-02 a      1612     0    65     1    12
  8.6996649426840836E-02 a      1613     0    65     1    13
  2.8253688337484956E-02 a      1614     0    65     1    14
 -1.3805941400703531E-01 a      1615     0    65     1    15
  2.0853585251994500E-01 a      1616     0    65     1    16
  6.1432936584703966E-02 a      1617     0    65     1    17
  8.9950307312075845E-02 a      1618     0    65     1    18
  4.0493429318972707E-01 a      1619     0    65     1    19
  1.8084444374239009E-02 a      1620     0    65     1    20
 -1.5349727121758289E-01 a      1621     0    65     1    21
 -5.0853401327272590E-02 a      1622     0    65     1    22
 -6.7283702670657725E-02 a      1623     0    65     1    23
