################################################################################
# Neural network connection values (weights and biases).
################################################################################
# Col  Name       Description
################################################################################
# 1    connection Neural network connection value.
# 2    t          Connection type (a = weight, b = bias).
# 3    index      Index enumerating weights.
# 4    l_s        Starting point layer (end point layer for biases).
# 5    n_s        Starting point neuron in starting layer (end point neuron for biases).
# 6    l_e        End point layer.
# 7    n_e        End point neuron in end layer.
################################################################################
#                      1 2         3     4     5     6     7
#             connection t     index   l_s   n_s   l_e   n_e
############################################################
  9.1745888049155544E-01 a         1     0     1     1     1
 -1.1886317204330510E+00 a         2     0     1     1     2
 -7.8545061491636181E-01 a         3     0     1     1     3
 -8.5140646820198529E-01 a         4     0     1     1     4
 -8.4039095455059734E-02 a         5     0     1     1     5
 -5.4076931154107033E-01 a         6     0     1     1     6
  7.9536086888393365E-01 a         7     0     1     1     7
 -1.3321874442110276E-01 a         8     0     1     1     8
  1.4269313811788154E-01 a         9     0     1     1     9
  5.4217110718462258E-01 a        10     0     1     1    10
  4.2385434365975211E-01 a        11     0     1     1    11
 -7.8871475308954864E-01 a        12     0     1     1    12
 -4.9734700947645283E-01 a        13     0     1     1    13
  2.5208612174705747E-01 a        14     0     1     1    14
 -6.9260220935429118E-01 a        15     0     1     1    15
 -1.4550162160466160E+00 a        16     0     1     1    16
  1.0810089525053798E-01 a        17     0     1     1    17
  4.7925774632797064E-01 a        18     0     1     1    18
  4.3672044716041164E-01 a        19     0     1     1    19
  7.6071980138085171E-01 a        20     0     1     1    20
 -8.0827764252901979E-01 a        21     0     1     1    21
  2.5259675760017802E-01 a        22     0     1     1    22
 -2.5429765471531206E-02 a        23     0     1     1    23
  6.0935576473032582E-01 a        24     0     1     1    24
 -3.4620703060666236E-01 a        25     0     1     1    25
  2.3239380278262831E+00 a        26     0     2     1     1
 -9.2029971441251279E-01 a        27     0     2     1     2
  6.3374700779631832E-04 a        28     0     2     1     3
  6.4724692663552597E-01 a        29     0     2     1     4
 -1.1135510413792339E-01 a        30     0     2     1     5
 -1.8980333401379479E-01 a        31     0     2     1     6
 -2.1991227916275335E-01 a        32     0     2     1     7
  1.6109558242357536E+00 a        33     0     2     1     8
  1.3681660677809817E+00 a        34     0     2     1     9
  8.5816870658413946E-01 a        35     0     2     1    10
 -2.7191445971942441E-01 a        36     0     2     1    11
  8.8239049715218121E-01 a        37     0     2     1    12
  1.3718434861629085E+00 a        38     0     2     1    13
  2.9771907872364528E-01 a        39     0     2     1    14
  1.6044644742778585E-01 a        40     0     2     1    15
 -7.6878134627855699E-01 a        41     0     2     1    16
 -1.0694292419175009E+00 a        42     0     2     1    17
  7.4812331210243688E-01 a        43     0     2     1    18
 -8.7750097255438120E-01 a        44     0     2     1    19
 -1.0146663679848094E+00 a        45     0     2     1    20
 -4.4827850712368891E+00 a        46     0     2     1    21
 -8.2092512862090558E-02 a        47     0     2     1    22
  6.5337487278385564E-01 a        48     0     2     1    23
 -6.1823355995282347E-01 a        49     0     2     1    24
 -4.4393736772639991E-01 a        50     0     2     1    25
 -1.1541177520435664E+00 a        51     0     3     1     1
  1.5865633033950419E+00 a        52     0     3     1     2
  1.5312112888875892E-01 a        53     0     3     1     3
  1.1490822187390062E+00 a        54     0     3     1     4
 -2.5251762730338667E-01 a        55     0     3     1     5
  1.2820387022728525E+00 a        56     0     3     1     6
  4.5232345076685981E-01 a        57     0     3     1     7
  2.2802712571999297E+00 a        58     0     3     1     8
 -6.6172268245266408E-01 a        59     0     3     1     9
 -4.4811079668152703E-01 a        60     0     3     1    10
 -8.8663425382061289E-01 a        61     0     3     1    11
  5.1316466790903692E-01 a        62     0     3     1    12
 -2.2400876301929080E+00 a        63     0     3     1    13
 -5.9599484186764939E-01 a        64     0     3     1    14
 -1.2775072535744374E+00 a        65     0     3     1    15
  1.5599126029989236E+00 a        66     0     3     1    16
  2.3216360875281739E-01 a        67     0     3     1    17
 -7.3115006592957410E-01 a        68     0     3     1    18
 -6.8654345773856811E-03 a        69     0     3     1    19
 -1.5197187215032257E-01 a        70     0     3     1    20
 -7.7337184305043605E-02 a        71     0     3     1    21
  4.1507151487874533E-01 a        72     0     3     1    22
  1.2068287288064685E+00 a        73     0     3     1    23
 -7.1468198676609229E-01 a        74     0     3     1    24
  5.1236682767548225E-01 a        75     0     3     1    25
 -3.2105859880789689E+00 a        76     0     4     1     1
  1.0064904530877281E+00 a        77     0     4     1     2
 -1.0442546935001729E-01 a        78     0     4     1     3
 -1.3617862077181064E+00 a        79     0     4     1     4
  5.5448480283302300E-02 a        80     0     4     1     5
 -1.8514707114734410E+00 a        81     0     4     1     6
  9.4003371310006045E-01 a        82     0     4     1     7
 -2.1064752070064583E+00 a        83     0     4     1     8
 -1.0970431622964292E+00 a        84     0     4     1     9
 -8.2398615639534656E-01 a        85     0     4     1    10
  2.1936546148463784E-01 a        86     0     4     1    11
 -2.3158518449829106E+00 a        87     0     4     1    12
 -5.3172040093597683E+00 a        88     0     4     1    13
 -1.0537330489695484E+00 a        89     0     4     1    14
 -5.1352130111319705E-01 a        90     0     4     1    15
  8.3794664589496848E-01 a        91     0     4     1    16
  9.9471477470486969E-01 a        92     0     4     1    17
 -1.0795321253314478E+00 a        93     0     4     1    18
  7.8006096025861582E-01 a        94     0     4     1    19
  1.5833786686541227E+00 a        95     0     4     1    20
  6.2211135353030915E+00 a        96     0     4     1    21
 -1.3376067164668664E+00 a        97     0     4     1    22
 -5.3068291794804401E-01 a        98     0     4     1    23
  1.1478168405829494E+00 a        99     0     4     1    24
  3.5809012530977430E-01 a       100     0     4     1    25
  4.8836662712657719E-01 a       101     0     5     1     1
  4.8266190609554088E-01 a       102     0     5     1     2
  3.5491928829220332E-01 a       103     0     5     1     3
 -1.6476065123084052E+00 a       104     0     5     1     4
  3.9951978057350312E-01 a       105     0     5     1     5
  3.5740226738104273E+00 a       106     0     5     1     6
 -1.7276636796394307E+00 a       107     0     5     1     7
  1.1605542607147790E+00 a       108     0     5     1     8
 -5.6372677421001649E-01 a       109     0     5     1     9
  2.0121224893994523E+00 a       110     0     5     1    10
 -1.4626941169418217E+00 a       111     0     5     1    11
  3.0300518817763051E+00 a       112     0     5     1    12
  1.0424671135738299E+01 a       113     0     5     1    13
  1.3202035748279748E+00 a       114     0     5     1    14
  9.6860012523307126E-01 a       115     0     5     1    15
  1.4289718915042586E+00 a       116     0     5     1    16
 -7.4185473499720378E-01 a       117     0     5     1    17
  1.1827478019882545E-01 a       118     0     5     1    18
 -1.1197098397342260E+00 a       119     0     5     1    19
 -7.8461703806688099E-01 a       120     0     5     1    20
 -4.9843200599289927E+00 a       121     0     5     1    21
  1.0199681906581455E+00 a       122     0     5     1    22
 -1.6231127674616248E+00 a       123     0     5     1    23
 -1.6409813048301485E+00 a       124     0     5     1    24
  1.4355678691596350E+00 a       125     0     5     1    25
  5.8364882267250517E-01 a       126     0     6     1     1
  2.0223629379466111E-02 a       127     0     6     1     2
 -6.5325097740093419E-01 a       128     0     6     1     3
  9.5019567795323179E-01 a       129     0     6     1     4
 -4.3245668231231593E-01 a       130     0     6     1     5
 -1.7722437871820740E+00 a       131     0     6     1     6
  1.2781455324939903E+00 a       132     0     6     1     7
 -4.9394121981741947E-03 a       133     0     6     1     8
  1.5891659492325443E+00 a       134     0     6     1     9
 -1.1397903520739497E-01 a       135     0     6     1    10
 -1.5032698659725485E+00 a       136     0     6     1    11
 -6.7608740552869773E-01 a       137     0     6     1    12
  8.3008309345118636E-01 a       138     0     6     1    13
  7.4485548281562686E-01 a       139     0     6     1    14
 -5.1750159116253058E-01 a       140     0     6     1    15
 -9.2879226522040670E-01 a       141     0     6     1    16
  4.1932976991636933E-01 a       142     0     6     1    17
 -3.0797342528380907E+00 a       143     0     6     1    18
 -1.6550251550990877E-01 a       144     0     6     1    19
 -1.0472342872675324E+00 a       145     0     6     1    20
 -1.4206158863583169E+00 a       146     0     6     1    21
  7.5403556302186692E-01 a       147     0     6     1    22
 -8.4443992010692318E-02 a       148     0     6     1    23
 -1.4753106874247632E+00 a       149     0     6     1    24
 -3.0134080577838200E+00 a       150     0     6     1    25
 -2.3398969248535035E+00 a       151     0     7     1     1
  1.8945879495653848E+00 a       152     0     7     1     2
 -1.0871539991105679E+00 a       153     0     7     1     3
 -3.2009522060198576E+00 a       154     0     7     1     4
 -6.0315801690707493E-01 a       155     0     7     1     5
  7.8273032241968044E-01 a       156     0     7     1     6
 -1.4687536702497779E+00 a       157     0     7     1     7
 -5.7525152696276705E-01 a       158     0     7     1     8
 -8.2217281610805881E-01 a       159     0     7     1     9
 -6.2323889002468180E-01 a       160     0     7     1    10
  8.2113765457712218E-01 a       161     0     7     1    11
  1.8471655159015649E-01 a       162     0     7     1    12
 -3.5337688874551758E+00 a       163     0     7     1    13
 -3.7973820072666536E-01 a       164     0     7     1    14
  8.4020828834623207E-01 a       165     0     7     1    15
  1.8228626671597459E+00 a       166     0     7     1    16
 -4.0222447188342586E-01 a       167     0     7     1    17
  2.3940230241619962E+00 a       168     0     7     1    18
  2.9309741460176961E+00 a       169     0     7     1    19
  2.4141132622913122E-01 a       170     0     7     1    20
  2.0019832912037439E+00 a       171     0     7     1    21
 -5.1724432068631876E-01 a       172     0     7     1    22
 -1.3017766923655558E+00 a       173     0     7     1    23
  4.4587868301367944E-01 a       174     0     7     1    24
 -8.2767832578700340E-01 a       175     0     7     1    25
  3.5562961528113068E-01 a       176     0     8     1     1
  1.1997719363789818E+00 a       177     0     8     1     2
  8.6849095826899936E-01 a       178     0     8     1     3
  1.9600372945124767E+00 a       179     0     8     1     4
  2.7542890650581520E-01 a       180     0     8     1     5
  6.3848077481244125E-01 a       181     0     8     1     6
  4.0869087382603109E-01 a       182     0     8     1     7
 -8.0683288163863132E-01 a       183     0     8     1     8
  3.6577576864632683E-01 a       184     0     8     1     9
  3.7548098761203041E-01 a       185     0     8     1    10
 -7.6645418546461608E-01 a       186     0     8     1    11
  1.5507250542201592E+00 a       187     0     8     1    12
  1.0341326641051172E+00 a       188     0     8     1    13
 -6.7931617142442069E-01 a       189     0     8     1    14
  6.6933904726893068E-01 a       190     0     8     1    15
  1.0099125565876366E+00 a       191     0     8     1    16
 -3.2408995887775083E-01 a       192     0     8     1    17
 -1.5976297035595155E+00 a       193     0     8     1    18
 -4.3506048954798576E-01 a       194     0     8     1    19
 -1.8336065323259743E-01 a       195     0     8     1    20
  9.7096201892834266E-01 a       196     0     8     1    21
  4.0482653492473308E-01 a       197     0     8     1    22
 -1.9298597551044245E+00 a       198     0     8     1    23
 -7.9606359511364344E-01 a       199     0     8     1    24
  1.2611223849246686E-01 a       200     0     8     1    25
 -9.5225639327018596E-01 a       201     0     9     1     1
  2.0280097649220252E+00 a       202     0     9     1     2
 -1.0113026144702542E+00 a       203     0     9     1     3
  1.0731682899262573E+00 a       204     0     9     1     4
 -1.5616849879392445E+00 a       205     0     9     1     5
  1.0485937690837350E+00 a       206     0     9     1     6
 -3.7278110164449002E-01 a       207     0     9     1     7
 -2.1781447408446910E+00 a       208     0     9     1     8
 -2.9827300084611732E+00 a       209     0     9     1     9
  1.0648307254776597E+00 a       210     0     9     1    10
 -2.3444292308479563E-02 a       211     0     9     1    11
 -1.6320388387906368E-01 a       212     0     9     1    12
 -2.1388529483748226E+00 a       213     0     9     1    13
 -1.7493131975288689E+00 a       214     0     9     1    14
 -1.9425677055272221E+00 a       215     0     9     1    15
  6.7066728918592533E-01 a       216     0     9     1    16
  2.4428938611503739E-01 a       217     0     9     1    17
  6.2906112700356021E-01 a       218     0     9     1    18
 -4.1133614861244366E-01 a       219     0     9     1    19
  6.0701336461549638E-01 a       220     0     9     1    20
  2.8722191657964316E+00 a       221     0     9     1    21
  2.8028241427661532E-01 a       222     0     9     1    22
 -9.8911784275260417E-01 a       223     0     9     1    23
 -1.9472493598224558E+00 a       224     0     9     1    24
  3.4007510914247883E+00 a       225     0     9     1    25
  2.2647184853819686E+00 a       226     0    10     1     1
 -3.5997520045033304E-01 a       227     0    10     1     2
 -1.0360158687300947E+00 a       228     0    10     1     3
 -1.0286849796223576E+00 a       229     0    10     1     4
  7.2088564154242085E-05 a       230     0    10     1     5
 -6.5708338839881919E-01 a       231     0    10     1     6
  2.2326467646949117E+00 a       232     0    10     1     7
  1.5208873868070369E+00 a       233     0    10     1     8
  1.5865760947887355E+00 a       234     0    10     1     9
 -1.6119821708542207E-02 a       235     0    10     1    10
 -1.5445056967458148E+00 a       236     0    10     1    11
  7.6803869627438626E-01 a       237     0    10     1    12
  5.5351434776524799E+00 a       238     0    10     1    13
  1.1185232789270843E+00 a       239     0    10     1    14
  2.1621100510074706E-01 a       240     0    10     1    15
 -8.6162097665497012E-02 a       241     0    10     1    16
 -1.3447239641128084E-01 a       242     0    10     1    17
 -3.9615325619005044E+00 a       243     0    10     1    18
 -2.6721890969992983E+00 a       244     0    10     1    19
 -2.8406364384014080E+00 a       245     0    10     1    20
 -6.2992315680065998E+00 a       246     0    10     1    21
 -4.3467358844378551E-02 a       247     0    10     1    22
 -1.0853729502266320E-02 a       248     0    10     1    23
  7.7562986385676358E-01 a       249     0    10     1    24
 -1.1588204838055340E+00 a       250     0    10     1    25
  2.1115953252922055E+00 a       251     0    11     1     1
 -6.7697332460084181E-01 a       252     0    11     1     2
  1.1451955968235659E+00 a       253     0    11     1     3
 -7.6162692416783162E-01 a       254     0    11     1     4
  1.8292675197590483E-01 a       255     0    11     1     5
 -3.6839250784563293E-01 a       256     0    11     1     6
 -9.3181162681842578E-01 a       257     0    11     1     7
  4.5036964330210977E-01 a       258     0    11     1     8
  1.4627978452414294E+00 a       259     0    11     1     9
  9.0702147913792608E-01 a       260     0    11     1    10
  1.3612979903803102E+00 a       261     0    11     1    11
  1.4302285236126482E+00 a       262     0    11     1    12
  1.4739944900378976E+00 a       263     0    11     1    13
  3.5789576434125508E-01 a       264     0    11     1    14
  1.5714516556553717E+00 a       265     0    11     1    15
  2.4202397779300841E-01 a       266     0    11     1    16
 -9.1347795213242000E-01 a       267     0    11     1    17
  1.4818114753038278E+00 a       268     0    11     1    18
 -4.2762046286598476E-01 a       269     0    11     1    19
 -1.2043042078155939E+00 a       270     0    11     1    20
 -1.3269766689601443E+00 a       271     0    11     1    21
  2.9917101522958089E-01 a       272     0    11     1    22
 -2.8506291746255807E-01 a       273     0    11     1    23
  1.3505777110683288E+00 a       274     0    11     1    24
 -1.4388152032593948E+00 a       275     0    11     1    25
 -1.7614166914522584E+00 a       276     0    12     1     1
  2.4567389618506322E-01 a       277     0    12     1     2
 -2.5256856620961404E-01 a       278     0    12     1     3
  2.2681106229951538E+00 a       279     0    12     1     4
 -1.3363219513458986E+00 a       280     0    12     1     5
 -8.9516536361983001E-01 a       281     0    12     1     6
  2.9461750092914035E-01 a       282     0    12     1     7
 -3.8217682669465876E+00 a       283     0    12     1     8
 -1.4922495870179884E+00 a       284     0    12     1     9
  6.8529052393942511E-02 a       285     0    12     1    10
  8.9431055557885453E-01 a       286     0    12     1    11
 -1.2430582884505286E+00 a       287     0    12     1    12
 -4.9547328317647308E+00 a       288     0    12     1    13
 -2.0625050029381824E+00 a       289     0    12     1    14
 -1.4308858970425478E+00 a       290     0    12     1    15
  1.1772506825604805E+00 a       291     0    12     1    16
  4.8737382691969239E-01 a       292     0    12     1    17
  1.7965535836575899E+00 a       293     0    12     1    18
  8.3046546528518972E-01 a       294     0    12     1    19
  2.7804087128160893E+00 a       295     0    12     1    20
  4.3882338356358046E+00 a       296     0    12     1    21
  1.5380330328442176E+00 a       297     0    12     1    22
 -1.3646523476214958E-01 a       298     0    12     1    23
 -7.7537970935165304E-02 a       299     0    12     1    24
  1.0303658157467332E+00 a       300     0    12     1    25
 -7.8637278158632873E-01 a       301     0    13     1     1
  8.4403105735853592E-02 a       302     0    13     1     2
  4.7710822052896945E-01 a       303     0    13     1     3
 -8.5458334479059772E-01 a       304     0    13     1     4
  2.8834544102845971E-01 a       305     0    13     1     5
  3.7285590472295932E-01 a       306     0    13     1     6
 -8.6308521291151297E-01 a       307     0    13     1     7
 -1.2173585760825580E+00 a       308     0    13     1     8
 -1.6284161214634973E-01 a       309     0    13     1     9
 -1.6656713563265546E-01 a       310     0    13     1    10
 -1.5598134382470780E-02 a       311     0    13     1    11
 -5.3627193448378896E-01 a       312     0    13     1    12
  3.0316591078192641E+00 a       313     0    13     1    13
  2.4453360609926594E-01 a       314     0    13     1    14
  8.8652708135966984E-01 a       315     0    13     1    15
  3.0053095071734404E-01 a       316     0    13     1    16
  4.0322287077318991E-01 a       317     0    13     1    17
  1.1805402245471603E+00 a       318     0    13     1    18
 -1.2394606155282994E+00 a       319     0    13     1    19
  5.1458855528326397E-01 a       320     0    13     1    20
  1.2291989071353797E+00 a       321     0    13     1    21
  3.3579247079258229E-01 a       322     0    13     1    22
 -8.3495462352074334E-01 a       323     0    13     1    23
  6.0258274136405776E-01 a       324     0    13     1    24
  2.4335707905314810E-01 a       325     0    13     1    25
  1.0076990929921210E+00 a       326     0    14     1     1
 -7.2507067147203574E-01 a       327     0    14     1     2
  7.6553861752950914E-01 a       328     0    14     1     3
  4.5558693344605006E-01 a       329     0    14     1     4
  2.9207305286165655E+00 a       330     0    14     1     5
  1.5510227087894479E+00 a       331     0    14     1     6
 -3.2800574816786537E-01 a       332     0    14     1     7
  2.3704278095127846E+00 a       333     0    14     1     8
  3.0080487126800187E-01 a       334     0    14     1     9
 -1.1178257468744919E+00 a       335     0    14     1    10
  2.4978059190501987E+00 a       336     0    14     1    11
  2.6588333092899337E+00 a       337     0    14     1    12
  1.3136434585402148E+00 a       338     0    14     1    13
  2.1559236758573546E+00 a       339     0    14     1    14
  4.9271560249725327E-01 a       340     0    14     1    15
 -5.0726678408789416E-01 a       341     0    14     1    16
  4.4281911247201228E-01 a       342     0    14     1    17
 -3.4629872084815699E-01 a       343     0    14     1    18
  7.3366941893499749E-01 a       344     0    14     1    19
  3.7377999972980019E-01 a       345     0    14     1    20
 -9.0130203749995685E-01 a       346     0    14     1    21
  1.3341358760683371E+00 a       347     0    14     1    22
  6.8175343569100588E-01 a       348     0    14     1    23
 -6.1009645379219837E-02 a       349     0    14     1    24
 -1.0122425838413498E+00 a       350     0    14     1    25
  3.9028410896676785E-01 a       351     0    15     1     1
 -6.9335785584142917E-01 a       352     0    15     1     2
 -5.2930357676654827E-01 a       353     0    15     1     3
  1.7687256489490693E+00 a       354     0    15     1     4
 -2.1728983222677178E+00 a       355     0    15     1     5
 -2.9856974454277441E+00 a       356     0    15     1     6
  2.0335348352875386E+00 a       357     0    15     1     7
 -9.5213340470077035E-01 a       358     0    15     1     8
  8.4470539474307615E-01 a       359     0    15     1     9
 -8.4166553989600090E-01 a       360     0    15     1    10
  7.0518695598623393E-02 a       361     0    15     1    11
 -3.3978906550378638E+00 a       362     0    15     1    12
 -6.6858778264293122E+00 a       363     0    15     1    13
 -1.5381217768487740E+00 a       364     0    15     1    14
 -6.2207416582784369E-01 a       365     0    15     1    15
 -1.7746481309159383E+00 a       366     0    15     1    16
 -7.5573164948124216E-02 a       367     0    15     1    17
 -2.7114437575324807E-01 a       368     0    15     1    18
  3.3227402390328081E-01 a       369     0    15     1    19
 -8.2682896931044769E-01 a       370     0    15     1    20
  2.0770325346690774E+00 a       371     0    15     1    21
 -9.7590362121946217E-01 a       372     0    15     1    22
  7.7444991086585901E-01 a       373     0    15     1    23
  1.0664023926390749E+00 a       374     0    15     1    24
 -8.9267671402277493E-01 a       375     0    15     1    25
  6.9143374175113359E-01 a       376     0    16     1     1
 -2.3264770145758376E+00 a       377     0    16     1     2
  1.3503964519909706E+00 a       378     0    16     1     3
  1.3898340457217877E+00 a       379     0    16     1     4
  4.6804363411465333E-01 a       380     0    16     1     5
  1.5454428787773116E+00 a       381     0    16     1     6
  1.4615905929439628E+00 a       382     0    16     1     7
  2.0016526416556548E+00 a       383     0    16     1     8
 -6.8269656707015958E-03 a       384     0    16     1     9
 -4.7494201995113250E-01 a       385     0    16     1    10
  1.6552170896861285E+00 a       386     0    16     1    11
  9.1607547610451678E-01 a       387     0    16     1    12
  9.7538187415353417E-01 a       388     0    16     1    13
 -2.0717949239147080E-02 a       389     0    16     1    14
 -7.3641994186648529E-01 a       390     0    16     1    15
  3.6829190152301794E-01 a       391     0    16     1    16
  1.2450078765557153E+00 a       392     0    16     1    17
  1.4091682024132182E-01 a       393     0    16     1    18
 -1.3227936491953154E-01 a       394     0    16     1    19
 -2.5191183261087585E-01 a       395     0    16     1    20
  2.3851840662240168E-02 a       396     0    16     1    21
 -7.1073096898260124E-01 a       397     0    16     1    22
  1.9262839717123722E-02 a       398     0    16     1    23
  7.7378770191317892E-01 a       399     0    16     1    24
  1.1012957430265240E+00 a       400     0    16     1    25
  4.9074110962999029E-01 a       401     0    17     1     1
 -2.0472220007556228E+00 a       402     0    17     1     2
  1.3795639165774642E+00 a       403     0    17     1     3
  1.7527433105668988E+00 a       404     0    17     1     4
  6.4435730661425628E-01 a       405     0    17     1     5
  1.3902438919796760E+00 a       406     0    17     1     6
  1.6508131312860295E+00 a       407     0    17     1     7
  1.6832558787677092E+00 a       408     0    17     1     8
 -7.4389297126113058E-02 a       409     0    17     1     9
 -2.8702931095923639E-01 a       410     0    17     1    10
  1.2702478739914662E+00 a       411     0    17     1    11
  7.8327700855982163E-01 a       412     0    17     1    12
  9.4251177986708257E-01 a       413     0    17     1    13
 -8.7176753200097643E-02 a       414     0    17     1    14
 -7.4181885399845171E-01 a       415     0    17     1    15
  4.0457737655371823E-01 a       416     0    17     1    16
  9.2539915958806451E-01 a       417     0    17     1    17
 -9.9726943243514665E-02 a       418     0    17     1    18
 -1.1529733351612935E-01 a       419     0    17     1    19
 -1.6361702317281801E-01 a       420     0    17     1    20
 -7.5545401218795891E-03 a       421     0    17     1    21
 -6.7724507909722076E-01 a       422     0    17     1    22
  2.2630384456241256E-01 a       423     0    17     1    23
  4.2255897251151114E-01 a       424     0    17     1    24
  1.0321560690767815E+00 a       425     0    17     1    25
 -7.0019750612661380E-01 a       426     0    18     1     1
  1.2420977799325081E+00 a       427     0    18     1     2
 -3.6517837697441841E-01 a       428     0    18     1     3
 -1.1509136412126064E+00 a       429     0    18     1     4
 -2.6565193387507142E-02 a       430     0    18     1     5
 -1.4312576193460111E+00 a       431     0    18     1     6
 -8.5615114987521934E-01 a       432     0    18     1     7
 -1.1417802130432364E+00 a       433     0    18     1     8
  1.7174217187204982E-01 a       434     0    18     1     9
 -5.8273190641378279E-03 a       435     0    18     1    10
 -6.2384648826332612E-01 a       436     0    18     1    11
 -4.6373805795691558E-01 a       437     0    18     1    12
 -3.8723880911034309E-01 a       438     0    18     1    13
 -1.3997290869376108E-01 a       439     0    18     1    14
  5.9742072928808099E-01 a       440     0    18     1    15
 -1.8746434815381055E-01 a       441     0    18     1    16
 -7.3905231968740182E-01 a       442     0    18     1    17
 -4.8131514236331796E-01 a       443     0    18     1    18
  4.5655575197006615E-01 a       444     0    18     1    19
 -2.9109365079406113E-01 a       445     0    18     1    20
  3.6811624749328997E-01 a       446     0    18     1    21
  5.7575221588277381E-01 a       447     0    18     1    22
 -3.0804181192772867E-01 a       448     0    18     1    23
 -7.7530537648487496E-01 a       449     0    18     1    24
 -1.1241007600503206E+00 a       450     0    18     1    25
 -8.4614862452259687E-01 a       451     0    19     1     1
  1.1842080506841424E+00 a       452     0    19     1     2
 -5.1533733227415757E-01 a       453     0    19     1     3
 -1.0672495909689494E+00 a       454     0    19     1     4
 -1.5106488946002791E-01 a       455     0    19     1     5
 -1.2145744058617043E+00 a       456     0    19     1     6
 -9.9732982846724194E-01 a       457     0    19     1     7
 -1.1644888664954804E+00 a       458     0    19     1     8
  2.9355123887945422E-01 a       459     0    19     1     9
  3.5303942695898660E-01 a       460     0    19     1    10
 -8.8318684827069915E-01 a       461     0    19     1    11
 -8.1341085221156917E-01 a       462     0    19     1    12
 -3.6035509560031093E-01 a       463     0    19     1    13
  9.8305205302566104E-02 a       464     0    19     1    14
  4.6017575806959565E-01 a       465     0    19     1    15
 -5.2036187266395895E-01 a       466     0    19     1    16
 -6.8061888275793969E-01 a       467     0    19     1    17
 -6.3733283690497777E-01 a       468     0    19     1    18
  5.6251674710590316E-01 a       469     0    19     1    19
 -5.4153058249145947E-01 a       470     0    19     1    20
  9.6588581884598929E-02 a       471     0    19     1    21
  6.1209229652796915E-01 a       472     0    19     1    22
 -2.0055122947243703E-01 a       473     0    19     1    23
 -5.4909755374962577E-01 a       474     0    19     1    24
 -1.2838459314743826E+00 a       475     0    19     1    25
  5.2508184790610446E-01 a       476     0    20     1     1
  1.8865765818993085E-01 a       477     0    20     1     2
 -2.5779378546401044E-01 a       478     0    20     1     3
 -1.0016108122182341E+00 a       479     0    20     1     4
 -1.9841222379566628E-01 a       480     0    20     1     5
  2.6230839549522061E-01 a       481     0    20     1     6
 -1.0876339629376736E-01 a       482     0    20     1     7
 -9.2712245951426642E-01 a       483     0    20     1     8
  1.5133381749061070E-01 a       484     0    20     1     9
  9.6233544113769498E-02 a       485     0    20     1    10
 -4.5951992933990976E-01 a       486     0    20     1    11
  1.1965965889307983E-01 a       487     0    20     1    12
 -2.3180186417998208E-01 a       488     0    20     1    13
  3.4307086369784956E-01 a       489     0    20     1    14
  4.6072341306509468E-01 a       490     0    20     1    15
 -1.6896728373193734E-01 a       491     0    20     1    16
 -5.9374007689113095E-01 a       492     0    20     1    17
 -3.0596560364396119E-01 a       493     0    20     1    18
  7.4252440922006702E-01 a       494     0    20     1    19
  4.6688438325159826E-01 a       495     0    20     1    20
 -7.2465679638442554E-02 a       496     0    20     1    21
 -6.6766188521173109E-01 a       497     0    20     1    22
 -6.5942528231881592E-01 a       498     0    20     1    23
  2.6827391891263769E-01 a       499     0    20     1    24
 -2.7694043380211086E-01 a       500     0    20     1    25
  2.7983460091343337E-01 a       501     0    21     1     1
  2.7387960027109959E-02 a       502     0    21     1     2
 -3.6230172132812805E-01 a       503     0    21     1     3
 -6.2234575339381071E-01 a       504     0    21     1     4
 -4.4766469744745130E-01 a       505     0    21     1     5
  1.8211008761436873E-01 a       506     0    21     1     6
 -3.2986548913303548E-01 a       507     0    21     1     7
 -6.9877486722903837E-01 a       508     0    21     1     8
  1.4264257280575662E-01 a       509     0    21     1     9
 -2.5821639230313309E-01 a       510     0    21     1    10
 -5.2455444418258435E-01 a       511     0    21     1    11
  1.1192359555278109E-01 a       512     0    21     1    12
  5.7844223040070600E-03 a       513     0    21     1    13
  9.7117542795136624E-02 a       514     0    21     1    14
  7.5171813583540881E-01 a       515     0    21     1    15
 -1.0688353064545970E-01 a       516     0    21     1    16
 -9.1035579083870821E-01 a       517     0    21     1    17
 -3.7933087518901293E-01 a       518     0    21     1    18
  6.6712410572276803E-01 a       519     0    21     1    19
  2.4659555818364537E-01 a       520     0    21     1    20
  3.6190300311564566E-01 a       521     0    21     1    21
 -9.1595390516445141E-01 a       522     0    21     1    22
 -3.5665886094822374E-01 a       523     0    21     1    23
  2.2710944223667898E-01 a       524     0    21     1    24
 -2.9002342818385879E-01 a       525     0    21     1    25
 -2.7444920539784523E-01 a       526     0    22     1     1
 -1.1242365735993384E-01 a       527     0    22     1     2
  2.0606519043932275E-01 a       528     0    22     1     3
  6.7355217640120635E-01 a       529     0    22     1     4
 -2.8095220818790970E-02 a       530     0    22     1     5
 -7.9990095664800032E-01 a       531     0    22     1     6
  1.4169072585869724E-01 a       532     0    22     1     7
 -3.8318357883156118E-01 a       533     0    22     1     8
  3.1492429461189758E-01 a       534     0    22     1     9
 -2.2868830553644140E-01 a       535     0    22     1    10
  5.8625489868091007E-01 a       536     0    22     1    11
  9.5314915818089582E-03 a       537     0    22     1    12
  8.1381857539474067E-01 a       538     0    22     1    13
  4.0457965670392039E-02 a       539     0    22     1    14
  6.6127092859670208E-02 a       540     0    22     1    15
  1.4890408036976449E-01 a       541     0    22     1    16
  7.2289169494254013E-01 a       542     0    22     1    17
  3.9737912652918117E-01 a       543     0    22     1    18
 -3.7857753243985248E-01 a       544     0    22     1    19
 -6.8348495104795992E-01 a       545     0    22     1    20
  2.3745301021005936E-02 a       546     0    22     1    21
  2.8774696188172766E-01 a       547     0    22     1    22
 -5.1600885197275870E-01 a       548     0    22     1    23
 -6.0807204625792899E-01 a       549     0    22     1    24
 -7.2428358492979640E-03 a       550     0    22     1    25
 -2.0612690891821528E-01 a       551     0    23     1     1
 -2.7814762721877839E-01 a       552     0    23     1     2
  2.7709115927456368E-01 a       553     0    23     1     3
  6.7014541233871328E-01 a       554     0    23     1     4
  1.5966176123846615E-01 a       555     0    23     1     5
 -8.8327397940826446E-01 a       556     0    23     1     6
  5.2888651027867752E-02 a       557     0    23     1     7
 -6.2138422439412933E-01 a       558     0    23     1     8
  3.0636108893329073E-01 a       559     0    23     1     9
  9.3708528447701528E-02 a       560     0    23     1    10
  7.3595647143560794E-01 a       561     0    23     1    11
 -1.3684081453883540E-01 a       562     0    23     1    12
  8.8899264882951989E-01 a       563     0    23     1    13
  2.6983423043539356E-02 a       564     0    23     1    14
 -1.1113178015053019E-02 a       565     0    23     1    15
 -1.9154318407662790E-01 a       566     0    23     1    16
  3.5115053786409550E-01 a       567     0    23     1    17
  4.0806026058080297E-01 a       568     0    23     1    18
 -7.9686689480026640E-01 a       569     0    23     1    19
 -7.5137632950990385E-01 a       570     0    23     1    20
  6.9544651623646772E-02 a       571     0    23     1    21
  1.6335575023825780E-01 a       572     0    23     1    22
 -5.2452478291258142E-01 a       573     0    23     1    23
 -5.2283621871795727E-01 a       574     0    23     1    24
  1.4901050278110720E-01 a       575     0    23     1    25
  6.5554235214680956E-01 a       576     0    24     1     1
 -4.6286755404415469E-01 a       577     0    24     1     2
 -5.4563721500866968E-01 a       578     0    24     1     3
 -2.9326473608252462E-01 a       579     0    24     1     4
 -3.9982447902845836E-01 a       580     0    24     1     5
  5.5046615773306329E-01 a       581     0    24     1     6
  1.1969113899236929E-01 a       582     0    24     1     7
 -1.1014381039344610E-01 a       583     0    24     1     8
 -9.3309459929107852E-01 a       584     0    24     1     9
 -1.2607680470006648E+00 a       585     0    24     1    10
 -1.3135357360803210E-01 a       586     0    24     1    11
 -1.9237921485518231E-01 a       587     0    24     1    12
  1.2127012435555364E-01 a       588     0    24     1    13
  3.1478215132234288E-01 a       589     0    24     1    14
  2.8587511904303513E-03 a       590     0    24     1    15
 -1.3775766364788065E+00 a       591     0    24     1    16
  4.5913959024776019E-01 a       592     0    24     1    17
 -3.5587639357398154E-01 a       593     0    24     1    18
  6.3596202485881226E-01 a       594     0    24     1    19
 -7.0093181882309830E-01 a       595     0    24     1    20
  2.4302423552973043E-01 a       596     0    24     1    21
  2.0379709037445876E-01 a       597     0    24     1    22
 -3.2277457593909842E-01 a       598     0    24     1    23
  1.1233839558211012E+00 a       599     0    24     1    24
 -4.8780333671150540E-02 a       600     0    24     1    25
 -2.8773572235612876E-01 a       601     0    25     1     1
  6.9968444132635491E-02 a       602     0    25     1     2
  2.5745519757400576E-01 a       603     0    25     1     3
  1.0880838414165708E+00 a       604     0    25     1     4
  1.2545585377018731E-01 a       605     0    25     1     5
  2.4803649979065326E-02 a       606     0    25     1     6
 -7.6957336175339552E-01 a       607     0    25     1     7
  2.4933581626420712E-01 a       608     0    25     1     8
  1.2061169329127814E+00 a       609     0    25     1     9
 -7.2784810204486391E-02 a       610     0    25     1    10
 -2.0669305115323236E-01 a       611     0    25     1    11
  2.4200815729459226E-02 a       612     0    25     1    12
  1.0779738126597258E+00 a       613     0    25     1    13
  3.9883434829465325E-01 a       614     0    25     1    14
  2.3378104653506102E-01 a       615     0    25     1    15
 -6.7120802532483578E-02 a       616     0    25     1    16
  7.2285493843619364E-01 a       617     0    25     1    17
  1.1324459707910481E+00 a       618     0    25     1    18
 -1.1057958675156362E-01 a       619     0    25     1    19
  4.9317115057044014E-01 a       620     0    25     1    20
 -1.2363238935080147E-01 a       621     0    25     1    21
  3.2591659836041337E-01 a       622     0    25     1    22
  2.9211550434091993E-01 a       623     0    25     1    23
  3.4386776725351653E-01 a       624     0    25     1    24
  4.4409137507966018E-01 a       625     0    25     1    25
 -3.5751876082287437E-01 a       626     0    26     1     1
  4.6056327579510592E-01 a       627     0    26     1     2
  2.8521385546458888E-01 a       628     0    26     1     3
  7.6119894221831408E-01 a       629     0    26     1     4
  5.0455574711583295E-01 a       630     0    26     1     5
  4.4650271827868349E-02 a       631     0    26     1     6
 -7.7926319956525536E-01 a       632     0    26     1     7
 -1.0902709748592106E-01 a       633     0    26     1     8
  1.2050346413364088E+00 a       634     0    26     1     9
  2.2582347100537564E-01 a       635     0    26     1    10
 -1.9900065508221038E-01 a       636     0    26     1    11
 -3.7889287801693088E-02 a       637     0    26     1    12
  1.2145364642684171E+00 a       638     0    26     1    13
 -1.2021197666795694E-02 a       639     0    26     1    14
  4.5725491495233311E-01 a       640     0    26     1    15
 -8.3129826582642521E-02 a       641     0    26     1    16
  5.4058211947321877E-01 a       642     0    26     1    17
  9.1323407170871362E-01 a       643     0    26     1    18
 -2.7185139135478370E-01 a       644     0    26     1    19
  2.4408773134759931E-01 a       645     0    26     1    20
 -7.2736174532979744E-02 a       646     0    26     1    21
  6.6496383742278087E-01 a       647     0    26     1    22
  3.2335089168169290E-01 a       648     0    26     1    23
  9.9879713954715496E-02 a       649     0    26     1    24
  4.4071650885957092E-01 a       650     0    26     1    25
  1.4083364741700808E+00 a       651     0    27     1     1
  8.0820399836648765E-02 a       652     0    27     1     2
  1.9157093730208147E-01 a       653     0    27     1     3
 -3.9126070340957638E-03 a       654     0    27     1     4
 -1.6478429894010693E-01 a       655     0    27     1     5
 -7.6874603981018919E-02 a       656     0    27     1     6
 -2.2368598451472796E-01 a       657     0    27     1     7
  2.8949641132144316E-01 a       658     0    27     1     8
 -1.2620740121074558E-01 a       659     0    27     1     9
 -9.8670683058674505E-02 a       660     0    27     1    10
  5.5372156139374895E-01 a       661     0    27     1    11
  3.2662452617679472E-01 a       662     0    27     1    12
 -3.1249063191824938E-01 a       663     0    27     1    13
 -1.1095181472588411E-01 a       664     0    27     1    14
 -7.1972856071254787E-01 a       665     0    27     1    15
 -8.5924976229419503E-01 a       666     0    27     1    16
 -2.2228120439737656E-01 a       667     0    27     1    17
  2.8907421432981084E-01 a       668     0    27     1    18
 -1.0579292629909103E-01 a       669     0    27     1    19
  1.4531608046517464E-01 a       670     0    27     1    20
 -6.2943140092896394E-02 a       671     0    27     1    21
 -5.9544808443681618E-01 a       672     0    27     1    22
  5.5267016900915600E-01 a       673     0    27     1    23
  4.2412249868964746E-01 a       674     0    27     1    24
 -6.0624977466855967E-01 a       675     0    27     1    25
  1.1667745222012220E+00 a       676     0    28     1     1
  1.6433685746326704E-01 a       677     0    28     1     2
  6.0016568508823673E-04 a       678     0    28     1     3
  6.9477537282391796E-02 a       679     0    28     1     4
 -2.1947182116662181E-01 a       680     0    28     1     5
 -3.3446302514070492E-01 a       681     0    28     1     6
 -1.9926619737278412E-01 a       682     0    28     1     7
  3.3876053745907792E-01 a       683     0    28     1     8
  2.4852436475237558E-01 a       684     0    28     1     9
 -4.3942432324416281E-01 a       685     0    28     1    10
  7.2284537917855096E-01 a       686     0    28     1    11
  6.8751462379304940E-01 a       687     0    28     1    12
 -2.3765669027490666E-01 a       688     0    28     1    13
 -4.8372434170569051E-02 a       689     0    28     1    14
 -3.1513034746893759E-01 a       690     0    28     1    15
 -7.9417372945100018E-01 a       691     0    28     1    16
 -2.8586645737269734E-01 a       692     0    28     1    17
  2.5556134808913639E-01 a       693     0    28     1    18
 -2.3550699787129240E-01 a       694     0    28     1    19
 -9.8347198934696262E-02 a       695     0    28     1    20
  1.6203959549038924E-01 a       696     0    28     1    21
 -4.0122437869667649E-01 a       697     0    28     1    22
  6.0526554258223864E-01 a       698     0    28     1    23
  5.1912385500824043E-01 a       699     0    28     1    24
 -5.7368722182716503E-01 a       700     0    28     1    25
  2.5876524473927814E-01 a       701     0    29     1     1
 -1.6036251504164184E-01 a       702     0    29     1     2
 -8.3396037422840789E-03 a       703     0    29     1     3
  5.2492224178830416E-01 a       704     0    29     1     4
 -1.3244867333053545E-01 a       705     0    29     1     5
 -1.4631170354878162E-01 a       706     0    29     1     6
  1.9360048174044928E-01 a       707     0    29     1     7
  7.6555187431741412E-01 a       708     0    29     1     8
 -3.2157549865529000E-01 a       709     0    29     1     9
 -1.1647211402115250E-01 a       710     0    29     1    10
  4.5080183644126726E-01 a       711     0    29     1    11
  7.0970899107352450E-02 a       712     0    29     1    12
 -1.7407950325332289E-01 a       713     0    29     1    13
 -3.4020909574822944E-01 a       714     0    29     1    14
 -2.7284052664174163E-01 a       715     0    29     1    15
 -3.7206564646592344E-01 a       716     0    29     1    16
 -1.6836671062891029E-01 a       717     0    29     1    17
 -6.6642100270849713E-01 a       718     0    29     1    18
  3.4048219248955336E-01 a       719     0    29     1    19
 -1.1102080757333098E-01 a       720     0    29     1    20
  2.7244708296678577E-02 a       721     0    29     1    21
  7.1807182497954633E-02 a       722     0    29     1    22
  1.1462428324963415E-01 a       723     0    29     1    23
 -1.6525469318647182E-01 a       724     0    29     1    24
 -2.8854726411563886E-01 a       725     0    29     1    25
  1.6539432876063728E-01 a       726     0    30     1     1
 -4.5014025307953365E-01 a       727     0    30     1     2
  3.7425482124477619E-02 a       728     0    30     1     3
  2.7130444185900621E-01 a       729     0    30     1     4
 -9.0044679464876320E-02 a       730     0    30     1     5
  1.1948346079334948E-01 a       731     0    30     1     6
  1.9681562451764892E-01 a       732     0    30     1     7
  3.3639843816014559E-01 a       733     0    30     1     8
 -1.9536375609578802E-01 a       734     0    30     1     9
  2.3374677916265720E-02 a       735     0    30     1    10
  5.7352885827258926E-01 a       736     0    30     1    11
 -1.2425569839896845E-01 a       737     0    30     1    12
 -4.2523348840751179E-02 a       738     0    30     1    13
 -1.9425215649323918E-01 a       739     0    30     1    14
 -8.8425336339574973E-02 a       740     0    30     1    15
 -3.0001573020736810E-01 a       741     0    30     1    16
 -1.7834268137770720E-01 a       742     0    30     1    17
 -5.5202577339012915E-01 a       743     0    30     1    18
  1.5883346982991947E-01 a       744     0    30     1    19
 -3.5586406657147851E-01 a       745     0    30     1    20
  5.5359407979906350E-02 a       746     0    30     1    21
 -1.7762810925720232E-01 a       747     0    30     1    22
  2.3700102204772128E-01 a       748     0    30     1    23
 -1.4634668421723612E-01 a       749     0    30     1    24
 -2.7259445208617322E-01 a       750     0    30     1    25
  1.3811382527384273E+00 a       751     0    31     1     1
 -1.8339428631156565E+00 a       752     0    31     1     2
  1.6028322746177976E+00 a       753     0    31     1     3
  1.2999351047557595E+00 a       754     0    31     1     4
  1.6487630549500029E-01 a       755     0    31     1     5
  2.2094909591085124E-01 a       756     0    31     1     6
 -7.0660293870803498E-02 a       757     0    31     1     7
  7.7331092044081662E-01 a       758     0    31     1     8
  1.1306401810846740E+00 a       759     0    31     1     9
 -5.5266168699069018E-01 a       760     0    31     1    10
  6.9014869456043870E-01 a       761     0    31     1    11
 -1.2576249170477605E+00 a       762     0    31     1    12
 -1.1404933865155826E+00 a       763     0    31     1    13
 -1.1163838596276268E-01 a       764     0    31     1    14
  1.3568243263929469E+00 a       765     0    31     1    15
 -1.0775116082879133E+00 a       766     0    31     1    16
 -1.5425961961132550E-01 a       767     0    31     1    17
  2.1936760859354282E-02 a       768     0    31     1    18
 -1.4190945110976163E+00 a       769     0    31     1    19
 -1.7548593850554939E+00 a       770     0    31     1    20
  1.0333760003421846E+00 a       771     0    31     1    21
  7.4543901478793917E-01 a       772     0    31     1    22
  6.7063377545498959E-01 a       773     0    31     1    23
 -4.7975311273707733E-01 a       774     0    31     1    24
 -4.3963257169101017E-02 a       775     0    31     1    25
 -4.5976801018375685E-01 a       776     0    32     1     1
  6.2908374733679953E-02 a       777     0    32     1     2
 -6.7888733483567432E-01 a       778     0    32     1     3
 -1.1902072706393330E-01 a       779     0    32     1     4
 -9.8643237107858453E-02 a       780     0    32     1     5
  2.4146729723338223E-01 a       781     0    32     1     6
 -1.8050911909026257E-01 a       782     0    32     1     7
  5.2396181889239357E-01 a       783     0    32     1     8
 -4.9862757964992310E-01 a       784     0    32     1     9
 -2.2043102109349447E-01 a       785     0    32     1    10
  2.3290852783166872E-02 a       786     0    32     1    11
 -4.2313147440844451E-01 a       787     0    32     1    12
  2.7481105778031339E-01 a       788     0    32     1    13
  2.4673323862545565E-01 a       789     0    32     1    14
 -4.2442045191261257E-01 a       790     0    32     1    15
 -8.5366701646751320E-01 a       791     0    32     1    16
  2.6559539938520282E-01 a       792     0    32     1    17
 -1.3390275273252045E-01 a       793     0    32     1    18
 -7.9280853969181053E-02 a       794     0    32     1    19
  7.5344154405248409E-01 a       795     0    32     1    20
 -8.5356416221344189E-01 a       796     0    32     1    21
 -2.7251536377720437E-01 a       797     0    32     1    22
  4.1663398256636208E-01 a       798     0    32     1    23
  2.1178750620296385E-01 a       799     0    32     1    24
  4.2487322525690585E-01 a       800     0    32     1    25
 -3.6888828248483702E-01 a       801     0    33     1     1
  4.7870220018968748E-02 a       802     0    33     1     2
 -2.3287578391253730E-01 a       803     0    33     1     3
 -1.4668055342909866E-01 a       804     0    33     1     4
 -2.9157162533875686E-01 a       805     0    33     1     5
 -8.5521507927113043E-03 a       806     0    33     1     6
  9.0622636671316301E-02 a       807     0    33     1     7
  2.7482254577709403E-01 a       808     0    33     1     8
 -4.5646621383666908E-01 a       809     0    33     1     9
 -3.2979637125562422E-01 a       810     0    33     1    10
 -3.5473353500390681E-01 a       811     0    33     1    11
 -1.1779739654809757E-01 a       812     0    33     1    12
 -4.8892170036214516E-02 a       813     0    33     1    13
  3.9860566096172168E-01 a       814     0    33     1    14
 -2.4101949046268525E-01 a       815     0    33     1    15
 -6.2860161367858458E-01 a       816     0    33     1    16
  2.8141062906085695E-01 a       817     0    33     1    17
 -1.1301659957845536E-01 a       818     0    33     1    18
 -2.0796837494622325E-01 a       819     0    33     1    19
  7.7797517646924375E-01 a       820     0    33     1    20
 -5.8125901662102086E-01 a       821     0    33     1    21
 -2.4249329472133191E-01 a       822     0    33     1    22
  4.0503491790553803E-01 a       823     0    33     1    23
  2.8023012228546346E-01 a       824     0    33     1    24
  7.8504152313827860E-02 a       825     0    33     1    25
  1.5302423876927576E-01 a       826     0    34     1     1
  4.8849436892636855E-01 a       827     0    34     1     2
 -3.7024929984477375E-04 a       828     0    34     1     3
  4.8758873150887744E-01 a       829     0    34     1     4
 -6.5549394949068075E-03 a       830     0    34     1     5
  3.7249387983521892E-01 a       831     0    34     1     6
 -6.5033755408933303E-01 a       832     0    34     1     7
  3.9137279902025024E-01 a       833     0    34     1     8
 -2.1229726714114583E-01 a       834     0    34     1     9
  1.4318303606030919E-01 a       835     0    34     1    10
 -3.8205904853156120E-01 a       836     0    34     1    11
  3.9082072967456849E-01 a       837     0    34     1    12
  8.2825145703892170E-02 a       838     0    34     1    13
 -2.5131580992341473E-01 a       839     0    34     1    14
  3.7400385876960840E-01 a       840     0    34     1    15
  2.5803542942243279E-01 a       841     0    34     1    16
  4.1256268954612985E-01 a       842     0    34     1    17
  8.7005431960043877E-01 a       843     0    34     1    18
 -4.8983040856264271E-01 a       844     0    34     1    19
  5.2702093756448010E-01 a       845     0    34     1    20
 -6.6978049701313908E-02 a       846     0    34     1    21
 -8.6958811450173104E-02 a       847     0    34     1    22
 -3.7303789888423054E-02 a       848     0    34     1    23
  1.2416872894459927E-01 a       849     0    34     1    24
  5.9190531605285224E-01 a       850     0    34     1    25
  2.9545267527683300E-01 a       851     0    35     1     1
  1.9757956207754124E-01 a       852     0    35     1     2
 -3.4750666558945212E-03 a       853     0    35     1     3
  6.8149435381676804E-01 a       854     0    35     1     4
  2.0949863496861540E-01 a       855     0    35     1     5
  5.5089246795883251E-01 a       856     0    35     1     6
 -5.2851324542252065E-01 a       857     0    35     1     7
  4.7129491770139820E-01 a       858     0    35     1     8
 -1.3664061861725726E-01 a       859     0    35     1     9
 -6.3161849504548756E-02 a       860     0    35     1    10
 -6.5981162531003293E-02 a       861     0    35     1    11
  7.3276415616085711E-01 a       862     0    35     1    12
  1.6085459810620470E-02 a       863     0    35     1    13
  9.9180381167862444E-02 a       864     0    35     1    14
  6.8434980526192790E-02 a       865     0    35     1    15
  2.2134267566332927E-01 a       866     0    35     1    16
  4.1713102138044500E-01 a       867     0    35     1    17
  5.3854178530685792E-01 a       868     0    35     1    18
 -1.7407614962237680E-01 a       869     0    35     1    19
  4.4677615482828265E-01 a       870     0    35     1    20
 -1.2903245866879106E-02 a       871     0    35     1    21
 -1.8544916627153621E-01 a       872     0    35     1    22
  1.0776475827856071E-02 a       873     0    35     1    23
  4.2145026143103659E-01 a       874     0    35     1    24
  6.8036733379325787E-01 a       875     0    35     1    25
  6.1083479919098649E-01 a       876     0    36     1     1
 -3.8054311153477249E-01 a       877     0    36     1     2
 -4.3347905461472591E-01 a       878     0    36     1     3
 -1.8259962412983059E-02 a       879     0    36     1     4
 -3.5119197330330271E-01 a       880     0    36     1     5
  6.6474886099401076E-01 a       881     0    36     1     6
  7.8154684734826674E-01 a       882     0    36     1     7
 -1.0375803579542336E-01 a       883     0    36     1     8
 -9.6165982412049089E-01 a       884     0    36     1     9
 -1.2418359440843676E+00 a       885     0    36     1    10
  2.1147283682023538E-01 a       886     0    36     1    11
 -5.6231887298371397E-01 a       887     0    36     1    12
  4.0491134709747706E-01 a       888     0    36     1    13
  8.7552948154067167E-02 a       889     0    36     1    14
  3.0592030819038763E-02 a       890     0    36     1    15
 -6.9616992922641729E-01 a       891     0    36     1    16
  5.5140569332007638E-01 a       892     0    36     1    17
 -8.5499804309865113E-01 a       893     0    36     1    18
  9.2974242918869376E-01 a       894     0    36     1    19
 -6.7820748433312461E-01 a       895     0    36     1    20
 -3.2878737955728793E-01 a       896     0    36     1    21
  3.2433612477267482E-01 a       897     0    36     1    22
 -4.5947603111064456E-01 a       898     0    36     1    23
  7.1888565326702836E-01 a       899     0    36     1    24
 -3.4658507530128801E-01 a       900     0    36     1    25
  9.6888166039966084E-02 a       901     0    37     1     1
 -2.9019529580007863E-01 a       902     0    37     1     2
  8.0058059771706505E-02 a       903     0    37     1     3
  1.0426998661117735E+00 a       904     0    37     1     4
  1.0473001822469197E-01 a       905     0    37     1     5
 -2.8281217993129881E-01 a       906     0    37     1     6
 -5.6965642035801134E-01 a       907     0    37     1     7
  8.7484037117380786E-02 a       908     0    37     1     8
  8.2066304607747476E-01 a       909     0    37     1     9
  5.5406039770036275E-01 a       910     0    37     1    10
  3.5004169513953898E-01 a       911     0    37     1    11
 -2.6734479459803462E-01 a       912     0    37     1    12
  1.0669674666368012E+00 a       913     0    37     1    13
 -4.1717279284504027E-02 a       914     0    37     1    14
  9.4311110818377196E-03 a       915     0    37     1    15
  1.7336340995759011E-01 a       916     0    37     1    16
  1.0674655674203581E+00 a       917     0    37     1    17
  1.0268258509746331E+00 a       918     0    37     1    18
 -7.4916982185316661E-01 a       919     0    37     1    19
 -5.4681851999971143E-01 a       920     0    37     1    20
 -9.3984883285132562E-02 a       921     0    37     1    21
  2.9607379927284749E-01 a       922     0    37     1    22
  2.1199102627023492E-01 a       923     0    37     1    23
 -3.0981325474021931E-01 a       924     0    37     1    24
  4.2742997991696513E-01 a       925     0    37     1    25
  2.6085450320446740E-01 a       926     0    38     1     1
  5.8967934373159274E-02 a       927     0    38     1     2
  3.3881524331636315E-01 a       928     0    38     1     3
  1.2377962554838906E+00 a       929     0    38     1     4
  9.7094770044504175E-02 a       930     0    38     1     5
 -1.5853884413397945E-01 a       931     0    38     1     6
 -4.5109499470972952E-01 a       932     0    38     1     7
  4.5927091662246143E-02 a       933     0    38     1     8
  8.0591941755112673E-01 a       934     0    38     1     9
  9.4335297205468505E-01 a       935     0    38     1    10
  3.2322015405740917E-01 a       936     0    38     1    11
 -1.7030753989837805E-01 a       937     0    38     1    12
  1.1956012187245859E+00 a       938     0    38     1    13
 -2.8506433914687040E-01 a       939     0    38     1    14
  1.5285141079009851E-01 a       940     0    38     1    15
  6.2014168520791078E-02 a       941     0    38     1    16
  9.0838475488326975E-01 a       942     0    38     1    17
  1.3317641992856639E+00 a       943     0    38     1    18
 -7.6406909098060127E-01 a       944     0    38     1    19
 -5.5820528631343103E-01 a       945     0    38     1    20
 -4.1392731968292594E-02 a       946     0    38     1    21
  1.9662887554259109E-01 a       947     0    38     1    22
  1.5865406624604064E-01 a       948     0    38     1    23
  4.2459814755233478E-02 a       949     0    38     1    24
  4.1372765741840317E-01 a       950     0    38     1    25
  9.7390305597767651E-02 a       951     0    39     1     1
  1.8757916556585533E-01 a       952     0    39     1     2
  1.8538162972447644E-02 a       953     0    39     1     3
  2.2440812193341886E-01 a       954     0    39     1     4
 -2.4478436247673840E-01 a       955     0    39     1     5
  3.2131524952725160E-01 a       956     0    39     1     6
 -1.3809160092369743E-01 a       957     0    39     1     7
 -3.5553925195540531E-01 a       958     0    39     1     8
  1.6931922613095347E-02 a       959     0    39     1     9
  2.4122304291462290E-01 a       960     0    39     1    10
  2.6949565748208243E-01 a       961     0    39     1    11
 -1.0772198134876027E-01 a       962     0    39     1    12
 -2.0368016088473728E-01 a       963     0    39     1    13
 -7.9425615707327309E-03 a       964     0    39     1    14
  1.7088888114928391E-01 a       965     0    39     1    15
  8.6200682512103688E-01 a       966     0    39     1    16
  6.4216711372820853E-02 a       967     0    39     1    17
 -3.9414837103994338E-01 a       968     0    39     1    18
  4.4263760032682414E-01 a       969     0    39     1    19
 -6.6949280598106398E-02 a       970     0    39     1    20
  1.1441522645786249E-01 a       971     0    39     1    21
  2.5365476646459556E-01 a       972     0    39     1    22
 -1.6472787798798566E-01 a       973     0    39     1    23
  3.1758574075380269E-01 a       974     0    39     1    24
 -5.6856836756582672E-02 a       975     0    39     1    25
 -1.5192909354312820E-01 a       976     0    40     1     1
  1.4962456445605762E-01 a       977     0    40     1     2
  5.3015982936285046E-02 a       978     0    40     1     3
  2.2792696929017450E-01 a       979     0    40     1     4
  9.8173938240246353E-02 a       980     0    40     1     5
  5.9256872148304462E-01 a       981     0    40     1     6
  4.5117513107360521E-02 a       982     0    40     1     7
 -2.8889336663489112E-01 a       983     0    40     1     8
 -3.4653957983443989E-01 a       984     0    40     1     9
 -1.5907346105779421E-01 a       985     0    40     1    10
  4.1975871381205354E-01 a       986     0    40     1    11
 -2.2417571594695162E-02 a       987     0    40     1    12
 -3.8455868020901707E-01 a       988     0    40     1    13
 -6.3314976747236490E-02 a       989     0    40     1    14
  6.8116792338648147E-02 a       990     0    40     1    15
  6.4804248157283673E-01 a       991     0    40     1    16
 -2.6861998562294275E-02 a       992     0    40     1    17
 -4.1603372050835302E-01 a       993     0    40     1    18
  7.3338603371593714E-01 a       994     0    40     1    19
  1.6366864709770759E-01 a       995     0    40     1    20
  2.8805500904485359E-01 a       996     0    40     1    21
  1.6550160424333021E-01 a       997     0    40     1    22
 -1.1758534557915208E-02 a       998     0    40     1    23
  1.3969407771522824E-02 a       999     0    40     1    24
 -1.7910251585113965E-01 a      1000     0    40     1    25
  2.0072363146369482E-01 a      1001     0    41     1     1
 -3.9622057114043230E-01 a      1002     0    41     1     2
  9.1222557152359232E-02 a      1003     0    41     1     3
 -9.5832095904546277E-02 a      1004     0    41     1     4
  1.1928449869176417E-02 a      1005     0    41     1     5
 -1.2542345408795069E-01 a      1006     0    41     1     6
  4.3961555716809636E-01 a      1007     0    41     1     7
  6.4043922140136800E-01 a      1008     0    41     1     8
  2.5354323076620347E-02 a      1009     0    41     1     9
  2.2229201407348387E-01 a      1010     0    41     1    10
  2.5940615234735187E-01 a      1011     0    41     1    11
 -5.8328153364258393E-03 a      1012     0    41     1    12
 -1.2179545863812694E-01 a      1013     0    41     1    13
 -3.0024109754742062E-01 a      1014     0    41     1    14
 -1.0849640849996174E-01 a      1015     0    41     1    15
 -3.1521384259305296E-01 a      1016     0    41     1    16
 -4.6226859541275084E-01 a      1017     0    41     1    17
 -4.6720846226733259E-01 a      1018     0    41     1    18
  5.3631633615068641E-01 a      1019     0    41     1    19
 -1.4221415358482675E-01 a      1020     0    41     1    20
  1.9497660597774216E-01 a      1021     0    41     1    21
 -3.4778913780034343E-01 a      1022     0    41     1    22
  2.4295310805777556E-01 a      1023     0    41     1    23
  1.8527751729429390E-02 a      1024     0    41     1    24
 -1.3794083746151706E-01 a      1025     0    41     1    25
  3.0336757660627367E-01 a      1026     0    42     1     1
 -5.5039974900574495E-01 a      1027     0    42     1     2
 -4.4451346509387542E-02 a      1028     0    42     1     3
 -2.3469656621714161E-01 a      1029     0    42     1     4
 -1.9770606103662539E-01 a      1030     0    42     1     5
  2.0626407038162975E-01 a      1031     0    42     1     6
  4.9895032748709400E-01 a      1032     0    42     1     7
  4.8913831181819695E-01 a      1033     0    42     1     8
  1.6761835551008009E-01 a      1034     0    42     1     9
 -7.6750144206756910E-02 a      1035     0    42     1    10
  4.8978097654942720E-01 a      1036     0    42     1    11
  1.2582312160387804E-01 a      1037     0    42     1    12
  6.9198937516550263E-02 a      1038     0    42     1    13
  9.3075826988039359E-02 a      1039     0    42     1    14
 -1.9263290034653643E-02 a      1040     0    42     1    15
 -4.2057380158346608E-01 a      1041     0    42     1    16
 -2.2788566937329971E-01 a      1042     0    42     1    17
 -3.3614868858143082E-01 a      1043     0    42     1    18
  2.0129105283099846E-01 a      1044     0    42     1    19
 -2.0003094699077337E-01 a      1045     0    42     1    20
  1.0044844660072381E-01 a      1046     0    42     1    21
 -5.3098511276413674E-01 a      1047     0    42     1    22
  4.3094562530025055E-01 a      1048     0    42     1    23
 -1.4212773310334401E-01 a      1049     0    42     1    24
 -2.9913855389303151E-01 a      1050     0    42     1    25
  1.8075042303777680E+00 a      1051     0    43     1     1
 -1.3680468994489441E+00 a      1052     0    43     1     2
  2.1934821126150554E+00 a      1053     0    43     1     3
  1.2816322158064866E+00 a      1054     0    43     1     4
 -3.2826373672444292E-01 a      1055     0    43     1     5
  9.1151590688033080E-01 a      1056     0    43     1     6
 -1.0195770214522815E+00 a      1057     0    43     1     7
  5.0245632129238149E-01 a      1058     0    43     1     8
  6.8536157360137140E-01 a      1059     0    43     1     9
  7.6558265917029755E-01 a      1060     0    43     1    10
  1.3393330723508573E-01 a      1061     0    43     1    11
 -8.2132353858076557E-01 a      1062     0    43     1    12
 -1.6832065625819499E+00 a      1063     0    43     1    13
 -1.0267767559770277E-01 a      1064     0    43     1    14
  6.9080807558952045E-02 a      1065     0    43     1    15
 -4.9966144350373762E-02 a      1066     0    43     1    16
 -1.1947135363812660E+00 a      1067     0    43     1    17
 -1.8177684263915836E-01 a      1068     0    43     1    18
 -4.3840311381923919E-01 a      1069     0    43     1    19
 -1.5287036313364275E+00 a      1070     0    43     1    20
  1.7987644439618260E+00 a      1071     0    43     1    21
  1.2586255915803664E+00 a      1072     0    43     1    22
  1.0763988888699485E+00 a      1073     0    43     1    23
 -3.1761878341709060E-01 a      1074     0    43     1    24
 -1.0132322862425401E-01 a      1075     0    43     1    25
 -5.4968657055590431E-01 a      1076     0    44     1     1
  2.8091778638160919E-01 a      1077     0    44     1     2
 -4.3134718488686935E-01 a      1078     0    44     1     3
 -3.7011212395459009E-01 a      1079     0    44     1     4
 -1.0800419627627139E-01 a      1080     0    44     1     5
 -1.5909580362031167E-01 a      1081     0    44     1     6
  1.6106876099337858E-01 a      1082     0    44     1     7
  2.5340889064862099E-01 a      1083     0    44     1     8
 -3.0804236672690161E-01 a      1084     0    44     1     9
 -3.0303003995084443E-01 a      1085     0    44     1    10
 -2.5124413155540781E-01 a      1086     0    44     1    11
 -5.5961123621052022E-01 a      1087     0    44     1    12
  3.6851718268628936E-01 a      1088     0    44     1    13
  3.4692761609591644E-01 a      1089     0    44     1    14
  1.4119593010946743E-01 a      1090     0    44     1    15
 -9.7458990684703239E-01 a      1091     0    44     1    16
  6.2541113166398099E-01 a      1092     0    44     1    17
  2.4707507772237285E-02 a      1093     0    44     1    18
 -2.9011902030463566E-01 a      1094     0    44     1    19
  5.4342424275070167E-01 a      1095     0    44     1    20
 -7.6350781156800818E-01 a      1096     0    44     1    21
 -5.6715955000763107E-01 a      1097     0    44     1    22
  6.5037864653213082E-02 a      1098     0    44     1    23
  2.1072942764032188E-01 a      1099     0    44     1    24
  3.2534489228029190E-01 a      1100     0    44     1    25
 -1.6953255068271547E-01 a      1101     0    45     1     1
  2.6091471440254704E-01 a      1102     0    45     1     2
 -3.9890872828585616E-01 a      1103     0    45     1     3
 -6.7847761601760093E-02 a      1104     0    45     1     4
 -2.0589086575108792E-01 a      1105     0    45     1     5
 -6.4212302136365820E-02 a      1106     0    45     1     6
  6.1263666553832259E-02 a      1107     0    45     1     7
  4.1767127967158779E-01 a      1108     0    45     1     8
 -4.8264707652889549E-01 a      1109     0    45     1     9
 -5.8485872467789146E-01 a      1110     0    45     1    10
 -1.2965475279208527E-01 a      1111     0    45     1    11
 -5.1879613873871333E-01 a      1112     0    45     1    12
  3.1666659699468197E-01 a      1113     0    45     1    13
  1.6243308381028965E-01 a      1114     0    45     1    14
  2.3440421190583485E-01 a      1115     0    45     1    15
 -8.5420652964708688E-01 a      1116     0    45     1    16
  3.5479427964153071E-01 a      1117     0    45     1    17
  1.6115164971692358E-01 a      1118     0    45     1    18
 -4.5569748788375425E-01 a      1119     0    45     1    19
  5.0918885894428301E-01 a      1120     0    45     1    20
 -1.0437596526364539E+00 a      1121     0    45     1    21
 -2.3408939864845765E-01 a      1122     0    45     1    22
 -7.3888035444883791E-03 a      1123     0    45     1    23
  6.0598209776786198E-02 a      1124     0    45     1    24
  2.2860865498921942E-01 a      1125     0    45     1    25
  2.3396221580031445E-01 a      1126     0    46     1     1
  5.2011563353121815E-01 a      1127     0    46     1     2
 -2.3115705634669328E-01 a      1128     0    46     1     3
  7.2635367276704221E-01 a      1129     0    46     1     4
 -7.2085430060185085E-02 a      1130     0    46     1     5
  5.7293033417672767E-01 a      1131     0    46     1     6
 -2.0180301790570102E-01 a      1132     0    46     1     7
 -7.6971209468612897E-02 a      1133     0    46     1     8
 -4.2807400094858733E-01 a      1134     0    46     1     9
  1.3436757433467950E-01 a      1135     0    46     1    10
 -1.5894592256326170E-01 a      1136     0    46     1    11
  2.7016095329496198E-01 a      1137     0    46     1    12
 -9.7721555301834809E-02 a      1138     0    46     1    13
  2.1763635560461683E-01 a      1139     0    46     1    14
  2.3185871149736037E-01 a      1140     0    46     1    15
 -1.4035567797071082E-02 a      1141     0    46     1    16
  5.5780954477655920E-01 a      1142     0    46     1    17
 -2.4058884589087719E-02 a      1143     0    46     1    18
  6.8171381124630434E-02 a      1144     0    46     1    19
  7.5820872143714732E-02 a      1145     0    46     1    20
 -5.5967482992815765E-01 a      1146     0    46     1    21
 -8.3201215804454151E-02 a      1147     0    46     1    22
 -2.9397343633615236E-01 a      1148     0    46     1    23
  4.2406145535260953E-01 a      1149     0    46     1    24
  4.3473579933627271E-01 a      1150     0    46     1    25
 -1.9063528355967102E-01 a      1151     0    47     1     1
  4.6260511556990913E-01 a      1152     0    47     1     2
 -2.0672362998297281E-01 a      1153     0    47     1     3
  9.0256839096090025E-01 a      1154     0    47     1     4
 -8.3997254004578817E-02 a      1155     0    47     1     5
  5.1879261015411982E-01 a      1156     0    47     1     6
 -1.4112200392546473E-01 a      1157     0    47     1     7
 -9.3354449213441160E-02 a      1158     0    47     1     8
 -3.7398023573763173E-01 a      1159     0    47     1     9
  1.7012935436183430E-01 a      1160     0    47     1    10
  1.8507908246846103E-01 a      1161     0    47     1    11
  3.7347719019011927E-01 a      1162     0    47     1    12
 -2.3053988161006969E-01 a      1163     0    47     1    13
 -2.2189745525110746E-01 a      1164     0    47     1    14
  1.1388012065034149E-01 a      1165     0    47     1    15
 -9.2746388257117895E-02 a      1166     0    47     1    16
  3.5438079985041210E-01 a      1167     0    47     1    17
  2.7565343385646573E-01 a      1168     0    47     1    18
  4.0848866408293896E-02 a      1169     0    47     1    19
  8.0268738883028989E-02 a      1170     0    47     1    20
 -2.6987783524286596E-01 a      1171     0    47     1    21
  2.9970642154050176E-01 a      1172     0    47     1    22
 -6.1819815951402091E-01 a      1173     0    47     1    23
  2.6127580152017238E-01 a      1174     0    47     1    24
  1.3356166905035768E-01 a      1175     0    47     1    25
 -1.3028318029318106E-01 a      1176     0    48     1     1
  2.3543406692947680E-01 a      1177     0    48     1     2
  4.8835958036580646E-01 a      1178     0    48     1     3
  3.5476810430270206E-01 a      1179     0    48     1     4
  2.4002699624378798E-01 a      1180     0    48     1     5
 -2.9675607889133426E-01 a      1181     0    48     1     6
 -5.6828490028817802E-01 a      1182     0    48     1     7
 -9.2204634801747315E-02 a      1183     0    48     1     8
  4.5028574915630520E-01 a      1184     0    48     1     9
 -3.4918018655777994E-01 a      1185     0    48     1    10
 -4.0453673546771834E-01 a      1186     0    48     1    11
  4.9719355699221285E-01 a      1187     0    48     1    12
 -4.3201880807593684E-01 a      1188     0    48     1    13
 -5.5889674192793906E-02 a      1189     0    48     1    14
  9.7384112385472843E-02 a      1190     0    48     1    15
  8.0410769299072843E-02 a      1191     0    48     1    16
 -2.4135132174819982E-01 a      1192     0    48     1    17
  7.0243993019196060E-01 a      1193     0    48     1    18
 -3.6614929107884298E-01 a      1194     0    48     1    19
  4.8423625457215119E-01 a      1195     0    48     1    20
 -1.7914251636112427E-01 a      1196     0    48     1    21
  9.2926398106448482E-02 a      1197     0    48     1    22
  2.8675377927422363E-01 a      1198     0    48     1    23
 -5.3839285098088852E-01 a      1199     0    48     1    24
  2.7888056957873997E-01 a      1200     0    48     1    25
 -3.7774880518348863E-01 a      1201     0    49     1     1
 -1.4526053803742592E-01 a      1202     0    49     1     2
 -9.5457756988607777E-03 a      1203     0    49     1     3
 -2.2194092385182640E+00 a      1204     0    49     1     4
  3.1173812163677384E-01 a      1205     0    49     1     5
  4.5345348919365708E-01 a      1206     0    49     1     6
 -6.3114012919814499E-02 a      1207     0    49     1     7
 -1.4785210960816120E-01 a      1208     0    49     1     8
 -1.7471398997841128E-01 a      1209     0    49     1     9
 -1.1409627467629761E-01 a      1210     0    49     1    10
 -4.0504666860318356E-01 a      1211     0    49     1    11
  3.4006142628950753E-01 a      1212     0    49     1    12
 -5.7142828372294874E-01 a      1213     0    49     1    13
  4.6074396640036797E-01 a      1214     0    49     1    14
 -2.1341211474456889E-02 a      1215     0    49     1    15
  2.0228225860726118E-01 a      1216     0    49     1    16
 -6.9681323475907131E-01 a      1217     0    49     1    17
  6.7223290218013521E-01 a      1218     0    49     1    18
  6.3543717449891257E-01 a      1219     0    49     1    19
  1.3921260091621932E+00 a      1220     0    49     1    20
 -6.6035730372622142E-02 a      1221     0    49     1    21
 -5.3821455513957173E-01 a      1222     0    49     1    22
 -2.0980917552065259E-01 a      1223     0    49     1    23
  7.1291421139489264E-01 a      1224     0    49     1    24
  5.1109624742034965E-01 a      1225     0    49     1    25
 -6.1101580944905165E-01 a      1226     0    50     1     1
  2.3172903098471549E-02 a      1227     0    50     1     2
 -9.1568967568604498E-02 a      1228     0    50     1     3
 -2.1027437523185295E+00 a      1229     0    50     1     4
  3.6147395475095939E-01 a      1230     0    50     1     5
  2.3678486984826286E-01 a      1231     0    50     1     6
  3.3569317691220535E-01 a      1232     0    50     1     7
  1.6636723386366373E-01 a      1233     0    50     1     8
 -5.2917387425775309E-01 a      1234     0    50     1     9
 -2.0047918273431703E-01 a      1235     0    50     1    10
 -4.2041816195637782E-01 a      1236     0    50     1    11
  4.3449640834788578E-01 a      1237     0    50     1    12
 -2.3166895649396682E-01 a      1238     0    50     1    13
  3.2934638685009970E-01 a      1239     0    50     1    14
  3.2810262649027705E-01 a      1240     0    50     1    15
  2.7474441711705488E-01 a      1241     0    50     1    16
 -7.8891416806906922E-01 a      1242     0    50     1    17
  4.6934473852469549E-01 a      1243     0    50     1    18
  3.8488610078492114E-01 a      1244     0    50     1    19
  1.0646150236937515E+00 a      1245     0    50     1    20
 -8.2906304920800006E-02 a      1246     0    50     1    21
 -3.5132804229268111E-01 a      1247     0    50     1    22
 -3.8334758910022443E-01 a      1248     0    50     1    23
  6.6822904615414624E-01 a      1249     0    50     1    24
  3.1721155327879380E-01 a      1250     0    50     1    25
 -8.9227926347667985E-01 a      1251     0    51     1     1
  1.0609870601794616E-01 a      1252     0    51     1     2
 -8.6912965465726161E-02 a      1253     0    51     1     3
  1.1035979048208623E-01 a      1254     0    51     1     4
 -3.0094338944124877E-01 a      1255     0    51     1     5
  4.0738647099503938E-01 a      1256     0    51     1     6
  1.8085132860556777E-01 a      1257     0    51     1     7
 -3.5487867319413097E-01 a      1258     0    51     1     8
 -3.2180945503643454E-01 a      1259     0    51     1     9
 -2.0349246793512366E-01 a      1260     0    51     1    10
 -3.6217941608814230E-01 a      1261     0    51     1    11
 -4.5953862455945543E-01 a      1262     0    51     1    12
 -2.0120239016392778E-02 a      1263     0    51     1    13
  1.5476520191926518E-01 a      1264     0    51     1    14
  4.8123270245034500E-01 a      1265     0    51     1    15
  8.5721294895064104E-01 a      1266     0    51     1    16
  3.2901200437022676E-01 a      1267     0    51     1    17
 -3.5474742929670744E-01 a      1268     0    51     1    18
  3.0965606863451156E-01 a      1269     0    51     1    19
 -1.8907301968851536E-01 a      1270     0    51     1    20
  2.8657588708046289E-01 a      1271     0    51     1    21
  3.9454003474954530E-01 a      1272     0    51     1    22
 -5.7631437622664405E-01 a      1273     0    51     1    23
 -3.8689172097592778E-01 a      1274     0    51     1    24
  4.1295916803431404E-01 a      1275     0    51     1    25
 -7.8653877645259085E-01 a      1276     0    52     1     1
 -4.1953881319378890E-02 a      1277     0    52     1     2
 -2.0189607252139716E-01 a      1278     0    52     1     3
  3.3260406135296355E-01 a      1279     0    52     1     4
 -1.4620385298856589E-01 a      1280     0    52     1     5
  5.3411085973693362E-01 a      1281     0    52     1     6
  1.1620152639635868E-01 a      1282     0    52     1     7
 -2.4501009738183735E-01 a      1283     0    52     1     8
 -1.8802317780752117E-01 a      1284     0    52     1     9
 -2.2778624762609101E-01 a      1285     0    52     1    10
 -1.5031988814698863E-01 a      1286     0    52     1    11
 -2.0924639201805081E-01 a      1287     0    52     1    12
 -3.4256926414140154E-01 a      1288     0    52     1    13
  3.2477443171455472E-01 a      1289     0    52     1    14
  2.3858828167026364E-01 a      1290     0    52     1    15
  9.3776453307512053E-01 a      1291     0    52     1    16
  1.7586525250916807E-01 a      1292     0    52     1    17
 -1.5951556175802437E-01 a      1293     0    52     1    18
  1.8923231658713219E-01 a      1294     0    52     1    19
  5.5075990285696354E-02 a      1295     0    52     1    20
 -6.5379424883974913E-02 a      1296     0    52     1    21
  4.7686651721692835E-01 a      1297     0    52     1    22
 -5.2935336048608506E-01 a      1298     0    52     1    23
 -2.6189618501963441E-01 a      1299     0    52     1    24
  2.9817623838725016E-01 a      1300     0    52     1    25
 -1.8942039103250979E-01 a      1301     0    53     1     1
  1.7795349670581123E-01 a      1302     0    53     1     2
  1.6504058306304686E-01 a      1303     0    53     1     3
  4.1520314738639202E-01 a      1304     0    53     1     4
  1.6939091881803867E-01 a      1305     0    53     1     5
  2.9277822272764298E-01 a      1306     0    53     1     6
  4.6475991723249094E-02 a      1307     0    53     1     7
 -2.3384934109595196E-01 a      1308     0    53     1     8
  5.6881365684662072E-03 a      1309     0    53     1     9
  6.1926721389748446E-02 a      1310     0    53     1    10
 -5.9789235063880626E-02 a      1311     0    53     1    11
 -4.0955645227728560E-01 a      1312     0    53     1    12
  5.8502685225646292E-02 a      1313     0    53     1    13
 -3.6122687522688046E-01 a      1314     0    53     1    14
  1.7478912556142986E-01 a      1315     0    53     1    15
 -6.1892630368577395E-02 a      1316     0    53     1    16
  2.1723469194198622E-01 a      1317     0    53     1    17
 -3.2949197560817572E-01 a      1318     0    53     1    18
 -3.1909731083621951E-01 a      1319     0    53     1    19
  1.3540845352344479E-02 a      1320     0    53     1    20
 -1.0054958850644148E-02 a      1321     0    53     1    21
  1.0727357877729929E-02 a      1322     0    53     1    22
 -1.8143886809429571E-01 a      1323     0    53     1    23
 -2.9715131566311970E-01 a      1324     0    53     1    24
 -7.7136433860142628E-02 a      1325     0    53     1    25
 -5.4578826482063303E-01 a      1326     0    54     1     1
  4.3753691489550550E-01 a      1327     0    54     1     2
 -7.1053870224378674E-02 a      1328     0    54     1     3
  4.5447017757262503E-01 a      1329     0    54     1     4
 -1.9929479701420499E-01 a      1330     0    54     1     5
 -3.5831064019364228E-02 a      1331     0    54     1     6
 -1.6377725713840896E-01 a      1332     0    54     1     7
 -2.6152140795721351E-01 a      1333     0    54     1     8
  2.1021504847643255E-01 a      1334     0    54     1     9
 -5.1258611597644797E-02 a      1335     0    54     1    10
 -1.9521787100810103E-01 a      1336     0    54     1    11
 -1.2209088422215205E-02 a      1337     0    54     1    12
  1.1826754627909598E-02 a      1338     0    54     1    13
 -6.3973545296208037E-02 a      1339     0    54     1    14
  2.0912956421585860E-01 a      1340     0    54     1    15
  2.8505531940809953E-01 a      1341     0    54     1    16
  3.4145658784912725E-01 a      1342     0    54     1    17
  2.4760405194264933E-02 a      1343     0    54     1    18
 -3.0416082500161085E-01 a      1344     0    54     1    19
  6.3986857965461136E-02 a      1345     0    54     1    20
 -1.1829002055123579E-01 a      1346     0    54     1    21
  3.9935059424037994E-01 a      1347     0    54     1    22
  6.0108891590090321E-02 a      1348     0    54     1    23
  4.4870823643748628E-02 a      1349     0    54     1    24
  3.2754800254604463E-02 a      1350     0    54     1    25
 -5.3102760331021748E-01 a      1351     0    55     1     1
  2.0780687221335767E-01 a      1352     0    55     1     2
 -1.3342559489003603E+00 a      1353     0    55     1     3
  1.2058766223465529E+00 a      1354     0    55     1     4
  5.7234247948063821E-01 a      1355     0    55     1     5
 -8.8340275233149446E-01 a      1356     0    55     1     6
  9.0119941778881352E-01 a      1357     0    55     1     7
 -8.0306794405787318E-01 a      1358     0    55     1     8
 -6.3874849930411992E-01 a      1359     0    55     1     9
 -1.3371361801545172E+00 a      1360     0    55     1    10
  2.5483208532856594E-01 a      1361     0    55     1    11
  5.9823285681923366E-01 a      1362     0    55     1    12
  1.1694887075246603E+00 a      1363     0    55     1    13
 -4.2467720035317641E-01 a      1364     0    55     1    14
  2.0458264198602141E-01 a      1365     0    55     1    15
 -1.4253583422901011E+00 a      1366     0    55     1    16
  1.1655800093068636E+00 a      1367     0    55     1    17
 -1.0138417077914867E+00 a      1368     0    55     1    18
  9.8607753177447841E-02 a      1369     0    55     1    19
  1.7118759133746959E+00 a      1370     0    55     1    20
 -6.1146282951163478E-01 a      1371     0    55     1    21
 -3.3015674926884625E-01 a      1372     0    55     1    22
 -1.1145911707253215E+00 a      1373     0    55     1    23
 -3.1432716565464741E-01 a      1374     0    55     1    24
  5.1829810483216920E-01 a      1375     0    55     1    25
  1.4220410420119888E-02 a      1376     0    56     1     1
 -2.5119251689366806E-01 a      1377     0    56     1     2
  1.5867778264517482E-01 a      1378     0    56     1     3
 -3.4581207010944875E-01 a      1379     0    56     1     4
  3.0286922776545801E-02 a      1380     0    56     1     5
 -2.8706343690009434E-01 a      1381     0    56     1     6
 -3.2666509332522664E-01 a      1382     0    56     1     7
  8.3505533779775792E-02 a      1383     0    56     1     8
  6.5582964560151591E-01 a      1384     0    56     1     9
  4.7755910850802669E-01 a      1385     0    56     1    10
  4.4060048194171703E-01 a      1386     0    56     1    11
 -3.3282005484042454E-01 a      1387     0    56     1    12
 -1.1742762159839767E-01 a      1388     0    56     1    13
 -1.5937908149567952E-02 a      1389     0    56     1    14
 -3.6209720857955380E-01 a      1390     0    56     1    15
  4.2595682418866876E-01 a      1391     0    56     1    16
 -4.5225038160194891E-01 a      1392     0    56     1    17
  4.7794343155307900E-01 a      1393     0    56     1    18
  1.4974111749402538E-01 a      1394     0    56     1    19
 -3.7597819376972003E-01 a      1395     0    56     1    20
  3.9180182450225381E-01 a      1396     0    56     1    21
  8.7252811738391153E-02 a      1397     0    56     1    22
  4.1476592690457165E-01 a      1398     0    56     1    23
  4.6308282824698434E-02 a      1399     0    56     1    24
 -1.0501437543075094E-01 a      1400     0    56     1    25
 -6.6457143091413762E-02 a      1401     0    57     1     1
 -3.9714536920164595E-01 a      1402     0    57     1     2
  2.9261868191559492E-01 a      1403     0    57     1     3
 -5.3486071436509264E-01 a      1404     0    57     1     4
  1.6615215406326742E-01 a      1405     0    57     1     5
 -1.7640552172769700E-01 a      1406     0    57     1     6
 -1.2536654203710915E-01 a      1407     0    57     1     7
 -1.0716274567393001E-01 a      1408     0    57     1     8
  4.6171843133591250E-01 a      1409     0    57     1     9
  6.2546134231015627E-01 a      1410     0    57     1    10
  3.6436554570193008E-01 a      1411     0    57     1    11
 -7.4107410469189908E-02 a      1412     0    57     1    12
 -2.9003310624145456E-01 a      1413     0    57     1    13
  1.1175591808486258E-01 a      1414     0    57     1    14
 -3.7524792371135185E-01 a      1415     0    57     1    15
  5.3692166300230970E-01 a      1416     0    57     1    16
 -4.6402544247351657E-01 a      1417     0    57     1    17
  8.6466472440684072E-01 a      1418     0    57     1    18
  8.7570461250527934E-02 a      1419     0    57     1    19
 -3.1378036144376814E-01 a      1420     0    57     1    20
  1.6164017252724741E-01 a      1421     0    57     1    21
  6.5831468034392784E-02 a      1422     0    57     1    22
  5.2284329106236715E-01 a      1423     0    57     1    23
  9.5345062658877461E-02 a      1424     0    57     1    24
 -4.7219259681066372E-01 a      1425     0    57     1    25
 -1.4173012430718046E-01 a      1426     0    58     1     1
 -6.1144404356348336E-01 a      1427     0    58     1     2
  4.7194515676154525E-01 a      1428     0    58     1     3
 -8.0717889407051913E-01 a      1429     0    58     1     4
  3.8143998980290544E-01 a      1430     0    58     1     5
 -5.7320505220148299E-01 a      1431     0    58     1     6
 -4.7846451721560240E-02 a      1432     0    58     1     7
  3.0587082278227234E-01 a      1433     0    58     1     8
  3.8672098083868445E-01 a      1434     0    58     1     9
  1.4441691880522139E-02 a      1435     0    58     1    10
  1.1664747684298859E-02 a      1436     0    58     1    11
 -3.0614402941883317E-01 a      1437     0    58     1    12
  3.9853728894272827E-01 a      1438     0    58     1    13
  2.3162494133743106E-01 a      1439     0    58     1    14
 -3.4898583649956089E-01 a      1440     0    58     1    15
 -6.6984373253319421E-02 a      1441     0    58     1    16
 -3.8967610657601170E-01 a      1442     0    58     1    17
  3.1475946080184158E-01 a      1443     0    58     1    18
 -3.9049441853373265E-02 a      1444     0    58     1    19
 -1.0318280520366972E-01 a      1445     0    58     1    20
  1.5107556290200186E-01 a      1446     0    58     1    21
 -1.4722166748348187E-01 a      1447     0    58     1    22
  5.6027068960060922E-01 a      1448     0    58     1    23
 -2.1303210739624737E-01 a      1449     0    58     1    24
 -1.8892458860145808E-01 a      1450     0    58     1    25
 -3.8217380873567375E-01 a      1451     0    59     1     1
 -4.8439852959236374E-01 a      1452     0    59     1     2
  2.4181980613675275E-01 a      1453     0    59     1     3
 -9.9975851604903376E-01 a      1454     0    59     1     4
  2.7817882096008856E-01 a      1455     0    59     1     5
 -6.1312157152033020E-01 a      1456     0    59     1     6
  1.3989711232529667E-01 a      1457     0    59     1     7
  2.4232411385730501E-01 a      1458     0    59     1     8
  3.9965224430791213E-01 a      1459     0    59     1     9
  1.9149051677183754E-02 a      1460     0    59     1    10
  1.4130034051762438E-01 a      1461     0    59     1    11
 -1.9426397691591429E-01 a      1462     0    59     1    12
  5.0796254003287300E-01 a      1463     0    59     1    13
 -1.4084393055153377E-02 a      1464     0    59     1    14
 -5.4552387901324217E-01 a      1465     0    59     1    15
  7.4488408465868766E-02 a      1466     0    59     1    16
 -2.6846088540220892E-01 a      1467     0    59     1    17
  3.0921821543821165E-01 a      1468     0    59     1    18
 -1.1520674279028331E-03 a      1469     0    59     1    19
 -2.0437579239867690E-01 a      1470     0    59     1    20
  2.0253579302438465E-01 a      1471     0    59     1    21
 -1.2559293390752685E-01 a      1472     0    59     1    22
  5.6480340986234379E-01 a      1473     0    59     1    23
 -4.8381423561917875E-01 a      1474     0    59     1    24
  4.7551593523623453E-02 a      1475     0    59     1    25
 -7.3665053219425458E-01 a      1476     0    60     1     1
  3.6856576072090297E-01 a      1477     0    60     1     2
  6.9510383812447307E-01 a      1478     0    60     1     3
  8.9414227723436812E-01 a      1479     0    60     1     4
  1.6950805129612659E-01 a      1480     0    60     1     5
 -5.1659925965958531E-01 a      1481     0    60     1     6
 -2.4149187948843281E-01 a      1482     0    60     1     7
  2.6745708792563667E-02 a      1483     0    60     1     8
  3.4162765272026263E-01 a      1484     0    60     1     9
  1.4116732736841342E-01 a      1485     0    60     1    10
 -1.7661813726614670E-02 a      1486     0    60     1    11
  2.7532786279730215E-01 a      1487     0    60     1    12
 -9.1137709973536249E-02 a      1488     0    60     1    13
 -2.8458581099799790E-01 a      1489     0    60     1    14
  5.9791590570118092E-01 a      1490     0    60     1    15
  6.4789666607245744E-01 a      1491     0    60     1    16
  1.5982590294202842E-01 a      1492     0    60     1    17
 -1.4847820662639299E-01 a      1493     0    60     1    18
 -5.0719085122387941E-01 a      1494     0    60     1    19
  3.2843855372473674E-01 a      1495     0    60     1    20
 -9.8418732655710023E-02 a      1496     0    60     1    21
  3.7822174996498986E-01 a      1497     0    60     1    22
  1.0107646102917270E-01 a      1498     0    60     1    23
 -7.2277667802490164E-01 a      1499     0    60     1    24
 -7.3949997908968529E-02 a      1500     0    60     1    25
  1.7025821498255930E-01 a      1501     0    61     1     1
 -2.3805380348114957E-01 a      1502     0    61     1     2
 -2.6131705664892146E-01 a      1503     0    61     1     3
 -2.4771328359687010E+00 a      1504     0    61     1     4
  4.1870886050473893E-01 a      1505     0    61     1     5
 -5.2329569743803306E-01 a      1506     0    61     1     6
  8.6258431775302602E-01 a      1507     0    61     1     7
  3.4979921716745482E-01 a      1508     0    61     1     8
 -8.6108384155945183E-01 a      1509     0    61     1     9
  7.0382416365911171E-01 a      1510     0    61     1    10
  2.1492121487119056E-01 a      1511     0    61     1    11
  4.6055725869277464E-01 a      1512     0    61     1    12
 -4.1733944021887026E-01 a      1513     0    61     1    13
 -2.0644059693925365E-01 a      1514     0    61     1    14
 -5.4082763762314023E-01 a      1515     0    61     1    15
  6.5274856832850092E-01 a      1516     0    61     1    16
 -6.0131614698159197E-01 a      1517     0    61     1    17
  8.2835292872877797E-01 a      1518     0    61     1    18
 -3.9042235119649016E-01 a      1519     0    61     1    19
  4.9022588129194422E-01 a      1520     0    61     1    20
 -6.6616318434151653E-02 a      1521     0    61     1    21
 -8.1960353316741419E-01 a      1522     0    61     1    22
 -1.3098029103655773E-01 a      1523     0    61     1    23
  2.0038984882952809E-01 a      1524     0    61     1    24
  2.3574963313682398E-01 a      1525     0    61     1    25
 -3.8840098017188830E-02 a      1526     0    62     1     1
 -3.1684801763652909E-01 a      1527     0    62     1     2
 -4.3483474702860619E-01 a      1528     0    62     1     3
 -2.0199087558478466E+00 a      1529     0    62     1     4
  1.0785740649252688E-01 a      1530     0    62     1     5
 -5.7768468479427015E-01 a      1531     0    62     1     6
  7.0654767689485631E-01 a      1532     0    62     1     7
  6.5053487175237026E-02 a      1533     0    62     1     8
 -1.0788448777101844E+00 a      1534     0    62     1     9
  7.2053033533032151E-01 a      1535     0    62     1    10
  3.6382519405603175E-01 a      1536     0    62     1    11
  3.9883560439417698E-01 a      1537     0    62     1    12
 -3.5199773134668577E-01 a      1538     0    62     1    13
  2.3576246571254389E-01 a      1539     0    62     1    14
 -4.3883846685582006E-01 a      1540     0    62     1    15
  6.1792798893458001E-01 a      1541     0    62     1    16
 -8.8928306213883679E-01 a      1542     0    62     1    17
  1.1094685647222526E+00 a      1543     0    62     1    18
 -3.0639776268584196E-01 a      1544     0    62     1    19
  1.1382165370929367E-01 a      1545     0    62     1    20
 -6.0908210045524970E-02 a      1546     0    62     1    21
 -5.8238212327071848E-01 a      1547     0    62     1    22
 -7.9215603546155769E-02 a      1548     0    62     1    23
  4.1977995687234798E-01 a      1549     0    62     1    24
 -4.0376518889278110E-02 a      1550     0    62     1    25
 -3.9043104350908175E-01 a      1551     0    63     1     1
  2.5411501409846954E-01 a      1552     0    63     1     2
 -8.7413035321328575E-02 a      1553     0    63     1     3
 -2.5897292486561746E-01 a      1554     0    63     1     4
 -2.4315191488734372E-01 a      1555     0    63     1     5
 -1.3073197361368077E-01 a      1556     0    63     1     6
 -1.7656225770174383E-01 a      1557     0    63     1     7
  3.7725485196767578E-02 a      1558     0    63     1     8
  3.8856519435891551E-01 a      1559     0    63     1     9
  6.2722181224194743E-03 a      1560     0    63     1    10
 -5.7280251198102157E-02 a      1561     0    63     1    11
 -1.9229918805402063E-01 a      1562     0    63     1    12
 -8.6530015926956402E-02 a      1563     0    63     1    13
  1.7437665525153884E-01 a      1564     0    63     1    14
  8.8100764883998053E-02 a      1565     0    63     1    15
  1.4756442661686273E-01 a      1566     0    63     1    16
 -3.8642460186834138E-01 a      1567     0    63     1    17
 -8.6250484405877931E-02 a      1568     0    63     1    18
 -4.3492959349857879E-01 a      1569     0    63     1    19
  4.4395737007043523E-02 a      1570     0    63     1    20
 -2.7661003452940042E-01 a      1571     0    63     1    21
  6.0056325854993924E-02 a      1572     0    63     1    22
 -2.9501348670346206E-01 a      1573     0    63     1    23
  1.1975257502565410E-01 a      1574     0    63     1    24
 -2.5215995901319271E-01 a      1575     0    63     1    25
 -1.3255532873882014E-01 a      1576     0    64     1     1
  1.2412040859131486E-01 a      1577     0    64     1     2
  1.4110020768131681E-01 a      1578     0    64     1     3
 -1.9386226005147364E-01 a      1579     0    64     1     4
  5.8252761259107250E-02 a      1580     0    64     1     5
 -1.5452921588259380E-01 a      1581     0    64     1     6
 -2.6344680964257122E-01 a      1582     0    64     1     7
 -6.0092637430566823E-02 a      1583     0    64     1     8
  2.3455645517649565E-01 a      1584     0    64     1     9
  3.6800912102436800E-02 a      1585     0    64     1    10
 -3.1638812786833836E-01 a      1586     0    64     1    11
 -2.8853857645909348E-01 a      1587     0    64     1    12
 -2.2677506047806462E-01 a      1588     0    64     1    13
  1.8386909783012423E-01 a      1589     0    64     1    14
  4.3345053394514216E-01 a      1590     0    64     1    15
  2.3930114320425841E-02 a      1591     0    64     1    16
 -2.3532481755518830E-01 a      1592     0    64     1    17
  1.5956653000713225E-01 a      1593     0    64     1    18
 -8.0933438108687972E-02 a      1594     0    64     1    19
  1.7018197747475608E-01 a      1595     0    64     1    20
 -3.5396262268063500E-02 a      1596     0    64     1    21
 -5.3660238103307195E-02 a      1597     0    64     1    22
 -2.0009809978191459E-01 a      1598     0    64     1    23
 -5.5159164815443869E-02 a      1599     0    64     1    24
  1.3850357710831976E-02 a      1600     0    64     1    25
 -5.3167384403068496E-01 a      1601     0    65     1     1
  1.8713958339179992E+00 a      1602     0    65     1     2
 -9.4396486096495702E-01 a      1603     0    65     1     3
  5.6202389113226126E-01 a      1604     0    65     1     4
 -1.4111890135905633E-01 a      1605     0    65     1     5
  4.2005409804131516E-01 a      1606     0    65     1     6
  9.0284827609547480E-02 a      1607     0    65     1     7
 -1.2146228928160334E+00 a      1608     0    65     1     8
 -1.2901882161934202E+00 a      1609     0    65     1     9
  1.3624245148899294E+00 a      1610     0    65     1    10
 -1.0421671011195388E+00 a      1611     0    65     1    11
  1.2584370566993586E+00 a      1612     0    65     1    12
  3.3958377341162593E-01 a      1613     0    65     1    13
 -1.2321893174308793E-01 a      1614     0    65     1    14
 -1.2535158759203457E+00 a      1615     0    65     1    15
  3.0277057733667923E-01 a      1616     0    65     1    16
 -3.5652836461587273E-01 a      1617     0    65     1    17
 -1.1241171758590318E+00 a      1618     0    65     1    18
  1.0553366144748970E+00 a      1619     0    65     1    19
  2.6479685850662182E+00 a      1620     0    65     1    20
  3.9307518664842650E-01 a      1621     0    65     1    21
  7.7857735470962433E-02 a      1622     0    65     1    22
 -3.0502769827360932E-01 a      1623     0    65     1    23
