################################################################################
# Neural network connection values (weights and biases).
################################################################################
# Col  Name       Description
################################################################################
# 1    connection Neural network connection value.
# 2    t          Connection type (a = weight, b = bias).
# 3    index      Index enumerating weights.
# 4    l_s        Starting point layer (end point layer for biases).
# 5    n_s        Starting point neuron in starting layer (end point neuron for biases).
# 6    l_e        End point layer.
# 7    n_e        End point neuron in end layer.
################################################################################
#                      1 2         3     4     5     6     7
#             connection t     index   l_s   n_s   l_e   n_e
############################################################
  6.4021174000001768E-01 a         1     0     1     1     1
  1.9814856108882750E-01 a         2     0     1     1     2
 -1.2630166941775881E-01 a         3     0     1     1     3
 -2.7748861956236454E-01 a         4     0     1     1     4
  1.8261468251493060E-01 a         5     0     1     1     5
  5.8523333826590562E-01 a         6     0     1     1     6
  1.1500086386335934E-01 a         7     0     1     1     7
 -6.3893814136841573E-02 a         8     0     1     1     8
 -1.0468370519315606E+00 a         9     0     1     1     9
 -8.9580179868246373E-02 a        10     0     1     1    10
 -3.1780680890933360E-01 a        11     0     1     1    11
  1.6034499149020900E-02 a        12     0     1     1    12
  3.7667935908376549E-01 a        13     0     1     1    13
  3.5097840103863814E-01 a        14     0     1     1    14
 -5.1210199187442085E-01 a        15     0     1     1    15
 -5.8371637302529797E-02 a        16     0     1     1    16
 -4.4158206499285207E-01 a        17     0     1     1    17
 -3.8532659600474578E-01 a        18     0     1     1    18
  1.1458027431399791E-01 a        19     0     1     1    19
  4.9854445761995064E-01 a        20     0     1     1    20
  8.5725567576301320E-01 a        21     0     1     1    21
 -6.9406517110878374E-01 a        22     0     1     1    22
 -3.7801230619650505E-01 a        23     0     1     1    23
  5.9351251607651800E-01 a        24     0     1     1    24
 -3.4024361455786761E-01 a        25     0     1     1    25
  2.2343081098778642E-01 a        26     0     2     1     1
 -5.3080080268908392E-01 a        27     0     2     1     2
 -2.4178295909888090E-01 a        28     0     2     1     3
 -2.8249227653994829E-01 a        29     0     2     1     4
 -1.0446207443823572E+00 a        30     0     2     1     5
 -1.0355846287718075E-02 a        31     0     2     1     6
 -4.5462788999770037E-01 a        32     0     2     1     7
 -1.0233315667546612E-01 a        33     0     2     1     8
  3.1032383602703290E-02 a        34     0     2     1     9
  9.6778274333933412E-01 a        35     0     2     1    10
  1.0112922764131649E+00 a        36     0     2     1    11
 -4.4314922753823469E-02 a        37     0     2     1    12
  2.0545278881240153E-01 a        38     0     2     1    13
 -9.9909079783736546E-02 a        39     0     2     1    14
 -9.9167797416712511E-01 a        40     0     2     1    15
 -2.6141890154653236E-01 a        41     0     2     1    16
  2.4031182593716216E-01 a        42     0     2     1    17
  1.0764549133361414E+00 a        43     0     2     1    18
  4.6980478802095405E-01 a        44     0     2     1    19
  2.9289398427429758E-01 a        45     0     2     1    20
  4.5586260530088696E-01 a        46     0     2     1    21
  1.0223351603157270E-01 a        47     0     2     1    22
  2.6362324965276868E-01 a        48     0     2     1    23
 -2.8953058882629057E-01 a        49     0     2     1    24
 -2.3025861164217862E-01 a        50     0     2     1    25
  3.4339893603939359E-01 a        51     0     3     1     1
  1.3259139578890589E-01 a        52     0     3     1     2
  7.8692030099982616E-02 a        53     0     3     1     3
  1.6529717970115759E-01 a        54     0     3     1     4
 -1.2970939668195153E-01 a        55     0     3     1     5
  6.3332788853441235E-01 a        56     0     3     1     6
  3.9063900023330511E-01 a        57     0     3     1     7
  2.1797456273921026E-01 a        58     0     3     1     8
  1.3768377103837162E-01 a        59     0     3     1     9
 -5.7018456677273577E-01 a        60     0     3     1    10
 -6.2812027585755670E-01 a        61     0     3     1    11
 -4.2027671109269932E-01 a        62     0     3     1    12
 -3.6196525691022263E-01 a        63     0     3     1    13
 -6.1052987200629079E-02 a        64     0     3     1    14
  1.1159048090227969E-01 a        65     0     3     1    15
 -2.8634773134530678E-01 a        66     0     3     1    16
 -3.2462314342824383E-01 a        67     0     3     1    17
  3.8183519782875108E-01 a        68     0     3     1    18
 -8.2710776810805769E-02 a        69     0     3     1    19
  5.3474931874474008E-01 a        70     0     3     1    20
  6.0850245742026254E-01 a        71     0     3     1    21
  8.6780328778619145E-02 a        72     0     3     1    22
  2.6345049942052995E-01 a        73     0     3     1    23
  1.5307857279974299E-01 a        74     0     3     1    24
  4.3246408686755455E-01 a        75     0     3     1    25
  9.9835986841158542E-01 a        76     0     4     1     1
 -8.1047595981836418E-02 a        77     0     4     1     2
  1.0402171506408552E-01 a        78     0     4     1     3
  2.0970063225690136E-01 a        79     0     4     1     4
  1.0324568571824437E-01 a        80     0     4     1     5
  2.1198068217668903E-01 a        81     0     4     1     6
  3.4153455279106981E-01 a        82     0     4     1     7
 -5.5913824418636815E-01 a        83     0     4     1     8
  4.3401025392364190E-01 a        84     0     4     1     9
 -4.6418373334651708E-01 a        85     0     4     1    10
 -4.6449898718817301E-01 a        86     0     4     1    11
 -1.9274374331783165E-01 a        87     0     4     1    12
  5.6413590882565945E-01 a        88     0     4     1    13
 -7.3334001623756473E-01 a        89     0     4     1    14
 -6.9639336735309709E-01 a        90     0     4     1    15
 -1.7468158160083072E-01 a        91     0     4     1    16
 -6.8145991561450459E-01 a        92     0     4     1    17
  6.7554956668034116E-01 a        93     0     4     1    18
  1.1941535791791293E-01 a        94     0     4     1    19
 -1.8965528453918054E-01 a        95     0     4     1    20
 -8.5780037276773982E-02 a        96     0     4     1    21
  1.7998503380503589E-01 a        97     0     4     1    22
 -3.5667283253486248E-01 a        98     0     4     1    23
  1.2890240185306243E-01 a        99     0     4     1    24
  3.1597954372906828E-01 a       100     0     4     1    25
  4.3755949734573873E-01 a       101     0     5     1     1
 -9.2615831738786097E-02 a       102     0     5     1     2
  5.2162846149128517E-01 a       103     0     5     1     3
  8.1147741438270848E-01 a       104     0     5     1     4
  2.3013714457058507E-01 a       105     0     5     1     5
  2.0440043615947381E-02 a       106     0     5     1     6
 -3.6415322889437396E-01 a       107     0     5     1     7
  7.6055662553446224E-01 a       108     0     5     1     8
  3.6439540520532687E-01 a       109     0     5     1     9
 -5.1572034735050398E-01 a       110     0     5     1    10
  9.0120450799239438E-01 a       111     0     5     1    11
  1.3153089203826915E-01 a       112     0     5     1    12
 -3.1976948623501861E-01 a       113     0     5     1    13
 -2.4525260323948370E-01 a       114     0     5     1    14
  7.0370847867114741E-02 a       115     0     5     1    15
 -1.5347037343683714E-01 a       116     0     5     1    16
 -8.4881234691227075E-02 a       117     0     5     1    17
  2.2459548175612060E-01 a       118     0     5     1    18
  5.6836431021526301E-01 a       119     0     5     1    19
 -1.5537557199088564E-01 a       120     0     5     1    20
 -3.0723683572101124E-01 a       121     0     5     1    21
  2.0817352364417493E-01 a       122     0     5     1    22
  2.3881567005007365E-01 a       123     0     5     1    23
  3.7561772000310817E-01 a       124     0     5     1    24
  9.7353342516168617E-02 a       125     0     5     1    25
 -3.1435802677517016E-01 a       126     0     6     1     1
  7.6227332357177879E-01 a       127     0     6     1     2
  5.0015540256012569E-01 a       128     0     6     1     3
 -8.1039151890935385E-02 a       129     0     6     1     4
  7.2956384963185872E-01 a       130     0     6     1     5
  6.3147165880223755E-01 a       131     0     6     1     6
  4.3860378416849333E-01 a       132     0     6     1     7
 -5.4029228966338577E-02 a       133     0     6     1     8
 -2.8055573199591993E-01 a       134     0     6     1     9
 -4.0800972531104457E-01 a       135     0     6     1    10
 -8.7165556551562551E-01 a       136     0     6     1    11
 -8.7496748202103969E-01 a       137     0     6     1    12
  3.8863312556342666E-01 a       138     0     6     1    13
  5.0341186961397555E-01 a       139     0     6     1    14
  1.4903138669706066E+00 a       140     0     6     1    15
 -3.5965928120552737E-01 a       141     0     6     1    16
  8.2601866917230138E-01 a       142     0     6     1    17
 -3.2875882304842008E-01 a       143     0     6     1    18
 -3.2018380211195052E-01 a       144     0     6     1    19
 -1.2621088343963653E+00 a       145     0     6     1    20
  2.9083887006154918E-01 a       146     0     6     1    21
  4.4882342013044674E-01 a       147     0     6     1    22
 -9.4789890780091624E-01 a       148     0     6     1    23
  3.2936286093776196E-01 a       149     0     6     1    24
 -1.5626964471169622E-01 a       150     0     6     1    25
 -1.7652199550025116E+00 a       151     0     7     1     1
 -1.1113833133595093E-01 a       152     0     7     1     2
 -9.2296889492101497E-01 a       153     0     7     1     3
 -1.8374695404706642E-01 a       154     0     7     1     4
 -4.9826795800914253E-01 a       155     0     7     1     5
  2.1297405754382215E-02 a       156     0     7     1     6
  2.0882311001444354E-01 a       157     0     7     1     7
  1.0941680716886448E+00 a       158     0     7     1     8
 -8.7453497742356490E-01 a       159     0     7     1     9
  9.3958229113945180E-01 a       160     0     7     1    10
  5.8414961357213058E-01 a       161     0     7     1    11
  8.4656529589521945E-01 a       162     0     7     1    12
 -2.2081086399505470E-01 a       163     0     7     1    13
  1.3301113682095396E+00 a       164     0     7     1    14
  1.0041822613196862E+00 a       165     0     7     1    15
  9.5093118387922670E-02 a       166     0     7     1    16
  9.7947413338015643E-01 a       167     0     7     1    17
 -8.9725115482635587E-01 a       168     0     7     1    18
 -2.0039076770401607E-01 a       169     0     7     1    19
  5.2091531549958059E-01 a       170     0     7     1    20
  2.1468736859743079E-01 a       171     0     7     1    21
 -9.3809796764612416E-02 a       172     0     7     1    22
  5.4686377020233390E-01 a       173     0     7     1    23
 -5.1482470369910782E-01 a       174     0     7     1    24
 -2.1475773874184031E-01 a       175     0     7     1    25
 -7.2801906507899383E-01 a       176     0     8     1     1
  8.6292039801511333E-01 a       177     0     8     1     2
 -1.2074150418527684E-01 a       178     0     8     1     3
 -2.7264426082822213E-01 a       179     0     8     1     4
 -4.8922898835471844E-03 a       180     0     8     1     5
  2.2126095775286719E-01 a       181     0     8     1     6
  3.5751307067236821E-01 a       182     0     8     1     7
  4.0348155222363891E-01 a       183     0     8     1     8
  4.3904388689113744E-01 a       184     0     8     1     9
  5.0505493105041266E-02 a       185     0     8     1    10
 -1.3354372295234437E-01 a       186     0     8     1    11
 -6.4881829429031708E-03 a       187     0     8     1    12
  3.6537906107139295E-01 a       188     0     8     1    13
  2.8256198473826949E-01 a       189     0     8     1    14
  4.6079440362158797E-01 a       190     0     8     1    15
  5.4112756857086747E-02 a       191     0     8     1    16
  9.7520689302283903E-01 a       192     0     8     1    17
 -1.9257832359038204E-01 a       193     0     8     1    18
  9.7682885863302357E-02 a       194     0     8     1    19
 -3.7044773959427069E-01 a       195     0     8     1    20
  9.8205149047386656E-02 a       196     0     8     1    21
  2.3040251459267846E-01 a       197     0     8     1    22
 -3.3706588467440962E-01 a       198     0     8     1    23
 -4.9415214105001709E-01 a       199     0     8     1    24
  3.8340226819124934E-01 a       200     0     8     1    25
  3.9925505577265835E-01 a       201     0     9     1     1
 -7.5917302298800082E-01 a       202     0     9     1     2
 -3.0415641955639461E-01 a       203     0     9     1     3
 -2.0405956037445180E-01 a       204     0     9     1     4
  3.6446037760993399E-01 a       205     0     9     1     5
  1.9042457330119028E-01 a       206     0     9     1     6
 -1.1386932576549122E+00 a       207     0     9     1     7
  8.3586583444107387E-01 a       208     0     9     1     8
  6.2547116452162421E-01 a       209     0     9     1     9
 -5.0648797157759162E-01 a       210     0     9     1    10
  4.1746763833709627E-01 a       211     0     9     1    11
 -1.4032606009151999E-01 a       212     0     9     1    12
 -1.0123359679261257E+00 a       213     0     9     1    13
 -1.7165622559060478E-01 a       214     0     9     1    14
 -1.9795135515226164E-01 a       215     0     9     1    15
  1.1204532876056872E+00 a       216     0     9     1    16
 -8.7312669124717379E-01 a       217     0     9     1    17
  7.2324138960409456E-01 a       218     0     9     1    18
  3.4877550544071523E-01 a       219     0     9     1    19
 -4.4037010704157381E-01 a       220     0     9     1    20
 -6.1025558243159750E-01 a       221     0     9     1    21
 -3.7456396060365116E-01 a       222     0     9     1    22
  7.8048144074104919E-01 a       223     0     9     1    23
  1.3580760978408493E+00 a       224     0     9     1    24
  5.1194323204921111E-01 a       225     0     9     1    25
  3.1813681181455988E-01 a       226     0    10     1     1
 -3.8709330486809773E-01 a       227     0    10     1     2
 -3.4631298635625773E-01 a       228     0    10     1     3
 -8.2173425925392021E-02 a       229     0    10     1     4
 -1.2975373747859303E-01 a       230     0    10     1     5
 -6.1946695742443114E-01 a       231     0    10     1     6
 -3.7418299393466264E-01 a       232     0    10     1     7
 -1.4236340932480809E-01 a       233     0    10     1     8
 -6.3974586723204871E-02 a       234     0    10     1     9
  3.1931530286437121E-01 a       235     0    10     1    10
  7.5208634655376258E-03 a       236     0    10     1    11
  1.2718676708625498E-01 a       237     0    10     1    12
  5.1615783448158169E-02 a       238     0    10     1    13
  2.9024304130951389E-02 a       239     0    10     1    14
 -3.0263198047537165E-01 a       240     0    10     1    15
  5.5213037589876335E-02 a       241     0    10     1    16
 -1.7799158184283556E-01 a       242     0    10     1    17
 -1.1177945046523917E-01 a       243     0    10     1    18
  2.2186569747163135E-01 a       244     0    10     1    19
 -2.4660495710106276E-01 a       245     0    10     1    20
 -2.5359208541876249E-01 a       246     0    10     1    21
 -5.4304955545393004E-02 a       247     0    10     1    22
 -1.4848213035712876E-01 a       248     0    10     1    23
  1.9696177567603337E-01 a       249     0    10     1    24
 -1.8521589512816708E-01 a       250     0    10     1    25
  6.8246494698827576E-01 a       251     0    11     1     1
  1.3357518282506681E-01 a       252     0    11     1     2
  2.2729568557565430E-01 a       253     0    11     1     3
 -8.2210806793773927E-01 a       254     0    11     1     4
 -9.8825057078069101E-01 a       255     0    11     1     5
  1.1286295658844016E-01 a       256     0    11     1     6
  4.7281760926783339E-01 a       257     0    11     1     7
  8.8212956217216421E-02 a       258     0    11     1     8
 -4.7220753257200054E-01 a       259     0    11     1     9
 -1.9145845533210304E-01 a       260     0    11     1    10
  5.2546579833662299E-01 a       261     0    11     1    11
  4.6280745952445912E-01 a       262     0    11     1    12
  5.7799744971381417E-01 a       263     0    11     1    13
 -3.5188850129816152E-01 a       264     0    11     1    14
 -3.7984925514942658E-01 a       265     0    11     1    15
 -1.8529854377962451E-02 a       266     0    11     1    16
  7.5750931907881611E-02 a       267     0    11     1    17
  8.8812815058998573E-01 a       268     0    11     1    18
 -2.2913249348556727E-01 a       269     0    11     1    19
  5.8866003209107298E-01 a       270     0    11     1    20
 -1.0434931331871661E-01 a       271     0    11     1    21
  3.5930361016676976E-01 a       272     0    11     1    22
  2.8280708313048430E-01 a       273     0    11     1    23
 -7.2998336714209833E-01 a       274     0    11     1    24
 -3.4482939782126867E-02 a       275     0    11     1    25
  7.0593309987891806E-01 a       276     0    12     1     1
  3.8528504656805580E-02 a       277     0    12     1     2
  7.7905223454701611E-01 a       278     0    12     1     3
  6.3080394403101070E-01 a       279     0    12     1     4
  1.4194021925161962E-01 a       280     0    12     1     5
 -4.3157057125114756E-01 a       281     0    12     1     6
 -7.0336859534144014E-01 a       282     0    12     1     7
 -7.8899049376411212E-01 a       283     0    12     1     8
 -9.0701930611398238E-02 a       284     0    12     1     9
 -5.1965930726930454E-01 a       285     0    12     1    10
  2.3971612030198317E-01 a       286     0    12     1    11
 -5.6932321188209944E-01 a       287     0    12     1    12
  4.6215857586462977E-01 a       288     0    12     1    13
 -3.5945282392474726E-01 a       289     0    12     1    14
 -5.0809550213764898E-01 a       290     0    12     1    15
 -8.3745499215410857E-02 a       291     0    12     1    16
 -2.1719684979858653E-01 a       292     0    12     1    17
  7.0571665539741912E-01 a       293     0    12     1    18
 -6.6553055040390963E-01 a       294     0    12     1    19
  3.9509864226366521E-02 a       295     0    12     1    20
 -1.7537373552468022E-01 a       296     0    12     1    21
 -3.5915546601139731E-01 a       297     0    12     1    22
  9.2642869380702675E-01 a       298     0    12     1    23
  8.5137400241158001E-01 a       299     0    12     1    24
 -2.0380166324040999E-01 a       300     0    12     1    25
 -1.5818023136496484E+00 a       301     0    13     1     1
  1.6131953252284759E-01 a       302     0    13     1     2
 -3.1091996738249000E-01 a       303     0    13     1     3
 -7.0257902653062490E-02 a       304     0    13     1     4
 -9.8937020286502730E-01 a       305     0    13     1     5
  9.3780825494740636E-02 a       306     0    13     1     6
  5.0229960641126292E-01 a       307     0    13     1     7
  4.7055385557211693E-01 a       308     0    13     1     8
 -1.9135643403877137E-02 a       309     0    13     1     9
  1.5092755183930096E+00 a       310     0    13     1    10
 -2.9410200667703817E-01 a       311     0    13     1    11
  6.3727319723140954E-02 a       312     0    13     1    12
 -2.7123197153656348E-01 a       313     0    13     1    13
  9.9630547095186026E-02 a       314     0    13     1    14
  6.3698859109496131E-01 a       315     0    13     1    15
  1.1005433655741903E+00 a       316     0    13     1    16
  7.6350351342031031E-01 a       317     0    13     1    17
 -1.4933439470897363E+00 a       318     0    13     1    18
  5.7712697974416249E-01 a       319     0    13     1    19
  8.6840092867525820E-01 a       320     0    13     1    20
  9.6795409620863271E-01 a       321     0    13     1    21
  5.3051075886468757E-01 a       322     0    13     1    22
 -2.8081805509208485E-01 a       323     0    13     1    23
 -1.1601107523548082E+00 a       324     0    13     1    24
 -6.8442148245666701E-01 a       325     0    13     1    25
  4.9769828926390119E-01 a       326     0    14     1     1
  2.1833529078338790E-01 a       327     0    14     1     2
 -3.2712195482547701E-01 a       328     0    14     1     3
  2.9207974442643408E-01 a       329     0    14     1     4
  8.1012788559423865E-01 a       330     0    14     1     5
 -4.7468300690953874E-01 a       331     0    14     1     6
 -2.0095052313053968E-01 a       332     0    14     1     7
  1.8849920667290551E-01 a       333     0    14     1     8
  2.7762260923312859E-01 a       334     0    14     1     9
 -4.7787048803543136E-01 a       335     0    14     1    10
 -7.4656395326900396E-02 a       336     0    14     1    11
 -5.2123953881158613E-01 a       337     0    14     1    12
  3.0078846800152780E-02 a       338     0    14     1    13
  2.5692055162969069E-01 a       339     0    14     1    14
 -8.1795951537804623E-01 a       340     0    14     1    15
  5.0806855718166655E-01 a       341     0    14     1    16
 -1.2500583751904326E+00 a       342     0    14     1    17
  1.2072335698924088E+00 a       343     0    14     1    18
  6.1715260695714291E-01 a       344     0    14     1    19
 -3.0130401570506915E-01 a       345     0    14     1    20
  4.8602397388615726E-01 a       346     0    14     1    21
  2.4983709307764713E-02 a       347     0    14     1    22
 -4.8569567861274782E-02 a       348     0    14     1    23
  4.8908731806545624E-01 a       349     0    14     1    24
  4.9763351035719383E-02 a       350     0    14     1    25
  1.2334828185224138E+00 a       351     0    15     1     1
 -1.3148914925262865E+00 a       352     0    15     1     2
  1.6410925281880646E+00 a       353     0    15     1     3
  3.1528659059754771E-01 a       354     0    15     1     4
 -6.2018470318318156E-02 a       355     0    15     1     5
  6.9527211814055223E-01 a       356     0    15     1     6
 -9.2878150569971585E-01 a       357     0    15     1     7
  8.8796864566655129E-02 a       358     0    15     1     8
  1.2262396153264938E+00 a       359     0    15     1     9
 -8.7244511658419843E-01 a       360     0    15     1    10
  2.4387986246531779E-01 a       361     0    15     1    11
 -7.4434865587474308E-01 a       362     0    15     1    12
  3.0119891996803716E-01 a       363     0    15     1    13
 -3.3598918539649758E-01 a       364     0    15     1    14
  1.1043645205653949E-01 a       365     0    15     1    15
  4.4719442864427039E-01 a       366     0    15     1    16
 -9.7311277616223224E-01 a       367     0    15     1    17
  2.1550400724741734E+00 a       368     0    15     1    18
  3.9616595246934574E-02 a       369     0    15     1    19
 -2.2800652861604448E-01 a       370     0    15     1    20
  6.1200865726377174E-01 a       371     0    15     1    21
 -8.3354918227336205E-01 a       372     0    15     1    22
  8.0500897023582305E-02 a       373     0    15     1    23
  1.9202235137938936E-01 a       374     0    15     1    24
  6.1275281438794849E-01 a       375     0    15     1    25
 -6.9058531233725573E-01 a       376     0    16     1     1
  5.2110013800041344E-01 a       377     0    16     1     2
 -1.2040609901195354E+00 a       378     0    16     1     3
 -3.1914281914411297E-01 a       379     0    16     1     4
 -7.9785286762476493E-01 a       380     0    16     1     5
 -4.9199395073416874E-01 a       381     0    16     1     6
  6.4750788565155137E-01 a       382     0    16     1     7
  1.8562364564719558E-01 a       383     0    16     1     8
 -3.3004426054711239E-01 a       384     0    16     1     9
  1.1947198720485315E+00 a       385     0    16     1    10
 -4.4508306598278236E-01 a       386     0    16     1    11
  4.8143995119059585E-01 a       387     0    16     1    12
 -2.7796909235382833E-01 a       388     0    16     1    13
  8.2555975265004367E-01 a       389     0    16     1    14
  8.1917864288917064E-01 a       390     0    16     1    15
 -1.0100439795164860E-01 a       391     0    16     1    16
  4.9154993240628198E-01 a       392     0    16     1    17
 -1.8248357929501884E+00 a       393     0    16     1    18
  6.5946484379874382E-01 a       394     0    16     1    19
 -7.9984478701281364E-02 a       395     0    16     1    20
  4.4805102227798960E-01 a       396     0    16     1    21
 -2.6403279051264406E-01 a       397     0    16     1    22
 -7.1186798505716942E-01 a       398     0    16     1    23
 -1.1788826046292122E+00 a       399     0    16     1    24
  5.2778858060010447E-01 a       400     0    16     1    25
  2.1048947972914611E+00 a       401     0    17     1     1
 -6.2603233002035996E-01 a       402     0    17     1     2
  1.4592437951918344E+00 a       403     0    17     1     3
  7.8684076076028453E-01 a       404     0    17     1     4
  1.1799639289795026E-01 a       405     0    17     1     5
 -1.9573759699152971E-01 a       406     0    17     1     6
 -1.0302882657762509E+00 a       407     0    17     1     7
 -6.6787076308788007E-01 a       408     0    17     1     8
  9.6580844392421705E-01 a       409     0    17     1     9
 -3.1583509391298650E+00 a       410     0    17     1    10
  2.5923817244204711E-01 a       411     0    17     1    11
 -7.7509303644061345E-01 a       412     0    17     1    12
  7.0158400353768158E-01 a       413     0    17     1    13
 -1.4767780749688075E+00 a       414     0    17     1    14
 -1.0297710625050815E+00 a       415     0    17     1    15
 -2.5496782920409383E-01 a       416     0    17     1    16
 -5.2282114487584408E-01 a       417     0    17     1    17
  3.8608764657345320E+00 a       418     0    17     1    18
 -4.0262847354656239E-01 a       419     0    17     1    19
 -3.4941579575521453E-01 a       420     0    17     1    20
  3.8474961415054403E-02 a       421     0    17     1    21
 -1.6480847525263931E-01 a       422     0    17     1    22
 -3.1004692453169996E-01 a       423     0    17     1    23
  1.3856613204464647E+00 a       424     0    17     1    24
 -8.2441895314814539E-01 a       425     0    17     1    25
 -1.2704188208963949E+00 a       426     0    18     1     1
  3.1254266895888616E-02 a       427     0    18     1     2
  5.1752698236916680E-02 a       428     0    18     1     3
 -2.6569892442547388E-01 a       429     0    18     1     4
 -8.7396890521140391E-01 a       430     0    18     1     5
  5.7971975941887677E-01 a       431     0    18     1     6
  7.7272970222912629E-01 a       432     0    18     1     7
 -1.3094930543812194E-01 a       433     0    18     1     8
 -5.2679499607761127E-01 a       434     0    18     1     9
  1.0845901169038112E+00 a       435     0    18     1    10
  4.9274457599109006E-01 a       436     0    18     1    11
  4.3570212200792641E-01 a       437     0    18     1    12
  1.0926944845161310E+00 a       438     0    18     1    13
  6.8476387953128726E-01 a       439     0    18     1    14
  1.3364714854794626E+00 a       440     0    18     1    15
 -6.3373320542833678E-01 a       441     0    18     1    16
  5.7646646294080250E-01 a       442     0    18     1    17
 -1.1993376180339221E+00 a       443     0    18     1    18
  3.1592448453581046E-01 a       444     0    18     1    19
 -3.8186842734245435E-01 a       445     0    18     1    20
 -3.5904933697366659E-01 a       446     0    18     1    21
  5.2047888314037150E-01 a       447     0    18     1    22
 -6.2014336683960247E-01 a       448     0    18     1    23
 -8.5629785931130764E-01 a       449     0    18     1    24
 -2.5958532026672948E-01 a       450     0    18     1    25
 -3.5034924227142179E+00 a       451     0    19     1     1
  1.0651662429774755E+00 a       452     0    19     1     2
 -3.1311733424065067E+00 a       453     0    19     1     3
 -9.9773279040885388E-01 a       454     0    19     1     4
 -1.0406839342729612E+00 a       455     0    19     1     5
 -9.4373003598472982E-01 a       456     0    19     1     6
  2.0101463567805382E+00 a       457     0    19     1     7
  1.0316926209660351E-01 a       458     0    19     1     8
 -1.4300820810558363E+00 a       459     0    19     1     9
  2.5495704364831613E+00 a       460     0    19     1    10
 -8.3438139829612756E-01 a       461     0    19     1    11
  1.3591664598645263E+00 a       462     0    19     1    12
 -1.0114906687848650E+00 a       463     0    19     1    13
  7.4409852604304361E-01 a       464     0    19     1    14
  5.6703918082636628E-01 a       465     0    19     1    15
  8.7355964257517738E-01 a       466     0    19     1    16
  1.2823558729309978E+00 a       467     0    19     1    17
 -4.4135948073959304E+00 a       468     0    19     1    18
 -6.9860958198138520E-02 a       469     0    19     1    19
  8.0407916513546307E-01 a       470     0    19     1    20
  1.1185584181160120E+00 a       471     0    19     1    21
 -8.1238805844543613E-02 a       472     0    19     1    22
 -1.3199035830800632E+00 a       473     0    19     1    23
 -8.6394832546879308E-01 a       474     0    19     1    24
  5.7025640956508125E-02 a       475     0    19     1    25
 -1.8927288061519601E-01 a       476     0    20     1     1
 -9.3163033385718785E-01 a       477     0    20     1     2
  3.2010092303401488E-01 a       478     0    20     1     3
  2.3920875629093900E-02 a       479     0    20     1     4
  2.0204972925991635E-01 a       480     0    20     1     5
 -3.2047121318574734E-01 a       481     0    20     1     6
  7.8957244736789489E-01 a       482     0    20     1     7
  9.4582142012862955E-02 a       483     0    20     1     8
  5.4361989845056735E-01 a       484     0    20     1     9
 -6.3947570957224753E-02 a       485     0    20     1    10
  1.8177084109530650E-01 a       486     0    20     1    11
 -8.3189218200408671E-02 a       487     0    20     1    12
 -8.6447965913322722E-01 a       488     0    20     1    13
 -4.6746622984332598E-01 a       489     0    20     1    14
 -1.6800479969721169E-01 a       490     0    20     1    15
  3.6185050276445835E-01 a       491     0    20     1    16
 -2.9823881649937417E-01 a       492     0    20     1    17
  5.6500387871053083E-02 a       493     0    20     1    18
 -2.5808942194654216E-01 a       494     0    20     1    19
  6.7070320815219825E-02 a       495     0    20     1    20
  2.5727795972738460E-01 a       496     0    20     1    21
  4.7015795129741182E-02 a       497     0    20     1    22
 -7.4809801481959393E-01 a       498     0    20     1    23
  4.2117012607059640E-01 a       499     0    20     1    24
  7.2181492765970648E-02 a       500     0    20     1    25
 -9.3363658906457525E-01 a       501     0    21     1     1
  8.7972264780839438E-01 a       502     0    21     1     2
 -4.8758985603732480E-01 a       503     0    21     1     3
 -3.8197635604384612E-02 a       504     0    21     1     4
  4.3709648760238959E-02 a       505     0    21     1     5
  4.1926813080549836E-03 a       506     0    21     1     6
  4.5686879269865877E-01 a       507     0    21     1     7
  4.1725954080698485E-02 a       508     0    21     1     8
 -3.8304250978592636E-01 a       509     0    21     1     9
  1.6158600583349728E-02 a       510     0    21     1    10
 -4.0695078852448457E-01 a       511     0    21     1    11
  5.2926466960039342E-01 a       512     0    21     1    12
  5.9812905300830881E-02 a       513     0    21     1    13
  4.4556660486059767E-02 a       514     0    21     1    14
  1.7282423635582927E-01 a       515     0    21     1    15
 -3.2763575640224618E-01 a       516     0    21     1    16
  2.2158907582605608E-01 a       517     0    21     1    17
 -1.3134655487545712E+00 a       518     0    21     1    18
 -7.6430194099375015E-01 a       519     0    21     1    19
 -6.7922817389898194E-02 a       520     0    21     1    20
 -5.1702259351699753E-02 a       521     0    21     1    21
 -6.2384014178870550E-01 a       522     0    21     1    22
  5.3263019584973614E-01 a       523     0    21     1    23
 -7.6748085856158665E-01 a       524     0    21     1    24
 -3.8873634260628404E-01 a       525     0    21     1    25
  6.6073530524104440E-01 a       526     0    22     1     1
 -5.0314583805219837E-01 a       527     0    22     1     2
 -4.0390218458262855E-01 a       528     0    22     1     3
 -2.5008458697475244E-01 a       529     0    22     1     4
  3.7881587262906508E-01 a       530     0    22     1     5
 -9.2172969132096316E-01 a       531     0    22     1     6
 -7.6033027183351598E-01 a       532     0    22     1     7
  4.4971104715456167E-01 a       533     0    22     1     8
 -2.0770574457674557E-01 a       534     0    22     1     9
  5.7195588154688370E-01 a       535     0    22     1    10
  5.4535467166765694E-01 a       536     0    22     1    11
  2.1813679109149156E-01 a       537     0    22     1    12
 -6.1156314997029571E-01 a       538     0    22     1    13
 -5.3945685352353345E-01 a       539     0    22     1    14
 -8.0101933490031996E-01 a       540     0    22     1    15
  2.0992165575131422E-01 a       541     0    22     1    16
  3.2638681290282734E-01 a       542     0    22     1    17
 -8.2123354897594969E-01 a       543     0    22     1    18
 -5.6911369552375662E-02 a       544     0    22     1    19
 -2.2956204974095162E-01 a       545     0    22     1    20
 -3.8894301052810359E-01 a       546     0    22     1    21
 -6.7357854495812930E-01 a       547     0    22     1    22
 -5.7776275451363857E-01 a       548     0    22     1    23
  3.2446527311713125E-01 a       549     0    22     1    24
 -4.6866631058755354E-01 a       550     0    22     1    25
  2.1090961344045858E+00 a       551     0    23     1     1
 -1.0045300717759653E+00 a       552     0    23     1     2
  1.0468920463493567E+00 a       553     0    23     1     3
  9.0047526307936249E-02 a       554     0    23     1     4
 -3.6943826760312820E-01 a       555     0    23     1     5
  2.9217934884958946E-01 a       556     0    23     1     6
 -1.2933105000792240E+00 a       557     0    23     1     7
 -6.5519841328941480E-02 a       558     0    23     1     8
  5.9526191319882640E-02 a       559     0    23     1     9
 -7.2580902816615744E-01 a       560     0    23     1    10
  1.4518070338144609E+00 a       561     0    23     1    11
  3.3692780267305000E-01 a       562     0    23     1    12
 -1.6359259084441641E-01 a       563     0    23     1    13
  2.5532108363350414E-01 a       564     0    23     1    14
  5.6479253809483786E-02 a       565     0    23     1    15
  1.9457910454254013E-01 a       566     0    23     1    16
 -2.7544229311433960E-01 a       567     0    23     1    17
  1.1731654541835819E+00 a       568     0    23     1    18
  1.8602238285331432E-01 a       569     0    23     1    19
  7.6598429667513960E-03 a       570     0    23     1    20
 -4.0474219613329721E-01 a       571     0    23     1    21
 -5.4696615170369911E-01 a       572     0    23     1    22
  3.4390899973783562E-01 a       573     0    23     1    23
  5.7126986768098709E-01 a       574     0    23     1    24
 -4.3451549445219756E-01 a       575     0    23     1    25
 -5.8625744086489584E-01 a       576     0    24     1     1
 -3.0413399183343487E-01 a       577     0    24     1     2
  2.7143721922203501E-01 a       578     0    24     1     3
 -1.0210304350760824E-01 a       579     0    24     1     4
 -2.4119848611151135E-01 a       580     0    24     1     5
  6.1426231986724333E-01 a       581     0    24     1     6
  5.6140530683278189E-01 a       582     0    24     1     7
 -4.1350528942993309E-01 a       583     0    24     1     8
 -6.8389936383461206E-02 a       584     0    24     1     9
 -2.9136880884626659E-01 a       585     0    24     1    10
 -1.2678616023199449E-01 a       586     0    24     1    11
 -5.8013535607963940E-01 a       587     0    24     1    12
  4.6166065718038808E-02 a       588     0    24     1    13
 -4.4696154529511001E-01 a       589     0    24     1    14
 -1.4500355082213087E-01 a       590     0    24     1    15
  3.7102193768712738E-01 a       591     0    24     1    16
 -1.4708821621347797E-02 a       592     0    24     1    17
  3.0095124281462948E-01 a       593     0    24     1    18
 -6.3123943110328651E-01 a       594     0    24     1    19
  4.9932935707135306E-01 a       595     0    24     1    20
  4.3506361365079121E-01 a       596     0    24     1    21
  1.0127823144439345E-02 a       597     0    24     1    22
  2.3080477195415002E-02 a       598     0    24     1    23
  1.8064308431195544E-01 a       599     0    24     1    24
  1.7375424878063424E-02 a       600     0    24     1    25
 -8.9322967294927358E-01 a       601     0    25     1     1
  3.3966475655626294E-01 a       602     0    25     1     2
 -4.8946407706204453E-01 a       603     0    25     1     3
 -4.5453294335150368E-01 a       604     0    25     1     4
  9.0286023790968739E-01 a       605     0    25     1     5
 -1.1072824841319227E+00 a       606     0    25     1     6
 -2.6736342290880583E-01 a       607     0    25     1     7
  6.1899523257867894E-01 a       608     0    25     1     8
  5.3756534282385623E-02 a       609     0    25     1     9
  1.2679733905142156E+00 a       610     0    25     1    10
  4.3785567176966728E-01 a       611     0    25     1    11
  6.1282832496633222E-01 a       612     0    25     1    12
 -5.6262477329410621E-01 a       613     0    25     1    13
  5.6927008284895730E-01 a       614     0    25     1    14
 -1.4125150126195377E-01 a       615     0    25     1    15
  5.3488932138962120E-01 a       616     0    25     1    16
 -2.0991191616534766E-01 a       617     0    25     1    17
 -1.2966996189448541E+00 a       618     0    25     1    18
  2.7511692647121683E-01 a       619     0    25     1    19
  3.7633747661130673E-01 a       620     0    25     1    20
 -1.9105607965108862E-01 a       621     0    25     1    21
 -7.9444615420607112E-01 a       622     0    25     1    22
  4.7369101872191177E-01 a       623     0    25     1    23
  5.2371345252877996E-02 a       624     0    25     1    24
  2.3417133174283608E-01 a       625     0    25     1    25
  1.1170536052526425E+00 a       626     0    26     1     1
  6.3500888836457792E-03 a       627     0    26     1     2
  5.8002541340431624E-01 a       628     0    26     1     3
  2.1483388073401159E-02 a       629     0    26     1     4
  1.3334910605832118E+00 a       630     0    26     1     5
  1.7500619189559107E-02 a       631     0    26     1     6
 -3.2772296268625697E-02 a       632     0    26     1     7
 -3.3498111522183299E-01 a       633     0    26     1     8
  4.6263812787649256E-01 a       634     0    26     1     9
 -3.3691176951285307E-01 a       635     0    26     1    10
 -5.9751810211776202E-01 a       636     0    26     1    11
 -9.8676397423611584E-01 a       637     0    26     1    12
 -3.1239367568390519E-01 a       638     0    26     1    13
 -1.4168142052399602E-01 a       639     0    26     1    14
 -4.7297156313498967E-01 a       640     0    26     1    15
  1.9589259339084036E-01 a       641     0    26     1    16
 -7.3928726408675116E-01 a       642     0    26     1    17
 -2.6479970307813190E-02 a       643     0    26     1    18
  1.8298865705113726E-01 a       644     0    26     1    19
 -6.6087185322013142E-01 a       645     0    26     1    20
  1.7822145192717989E-01 a       646     0    26     1    21
  3.5865749101427469E-01 a       647     0    26     1    22
 -6.4190544016413686E-01 a       648     0    26     1    23
  1.7609482722217000E+00 a       649     0    26     1    24
  2.8957539253966486E-01 a       650     0    26     1    25
  2.5555188441237886E-01 a       651     0    27     1     1
 -1.5394254270088065E-01 a       652     0    27     1     2
 -2.3772247327950724E-01 a       653     0    27     1     3
  3.7558112658068618E-02 a       654     0    27     1     4
 -2.8046968151092166E-01 a       655     0    27     1     5
  2.2427158711758927E-01 a       656     0    27     1     6
 -3.4590443687249017E-01 a       657     0    27     1     7
 -6.0112586274108329E-02 a       658     0    27     1     8
 -1.9656744870782403E-01 a       659     0    27     1     9
  2.5528338842654813E-01 a       660     0    27     1    10
  7.9496977802675072E-03 a       661     0    27     1    11
  1.2241356990566335E-01 a       662     0    27     1    12
  1.2456016483723566E-01 a       663     0    27     1    13
 -1.7224859680165774E-01 a       664     0    27     1    14
 -2.2579458700134430E-01 a       665     0    27     1    15
  1.0150572354697047E-01 a       666     0    27     1    16
 -7.5800982785200227E-02 a       667     0    27     1    17
 -2.1681317634708092E-01 a       668     0    27     1    18
 -2.8848287291988101E-01 a       669     0    27     1    19
  9.7447907919523541E-02 a       670     0    27     1    20
 -1.5886189080686564E-01 a       671     0    27     1    21
 -1.2084140490202422E-01 a       672     0    27     1    22
  2.5397841023128398E-01 a       673     0    27     1    23
  1.4480001252262992E-01 a       674     0    27     1    24
 -2.8362796146454661E-01 a       675     0    27     1    25
 -1.5840611843921856E-01 a       676     0    28     1     1
  3.6742422640292566E-01 a       677     0    28     1     2
 -1.5016276668787784E-01 a       678     0    28     1     3
  1.5227488552790631E+00 a       679     0    28     1     4
 -2.2263604370199053E-01 a       680     0    28     1     5
  3.3451193163466286E-01 a       681     0    28     1     6
  6.1530229231567479E-01 a       682     0    28     1     7
 -1.1873154854306984E+00 a       683     0    28     1     8
  2.0765497965267879E-01 a       684     0    28     1     9
  2.5383583414256988E-01 a       685     0    28     1    10
 -8.4688653515644419E-01 a       686     0    28     1    11
 -1.9304714230440892E-01 a       687     0    28     1    12
  5.7784454740088487E-01 a       688     0    28     1    13
 -8.9246962609456221E-03 a       689     0    28     1    14
  3.5254370107521710E-01 a       690     0    28     1    15
 -9.9730308117034550E-01 a       691     0    28     1    16
  3.2311104663646556E-01 a       692     0    28     1    17
 -8.9636888907531365E-01 a       693     0    28     1    18
  2.2949498181648684E-01 a       694     0    28     1    19
  2.2525293358521450E-01 a       695     0    28     1    20
  6.1819523809578347E-01 a       696     0    28     1    21
  5.7574718133315061E-01 a       697     0    28     1    22
 -1.3149694452278671E+00 a       698     0    28     1    23
 -1.2381216096445591E-01 a       699     0    28     1    24
 -3.5793198469274762E-01 a       700     0    28     1    25
 -1.7225837838756197E-01 a       701     0    29     1     1
 -1.1603376164747903E-01 a       702     0    29     1     2
  2.0710096296797048E-01 a       703     0    29     1     3
 -5.5089184132021747E-02 a       704     0    29     1     4
  5.7105889524117170E-01 a       705     0    29     1     5
 -1.2654750434138767E-01 a       706     0    29     1     6
 -2.4818941503283715E-01 a       707     0    29     1     7
  2.4538927383145634E-01 a       708     0    29     1     8
  3.6106267216200767E-03 a       709     0    29     1     9
 -1.5951020303400152E-02 a       710     0    29     1    10
 -8.1462744208586499E-02 a       711     0    29     1    11
 -2.9970608285731837E-01 a       712     0    29     1    12
 -5.2460817418791306E-01 a       713     0    29     1    13
  2.3634921074447204E-01 a       714     0    29     1    14
  5.1429578575707499E-02 a       715     0    29     1    15
  2.4635911491205781E-01 a       716     0    29     1    16
 -1.2164723074331957E-01 a       717     0    29     1    17
 -2.8596522624083975E-01 a       718     0    29     1    18
 -3.0897538651838703E-02 a       719     0    29     1    19
 -1.3181652918245110E-01 a       720     0    29     1    20
  2.4355833229450261E-02 a       721     0    29     1    21
 -2.4467806569443290E-01 a       722     0    29     1    22
  2.3565889474361407E-01 a       723     0    29     1    23
  2.6692244675204002E-01 a       724     0    29     1    24
  2.7725236235519906E-02 a       725     0    29     1    25
  6.2063084207653087E-02 a       726     0    30     1     1
 -1.6337645929708933E-01 a       727     0    30     1     2
 -1.9928138849710553E-01 a       728     0    30     1     3
 -2.7710254005897628E-01 a       729     0    30     1     4
  2.4882975177832661E-01 a       730     0    30     1     5
  3.9566983754000645E-01 a       731     0    30     1     6
 -2.5377365419661724E-01 a       732     0    30     1     7
  5.0155539862272214E-01 a       733     0    30     1     8
 -1.8968842059908500E-01 a       734     0    30     1     9
  2.0770053398512293E-02 a       735     0    30     1    10
 -1.2939266822014978E-01 a       736     0    30     1    11
  3.7868437879639127E-01 a       737     0    30     1    12
  1.1367838020963275E+00 a       738     0    30     1    13
  9.1856267038741182E-02 a       739     0    30     1    14
 -5.6677599043777113E-04 a       740     0    30     1    15
  4.7465322394067044E-01 a       741     0    30     1    16
 -4.1392040764465614E-02 a       742     0    30     1    17
 -3.3402627643157390E-01 a       743     0    30     1    18
  1.7477695556152248E-01 a       744     0    30     1    19
 -3.2912450880660532E-01 a       745     0    30     1    20
  3.8845461907559142E-01 a       746     0    30     1    21
  1.3073064823089728E-01 a       747     0    30     1    22
 -3.9624066129047764E-01 a       748     0    30     1    23
  6.9682388523829103E-02 a       749     0    30     1    24
  5.5555354854164984E-01 a       750     0    30     1    25
  1.2477043809276357E-01 a       751     0    31     1     1
 -1.8309010805712597E-01 a       752     0    31     1     2
 -3.2778249027251466E-01 a       753     0    31     1     3
 -2.3519750764708577E-01 a       754     0    31     1     4
  1.5602259456793399E-01 a       755     0    31     1     5
  4.9127719109138285E-01 a       756     0    31     1     6
 -5.1046099706108616E-01 a       757     0    31     1     7
  5.3844017246019427E-01 a       758     0    31     1     8
 -2.4020444751496739E-01 a       759     0    31     1     9
 -8.4565710509422562E-02 a       760     0    31     1    10
 -6.3601189284612614E-02 a       761     0    31     1    11
  4.3825660473630390E-01 a       762     0    31     1    12
  9.7217270853197391E-01 a       763     0    31     1    13
  3.9022456910171602E-02 a       764     0    31     1    14
 -8.1349642768435426E-02 a       765     0    31     1    15
  3.9439171710817550E-01 a       766     0    31     1    16
 -2.0155735354491597E-01 a       767     0    31     1    17
 -2.8853782578229314E-01 a       768     0    31     1    18
  4.6765263302426902E-01 a       769     0    31     1    19
 -3.1498315734376026E-01 a       770     0    31     1    20
  2.5624587068056159E-01 a       771     0    31     1    21
  1.0884493304093640E-01 a       772     0    31     1    22
 -1.2606609814588679E-01 a       773     0    31     1    23
  1.0460759140959085E-01 a       774     0    31     1    24
  2.6531268642983058E-01 a       775     0    31     1    25
 -3.8709089522542345E-01 a       776     0    32     1     1
  5.9990154780279407E-02 a       777     0    32     1     2
 -4.3819316560372401E-01 a       778     0    32     1     3
  3.1395486307696990E-01 a       779     0    32     1     4
 -7.0071914414360351E-02 a       780     0    32     1     5
  2.8556834173129347E-01 a       781     0    32     1     6
  1.4841139743678813E-01 a       782     0    32     1     7
  6.9299712544355994E-03 a       783     0    32     1     8
 -2.7087653763581127E-01 a       784     0    32     1     9
  3.2708226932472134E-01 a       785     0    32     1    10
  5.0891737957856309E-01 a       786     0    32     1    11
  1.4336323849934381E-02 a       787     0    32     1    12
  2.9983093216309648E-01 a       788     0    32     1    13
  1.3908282673256095E-01 a       789     0    32     1    14
 -1.5558249765288615E-01 a       790     0    32     1    15
 -1.1652841465295935E-01 a       791     0    32     1    16
 -2.0151502384548636E-01 a       792     0    32     1    17
  1.6245363013531242E-01 a       793     0    32     1    18
  2.8319318395408721E-01 a       794     0    32     1    19
  4.3796950402316975E-01 a       795     0    32     1    20
 -6.4907188424449605E-02 a       796     0    32     1    21
  5.3572245417416597E-01 a       797     0    32     1    22
  2.5977178874795936E-01 a       798     0    32     1    23
  8.2341979150515554E-02 a       799     0    32     1    24
 -2.8606437797383848E-02 a       800     0    32     1    25
 -4.4864037153614827E-01 a       801     0    33     1     1
  1.0469878070158968E-01 a       802     0    33     1     2
 -3.6115612650144618E-01 a       803     0    33     1     3
  1.1900969190733023E-01 a       804     0    33     1     4
  6.3441970099764947E-02 a       805     0    33     1     5
  1.6689978142996867E-01 a       806     0    33     1     6
 -6.8329193973643787E-02 a       807     0    33     1     7
 -8.5625335740635827E-02 a       808     0    33     1     8
 -1.1470728966484209E-01 a       809     0    33     1     9
  5.5371608683704032E-01 a       810     0    33     1    10
  7.8583855512559198E-01 a       811     0    33     1    11
  2.3684329743734248E-02 a       812     0    33     1    12
  1.8909667485515538E-01 a       813     0    33     1    13
  3.5472023091438631E-01 a       814     0    33     1    14
 -2.9951170921803294E-01 a       815     0    33     1    15
 -5.0614519970193256E-02 a       816     0    33     1    16
 -3.7587952488506637E-01 a       817     0    33     1    17
  3.4031950506034353E-01 a       818     0    33     1    18
  4.2049344298028540E-01 a       819     0    33     1    19
  2.5621336671525108E-01 a       820     0    33     1    20
 -5.0719875728505129E-02 a       821     0    33     1    21
  5.2153389755628154E-01 a       822     0    33     1    22
  3.2249145093878145E-01 a       823     0    33     1    23
 -6.0594780945322370E-02 a       824     0    33     1    24
  1.3962548454410817E-01 a       825     0    33     1    25
 -5.6030056754034707E-01 a       826     0    34     1     1
 -1.1972293349087150E-01 a       827     0    34     1     2
  4.3797069202043334E-02 a       828     0    34     1     3
 -9.2349140431415483E-02 a       829     0    34     1     4
 -1.7549764528231629E-01 a       830     0    34     1     5
  3.5829890645166868E-01 a       831     0    34     1     6
 -1.0682366022461878E-01 a       832     0    34     1     7
 -5.8734532809896482E-02 a       833     0    34     1     8
  4.8645398172730531E-01 a       834     0    34     1     9
 -2.7842130579323737E-01 a       835     0    34     1    10
  3.7453656566452570E-01 a       836     0    34     1    11
 -4.7860863997959385E-01 a       837     0    34     1    12
 -2.7753696756299212E-01 a       838     0    34     1    13
 -1.2937840760953103E-02 a       839     0    34     1    14
 -3.2555339455721083E-01 a       840     0    34     1    15
 -3.1638846018021576E-02 a       841     0    34     1    16
  4.1728034747875059E-01 a       842     0    34     1    17
 -7.1106271785076447E-01 a       843     0    34     1    18
  4.6848803838975328E-01 a       844     0    34     1    19
  5.5008609139067599E-01 a       845     0    34     1    20
  7.3123608474644519E-01 a       846     0    34     1    21
  1.1675291753813725E-01 a       847     0    34     1    22
 -1.3798714148716526E-01 a       848     0    34     1    23
  2.7045264556299387E-01 a       849     0    34     1    24
  1.4058831571410985E-01 a       850     0    34     1    25
  2.6963755200371191E-02 a       851     0    35     1     1
 -3.4038904350224747E-01 a       852     0    35     1     2
 -8.7615605856805734E-01 a       853     0    35     1     3
 -1.8062327728863412E-01 a       854     0    35     1     4
  9.9180925830326627E-01 a       855     0    35     1     5
  3.3595093605322296E-01 a       856     0    35     1     6
  9.9120750304508476E-01 a       857     0    35     1     7
 -2.3890465708143255E-01 a       858     0    35     1     8
 -7.6375262886660811E-01 a       859     0    35     1     9
  7.4411768416253221E-01 a       860     0    35     1    10
  1.1381831319612386E-01 a       861     0    35     1    11
 -3.0429532201069948E-01 a       862     0    35     1    12
  8.9036490909764487E-01 a       863     0    35     1    13
  2.4571567931820346E-01 a       864     0    35     1    14
  6.8801375592962644E-01 a       865     0    35     1    15
 -5.5767017167802113E-01 a       866     0    35     1    16
  1.5279954772037025E+00 a       867     0    35     1    17
 -6.6980775689887462E-01 a       868     0    35     1    18
  6.2997565820265955E-01 a       869     0    35     1    19
  1.0744789473935368E+00 a       870     0    35     1    20
  6.8903361287466292E-01 a       871     0    35     1    21
  5.2615034145528727E-01 a       872     0    35     1    22
  9.6851337244428348E-01 a       873     0    35     1    23
  6.4635629454701560E-01 a       874     0    35     1    24
  8.9019287686005000E-01 a       875     0    35     1    25
  3.5146706345023676E-02 a       876     0    36     1     1
 -6.0866124545362699E-01 a       877     0    36     1     2
 -1.1129257875758927E+00 a       878     0    36     1     3
 -3.6579749611217655E-01 a       879     0    36     1     4
  9.8994005353867875E-01 a       880     0    36     1     5
  1.1425820559314387E-01 a       881     0    36     1     6
  9.9187052038521972E-01 a       882     0    36     1     7
 -1.2775315999389075E-01 a       883     0    36     1     8
 -5.9367568607425036E-01 a       884     0    36     1     9
  7.6575628229931314E-01 a       885     0    36     1    10
  4.1631202846783077E-01 a       886     0    36     1    11
 -4.1808188326208345E-01 a       887     0    36     1    12
  7.8717496235374829E-01 a       888     0    36     1    13
  2.2726025582436035E-01 a       889     0    36     1    14
  6.4067026793743664E-01 a       890     0    36     1    15
 -8.4545315631084017E-01 a       891     0    36     1    16
  1.7440894509287705E+00 a       892     0    36     1    17
 -7.2454689858127330E-01 a       893     0    36     1    18
  7.0898621377873505E-01 a       894     0    36     1    19
  9.8296258373709744E-01 a       895     0    36     1    20
  6.1310849766810127E-01 a       896     0    36     1    21
  4.0004560758771535E-01 a       897     0    36     1    22
  7.7876100136261783E-01 a       898     0    36     1    23
  4.0540178766960083E-01 a       899     0    36     1    24
  8.1160042072913019E-01 a       900     0    36     1    25
  2.4079058175651477E-01 a       901     0    37     1     1
  7.9550994149946749E-02 a       902     0    37     1     2
  4.6463975492755816E-01 a       903     0    37     1     3
 -2.8227309651522547E-01 a       904     0    37     1     4
 -1.6088790889841575E-01 a       905     0    37     1     5
  7.7690622810156471E-02 a       906     0    37     1     6
 -8.9063200079412611E-02 a       907     0    37     1     7
  1.1933819065238727E-01 a       908     0    37     1     8
 -3.5631183260066798E-02 a       909     0    37     1     9
 -3.4562060127516486E-01 a       910     0    37     1    10
 -6.3815245303183254E-01 a       911     0    37     1    11
  9.1781542281365772E-02 a       912     0    37     1    12
 -1.7075500211882105E-01 a       913     0    37     1    13
 -6.5979769091518969E-01 a       914     0    37     1    14
 -7.3040530955130658E-03 a       915     0    37     1    15
  9.6994098963604600E-02 a       916     0    37     1    16
  5.8234806004688577E-01 a       917     0    37     1    17
 -2.3644762321707319E-01 a       918     0    37     1    18
 -1.9954011706527019E-01 a       919     0    37     1    19
 -4.5635608805738798E-01 a       920     0    37     1    20
 -1.7196347792954321E-02 a       921     0    37     1    21
 -3.8396919895936343E-01 a       922     0    37     1    22
 -6.1474187725396767E-01 a       923     0    37     1    23
  7.8366557423183630E-02 a       924     0    37     1    24
 -8.5673089294496463E-02 a       925     0    37     1    25
  4.8136629028124661E-01 a       926     0    38     1     1
 -1.2532949764798132E-01 a       927     0    38     1     2
  5.5475936253890923E-01 a       928     0    38     1     3
 -2.1477710392220886E-01 a       929     0    38     1     4
 -1.9725201000024309E-01 a       930     0    38     1     5
 -1.6221863901901869E-02 a       931     0    38     1     6
 -6.2759229953235542E-03 a       932     0    38     1     7
  9.2978018696079807E-03 a       933     0    38     1     8
  1.1488689073947804E-01 a       934     0    38     1     9
 -2.8937979607594239E-01 a       935     0    38     1    10
 -5.1118377879788834E-01 a       936     0    38     1    11
  2.0787494379636109E-01 a       937     0    38     1    12
 -1.7242053962904966E-01 a       938     0    38     1    13
 -6.0058026018275590E-01 a       939     0    38     1    14
  7.6841036812600591E-03 a       940     0    38     1    15
  3.0350407915072547E-01 a       941     0    38     1    16
  4.7408288202842563E-01 a       942     0    38     1    17
 -1.8003724724367678E-01 a       943     0    38     1    18
 -1.9365221639077038E-01 a       944     0    38     1    19
 -4.2419090010271499E-01 a       945     0    38     1    20
  3.6178712278845102E-02 a       946     0    38     1    21
 -3.9531185393442420E-01 a       947     0    38     1    22
 -3.7307815697563484E-01 a       948     0    38     1    23
  1.8337666156260693E-01 a       949     0    38     1    24
 -3.2169023215005135E-03 a       950     0    38     1    25
  2.3142664620097128E-01 a       951     0    39     1     1
  6.6252298653438801E-01 a       952     0    39     1     2
  1.1905058874052465E+00 a       953     0    39     1     3
  3.9633752406265765E-01 a       954     0    39     1     4
 -9.8117923379593908E-01 a       955     0    39     1     5
 -3.3744995404495576E-01 a       956     0    39     1     6
 -5.8046730907735700E-01 a       957     0    39     1     7
  7.3973580924120941E-01 a       958     0    39     1     8
  8.5620024171349485E-01 a       959     0    39     1     9
 -7.6958622444087438E-02 a       960     0    39     1    10
 -6.5212018070224406E-02 a       961     0    39     1    11
  3.0663852560292571E-02 a       962     0    39     1    12
 -4.4789952183970971E-01 a       963     0    39     1    13
 -7.9495597637061199E-01 a       964     0    39     1    14
 -2.9715396815934292E-01 a       965     0    39     1    15
  2.6938478798684801E-01 a       966     0    39     1    16
 -1.1734184709767486E+00 a       967     0    39     1    17
  1.8140994738270177E-01 a       968     0    39     1    18
 -9.5194455808519407E-01 a       969     0    39     1    19
 -7.3641006057976266E-01 a       970     0    39     1    20
 -5.1409479123158641E-01 a       971     0    39     1    21
 -8.5873202474595967E-01 a       972     0    39     1    22
 -9.2890983275063954E-01 a       973     0    39     1    23
 -4.7771284626942745E-01 a       974     0    39     1    24
 -4.2190991080901086E-01 a       975     0    39     1    25
  4.8506776029336107E-01 a       976     0    40     1     1
  8.3691633788686370E-01 a       977     0    40     1     2
  8.9412397851151060E-01 a       978     0    40     1     3
  5.2633789638357087E-01 a       979     0    40     1     4
 -9.0331443663204825E-01 a       980     0    40     1     5
 -4.3369460318272124E-01 a       981     0    40     1     6
 -3.0819677548929553E-01 a       982     0    40     1     7
  6.9026795678847286E-01 a       983     0    40     1     8
  6.2045414066716720E-01 a       984     0    40     1     9
 -2.5970487622791638E-01 a       985     0    40     1    10
 -3.8086648398794457E-02 a       986     0    40     1    11
  2.4639086757319201E-01 a       987     0    40     1    12
 -2.5479972824958397E-01 a       988     0    40     1    13
 -6.0211566553543361E-01 a       989     0    40     1    14
 -2.2662912186471243E-01 a       990     0    40     1    15
  2.9140035028070271E-01 a       991     0    40     1    16
 -1.3193205829813264E+00 a       992     0    40     1    17
  1.1666724995510205E-01 a       993     0    40     1    18
 -1.0715389674861080E+00 a       994     0    40     1    19
 -8.0426140141409030E-01 a       995     0    40     1    20
 -2.9510550098628302E-01 a       996     0    40     1    21
 -8.1900478937721388E-01 a       997     0    40     1    22
 -7.6788720671890631E-01 a       998     0    40     1    23
 -6.4719046385473067E-01 a       999     0    40     1    24
 -2.8483413004326291E-01 a      1000     0    40     1    25
  6.1359115805539972E-03 a      1001     0    41     1     1
  5.9943415775243959E-02 a      1002     0    41     1     2
  1.5680852103595547E-01 a      1003     0    41     1     3
  5.2026149899120529E-02 a      1004     0    41     1     4
  3.9780121873154758E-02 a      1005     0    41     1     5
 -2.8239261954736594E-01 a      1006     0    41     1     6
 -2.5363085907575139E-01 a      1007     0    41     1     7
 -1.2552019008369552E-03 a      1008     0    41     1     8
  2.8748704429983840E-01 a      1009     0    41     1     9
 -1.6538423778170658E-01 a      1010     0    41     1    10
  1.8051263286954999E-01 a      1011     0    41     1    11
  4.2940994060348063E-02 a      1012     0    41     1    12
  3.0577711558001847E-01 a      1013     0    41     1    13
 -7.1472032303158989E-02 a      1014     0    41     1    14
  2.4498872321807477E-01 a      1015     0    41     1    15
 -3.4688614037184062E-01 a      1016     0    41     1    16
  1.1007937677886392E-01 a      1017     0    41     1    17
  8.5437848360103638E-02 a      1018     0    41     1    18
  1.2389206551178367E-02 a      1019     0    41     1    19
  5.2552807355655214E-02 a      1020     0    41     1    20
 -4.1277770291962684E-01 a      1021     0    41     1    21
  2.5585080978887209E-01 a      1022     0    41     1    22
 -1.9271737016169528E-02 a      1023     0    41     1    23
 -1.7010074893471414E-01 a      1024     0    41     1    24
 -8.5788585379070595E-02 a      1025     0    41     1    25
 -5.7068211081983865E-02 a      1026     0    42     1     1
 -1.1637606656749563E-01 a      1027     0    42     1     2
  1.2069935162995812E-01 a      1028     0    42     1     3
  2.1585296628662073E-01 a      1029     0    42     1     4
 -1.2340605622269858E-01 a      1030     0    42     1     5
 -1.6608057867258083E-01 a      1031     0    42     1     6
 -2.2293827990461090E-01 a      1032     0    42     1     7
 -8.9695371730351581E-02 a      1033     0    42     1     8
  1.6773636929530614E-01 a      1034     0    42     1     9
  3.6042043482933123E-03 a      1035     0    42     1    10
  1.6121519055345371E-01 a      1036     0    42     1    11
  1.8811501557315097E-01 a      1037     0    42     1    12
  6.8844794990620302E-03 a      1038     0    42     1    13
  4.8300534230947892E-03 a      1039     0    42     1    14
  4.3850448102977641E-01 a      1040     0    42     1    15
 -3.8042930122202018E-01 a      1041     0    42     1    16
  8.9673817983663917E-02 a      1042     0    42     1    17
  2.0954103375724381E-01 a      1043     0    42     1    18
  7.0982560051620153E-02 a      1044     0    42     1    19
  9.1984456078835056E-02 a      1045     0    42     1    20
 -5.0000468051615155E-01 a      1046     0    42     1    21
  1.6344078651680225E-02 a      1047     0    42     1    22
 -1.0186520564825639E-02 a      1048     0    42     1    23
 -3.4041130140779718E-01 a      1049     0    42     1    24
 -6.5061273916894716E-02 a      1050     0    42     1    25
  4.7968961054906717E-01 a      1051     0    43     1     1
 -5.8171153008368648E-01 a      1052     0    43     1     2
  1.4468915636751287E-01 a      1053     0    43     1     3
 -1.1889941887983403E-01 a      1054     0    43     1     4
 -1.8501449580886070E-01 a      1055     0    43     1     5
  5.5237281148825113E-01 a      1056     0    43     1     6
 -7.8678559805502368E-01 a      1057     0    43     1     7
  2.0848042718320464E-01 a      1058     0    43     1     8
 -7.6832611201328394E-01 a      1059     0    43     1     9
  5.6021515543891912E-02 a      1060     0    43     1    10
  1.4841870008000295E+00 a      1061     0    43     1    11
  5.2533831345914128E-01 a      1062     0    43     1    12
  7.6795049930007320E-01 a      1063     0    43     1    13
 -9.2231612675160746E-01 a      1064     0    43     1    14
 -1.0851763930752187E+00 a      1065     0    43     1    15
 -6.7221395108718318E-01 a      1066     0    43     1    16
 -5.8844150986028143E-01 a      1067     0    43     1    17
  1.0162545951439548E+00 a      1068     0    43     1    18
 -7.3350884574913025E-02 a      1069     0    43     1    19
  7.9215778934087966E-01 a      1070     0    43     1    20
 -4.8286765575876051E-01 a      1071     0    43     1    21
  1.5849649434351404E-01 a      1072     0    43     1    22
  9.8992169484828596E-01 a      1073     0    43     1    23
  1.5072490755492210E-01 a      1074     0    43     1    24
 -6.0673520880973530E-01 a      1075     0    43     1    25
  1.3105481774084546E-01 a      1076     0    44     1     1
 -9.1699768415736752E-02 a      1077     0    44     1     2
 -6.6677933538018305E-02 a      1078     0    44     1     3
 -8.8387670206301797E-02 a      1079     0    44     1     4
  1.4651053990712209E-01 a      1080     0    44     1     5
 -3.7396783807783975E-02 a      1081     0    44     1     6
 -1.3768573176624047E-01 a      1082     0    44     1     7
 -3.0199716291305279E-01 a      1083     0    44     1     8
  2.2982286511978392E-01 a      1084     0    44     1     9
  8.4912973413164949E-02 a      1085     0    44     1    10
 -1.9953422493857986E-01 a      1086     0    44     1    11
  1.7056564455040141E-01 a      1087     0    44     1    12
 -4.8984952158328360E-01 a      1088     0    44     1    13
 -2.2983585412196780E-01 a      1089     0    44     1    14
  2.7244293243068768E-01 a      1090     0    44     1    15
  2.0466169540706378E-01 a      1091     0    44     1    16
  8.3877524286220598E-02 a      1092     0    44     1    17
  1.6081748770263715E-01 a      1093     0    44     1    18
 -5.8387231616898283E-01 a      1094     0    44     1    19
 -2.9796930692411144E-01 a      1095     0    44     1    20
 -6.5015383980911792E-02 a      1096     0    44     1    21
 -3.1245479334759857E-01 a      1097     0    44     1    22
  1.0735333492269518E-01 a      1098     0    44     1    23
  3.0228727556064237E-02 a      1099     0    44     1    24
 -2.0183518031748124E-01 a      1100     0    44     1    25
  3.2755022060635897E-01 a      1101     0    45     1     1
 -1.1412025608914905E-01 a      1102     0    45     1     2
  2.2258708786645900E-01 a      1103     0    45     1     3
 -1.8835551083577085E-01 a      1104     0    45     1     4
 -1.0873680569370882E-01 a      1105     0    45     1     5
 -3.2097212530103786E-01 a      1106     0    45     1     6
 -7.3722167560639665E-02 a      1107     0    45     1     7
 -3.1263294493387228E-01 a      1108     0    45     1     8
  2.2077661761577033E-01 a      1109     0    45     1     9
 -4.4399803858440938E-02 a      1110     0    45     1    10
 -2.4823692990884533E-01 a      1111     0    45     1    11
  6.0031280661643836E-02 a      1112     0    45     1    12
 -3.1450280748472909E-01 a      1113     0    45     1    13
 -3.3588854264052628E-02 a      1114     0    45     1    14
  4.2153002943638623E-01 a      1115     0    45     1    15
  3.1549300032869593E-01 a      1116     0    45     1    16
  3.6152929494543844E-02 a      1117     0    45     1    17
 -1.1996601479689845E-01 a      1118     0    45     1    18
 -3.2228210774590055E-01 a      1119     0    45     1    19
 -1.5497279870789152E-01 a      1120     0    45     1    20
 -2.2377640108430774E-01 a      1121     0    45     1    21
 -3.3039200892647957E-01 a      1122     0    45     1    22
  1.2913879731968808E-01 a      1123     0    45     1    23
  1.5338971202075852E-01 a      1124     0    45     1    24
 -1.1828616365837054E-01 a      1125     0    45     1    25
  2.8004371689872237E-01 a      1126     0    46     1     1
 -9.9322506308959099E-02 a      1127     0    46     1     2
  2.6929213547962583E-01 a      1128     0    46     1     3
  2.9700799934265437E-01 a      1129     0    46     1     4
 -9.2363743503992679E-02 a      1130     0    46     1     5
  6.5019882391109313E-02 a      1131     0    46     1     6
 -4.9496391537925327E-01 a      1132     0    46     1     7
 -9.6954894613732218E-02 a      1133     0    46     1     8
  5.8459591843645942E-01 a      1134     0    46     1     9
  7.2462322959165548E-02 a      1135     0    46     1    10
  3.1138884226125894E-02 a      1136     0    46     1    11
  9.2866143007384203E-02 a      1137     0    46     1    12
  1.0444256612771985E-01 a      1138     0    46     1    13
 -5.7795490840483454E-01 a      1139     0    46     1    14
  3.2071355137756097E-01 a      1140     0    46     1    15
 -1.1113389325710722E-01 a      1141     0    46     1    16
 -5.7351574580999716E-02 a      1142     0    46     1    17
  6.0792401443995780E-01 a      1143     0    46     1    18
 -6.5976796090480516E-02 a      1144     0    46     1    19
  1.3837570862123763E-01 a      1145     0    46     1    20
 -1.9184583928666357E-01 a      1146     0    46     1    21
  6.3848457780767837E-02 a      1147     0    46     1    22
  1.0337199810388030E-01 a      1148     0    46     1    23
 -1.1333330605728775E-01 a      1149     0    46     1    24
 -1.8172683244981541E-01 a      1150     0    46     1    25
  2.9725845233599063E-01 a      1151     0    47     1     1
 -1.2390845141692512E-01 a      1152     0    47     1     2
  2.5634363327969217E-01 a      1153     0    47     1     3
  1.0508880935538421E-01 a      1154     0    47     1     4
 -2.3559242959019019E-01 a      1155     0    47     1     5
  1.1421413934554650E-01 a      1156     0    47     1     6
 -5.8089999176272911E-01 a      1157     0    47     1     7
 -1.5650152851228127E-01 a      1158     0    47     1     8
  4.5140526730695058E-01 a      1159     0    47     1     9
  5.2596867655265930E-02 a      1160     0    47     1    10
  8.8831792786939673E-02 a      1161     0    47     1    11
  1.0089604162978033E-01 a      1162     0    47     1    12
 -4.8278366056051160E-02 a      1163     0    47     1    13
 -2.4261254244000838E-01 a      1164     0    47     1    14
  2.1910652281261095E-01 a      1165     0    47     1    15
 -1.9652015658051070E-01 a      1166     0    47     1    16
  2.9662613057611364E-02 a      1167     0    47     1    17
  3.5313653235030035E-01 a      1168     0    47     1    18
 -8.7725049607314851E-02 a      1169     0    47     1    19
  8.6522443769649501E-02 a      1170     0    47     1    20
 -2.0703482184623415E-01 a      1171     0    47     1    21
  2.6476925775682025E-01 a      1172     0    47     1    22
 -1.4973374175841690E-02 a      1173     0    47     1    23
 -5.3256609797065618E-02 a      1174     0    47     1    24
 -3.9976815900565194E-01 a      1175     0    47     1    25
  1.2122130471232363E-01 a      1176     0    48     1     1
  4.1291091736084529E-02 a      1177     0    48     1     2
  2.2874820853596134E-01 a      1178     0    48     1     3
  1.5635586119717049E-01 a      1179     0    48     1     4
 -1.1473985355724969E-01 a      1180     0    48     1     5
 -1.2654388973620695E-01 a      1181     0    48     1     6
  2.7975541965116124E-01 a      1182     0    48     1     7
 -1.7012320973765330E-01 a      1183     0    48     1     8
  2.4635452474181352E-01 a      1184     0    48     1     9
 -6.6336447951931499E-01 a      1185     0    48     1    10
 -4.7754950203516305E-01 a      1186     0    48     1    11
  1.9872439226706631E-02 a      1187     0    48     1    12
 -3.5482191789014361E-01 a      1188     0    48     1    13
 -2.1366881580831126E-01 a      1189     0    48     1    14
  2.5833770284040192E-01 a      1190     0    48     1    15
  6.5992478464828397E-01 a      1191     0    48     1    16
 -2.4496005171562505E-02 a      1192     0    48     1    17
 -1.2139573570482773E-01 a      1193     0    48     1    18
 -3.3509817359699778E-01 a      1194     0    48     1    19
 -3.1084284564817592E-02 a      1195     0    48     1    20
  1.0783606142759847E-01 a      1196     0    48     1    21
 -1.2420486062260966E-01 a      1197     0    48     1    22
 -1.7383004959946119E-01 a      1198     0    48     1    23
 -1.6468682669095996E-01 a      1199     0    48     1    24
  1.7438283415711717E-01 a      1200     0    48     1    25
 -7.6997695806406086E-02 a      1201     0    49     1     1
  2.1886204252930394E-01 a      1202     0    49     1     2
  2.9912686997258953E-01 a      1203     0    49     1     3
 -7.4212530648385469E-02 a      1204     0    49     1     4
 -8.0419832986777726E-02 a      1205     0    49     1     5
  1.1346140185602303E-01 a      1206     0    49     1     6
  1.3771366342993458E-02 a      1207     0    49     1     7
  1.3826277587878424E-01 a      1208     0    49     1     8
  1.7403855888118344E-01 a      1209     0    49     1     9
 -3.0481324075565047E-01 a      1210     0    49     1    10
  6.3087481572115826E-03 a      1211     0    49     1    11
 -3.1374103978800633E-01 a      1212     0    49     1    12
  2.7845492611051947E-01 a      1213     0    49     1    13
 -6.0799259656444182E-01 a      1214     0    49     1    14
 -5.7485722961773000E-01 a      1215     0    49     1    15
 -4.6299507140303364E-01 a      1216     0    49     1    16
 -5.5644287996554975E-01 a      1217     0    49     1    17
  3.3578643464165968E-02 a      1218     0    49     1    18
  6.6005996929079491E-01 a      1219     0    49     1    19
 -1.4170980487750828E-01 a      1220     0    49     1    20
  1.7633843159278648E-01 a      1221     0    49     1    21
  2.3692639830107606E-01 a      1222     0    49     1    22
  1.7105229351179319E-01 a      1223     0    49     1    23
 -3.0425446733775785E-01 a      1224     0    49     1    24
  2.8885568870972717E-01 a      1225     0    49     1    25
 -9.6714460477703504E-02 a      1226     0    50     1     1
  1.6682663601314057E-01 a      1227     0    50     1     2
  1.2714197126578519E-01 a      1228     0    50     1     3
 -3.2026374541456776E-01 a      1229     0    50     1     4
 -1.3933700436667484E-01 a      1230     0    50     1     5
  1.9078786628762232E-01 a      1231     0    50     1     6
  2.9145264482913347E-01 a      1232     0    50     1     7
 -1.6331351710684026E-02 a      1233     0    50     1     8
  1.5770541733318483E-01 a      1234     0    50     1     9
 -5.6867863780871530E-01 a      1235     0    50     1    10
  3.1809086975743264E-02 a      1236     0    50     1    11
 -3.9713290409582663E-01 a      1237     0    50     1    12
  4.0357972088534205E-01 a      1238     0    50     1    13
 -4.3997210189373293E-01 a      1239     0    50     1    14
 -4.2005188681781702E-01 a      1240     0    50     1    15
 -4.8215389535621372E-01 a      1241     0    50     1    16
 -4.9693982691510535E-01 a      1242     0    50     1    17
 -5.7733751022161404E-02 a      1243     0    50     1    18
  4.5557279433280873E-01 a      1244     0    50     1    19
 -3.1681540399292762E-01 a      1245     0    50     1    20
  8.3705548317552753E-02 a      1246     0    50     1    21
  2.4713850831520508E-03 a      1247     0    50     1    22
 -7.2525953666940451E-02 a      1248     0    50     1    23
 -5.2200332385249637E-01 a      1249     0    50     1    24
  1.4640270139966610E-01 a      1250     0    50     1    25
 -5.2365342002538795E-01 a      1251     0    51     1     1
  2.0386406667363216E-02 a      1252     0    51     1     2
 -1.4527192885677020E-01 a      1253     0    51     1     3
  7.1813963261580446E-02 a      1254     0    51     1     4
  4.7591263079331592E-02 a      1255     0    51     1     5
 -4.3306576406648278E-01 a      1256     0    51     1     6
  2.7776181936070471E-01 a      1257     0    51     1     7
  1.2318988940689060E-01 a      1258     0    51     1     8
 -3.2554273481719820E-01 a      1259     0    51     1     9
  3.5362584600894656E-02 a      1260     0    51     1    10
  8.3344762818460344E-02 a      1261     0    51     1    11
  1.6499939654949655E-01 a      1262     0    51     1    12
 -4.3931942132935095E-02 a      1263     0    51     1    13
  1.4047702877633983E-01 a      1264     0    51     1    14
  8.1819832790662517E-02 a      1265     0    51     1    15
 -2.3071281722706563E-01 a      1266     0    51     1    16
  1.0896267244909369E-01 a      1267     0    51     1    17
 -6.2308644624321563E-01 a      1268     0    51     1    18
 -6.1616860288557909E-02 a      1269     0    51     1    19
  8.1223328832284031E-02 a      1270     0    51     1    20
 -6.9472331149658131E-02 a      1271     0    51     1    21
  1.5214122896455887E-01 a      1272     0    51     1    22
 -1.3848724486891886E-01 a      1273     0    51     1    23
 -1.4246899820213335E-01 a      1274     0    51     1    24
  2.2277978384471214E-01 a      1275     0    51     1    25
 -4.1713020554288727E-01 a      1276     0    52     1     1
 -1.1225513755474636E-01 a      1277     0    52     1     2
 -6.1884831104851323E-02 a      1278     0    52     1     3
 -1.6556769656853446E-01 a      1279     0    52     1     4
 -7.3150011745180044E-02 a      1280     0    52     1     5
 -2.5745084742945457E-01 a      1281     0    52     1     6
  3.1168545174107670E-01 a      1282     0    52     1     7
 -2.2905892201095585E-01 a      1283     0    52     1     8
 -4.0824656695971101E-01 a      1284     0    52     1     9
  3.5489573771203264E-02 a      1285     0    52     1    10
 -4.6366253590131981E-02 a      1286     0    52     1    11
  6.2134665829036900E-02 a      1287     0    52     1    12
  1.7483894250921207E-02 a      1288     0    52     1    13
  2.0489109303150929E-01 a      1289     0    52     1    14
 -1.5192006853431447E-01 a      1290     0    52     1    15
  4.0406779683769066E-02 a      1291     0    52     1    16
  6.5732651386604252E-02 a      1292     0    52     1    17
 -4.7968630526953188E-01 a      1293     0    52     1    18
 -1.9041810322706046E-01 a      1294     0    52     1    19
 -1.9841136706921489E-01 a      1295     0    52     1    20
 -1.2451026442459714E-01 a      1296     0    52     1    21
 -1.4171624221044130E-01 a      1297     0    52     1    22
  1.3355716916615429E-01 a      1298     0    52     1    23
  6.7468262371495127E-02 a      1299     0    52     1    24
  3.6240447633796513E-01 a      1300     0    52     1    25
 -3.5182409280180446E-02 a      1301     0    53     1     1
  1.1410812559894591E-01 a      1302     0    53     1     2
 -3.6151634344745898E-01 a      1303     0    53     1     3
  5.7283040571508501E-02 a      1304     0    53     1     4
  1.9810114114964483E-01 a      1305     0    53     1     5
 -6.9896853763372491E-01 a      1306     0    53     1     6
  2.5166702900394439E-01 a      1307     0    53     1     7
  2.5273531811031980E-01 a      1308     0    53     1     8
 -2.4119006226966594E-01 a      1309     0    53     1     9
  2.4223909662507803E-01 a      1310     0    53     1    10
 -7.4233365765542381E-01 a      1311     0    53     1    11
  1.9496535615314739E-01 a      1312     0    53     1    12
 -5.0139904177528705E-01 a      1313     0    53     1    13
  1.5165460761673211E+00 a      1314     0    53     1    14
  8.7447053668626484E-01 a      1315     0    53     1    15
 -3.9267517599956947E-02 a      1316     0    53     1    16
  4.0562498311157424E-01 a      1317     0    53     1    17
 -1.5492816962973506E+00 a      1318     0    53     1    18
  6.0779311677279257E-01 a      1319     0    53     1    19
 -2.9958730110284587E-01 a      1320     0    53     1    20
  6.1544428793473827E-01 a      1321     0    53     1    21
  1.1148445581256626E-01 a      1322     0    53     1    22
 -1.4042054396870616E+00 a      1323     0    53     1    23
  1.1763799372638441E-01 a      1324     0    53     1    24
  3.8383369923150995E-01 a      1325     0    53     1    25
 -1.9382630164680278E-01 a      1326     0    54     1     1
  1.1046935763499217E-01 a      1327     0    54     1     2
 -2.0772125708793154E-01 a      1328     0    54     1     3
 -1.9947667210690523E-01 a      1329     0    54     1     4
 -6.3430889306493654E-02 a      1330     0    54     1     5
 -3.5399485993671986E-02 a      1331     0    54     1     6
  4.0876758493723192E-01 a      1332     0    54     1     7
 -1.5366955450364941E-01 a      1333     0    54     1     8
 -2.2253834266748793E-01 a      1334     0    54     1     9
 -1.9305240302462473E-02 a      1335     0    54     1    10
 -2.5802983354246206E-01 a      1336     0    54     1    11
 -2.0623848852650567E-01 a      1337     0    54     1    12
  6.7847596939488192E-02 a      1338     0    54     1    13
 -5.9522848128104114E-02 a      1339     0    54     1    14
 -4.5358907557492073E-01 a      1340     0    54     1    15
  3.9919533891614645E-01 a      1341     0    54     1    16
 -7.9159319301948111E-03 a      1342     0    54     1    17
 -5.7191786582310011E-01 a      1343     0    54     1    18
 -1.8038056106606926E-01 a      1344     0    54     1    19
  1.2954221854035719E-01 a      1345     0    54     1    20
  1.0171030154999774E-01 a      1346     0    54     1    21
 -3.2129709809988867E-02 a      1347     0    54     1    22
 -9.6413992389694489E-02 a      1348     0    54     1    23
 -1.5442815979494956E-01 a      1349     0    54     1    24
  4.0110332087667716E-01 a      1350     0    54     1    25
 -7.7681283403057091E-02 a      1351     0    55     1     1
  5.2451725297402454E-02 a      1352     0    55     1     2
 -2.4572946775824708E-01 a      1353     0    55     1     3
 -7.5752071954754308E-02 a      1354     0    55     1     4
  1.3040085492957237E-01 a      1355     0    55     1     5
 -3.4489256868239809E-01 a      1356     0    55     1     6
  4.2240093378461785E-01 a      1357     0    55     1     7
 -2.7042905493996650E-01 a      1358     0    55     1     8
 -3.2770908403805510E-01 a      1359     0    55     1     9
 -3.8984645146037471E-03 a      1360     0    55     1    10
 -2.7941723581382905E-02 a      1361     0    55     1    11
 -3.4776307571644222E-01 a      1362     0    55     1    12
 -4.8309606499984822E-02 a      1363     0    55     1    13
 -1.8968790366448307E-01 a      1364     0    55     1    14
 -4.7155215832802816E-01 a      1365     0    55     1    15
  3.1560476405468779E-01 a      1366     0    55     1    16
 -1.2173972647061768E-01 a      1367     0    55     1    17
 -4.3481397320720644E-01 a      1368     0    55     1    18
 -1.6280502282437487E-01 a      1369     0    55     1    19
  2.0969521226951707E-01 a      1370     0    55     1    20
  1.2408318023054372E-01 a      1371     0    55     1    21
 -2.9874329989320397E-01 a      1372     0    55     1    22
 -1.9076261377694220E-01 a      1373     0    55     1    23
 -2.0026390807134181E-01 a      1374     0    55     1    24
  3.5693928344460579E-01 a      1375     0    55     1    25
 -7.8141483789303315E-02 a      1376     0    56     1     1
  2.2086514868290696E-01 a      1377     0    56     1     2
 -2.3291748869708290E-01 a      1378     0    56     1     3
  2.2815926999886971E-01 a      1379     0    56     1     4
 -1.7494687985572391E-01 a      1380     0    56     1     5
 -2.6108657500902815E-01 a      1381     0    56     1     6
  2.0040969837622616E-01 a      1382     0    56     1     7
 -1.5255009690633575E-01 a      1383     0    56     1     8
 -2.7165224597413296E-01 a      1384     0    56     1     9
  3.1837652765311075E-01 a      1385     0    56     1    10
 -5.3042955995352681E-01 a      1386     0    56     1    11
 -1.7517372059678238E-01 a      1387     0    56     1    12
  5.4611298711042977E-02 a      1388     0    56     1    13
  1.4374248538837628E-01 a      1389     0    56     1    14
 -4.9802604520318078E-01 a      1390     0    56     1    15
  4.7795462286392404E-01 a      1391     0    56     1    16
 -2.3797785567589341E-01 a      1392     0    56     1    17
  3.8440636516421012E-01 a      1393     0    56     1    18
 -8.1549565121089868E-03 a      1394     0    56     1    19
 -1.0644748957208368E-01 a      1395     0    56     1    20
  5.8977902819604922E-01 a      1396     0    56     1    21
 -1.4513867569708519E-01 a      1397     0    56     1    22
  3.6967331115992658E-01 a      1398     0    56     1    23
  5.3572697754541446E-02 a      1399     0    56     1    24
  1.9672770286575619E-01 a      1400     0    56     1    25
 -3.6420236366234654E-01 a      1401     0    57     1     1
  3.6382624000849212E-01 a      1402     0    57     1     2
 -1.2964254762271737E-01 a      1403     0    57     1     3
  1.0300652368592191E-01 a      1404     0    57     1     4
 -7.7412066935371310E-02 a      1405     0    57     1     5
 -9.6662268589908132E-02 a      1406     0    57     1     6
  1.7254988019370912E-01 a      1407     0    57     1     7
 -9.0654685724181602E-02 a      1408     0    57     1     8
 -5.6649722384531054E-01 a      1409     0    57     1     9
  3.5192541775545616E-01 a      1410     0    57     1    10
 -2.7247430329508338E-01 a      1411     0    57     1    11
 -5.1064750713575113E-01 a      1412     0    57     1    12
  4.5641721152872711E-03 a      1413     0    57     1    13
  3.1281666979632988E-01 a      1414     0    57     1    14
 -4.3390247326566284E-01 a      1415     0    57     1    15
  4.7761662434357921E-01 a      1416     0    57     1    16
 -1.7457518788322909E-01 a      1417     0    57     1    17
  5.3530760152379753E-01 a      1418     0    57     1    18
 -1.7468028689428563E-02 a      1419     0    57     1    19
 -1.0996143621119803E-01 a      1420     0    57     1    20
  3.3712350351969933E-01 a      1421     0    57     1    21
  3.9721779924594976E-02 a      1422     0    57     1    22
  2.8082722570079466E-01 a      1423     0    57     1    23
 -1.0543943288765331E-01 a      1424     0    57     1    24
  9.5604455568380806E-02 a      1425     0    57     1    25
  3.9599460183848006E-01 a      1426     0    58     1     1
 -9.1672785034947191E-02 a      1427     0    58     1     2
 -4.4321393316767753E-03 a      1428     0    58     1     3
  1.9034360057133176E-01 a      1429     0    58     1     4
 -3.5676512999863785E-01 a      1430     0    58     1     5
 -1.1391534006138308E-01 a      1431     0    58     1     6
 -3.2905307716003274E-01 a      1432     0    58     1     7
  3.1099079522977313E-01 a      1433     0    58     1     8
  5.3928559018831179E-01 a      1434     0    58     1     9
  5.7583104758731174E-01 a      1435     0    58     1    10
 -1.0980106666621664E-01 a      1436     0    58     1    11
 -6.0459173420832978E-02 a      1437     0    58     1    12
  2.1554794864083712E-01 a      1438     0    58     1    13
 -5.4548055081430835E-01 a      1439     0    58     1    14
  2.9951100471533466E-02 a      1440     0    58     1    15
  2.9139427155341607E-01 a      1441     0    58     1    16
  5.8675528771739378E-02 a      1442     0    58     1    17
  3.5345221758145901E-01 a      1443     0    58     1    18
 -1.9484665272144391E-01 a      1444     0    58     1    19
 -1.2174450086030458E-01 a      1445     0    58     1    20
 -3.3860406773189788E-01 a      1446     0    58     1    21
 -2.6243263489242569E-01 a      1447     0    58     1    22
  1.3693984286845984E-02 a      1448     0    58     1    23
 -8.0065771072142272E-02 a      1449     0    58     1    24
 -2.4607436262747900E-01 a      1450     0    58     1    25
  2.9725941977126397E-01 a      1451     0    59     1     1
  1.7420914621777173E-01 a      1452     0    59     1     2
  2.2238050138158894E-01 a      1453     0    59     1     3
 -1.3213581433367719E-01 a      1454     0    59     1     4
 -3.0424325615251080E-01 a      1455     0    59     1     5
 -9.4201715297801206E-02 a      1456     0    59     1     6
 -8.8215180787266603E-02 a      1457     0    59     1     7
  1.0240566487368055E-01 a      1458     0    59     1     8
  6.1976284792359171E-01 a      1459     0    59     1     9
  4.8370316140729980E-01 a      1460     0    59     1    10
  1.2388628363706251E-01 a      1461     0    59     1    11
  1.3071064802187538E-01 a      1462     0    59     1    12
  2.0431887207108484E-01 a      1463     0    59     1    13
 -7.1951367196325644E-01 a      1464     0    59     1    14
 -1.3755321354257907E-01 a      1465     0    59     1    15
  2.9710051170590523E-01 a      1466     0    59     1    16
 -1.2323510081957163E-01 a      1467     0    59     1    17
  2.3759065701267287E-01 a      1468     0    59     1    18
 -3.0554499859676398E-01 a      1469     0    59     1    19
 -2.7545219916970126E-01 a      1470     0    59     1    20
 -3.3870398253078321E-01 a      1471     0    59     1    21
 -5.4960542583242511E-02 a      1472     0    59     1    22
 -2.7181977810716107E-01 a      1473     0    59     1    23
 -5.9223179928524746E-03 a      1474     0    59     1    24
 -2.2242602450636575E-01 a      1475     0    59     1    25
 -9.0650247453757840E-02 a      1476     0    60     1     1
 -5.3659788969504241E-01 a      1477     0    60     1     2
  2.5480593331081941E-01 a      1478     0    60     1     3
 -1.7329763830209630E-01 a      1479     0    60     1     4
  1.5479319739815522E-01 a      1480     0    60     1     5
  2.3414265909960555E-01 a      1481     0    60     1     6
 -6.4226803961293016E-02 a      1482     0    60     1     7
  1.0282377894689081E-01 a      1483     0    60     1     8
 -3.7901819113939966E-01 a      1484     0    60     1     9
  2.0102719807025943E-01 a      1485     0    60     1    10
 -4.7909159095868195E-02 a      1486     0    60     1    11
  3.5705574254902228E-01 a      1487     0    60     1    12
  2.3895247392420518E-01 a      1488     0    60     1    13
  1.8667688519228190E-01 a      1489     0    60     1    14
 -4.8268645680638173E-01 a      1490     0    60     1    15
 -1.8662752241584357E-01 a      1491     0    60     1    16
  2.7758757511532123E-01 a      1492     0    60     1    17
  1.2898994573912925E-01 a      1493     0    60     1    18
  2.3490889485499065E-02 a      1494     0    60     1    19
 -2.6671361017201450E-01 a      1495     0    60     1    20
 -4.8148376586089892E-01 a      1496     0    60     1    21
  3.7151242894018138E-01 a      1497     0    60     1    22
  2.9738712207754464E-01 a      1498     0    60     1    23
  8.0087975548046187E-03 a      1499     0    60     1    24
  9.3254341540190550E-02 a      1500     0    60     1    25
  5.4039413416744375E-01 a      1501     0    61     1     1
  2.9811256785833523E-01 a      1502     0    61     1     2
  2.0818004241773383E-01 a      1503     0    61     1     3
  2.2158680552571569E-01 a      1504     0    61     1     4
  1.7651269264195044E-01 a      1505     0    61     1     5
  1.6884511703043670E-01 a      1506     0    61     1     6
 -3.1372631711914178E-01 a      1507     0    61     1     7
 -2.4365246140070573E-01 a      1508     0    61     1     8
  2.1779056354207052E-01 a      1509     0    61     1     9
  6.0152922770330712E-04 a      1510     0    61     1    10
  2.5268386518325986E-01 a      1511     0    61     1    11
 -2.3522225885668718E-01 a      1512     0    61     1    12
  1.0886534324019037E-01 a      1513     0    61     1    13
  2.9879676502216842E-02 a      1514     0    61     1    14
  2.0064093215206816E-01 a      1515     0    61     1    15
  2.5946644803121816E-01 a      1516     0    61     1    16
  3.2491712344815199E-01 a      1517     0    61     1    17
  1.3836484648843106E-01 a      1518     0    61     1    18
  9.7825705034647936E-02 a      1519     0    61     1    19
  1.5436161349179736E-01 a      1520     0    61     1    20
  1.4039534199713780E-01 a      1521     0    61     1    21
  1.0970056639728960E-01 a      1522     0    61     1    22
  1.0864828019767758E-01 a      1523     0    61     1    23
  2.0902997424591735E-01 a      1524     0    61     1    24
  3.8443538630980872E-01 a      1525     0    61     1    25
  6.6185090792292567E-01 a      1526     0    62     1     1
  3.0080942496417956E-01 a      1527     0    62     1     2
  8.4074762201511541E-02 a      1528     0    62     1     3
  2.1129078768208695E-01 a      1529     0    62     1     4
  1.1193065983529880E-01 a      1530     0    62     1     5
  1.3597576829106525E-01 a      1531     0    62     1     6
 -2.0058137119865740E-01 a      1532     0    62     1     7
 -2.7391436539143321E-01 a      1533     0    62     1     8
  2.2395567008148648E-01 a      1534     0    62     1     9
 -1.0183846008728238E-01 a      1535     0    62     1    10
  2.7028629806264654E-01 a      1536     0    62     1    11
 -2.4935361259693886E-01 a      1537     0    62     1    12
 -1.0205120868430254E-01 a      1538     0    62     1    13
 -1.2284216913604409E-01 a      1539     0    62     1    14
  7.3866742982677369E-02 a      1540     0    62     1    15
  3.0303940644508642E-01 a      1541     0    62     1    16
  1.8841632037770187E-01 a      1542     0    62     1    17
 -3.4482450650334270E-02 a      1543     0    62     1    18
  2.2608099108290211E-01 a      1544     0    62     1    19
 -3.0411527370387787E-02 a      1545     0    62     1    20
  4.0727434221228688E-02 a      1546     0    62     1    21
  7.5906307359078634E-02 a      1547     0    62     1    22
  2.9564920183667087E-01 a      1548     0    62     1    23
  4.2468641999137879E-01 a      1549     0    62     1    24
  2.8314625686688982E-01 a      1550     0    62     1    25
 -2.2034997147624724E-01 a      1551     0    63     1     1
 -4.9054797857723598E-02 a      1552     0    63     1     2
  3.9538490170350105E-02 a      1553     0    63     1     3
 -2.3233141263297713E-01 a      1554     0    63     1     4
  1.5281376642184255E-01 a      1555     0    63     1     5
  6.3111315800568807E-02 a      1556     0    63     1     6
 -7.0877712943369808E-02 a      1557     0    63     1     7
 -2.2680189517272634E-01 a      1558     0    63     1     8
 -7.0228518619954328E-02 a      1559     0    63     1     9
 -4.2450088544347636E-01 a      1560     0    63     1    10
 -3.8929069756490287E-01 a      1561     0    63     1    11
  3.3484780624048072E-01 a      1562     0    63     1    12
 -4.6820026518650033E-02 a      1563     0    63     1    13
 -8.6884927056762526E-02 a      1564     0    63     1    14
  4.3937682810060476E-02 a      1565     0    63     1    15
  3.5013413202963396E-02 a      1566     0    63     1    16
 -1.5597102835892723E-01 a      1567     0    63     1    17
  3.4798985109077296E-01 a      1568     0    63     1    18
 -1.5120246328115894E-01 a      1569     0    63     1    19
  1.5089586880541295E-01 a      1570     0    63     1    20
  2.9059289317508442E-02 a      1571     0    63     1    21
  1.8877467233230014E-01 a      1572     0    63     1    22
  7.4465892946243936E-02 a      1573     0    63     1    23
  4.5069893580685659E-02 a      1574     0    63     1    24
 -4.0131480964017469E-01 a      1575     0    63     1    25
  9.1676793528888231E-02 a      1576     0    64     1     1
 -1.1459047284157953E-01 a      1577     0    64     1     2
  7.4935386189061495E-02 a      1578     0    64     1     3
  3.4951722619841426E-02 a      1579     0    64     1     4
  3.5487164741120403E-02 a      1580     0    64     1     5
  6.5174253102237026E-02 a      1581     0    64     1     6
 -2.4330282418339877E-01 a      1582     0    64     1     7
 -1.6021906228755958E-01 a      1583     0    64     1     8
 -9.2241765668491335E-02 a      1584     0    64     1     9
 -1.5988067223126243E-01 a      1585     0    64     1    10
 -2.3056791891518433E-01 a      1586     0    64     1    11
  4.1859189652129397E-01 a      1587     0    64     1    12
 -1.4244732092911425E-01 a      1588     0    64     1    13
 -2.7821023265643874E-01 a      1589     0    64     1    14
  6.3271018496935630E-02 a      1590     0    64     1    15
  1.5073996427315434E-01 a      1591     0    64     1    16
 -1.0980934145144898E-01 a      1592     0    64     1    17
  5.5562787887330289E-01 a      1593     0    64     1    18
 -9.7967654663265874E-02 a      1594     0    64     1    19
  1.0584400556379253E-01 a      1595     0    64     1    20
  4.0576269791737840E-02 a      1596     0    64     1    21
  2.7686851071677870E-01 a      1597     0    64     1    22
  3.0751707595373551E-01 a      1598     0    64     1    23
 -1.3337091335256626E-01 a      1599     0    64     1    24
 -7.4018142972304940E-02 a      1600     0    64     1    25
 -2.4448395628906439E-01 a      1601     0    65     1     1
 -1.1287468924906922E-02 a      1602     0    65     1     2
 -3.4117760067109912E-02 a      1603     0    65     1     3
 -1.6161715275006197E-01 a      1604     0    65     1     4
 -1.0076276055970078E-01 a      1605     0    65     1     5
  1.8058576839923543E-01 a      1606     0    65     1     6
 -1.9105733120548637E-02 a      1607     0    65     1     7
  1.7348937895543336E-02 a      1608     0    65     1     8
 -1.1941098961946842E-01 a      1609     0    65     1     9
 -1.8540155193829216E-01 a      1610     0    65     1    10
 -7.2504342017426851E-02 a      1611     0    65     1    11
 -1.0003801560831008E-01 a      1612     0    65     1    12
 -2.8433581193767786E-02 a      1613     0    65     1    13
 -2.0103833548729680E-01 a      1614     0    65     1    14
 -1.1435934171730247E-01 a      1615     0    65     1    15
 -6.5429999723731064E-02 a      1616     0    65     1    16
 -4.6792196512592719E-02 a      1617     0    65     1    17
 -3.9155843151364951E-02 a      1618     0    65     1    18
  9.2871645594147706E-02 a      1619     0    65     1    19
 -1.3393522336845287E-01 a      1620     0    65     1    20
  2.0607667421645520E-01 a      1621     0    65     1    21
 -4.6849938376357161E-02 a      1622     0    65     1    22
  7.1461234352436287E-02 a      1623     0    65     1    23
