################################################################################
# Neural network connection values (weights and biases).
################################################################################
# Col  Name       Description
################################################################################
# 1    connection Neural network connection value.
# 2    t          Connection type (a = weight, b = bias).
# 3    index      Index enumerating weights.
# 4    l_s        Starting point layer (end point layer for biases).
# 5    n_s        Starting point neuron in starting layer (end point neuron for biases).
# 6    l_e        End point layer.
# 7    n_e        End point neuron in end layer.
################################################################################
#                      1 2         3     4     5     6     7
#             connection t     index   l_s   n_s   l_e   n_e
############################################################
  4.5828886208904711E+00 a         1     0     1     1     1
  1.9857940770520461E+00 a         2     0     1     1     2
 -2.4696618381683685E-01 a         3     0     1     1     3
  3.0898289657280347E+00 a         4     0     1     1     4
  2.5737568328664301E-01 a         5     0     1     1     5
 -2.2074261272844611E+00 a         6     0     1     1     6
  3.4103878765458120E+00 a         7     0     1     1     7
  1.8761332163614741E+00 a         8     0     1     1     8
 -2.5562064956562356E+00 a         9     0     1     1     9
 -1.0818985810521797E-02 a        10     0     1     1    10
  3.1260742658756655E+00 a        11     0     1     1    11
 -1.4088843104817821E+00 a        12     0     1     1    12
  2.2012946102822753E-01 a        13     0     1     1    13
  3.6042960916865030E-01 a        14     0     1     1    14
 -4.0151057191649664E-01 a        15     0     1     1    15
  4.6571989028107863E-01 a        16     0     1     1    16
 -1.4240823756963144E+00 a        17     0     1     1    17
  1.9396885089450824E-01 a        18     0     1     1    18
 -3.2556963071086398E+00 a        19     0     1     1    19
  1.6124452324810741E+00 a        20     0     1     1    20
  9.9234354231934019E-01 a        21     0     1     1    21
 -4.6935362946917829E+00 a        22     0     1     1    22
  4.5807928788435548E-01 a        23     0     1     1    23
  7.9366673896362164E-02 a        24     0     1     1    24
 -1.5764965306556622E+00 a        25     0     1     1    25
  1.6007303982793721E+00 a        26     0     2     1     1
 -4.0214908424753295E+00 a        27     0     2     1     2
 -1.6676483241625920E-01 a        28     0     2     1     3
  3.7650722300433803E+00 a        29     0     2     1     4
 -2.3842329867440601E+00 a        30     0     2     1     5
  1.0040283017472227E+00 a        31     0     2     1     6
 -1.7690198365133714E+00 a        32     0     2     1     7
  7.5565415185943674E-01 a        33     0     2     1     8
  4.2729659443703891E+00 a        34     0     2     1     9
  2.6203533370157799E+00 a        35     0     2     1    10
  5.9036058019848847E-01 a        36     0     2     1    11
 -4.1999354977058739E-01 a        37     0     2     1    12
  1.4540224526104923E+00 a        38     0     2     1    13
 -2.4507751544312817E+00 a        39     0     2     1    14
 -3.6322326639052736E+00 a        40     0     2     1    15
  1.5144379988585175E+00 a        41     0     2     1    16
  7.8534748086291577E+00 a        42     0     2     1    17
  6.7192634852045483E+00 a        43     0     2     1    18
  9.9897952479786922E-01 a        44     0     2     1    19
 -5.7607735861954545E-01 a        45     0     2     1    20
  1.5146557197272928E-01 a        46     0     2     1    21
 -2.7448471016022880E+00 a        47     0     2     1    22
  7.7698188046768768E-01 a        48     0     2     1    23
 -1.8708788179069118E+00 a        49     0     2     1    24
 -2.7685193762754476E+00 a        50     0     2     1    25
  2.9541613571267944E+00 a        51     0     3     1     1
  2.6979888937217589E+00 a        52     0     3     1     2
  5.8037067987369637E+00 a        53     0     3     1     3
  1.1868868105784389E+00 a        54     0     3     1     4
 -7.5679449930928611E+00 a        55     0     3     1     5
  6.5052385728330997E-01 a        56     0     3     1     6
  2.2313041411974566E+00 a        57     0     3     1     7
 -9.8850341205407055E-01 a        58     0     3     1     8
  3.1822747134573217E+00 a        59     0     3     1     9
 -2.7518091424340021E+00 a        60     0     3     1    10
  3.0196909159696732E+00 a        61     0     3     1    11
  2.4862473170976456E+00 a        62     0     3     1    12
 -6.4999967422484843E+00 a        63     0     3     1    13
  2.3805559629019628E+00 a        64     0     3     1    14
  1.6975780305352861E+00 a        65     0     3     1    15
 -5.4713235629632315E+00 a        66     0     3     1    16
 -2.5315323128513358E+00 a        67     0     3     1    17
  1.8721084034542124E+00 a        68     0     3     1    18
 -5.3869220553743302E-01 a        69     0     3     1    19
  7.3432531503242804E-02 a        70     0     3     1    20
  1.2762576941208224E+00 a        71     0     3     1    21
 -6.5532270952306382E-01 a        72     0     3     1    22
  7.6306354432557222E-01 a        73     0     3     1    23
 -1.1867783317549778E+00 a        74     0     3     1    24
 -3.3915086957797880E+00 a        75     0     3     1    25
 -4.9126734249171635E+00 a        76     0     4     1     1
 -1.9936508195902387E+00 a        77     0     4     1     2
  3.7872836258708356E+00 a        78     0     4     1     3
  3.5268825185929678E+00 a        79     0     4     1     4
 -1.6393455724855807E-01 a        80     0     4     1     5
  3.3377143714786111E+00 a        81     0     4     1     6
 -6.9755016320242647E-01 a        82     0     4     1     7
 -3.4352476201721718E+00 a        83     0     4     1     8
 -2.9938555974837597E+00 a        84     0     4     1     9
  4.8103775123001880E+00 a        85     0     4     1    10
 -4.3952559968189497E+00 a        86     0     4     1    11
  3.4786934375671770E+00 a        87     0     4     1    12
  9.1154531165280617E-01 a        88     0     4     1    13
  5.3514291311166353E+00 a        89     0     4     1    14
  3.3381066719938310E+00 a        90     0     4     1    15
 -1.4732025774066297E+00 a        91     0     4     1    16
 -7.2018960464190878E+00 a        92     0     4     1    17
  8.5682577639533519E-01 a        93     0     4     1    18
  5.8726094233938184E+00 a        94     0     4     1    19
 -1.6568520149952874E+00 a        95     0     4     1    20
 -3.5539739993360779E+00 a        96     0     4     1    21
 -3.3831140130231372E+00 a        97     0     4     1    22
  2.9061874305458701E+00 a        98     0     4     1    23
 -6.6588991862228397E-01 a        99     0     4     1    24
 -1.6232967504350462E+00 a       100     0     4     1    25
 -4.4521457041600598E+00 a       101     0     5     1     1
 -3.3937172951415162E-01 a       102     0     5     1     2
  2.8029407501449138E-01 a       103     0     5     1     3
 -6.0057913894170776E+00 a       104     0     5     1     4
 -1.1567358226063351E+00 a       105     0     5     1     5
  1.6942989658139580E+00 a       106     0     5     1     6
  8.9606655855230388E-01 a       107     0     5     1     7
 -3.3953612666717516E+00 a       108     0     5     1     8
 -1.0523464734377306E+00 a       109     0     5     1     9
 -2.4187640650165707E+00 a       110     0     5     1    10
 -1.9603529613004300E+00 a       111     0     5     1    11
  6.1851822210229901E-01 a       112     0     5     1    12
  1.0709545730833971E+00 a       113     0     5     1    13
 -5.1214966092052192E+00 a       114     0     5     1    14
 -1.6494094245956774E+00 a       115     0     5     1    15
  1.1297372453667660E+00 a       116     0     5     1    16
  2.4037246388296043E+00 a       117     0     5     1    17
  4.5672259537177773E-01 a       118     0     5     1    18
  5.4504212446279059E+00 a       119     0     5     1    19
 -5.6606713427404287E+00 a       120     0     5     1    20
 -2.0726002842411630E+00 a       121     0     5     1    21
  1.7628820144417676E+00 a       122     0     5     1    22
  1.6456243246776276E+00 a       123     0     5     1    23
  1.8879949867995602E+00 a       124     0     5     1    24
  2.1926472464955529E+00 a       125     0     5     1    25
 -2.3512172582629072E+00 a       126     0     6     1     1
  5.5844911989175925E+00 a       127     0     6     1     2
 -1.8964118616289463E+00 a       128     0     6     1     3
 -7.6704018296008751E+00 a       129     0     6     1     4
  2.3781426248081314E+00 a       130     0     6     1     5
 -6.8100237859364299E-01 a       131     0     6     1     6
  1.7076648195907675E+00 a       132     0     6     1     7
 -1.8619517717716552E+00 a       133     0     6     1     8
 -5.4157858766497675E+00 a       134     0     6     1     9
 -2.5344212524568293E+00 a       135     0     6     1    10
 -1.0289404070592405E+00 a       136     0     6     1    11
 -1.0776363805214273E+00 a       137     0     6     1    12
 -7.5838283697617848E-01 a       138     0     6     1    13
  3.6560576328909900E+00 a       139     0     6     1    14
  6.8922105438750156E+00 a       140     0     6     1    15
 -3.3540223887763911E+00 a       141     0     6     1    16
 -9.4276792791350168E+00 a       142     0     6     1    17
 -1.0651507883910423E+01 a       143     0     6     1    18
 -2.4298560686288058E+00 a       144     0     6     1    19
  1.5365200139310329E+00 a       145     0     6     1    20
  1.4971154071996251E+00 a       146     0     6     1    21
  5.3239304417761621E+00 a       147     0     6     1    22
  1.1077907875971840E+00 a       148     0     6     1    23
  1.0543828454725630E+00 a       149     0     6     1    24
  2.5147593132294421E+00 a       150     0     6     1    25
 -2.5905531966072455E+00 a       151     0     7     1     1
 -1.2637381959667298E+01 a       152     0     7     1     2
 -5.9205686916216358E+00 a       153     0     7     1     3
 -5.8087639883732205E+00 a       154     0     7     1     4
  7.5681336908124868E+00 a       155     0     7     1     5
  3.7864902928307749E+00 a       156     0     7     1     6
 -4.5085228241154285E+00 a       157     0     7     1     7
  3.5314831311279896E-02 a       158     0     7     1     8
 -5.8488094072973960E+00 a       159     0     7     1     9
  9.3730567297648708E+00 a       160     0     7     1    10
 -8.8864559333082394E+00 a       161     0     7     1    11
 -4.0163265099927754E+00 a       162     0     7     1    12
  6.6592885252663097E+00 a       163     0     7     1    13
 -1.0781008189544039E+01 a       164     0     7     1    14
  4.9038494918260715E+00 a       165     0     7     1    15
  1.5951452842612897E+01 a       166     0     7     1    16
  8.0766760250950291E+00 a       167     0     7     1    17
 -5.1412461174179036E+00 a       168     0     7     1    18
  7.4577869556778538E+00 a       169     0     7     1    19
 -6.1028143494914788E-01 a       170     0     7     1    20
 -6.7979798612307629E+00 a       171     0     7     1    21
 -2.6608993128054501E+00 a       172     0     7     1    22
  5.9010881412364553E-02 a       173     0     7     1    23
  5.8603372783357599E-01 a       174     0     7     1    24
  2.5468074677460470E+00 a       175     0     7     1    25
  5.6144469975793179E+00 a       176     0     8     1     1
  1.6531663768615441E+00 a       177     0     8     1     2
 -6.7200883059086047E-01 a       178     0     8     1     3
 -2.2560619278413379E+00 a       179     0     8     1     4
  2.0228377014221530E-01 a       180     0     8     1     5
 -1.2720818600662842E+00 a       181     0     8     1     6
 -1.1554765149583792E+00 a       182     0     8     1     7
  3.9311241720166263E+00 a       183     0     8     1     8
  2.6490093502151706E+00 a       184     0     8     1     9
 -1.0482365200611103E+00 a       185     0     8     1    10
  5.8394805539539618E+00 a       186     0     8     1    11
 -4.9242301324249587E+00 a       187     0     8     1    12
  1.5235154325240057E+00 a       188     0     8     1    13
 -4.2867640473459652E+00 a       189     0     8     1    14
 -5.2929522067534995E-01 a       190     0     8     1    15
  1.8750573532982451E+00 a       191     0     8     1    16
  9.7315431262347794E+00 a       192     0     8     1    17
 -7.2305877243918115E-01 a       193     0     8     1    18
 -5.8416700623512456E+00 a       194     0     8     1    19
 -9.6988214687894481E-01 a       195     0     8     1    20
  3.3724648524932452E+00 a       196     0     8     1    21
  1.3951370264947099E-01 a       197     0     8     1    22
  1.3004667716801808E+00 a       198     0     8     1    23
 -3.9164846061267586E+00 a       199     0     8     1    24
 -2.3564270388803301E+00 a       200     0     8     1    25
 -2.7627865651654839E+00 a       201     0     9     1     1
  2.5477452503864337E+00 a       202     0     9     1     2
 -3.2689802272151736E-01 a       203     0     9     1     3
 -2.8861149532788217E+00 a       204     0     9     1     4
 -5.5728436058468500E-01 a       205     0     9     1     5
 -2.0635207784339800E+00 a       206     0     9     1     6
  8.1845251452198864E-01 a       207     0     9     1     7
 -2.5952686363737909E+00 a       208     0     9     1     8
  1.6572817046550603E+00 a       209     0     9     1     9
 -2.7657821935100446E+00 a       210     0     9     1    10
  7.3088763360336052E-03 a       211     0     9     1    11
  2.9193446012887718E+00 a       212     0     9     1    12
 -1.0052550770220112E+00 a       213     0     9     1    13
  1.8413103495661212E+00 a       214     0     9     1    14
 -8.6949019655932824E-01 a       215     0     9     1    15
 -2.3857756113733695E+00 a       216     0     9     1    16
 -4.9146169186047062E-01 a       217     0     9     1    17
  7.6152436256365641E-02 a       218     0     9     1    18
  2.5405759411797777E+00 a       219     0     9     1    19
 -2.3085905711568668E+00 a       220     0     9     1    20
  2.5519162857851860E+00 a       221     0     9     1    21
  3.4521679764583002E+00 a       222     0     9     1    22
  1.8534546328082904E+00 a       223     0     9     1    23
 -5.9129376649245091E-01 a       224     0     9     1    24
  4.2985491378482704E-01 a       225     0     9     1    25
  3.7649288716151008E+00 a       226     0    10     1     1
 -3.9947696597467615E+00 a       227     0    10     1     2
  2.8189844274460838E+00 a       228     0    10     1     3
  2.7289595394709893E+00 a       229     0    10     1     4
 -4.6281263089024027E-01 a       230     0    10     1     5
  1.0513460723356514E+00 a       231     0    10     1     6
 -2.0868500430968506E+00 a       232     0    10     1     7
 -4.3661798035938518E-02 a       233     0    10     1     8
  2.2504724111180656E+00 a       234     0    10     1     9
  5.9174890147622790E-02 a       235     0    10     1    10
  1.1743694920865766E+00 a       236     0    10     1    11
 -2.5607169654344526E+00 a       237     0    10     1    12
  4.9116916032334051E-01 a       238     0    10     1    13
  1.2262498731708910E-01 a       239     0    10     1    14
 -3.8788983645225078E-01 a       240     0    10     1    15
  1.8576740100306428E+00 a       241     0    10     1    16
  3.9496397905146985E+00 a       242     0    10     1    17
  4.4653978610311711E+00 a       243     0    10     1    18
  1.6046051632986800E+00 a       244     0    10     1    19
 -1.6274981755569498E+00 a       245     0    10     1    20
 -1.7864078248878796E+00 a       246     0    10     1    21
 -3.7999511985584875E+00 a       247     0    10     1    22
  1.4179505127514200E-01 a       248     0    10     1    23
 -2.8277477215797111E+00 a       249     0    10     1    24
  1.1272854177953912E-01 a       250     0    10     1    25
  1.8104190697996019E+00 a       251     0    11     1     1
  8.8116288429624383E+00 a       252     0    11     1     2
  3.8043966612619560E+00 a       253     0    11     1     3
  1.2609694204141675E+00 a       254     0    11     1     4
 -1.4534275040391811E+00 a       255     0    11     1     5
 -2.7028888008148284E+00 a       256     0    11     1     6
  6.9635904064713994E-01 a       257     0    11     1     7
  3.2201039532013720E+00 a       258     0    11     1     8
  4.9379711465561718E+00 a       259     0    11     1     9
 -1.5432907310183477E+00 a       260     0    11     1    10
  1.0869606926230626E+01 a       261     0    11     1    11
 -2.5939310668913516E+00 a       262     0    11     1    12
 -3.3012749041048299E+00 a       263     0    11     1    13
  1.4066926096955749E+01 a       264     0    11     1    14
 -9.6374270699100233E+00 a       265     0    11     1    15
 -1.6076280965161633E+01 a       266     0    11     1    16
 -6.0399176697816310E+00 a       267     0    11     1    17
  7.8576828361781619E+00 a       268     0    11     1    18
 -7.9744473911917586E+00 a       269     0    11     1    19
 -8.7596663381986772E-01 a       270     0    11     1    20
  8.3987096782620476E+00 a       271     0    11     1    21
  1.5898788933754366E+00 a       272     0    11     1    22
 -2.3002388598849479E+00 a       273     0    11     1    23
  2.4466070961475264E-01 a       274     0    11     1    24
 -5.4184941224872096E+00 a       275     0    11     1    25
  5.3325938645143722E+00 a       276     0    12     1     1
 -3.6934866050315524E-01 a       277     0    12     1     2
 -1.0625953399021515E+01 a       278     0    12     1     3
 -2.7505388743586412E+00 a       279     0    12     1     4
 -2.3056112453267108E+00 a       280     0    12     1     5
 -3.3624560397664358E+00 a       281     0    12     1     6
  4.4471546828122704E-01 a       282     0    12     1     7
 -3.2864325539476504E+00 a       283     0    12     1     8
  5.8537263336927250E+00 a       284     0    12     1     9
 -2.2330388671124313E+00 a       285     0    12     1    10
  4.2812140429947760E+00 a       286     0    12     1    11
 -2.8447867387722163E+00 a       287     0    12     1    12
 -1.3138636065874967E+00 a       288     0    12     1    13
 -4.1117047247986775E+00 a       289     0    12     1    14
 -4.2785597280245273E+00 a       290     0    12     1    15
  4.0810922250180139E+00 a       291     0    12     1    16
  4.1602799185415043E+00 a       292     0    12     1    17
  2.8019706622391709E+00 a       293     0    12     1    18
  6.6381165283651344E-02 a       294     0    12     1    19
  9.6147222826910717E-01 a       295     0    12     1    20
 -2.6343045842474839E+00 a       296     0    12     1    21
 -2.5553493719284581E-01 a       297     0    12     1    22
  2.7693253420557786E+00 a       298     0    12     1    23
 -7.4492514389005562E+00 a       299     0    12     1    24
  1.3159193061015413E+00 a       300     0    12     1    25
  3.5171474429378633E+00 a       301     0    13     1     1
 -1.0008500386233108E+00 a       302     0    13     1     2
  3.3610816722519443E-01 a       303     0    13     1     3
  2.7150905496400921E+00 a       304     0    13     1     4
  2.5081149490155950E+00 a       305     0    13     1     5
 -1.1143987876349934E+00 a       306     0    13     1     6
  4.4527793894157097E-01 a       307     0    13     1     7
  2.1682081910728668E+00 a       308     0    13     1     8
 -4.1565687990350106E+00 a       309     0    13     1     9
  2.0741252997180353E+00 a       310     0    13     1    10
  8.0077632061069259E-01 a       311     0    13     1    11
 -5.1014098170817057E-01 a       312     0    13     1    12
 -1.3710503153561533E+00 a       313     0    13     1    13
  1.1420993561231132E+00 a       314     0    13     1    14
  2.5009035111071261E+00 a       315     0    13     1    15
  3.4881800614547842E+00 a       316     0    13     1    16
 -5.4824149429731939E-01 a       317     0    13     1    17
 -9.9872226206240433E-01 a       318     0    13     1    18
 -2.4274191689618636E+00 a       319     0    13     1    19
  5.9228569479192375E-02 a       320     0    13     1    20
 -1.9755997367410236E+00 a       321     0    13     1    21
 -2.4786480524611285E+00 a       322     0    13     1    22
 -1.3549586788778476E+00 a       323     0    13     1    23
 -1.8276912141445347E+00 a       324     0    13     1    24
 -5.0139183007358679E-01 a       325     0    13     1    25
  1.8832085460024053E+00 a       326     0    14     1     1
 -6.9255638911046002E+00 a       327     0    14     1     2
 -5.3183744872910692E+00 a       328     0    14     1     3
 -3.4770153098859291E+00 a       329     0    14     1     4
  8.0196699264265059E-01 a       330     0    14     1     5
  9.8911797470892193E-01 a       331     0    14     1     6
  4.8661744416083008E-02 a       332     0    14     1     7
 -2.6894932190635812E+00 a       333     0    14     1     8
 -1.8524209008111081E+00 a       334     0    14     1     9
  2.9447112331512977E+00 a       335     0    14     1    10
 -5.0999008353032478E+00 a       336     0    14     1    11
 -1.3223110876042927E+00 a       337     0    14     1    12
 -2.1790979967691997E+00 a       338     0    14     1    13
 -9.7837975986155268E+00 a       339     0    14     1    14
  5.0530905399369201E+00 a       340     0    14     1    15
  1.1488437143484123E+01 a       341     0    14     1    16
  7.1441767065274435E+00 a       342     0    14     1    17
 -3.4377251255113195E+00 a       343     0    14     1    18
  6.4295725733889943E+00 a       344     0    14     1    19
  3.0913125532474517E+00 a       345     0    14     1    20
 -7.9950143360893664E+00 a       346     0    14     1    21
 -2.7665430689232147E+00 a       347     0    14     1    22
  1.0092162605996622E+00 a       348     0    14     1    23
 -4.9599611520931388E+00 a       349     0    14     1    24
  4.8356108247457001E+00 a       350     0    14     1    25
 -2.9152099660065054E+00 a       351     0    15     1     1
  6.4130554532623529E-01 a       352     0    15     1     2
  3.0351591863181375E+00 a       353     0    15     1     3
  3.3699191097907160E+00 a       354     0    15     1     4
  2.7390129934473175E+00 a       355     0    15     1     5
  3.2945155047829986E+00 a       356     0    15     1     6
 -1.3101950751359566E+00 a       357     0    15     1     7
  6.3338057561682093E-01 a       358     0    15     1     8
 -4.2731033409615007E+00 a       359     0    15     1     9
 -6.2804075156813444E-01 a       360     0    15     1    10
 -6.0719152242248731E+00 a       361     0    15     1    11
  5.0514361039323816E+00 a       362     0    15     1    12
  3.9084226984323802E+00 a       363     0    15     1    13
  2.0411569127590807E+00 a       364     0    15     1    14
 -1.7717887578362157E+00 a       365     0    15     1    15
 -4.8631460940334409E-01 a       366     0    15     1    16
 -4.1658812352049681E+00 a       367     0    15     1    17
  5.5411135630769637E-01 a       368     0    15     1    18
  3.2199386066876476E+00 a       369     0    15     1    19
 -4.0893227141473290E+00 a       370     0    15     1    20
 -4.4097366720419027E+00 a       371     0    15     1    21
 -1.0578375612255406E+00 a       372     0    15     1    22
 -2.7019208323293529E+00 a       373     0    15     1    23
  1.1948637531501634E+00 a       374     0    15     1    24
  2.6688314627280283E+00 a       375     0    15     1    25
 -2.1489660670684612E+00 a       376     0    16     1     1
 -3.3412193992497565E+00 a       377     0    16     1     2
 -3.4016986245055882E+00 a       378     0    16     1     3
 -8.9434673746502569E-01 a       379     0    16     1     4
  1.4309616734996957E+00 a       380     0    16     1     5
 -3.4656879295202325E-01 a       381     0    16     1     6
 -3.8780649384862618E+00 a       382     0    16     1     7
 -2.1296992461040767E-01 a       383     0    16     1     8
  2.4026480752143226E-01 a       384     0    16     1     9
  1.1876844517453879E+00 a       385     0    16     1    10
  1.7208803728449532E-01 a       386     0    16     1    11
  2.1002757702629764E+00 a       387     0    16     1    12
  2.9773955647117840E+00 a       388     0    16     1    13
 -1.6211696606394144E+00 a       389     0    16     1    14
 -1.6388290700489194E+00 a       390     0    16     1    15
 -1.8514762094080401E+00 a       391     0    16     1    16
  2.6595223543539304E-01 a       392     0    16     1    17
 -2.1868320861856185E+00 a       393     0    16     1    18
  1.9277609033097001E+00 a       394     0    16     1    19
  8.6623989286205716E-01 a       395     0    16     1    20
  3.3308432778370722E+00 a       396     0    16     1    21
  2.8945000057079118E+00 a       397     0    16     1    22
  1.6034091366011185E+00 a       398     0    16     1    23
  2.0803761357113384E-01 a       399     0    16     1    24
 -1.5715515020663473E+00 a       400     0    16     1    25
  8.0315431099114952E-03 a       401     0    17     1     1
 -2.6390888540214381E+00 a       402     0    17     1     2
 -1.7452025183088731E+00 a       403     0    17     1     3
 -2.4064530164612421E+00 a       404     0    17     1     4
  1.6627020808737025E+00 a       405     0    17     1     5
 -3.7493603367417133E-01 a       406     0    17     1     6
  7.5985213567058818E-01 a       407     0    17     1     7
 -3.0661404465066222E+00 a       408     0    17     1     8
  3.2265214955152115E+00 a       409     0    17     1     9
 -1.6643769198060851E-01 a       410     0    17     1    10
 -3.5804082371623630E-01 a       411     0    17     1    11
  4.0317084700338329E-01 a       412     0    17     1    12
  1.2120362569532337E+00 a       413     0    17     1    13
 -3.2299338624120493E+00 a       414     0    17     1    14
 -3.1535162334564641E+00 a       415     0    17     1    15
  4.8693359559233801E-01 a       416     0    17     1    16
 -1.0276144279830912E+00 a       417     0    17     1    17
 -2.2761998117432385E+00 a       418     0    17     1    18
  1.1625271372493107E+00 a       419     0    17     1    19
 -2.4600247040027168E-01 a       420     0    17     1    20
  2.8146383479823869E+00 a       421     0    17     1    21
  1.2903887717715484E-01 a       422     0    17     1    22
  7.0269660407448042E-01 a       423     0    17     1    23
  1.9298952557542479E+00 a       424     0    17     1    24
 -1.1853609476949651E+00 a       425     0    17     1    25
 -5.5729654731741143E-02 a       426     0    18     1     1
  2.8855185623540751E+00 a       427     0    18     1     2
 -2.1039474233628406E+00 a       428     0    18     1     3
 -2.7885090049215480E+00 a       429     0    18     1     4
 -1.1456400046409176E+00 a       430     0    18     1     5
 -5.1670309530915326E-01 a       431     0    18     1     6
 -2.6213950318409074E+00 a       432     0    18     1     7
  1.0095373948369353E+00 a       433     0    18     1     8
 -6.3566639153218985E-01 a       434     0    18     1     9
 -7.3401200333107142E-01 a       435     0    18     1    10
 -8.0997244961469139E-01 a       436     0    18     1    11
 -4.2749421533054441E+00 a       437     0    18     1    12
 -1.2640801956380718E+00 a       438     0    18     1    13
 -3.3915851419358809E+00 a       439     0    18     1    14
 -3.9129916037536316E-01 a       440     0    18     1    15
  1.7042469779385186E-01 a       441     0    18     1    16
  3.0585820137873569E+00 a       442     0    18     1    17
 -2.8196779016779772E+00 a       443     0    18     1    18
 -2.0331098713710771E-01 a       444     0    18     1    19
  3.6317347183112929E+00 a       445     0    18     1    20
  2.6506402142192433E+00 a       446     0    18     1    21
  2.2019961331500926E+00 a       447     0    18     1    22
  7.6364922394043744E-01 a       448     0    18     1    23
  4.5962004431359356E+00 a       449     0    18     1    24
  1.2596898182853038E+00 a       450     0    18     1    25
  1.4347718178726787E+00 a       451     0    19     1     1
 -1.8555009332980199E+00 a       452     0    19     1     2
  3.7597667815129561E+00 a       453     0    19     1     3
 -7.8178947567722756E-01 a       454     0    19     1     4
  1.6239447383737105E+00 a       455     0    19     1     5
  6.5635938059486632E-01 a       456     0    19     1     6
 -5.2350306406605620E+00 a       457     0    19     1     7
 -6.4000745665611281E-01 a       458     0    19     1     8
  2.5887804128750203E+00 a       459     0    19     1     9
 -1.0560566975979264E+00 a       460     0    19     1    10
  8.2465694993811411E-01 a       461     0    19     1    11
 -7.1571957949464748E-01 a       462     0    19     1    12
 -3.3271149368693371E+00 a       463     0    19     1    13
  1.7638268609006615E+00 a       464     0    19     1    14
  4.3720753267556702E+00 a       465     0    19     1    15
  1.4201912944132864E+00 a       466     0    19     1    16
 -6.6559761633186501E+00 a       467     0    19     1    17
 -2.1915792736906479E+00 a       468     0    19     1    18
 -2.1017686787209544E+00 a       469     0    19     1    19
 -4.9409637982795784E+00 a       470     0    19     1    20
 -3.4740277215992728E+00 a       471     0    19     1    21
 -1.1872159656711287E+00 a       472     0    19     1    22
 -1.4708554237533924E+00 a       473     0    19     1    23
 -1.4327641660236894E+00 a       474     0    19     1    24
 -1.8249144974253091E+00 a       475     0    19     1    25
 -3.9005436684764021E+00 a       476     0    20     1     1
  7.2567065071145154E-01 a       477     0    20     1     2
 -8.7861895183394285E+00 a       478     0    20     1     3
 -4.4629836181632649E+00 a       479     0    20     1     4
 -3.5808362501654628E-01 a       480     0    20     1     5
  2.9606748789960485E-01 a       481     0    20     1     6
  4.1257434316735768E+00 a       482     0    20     1     7
  1.1672713398974941E+00 a       483     0    20     1     8
 -1.4552097489616400E+00 a       484     0    20     1     9
  6.2794064798888893E-01 a       485     0    20     1    10
 -3.0687399024549031E+00 a       486     0    20     1    11
 -3.1521095450109571E+00 a       487     0    20     1    12
  3.0117519931942951E+00 a       488     0    20     1    13
 -2.9034745695240369E+00 a       489     0    20     1    14
 -1.3844573077293088E+00 a       490     0    20     1    15
 -2.2271988798306555E+00 a       491     0    20     1    16
  1.1274560372612733E+01 a       492     0    20     1    17
 -2.1137446911455169E+00 a       493     0    20     1    18
  5.1557014322781880E+00 a       494     0    20     1    19
  7.7475713277468525E+00 a       495     0    20     1    20
  2.5420995738715249E+00 a       496     0    20     1    21
  2.1158790256965769E+00 a       497     0    20     1    22
  1.2596447304413696E+00 a       498     0    20     1    23
 -8.9202064851828633E-01 a       499     0    20     1    24
  2.2223736027521555E+00 a       500     0    20     1    25
 -3.1539197260142240E+00 a       501     0    21     1     1
  2.5769420815480966E+00 a       502     0    21     1     2
 -6.3903677774600496E+00 a       503     0    21     1     3
  2.3494662714250776E+00 a       504     0    21     1     4
 -2.6537569323864252E-01 a       505     0    21     1     5
  5.4107269842225236E-01 a       506     0    21     1     6
  2.6556258739842451E+00 a       507     0    21     1     7
  9.7295142242334576E-01 a       508     0    21     1     8
 -1.8644922710260132E+00 a       509     0    21     1     9
  2.3707434335881294E+00 a       510     0    21     1    10
 -4.8272594099840278E+00 a       511     0    21     1    11
 -4.1015669671316637E+00 a       512     0    21     1    12
  2.8087604719035614E-01 a       513     0    21     1    13
 -2.0244654083803666E+00 a       514     0    21     1    14
 -5.2307969750683423E+00 a       515     0    21     1    15
 -2.3999169112469545E+00 a       516     0    21     1    16
  1.1516721182236473E+01 a       517     0    21     1    17
 -1.9136088558225721E+00 a       518     0    21     1    18
  3.2037972418608280E+00 a       519     0    21     1    19
  9.3843336677175593E+00 a       520     0    21     1    20
  3.9688639016368046E+00 a       521     0    21     1    21
  9.7502449923257711E-02 a       522     0    21     1    22
  4.9130034245079903E+00 a       523     0    21     1    23
  3.0830414879945782E+00 a       524     0    21     1    24
  1.5116216915270380E+00 a       525     0    21     1    25
  5.3205824816088554E-01 a       526     0    22     1     1
 -3.4790211954123711E+00 a       527     0    22     1     2
  1.6988896296717688E+00 a       528     0    22     1     3
  1.6154138330137293E+00 a       529     0    22     1     4
  1.6113256077556879E+00 a       530     0    22     1     5
  1.3229318661900560E-01 a       531     0    22     1     6
  4.1091518009244465E+00 a       532     0    22     1     7
 -4.2590720358840848E+00 a       533     0    22     1     8
 -1.9613281401252733E+00 a       534     0    22     1     9
 -6.1145154717509165E-01 a       535     0    22     1    10
  1.0260562970691738E+00 a       536     0    22     1    11
  7.8150800254860338E+00 a       537     0    22     1    12
 -1.5228267690409978E+00 a       538     0    22     1    13
  3.8795065235826822E+00 a       539     0    22     1    14
 -2.2113241181302206E+00 a       540     0    22     1    15
  5.7217656341851797E-01 a       541     0    22     1    16
 -4.8384000969202425E+00 a       542     0    22     1    17
  3.4572572810360342E+00 a       543     0    22     1    18
 -1.0533122513243052E+00 a       544     0    22     1    19
 -8.8573247816231557E+00 a       545     0    22     1    20
 -2.9715785496951725E+00 a       546     0    22     1    21
 -3.3845438713509943E+00 a       547     0    22     1    22
 -7.3422367213660422E-01 a       548     0    22     1    23
 -3.8479950039104112E+00 a       549     0    22     1    24
 -1.0837732978216017E+00 a       550     0    22     1    25
 -3.4996065253063628E+00 a       551     0    23     1     1
  4.2503087391449226E+00 a       552     0    23     1     2
 -7.5499597891289909E+00 a       553     0    23     1     3
 -2.2892314353804686E+00 a       554     0    23     1     4
 -2.9961541618704128E+00 a       555     0    23     1     5
 -1.1667487622302757E+00 a       556     0    23     1     6
  8.6859710870878200E+00 a       557     0    23     1     7
  1.7623746774641398E+00 a       558     0    23     1     8
 -4.1242020796015222E+00 a       559     0    23     1     9
  1.2438856079997311E+00 a       560     0    23     1    10
 -9.4783137626845937E-01 a       561     0    23     1    11
  3.1844792719276377E-01 a       562     0    23     1    12
  4.9902570931657761E+00 a       563     0    23     1    13
 -2.1912830519502031E+00 a       564     0    23     1    14
 -7.0769169197218922E+00 a       565     0    23     1    15
 -2.1030390245903856E+00 a       566     0    23     1    16
  9.1044824457635336E+00 a       567     0    23     1    17
  1.3976201632744851E+00 a       568     0    23     1    18
  2.9198540855265191E+00 a       569     0    23     1    19
  6.7558174034875274E+00 a       570     0    23     1    20
  6.8648396895872255E+00 a       571     0    23     1    21
  2.5729331051279187E+00 a       572     0    23     1    22
  1.3642473465814229E+00 a       573     0    23     1    23
  4.4546721613254876E+00 a       574     0    23     1    24
  1.2464582802566320E+00 a       575     0    23     1    25
  6.1373890516288485E+00 a       576     0    24     1     1
 -1.0725552565634151E+00 a       577     0    24     1     2
  1.8206830510129794E+01 a       578     0    24     1     3
  2.2310251234768402E-01 a       579     0    24     1     4
  2.7599405021078417E-02 a       580     0    24     1     5
 -9.4160374143292846E-01 a       581     0    24     1     6
 -5.3762857362254666E+00 a       582     0    24     1     7
 -1.4689540805373028E-02 a       583     0    24     1     8
  2.9899540917176792E+00 a       584     0    24     1     9
  6.9774452700554725E+00 a       585     0    24     1    10
  3.8708964611855685E+00 a       586     0    24     1    11
 -3.6174624053317345E-01 a       587     0    24     1    12
 -4.5898793417725834E+00 a       588     0    24     1    13
  5.4732919930933068E+00 a       589     0    24     1    14
 -2.1530051799600738E-01 a       590     0    24     1    15
 -1.3934243905361712E-01 a       591     0    24     1    16
 -2.1282590118043920E+01 a       592     0    24     1    17
  5.0414505588853880E+00 a       593     0    24     1    18
 -5.7519232001384806E+00 a       594     0    24     1    19
 -1.0006643673860701E+01 a       595     0    24     1    20
 -3.2979365988562610E+00 a       596     0    24     1    21
 -2.9745035151531463E+00 a       597     0    24     1    22
  1.1877682296724428E+00 a       598     0    24     1    23
  9.4902701259078115E-01 a       599     0    24     1    24
 -5.9424736894281232E+00 a       600     0    24     1    25
  6.5999059801225615E+00 a       601     0    25     1     1
 -7.2184830299230338E+00 a       602     0    25     1     2
  8.7008537737189258E+00 a       603     0    25     1     3
  3.0644104923493094E+00 a       604     0    25     1     4
  2.7894730959938423E+00 a       605     0    25     1     5
 -1.2798600038021914E+00 a       606     0    25     1     6
 -7.6954589078115241E+00 a       607     0    25     1     7
  9.9137501122399929E-01 a       608     0    25     1     8
  7.5090700510779518E-01 a       609     0    25     1     9
 -1.5770812656035567E+00 a       610     0    25     1    10
  5.5320293094986930E+00 a       611     0    25     1    11
  1.0015597357407195E+01 a       612     0    25     1    12
 -1.5186512954121929E+00 a       613     0    25     1    13
  5.1562086156016562E+00 a       614     0    25     1    14
  5.4479663127294593E+00 a       615     0    25     1    15
  2.1343699301312160E+00 a       616     0    25     1    16
 -1.7303964208614357E+01 a       617     0    25     1    17
  3.1402181118699315E+00 a       618     0    25     1    18
 -3.0369839634387548E+00 a       619     0    25     1    19
 -1.1484286853331803E+01 a       620     0    25     1    20
 -8.4158988077273271E+00 a       621     0    25     1    21
 -1.4379318386013789E+00 a       622     0    25     1    22
  1.1548257491016260E-01 a       623     0    25     1    23
 -1.0039164223903779E+01 a       624     0    25     1    24
 -3.6320008616898738E+00 a       625     0    25     1    25
 -1.2406553826851914E+00 a       626     0    26     1     1
 -8.8864785909524735E-01 a       627     0    26     1     2
  6.2410918104909940E-01 a       628     0    26     1     3
  4.5566749214040554E+00 a       629     0    26     1     4
 -4.2364547323066976E-01 a       630     0    26     1     5
  7.7069303468831596E-01 a       631     0    26     1     6
 -3.6427236935112721E+00 a       632     0    26     1     7
  3.9975000773444633E+00 a       633     0    26     1     8
  3.1033600142989353E+00 a       634     0    26     1     9
  3.2303014015419103E+00 a       635     0    26     1    10
 -1.4039857316352786E+00 a       636     0    26     1    11
 -5.9025798208799274E-01 a       637     0    26     1    12
  1.5704330507299342E+00 a       638     0    26     1    13
 -7.6105119393436715E-01 a       639     0    26     1    14
  2.6995517700390601E+00 a       640     0    26     1    15
 -1.2904896293964655E-02 a       641     0    26     1    16
  3.9336568473261515E+00 a       642     0    26     1    17
 -1.2797650323742851E+00 a       643     0    26     1    18
  4.4153068825478098E-01 a       644     0    26     1    19
  4.9270947975955846E+00 a       645     0    26     1    20
 -1.2347066383244858E+00 a       646     0    26     1    21
  1.0309441682980540E+00 a       647     0    26     1    22
 -1.5691061294967432E+00 a       648     0    26     1    23
 -2.1554413909085843E+00 a       649     0    26     1    24
 -1.2096766693198939E+00 a       650     0    26     1    25
  5.9810698697073219E+00 a       651     0    27     1     1
 -4.1763670078346022E+00 a       652     0    27     1     2
  8.2583584657108258E+00 a       653     0    27     1     3
  2.7905144954192549E+00 a       654     0    27     1     4
  3.3050449206629402E+00 a       655     0    27     1     5
  1.4458857922723181E+00 a       656     0    27     1     6
 -6.3695336090374264E+00 a       657     0    27     1     7
 -1.5654350580912009E+00 a       658     0    27     1     8
  1.5109585984828715E+00 a       659     0    27     1     9
 -4.3024432607553900E+00 a       660     0    27     1    10
  1.8429353858806972E+00 a       661     0    27     1    11
 -2.2885142548721720E+00 a       662     0    27     1    12
 -2.9842084115319456E+00 a       663     0    27     1    13
  3.2408800120345993E+00 a       664     0    27     1    14
  5.3517552165350235E+00 a       665     0    27     1    15
  2.0902174311269879E+00 a       666     0    27     1    16
 -5.7894105631329014E+00 a       667     0    27     1    17
  4.5650728798156415E-01 a       668     0    27     1    18
 -4.2954573331964324E-01 a       669     0    27     1    19
 -3.1380935146237858E+00 a       670     0    27     1    20
 -6.3613978246367706E+00 a       671     0    27     1    21
 -5.4764491675356872E+00 a       672     0    27     1    22
 -1.8637895334468435E+00 a       673     0    27     1    23
 -4.5310134288915993E+00 a       674     0    27     1    24
  2.4161153825276531E+00 a       675     0    27     1    25
 -2.0768250195294367E+00 a       676     0    28     1     1
  3.9461195079075724E+00 a       677     0    28     1     2
 -1.3217936327971673E+01 a       678     0    28     1     3
  4.1306005728958013E+00 a       679     0    28     1     4
  4.0850256742228863E+00 a       680     0    28     1     5
  4.4712343840978286E-01 a       681     0    28     1     6
  3.7563646846326098E+00 a       682     0    28     1     7
  4.1682397644749308E-01 a       683     0    28     1     8
  4.0567031319482855E-01 a       684     0    28     1     9
 -4.6188563537175451E+00 a       685     0    28     1    10
 -3.9087490518718817E+00 a       686     0    28     1    11
  3.2238730765917500E+00 a       687     0    28     1    12
  4.7084291465152752E+00 a       688     0    28     1    13
 -4.5520625948336244E+00 a       689     0    28     1    14
  6.1455220358221005E+00 a       690     0    28     1    15
  5.6884421094413353E+00 a       691     0    28     1    16
  1.8333628491343802E+01 a       692     0    28     1    17
 -3.2774961201029091E+00 a       693     0    28     1    18
  2.1448926328963478E+00 a       694     0    28     1    19
  3.6415193947135767E+00 a       695     0    28     1    20
  1.6662522281684962E+00 a       696     0    28     1    21
 -8.1400302715448702E-01 a       697     0    28     1    22
  9.2006879387000640E-01 a       698     0    28     1    23
 -2.8130055970199952E+00 a       699     0    28     1    24
  4.1772693897733753E+00 a       700     0    28     1    25
 -6.9484949874764568E-01 a       701     0    29     1     1
  8.6399420105246456E+00 a       702     0    29     1     2
 -4.6021593306565789E+00 a       703     0    29     1     3
 -5.4637340660875910E+00 a       704     0    29     1     4
 -1.5798781912836817E+00 a       705     0    29     1     5
  9.9629009553091907E-01 a       706     0    29     1     6
  8.1000110107537466E+00 a       707     0    29     1     7
 -2.2991491414794072E+00 a       708     0    29     1     8
  1.9877523424932353E+00 a       709     0    29     1     9
  8.8933483954728687E-01 a       710     0    29     1    10
 -2.2939676809572838E+00 a       711     0    29     1    11
 -2.5817392126885910E+00 a       712     0    29     1    12
  2.7752395055753767E+00 a       713     0    29     1    13
 -4.5975032824944391E+00 a       714     0    29     1    14
  7.8246785865207225E-01 a       715     0    29     1    15
  3.3963051125885659E+00 a       716     0    29     1    16
  7.6539601339746408E+00 a       717     0    29     1    17
  1.5770174345252468E+00 a       718     0    29     1    18
 -2.4640747536023659E+00 a       719     0    29     1    19
 -1.3687981908505635E+00 a       720     0    29     1    20
  4.4917993619615686E+00 a       721     0    29     1    21
  3.2460728237670349E+00 a       722     0    29     1    22
 -7.6522317803429303E+00 a       723     0    29     1    23
  7.7839870710073722E+00 a       724     0    29     1    24
  2.0474089099708634E+00 a       725     0    29     1    25
 -1.1836674080732827E+00 a       726     0    30     1     1
 -2.1977898090997530E-01 a       727     0    30     1     2
 -1.5545946818167735E+00 a       728     0    30     1     3
  1.8363872317403687E+00 a       729     0    30     1     4
  8.1907422760169546E-01 a       730     0    30     1     5
  2.0525876104748266E+00 a       731     0    30     1     6
 -3.7169563101516516E+00 a       732     0    30     1     7
  8.6152010049648520E-01 a       733     0    30     1     8
  4.5251742933399157E+00 a       734     0    30     1     9
  1.5176845769940381E+00 a       735     0    30     1    10
 -1.2785815850704658E+00 a       736     0    30     1    11
 -2.8029319013584986E+00 a       737     0    30     1    12
  2.9773477182670005E+00 a       738     0    30     1    13
  7.8494494349895150E-01 a       739     0    30     1    14
  1.0589681104509620E-01 a       740     0    30     1    15
 -2.9503503450617035E+00 a       741     0    30     1    16
 -1.5013879748449921E+00 a       742     0    30     1    17
  7.8682330470247985E-01 a       743     0    30     1    18
 -6.8444103370736042E-01 a       744     0    30     1    19
  5.4669940795277618E+00 a       745     0    30     1    20
  1.6683469049878135E+00 a       746     0    30     1    21
  2.5775364956321152E+00 a       747     0    30     1    22
 -1.8120965429905672E-01 a       748     0    30     1    23
  8.9782282658141899E-01 a       749     0    30     1    24
 -1.1468056590896267E+00 a       750     0    30     1    25
 -6.1286982515098511E+00 a       751     0    31     1     1
  3.6331113879210997E+00 a       752     0    31     1     2
 -4.6910627027522844E+00 a       753     0    31     1     3
 -1.2248978827705859E-02 a       754     0    31     1     4
 -2.2918243453388318E+00 a       755     0    31     1     5
 -1.6844520274291699E+00 a       756     0    31     1     6
  4.2595326883917366E+00 a       757     0    31     1     7
  1.7591908383357180E+00 a       758     0    31     1     8
 -7.9647442898063558E-01 a       759     0    31     1     9
  2.8533581352977557E+00 a       760     0    31     1    10
 -1.7687090728328398E+00 a       761     0    31     1    11
  6.0426310657870115E+00 a       762     0    31     1    12
 -2.3107204538539729E-02 a       763     0    31     1    13
 -3.3148975398145302E+00 a       764     0    31     1    14
 -5.3804332949307234E+00 a       765     0    31     1    15
 -4.0959343455586988E-01 a       766     0    31     1    16
  3.3266038650132096E-01 a       767     0    31     1    17
 -3.4131128669786071E-01 a       768     0    31     1    18
 -9.7220695462487583E-01 a       769     0    31     1    19
  2.3918549570096772E+00 a       770     0    31     1    20
  2.6551992647000198E+00 a       771     0    31     1    21
  3.7464980866911062E+00 a       772     0    31     1    22
 -9.6672175593160059E-01 a       773     0    31     1    23
  6.1066545140088522E+00 a       774     0    31     1    24
 -1.2973153426423827E+00 a       775     0    31     1    25
 -2.3498798373085217E+00 a       776     0    32     1     1
  2.7910449359005183E+00 a       777     0    32     1     2
 -2.9242546774789711E+00 a       778     0    32     1     3
  7.5603859048708433E+00 a       779     0    32     1     4
 -8.3312819748919098E-01 a       780     0    32     1     5
 -2.8139382979438179E+00 a       781     0    32     1     6
  9.9300423318840336E-01 a       782     0    32     1     7
 -2.0320583950590030E+00 a       783     0    32     1     8
 -4.4295371045593432E+00 a       784     0    32     1     9
 -4.3307848277718417E+00 a       785     0    32     1    10
  2.8540271947448952E+00 a       786     0    32     1    11
  1.1321876981996284E+00 a       787     0    32     1    12
  4.2199293024832691E+00 a       788     0    32     1    13
  1.5663853484580761E+00 a       789     0    32     1    14
 -8.9014533239563427E+00 a       790     0    32     1    15
 -6.4900811682573325E+00 a       791     0    32     1    16
 -1.0379923327440657E+01 a       792     0    32     1    17
  2.0533878899222526E+00 a       793     0    32     1    18
 -9.8373290744717901E-01 a       794     0    32     1    19
 -9.3053365345484484E-01 a       795     0    32     1    20
 -5.6056492360693122E-01 a       796     0    32     1    21
  5.7669285417095102E+00 a       797     0    32     1    22
 -4.0302368531635775E+00 a       798     0    32     1    23
  3.6817723752395346E+00 a       799     0    32     1    24
 -5.2962509248938316E-01 a       800     0    32     1    25
 -2.1079144575017317E+00 a       801     0    33     1     1
  4.6791040050583038E-01 a       802     0    33     1     2
 -2.9669204108992036E+00 a       803     0    33     1     3
 -2.3435603289888460E+00 a       804     0    33     1     4
 -2.0030772075993903E+00 a       805     0    33     1     5
 -1.8141750471945175E+00 a       806     0    33     1     6
  2.4368086304605296E+00 a       807     0    33     1     7
 -2.4495760104336184E+00 a       808     0    33     1     8
  2.4025570165152724E-01 a       809     0    33     1     9
  3.4872602006554165E-01 a       810     0    33     1    10
  1.5286920306449543E+00 a       811     0    33     1    11
 -5.8883951755245647E+00 a       812     0    33     1    12
 -4.0199526759532027E+00 a       813     0    33     1    13
 -2.4316696030102145E+00 a       814     0    33     1    14
 -2.0867043368060156E+00 a       815     0    33     1    15
 -2.4409406322789118E+00 a       816     0    33     1    16
 -8.6127636445696065E-01 a       817     0    33     1    17
  1.7726779672896020E+00 a       818     0    33     1    18
  3.5780410905801938E+00 a       819     0    33     1    19
  7.6562128043578541E+00 a       820     0    33     1    20
  2.4101773789065439E+00 a       821     0    33     1    21
  3.0191327141534470E+00 a       822     0    33     1    22
 -1.1536765789801171E+00 a       823     0    33     1    23
  6.4424769512952933E+00 a       824     0    33     1    24
 -1.2046762348533804E+00 a       825     0    33     1    25
  2.1716796937274228E+00 a       826     0    34     1     1
  4.3087048551829010E-01 a       827     0    34     1     2
  6.9727330653564989E-01 a       828     0    34     1     3
  2.2329649049738771E+00 a       829     0    34     1     4
  1.4489673738331164E+00 a       830     0    34     1     5
  4.2703384195423205E-01 a       831     0    34     1     6
  1.8793682509636236E-01 a       832     0    34     1     7
  2.0589694851881819E+00 a       833     0    34     1     8
 -1.1179164668110482E+00 a       834     0    34     1     9
  9.6434655036598571E-01 a       835     0    34     1    10
  8.8551081490863048E-02 a       836     0    34     1    11
 -9.6665854026536935E-01 a       837     0    34     1    12
 -7.6100831300275307E-01 a       838     0    34     1    13
  2.1444706634291584E+00 a       839     0    34     1    14
  1.6608692437770600E+00 a       840     0    34     1    15
  4.2450733977871907E-01 a       841     0    34     1    16
 -7.5815169627886991E-01 a       842     0    34     1    17
  6.2532099982212408E-01 a       843     0    34     1    18
 -2.2661281259107153E+00 a       844     0    34     1    19
  8.0662348352346758E-01 a       845     0    34     1    20
 -5.4059068053709747E-01 a       846     0    34     1    21
 -1.7266754378090214E+00 a       847     0    34     1    22
 -1.1149153442285056E+00 a       848     0    34     1    23
 -5.6506713655731078E-01 a       849     0    34     1    24
 -5.5583461757827757E-01 a       850     0    34     1    25
 -1.5099877107810238E+00 a       851     0    35     1     1
  4.4930169274022740E+00 a       852     0    35     1     2
  7.7906439097471223E+00 a       853     0    35     1     3
  1.4221814841760432E+00 a       854     0    35     1     4
 -2.0431807241003361E+00 a       855     0    35     1     5
  7.2851788097379688E-01 a       856     0    35     1     6
  7.2477428586223946E-01 a       857     0    35     1     7
  2.5210382871991963E+00 a       858     0    35     1     8
  3.6426357016035502E+00 a       859     0    35     1     9
 -3.5172232810234814E+00 a       860     0    35     1    10
 -5.9999429142340344E-01 a       861     0    35     1    11
  3.9936874374327780E+00 a       862     0    35     1    12
  1.6482364440018912E-01 a       863     0    35     1    13
  4.2626835542931039E+00 a       864     0    35     1    14
  2.7888271268847977E+00 a       865     0    35     1    15
 -4.3297692500227827E+00 a       866     0    35     1    16
 -1.8901533738114522E+00 a       867     0    35     1    17
 -6.5860041582917705E-01 a       868     0    35     1    18
 -3.1108508623807070E+00 a       869     0    35     1    19
 -2.6245914960182937E+00 a       870     0    35     1    20
  3.8818471235731620E+00 a       871     0    35     1    21
  7.8724143369988994E-02 a       872     0    35     1    22
  1.0684104523375364E+00 a       873     0    35     1    23
  4.6346319426030274E+00 a       874     0    35     1    24
 -2.7321868244672265E+00 a       875     0    35     1    25
 -4.7787371048040335E+00 a       876     0    36     1     1
  9.8897893528030734E-01 a       877     0    36     1     2
  1.4223822338785457E+01 a       878     0    36     1     3
  3.1351214147578053E+00 a       879     0    36     1     4
  4.7761556802742646E+00 a       880     0    36     1     5
  4.1197224822998662E+00 a       881     0    36     1     6
 -3.8076239644479890E+00 a       882     0    36     1     7
  7.4053094959383783E+00 a       883     0    36     1     8
 -5.6378271859701723E+00 a       884     0    36     1     9
 -3.9979156689817241E+00 a       885     0    36     1    10
 -3.8186167983783394E+00 a       886     0    36     1    11
  3.8512106203510008E+00 a       887     0    36     1    12
  2.1126251068834274E+00 a       888     0    36     1    13
  3.1903353031831441E+00 a       889     0    36     1    14
  1.5051021778971923E+00 a       890     0    36     1    15
 -7.1281923055133882E+00 a       891     0    36     1    16
 -1.3010751403513250E+00 a       892     0    36     1    17
 -2.7052567133508512E+00 a       893     0    36     1    18
  3.9322280819550290E-02 a       894     0    36     1    19
 -2.2360737944664053E+00 a       895     0    36     1    20
  2.0516874098745843E+00 a       896     0    36     1    21
  2.2122930748006892E-01 a       897     0    36     1    22
 -2.5601443921801761E+00 a       898     0    36     1    23
  5.0635895952770875E+00 a       899     0    36     1    24
 -1.5244819691890847E+00 a       900     0    36     1    25
 -2.3815305629872032E+00 a       901     0    37     1     1
 -5.3759627984899572E-01 a       902     0    37     1     2
 -6.8190477638788688E-02 a       903     0    37     1     3
 -4.6195003383427444E+00 a       904     0    37     1     4
 -3.2617064539405387E+00 a       905     0    37     1     5
  8.7979760553163322E-01 a       906     0    37     1     6
  6.0559769978616385E-01 a       907     0    37     1     7
 -2.8012898728937587E+00 a       908     0    37     1     8
  4.4237860082190172E+00 a       909     0    37     1     9
  7.3644732000815699E-02 a       910     0    37     1    10
 -5.9004847186964957E-02 a       911     0    37     1    11
  4.8186505501008542E-01 a       912     0    37     1    12
 -4.0786243064012323E-01 a       913     0    37     1    13
 -4.6329909611124629E+00 a       914     0    37     1    14
 -4.4498635612147970E+00 a       915     0    37     1    15
 -1.7281693855455615E+00 a       916     0    37     1    16
  2.7029891752746313E+00 a       917     0    37     1    17
  3.7944468083936345E-01 a       918     0    37     1    18
  1.7333263151559861E+00 a       919     0    37     1    19
 -2.8110000571183709E+00 a       920     0    37     1    20
  1.6062287616203563E+00 a       921     0    37     1    21
  2.4253715625398423E-01 a       922     0    37     1    22
 -1.6438111990524246E-01 a       923     0    37     1    23
  3.6739539620740107E+00 a       924     0    37     1    24
  8.1663263952435761E-01 a       925     0    37     1    25
  2.4674421970073523E+00 a       926     0    38     1     1
 -2.2965522893009584E+00 a       927     0    38     1     2
 -5.2805168621932692E+00 a       928     0    38     1     3
 -1.4740832128405466E+00 a       929     0    38     1     4
 -2.4623622733355837E+00 a       930     0    38     1     5
 -1.1026942764579224E+00 a       931     0    38     1     6
  2.1800498643517847E+00 a       932     0    38     1     7
 -2.5631797253429487E+00 a       933     0    38     1     8
  3.5557614122491579E+00 a       934     0    38     1     9
  3.4178425060794182E+00 a       935     0    38     1    10
  1.4852237680362694E+00 a       936     0    38     1    11
 -1.6990933005238655E+00 a       937     0    38     1    12
 -2.5392956398462259E+00 a       938     0    38     1    13
 -3.3713838539895763E-01 a       939     0    38     1    14
  1.7277576411511806E+00 a       940     0    38     1    15
  2.6271908276446818E+00 a       941     0    38     1    16
 -6.8623556905352847E-04 a       942     0    38     1    17
 -4.3431808855020387E-01 a       943     0    38     1    18
 -5.4149793159699844E-01 a       944     0    38     1    19
  1.0336467743239011E+00 a       945     0    38     1    20
  2.3133177763370418E+00 a       946     0    38     1    21
 -4.8989825189673802E-01 a       947     0    38     1    22
  2.5040564824262170E+00 a       948     0    38     1    23
 -1.8201356003833388E-01 a       949     0    38     1    24
 -1.3902744417963171E+00 a       950     0    38     1    25
  2.8170913165444578E+00 a       951     0    39     1     1
  6.1825397093430148E+00 a       952     0    39     1     2
  5.1137317725815841E+00 a       953     0    39     1     3
  5.3639920227407947E+00 a       954     0    39     1     4
 -2.7811310190478831E+00 a       955     0    39     1     5
  5.5204968115361963E-01 a       956     0    39     1     6
  2.7313395047147115E+00 a       957     0    39     1     7
  5.4216053883533872E+00 a       958     0    39     1     8
 -5.1283432880303961E+00 a       959     0    39     1     9
 -6.2802897455358864E-01 a       960     0    39     1    10
  4.7742657361882291E-03 a       961     0    39     1    11
 -2.3774884770251106E+00 a       962     0    39     1    12
 -3.6831353819002102E+00 a       963     0    39     1    13
  7.4063409371987543E+00 a       964     0    39     1    14
  6.6092285289530928E+00 a       965     0    39     1    15
  1.1997195005968224E+00 a       966     0    39     1    16
 -3.0751159996771010E-01 a       967     0    39     1    17
  5.4493078601673233E+00 a       968     0    39     1    18
 -2.6597428632601328E+00 a       969     0    39     1    19
  1.0706800699288432E+00 a       970     0    39     1    20
 -6.3174401374829214E+00 a       971     0    39     1    21
 -2.1644264818208092E+00 a       972     0    39     1    22
 -1.4980863237719666E+00 a       973     0    39     1    23
 -4.0050577692692517E+00 a       974     0    39     1    24
  2.2371020265704966E+00 a       975     0    39     1    25
  8.7374149128935952E-01 a       976     0    40     1     1
 -1.2715131726739956E-01 a       977     0    40     1     2
  2.3527250410856143E-01 a       978     0    40     1     3
  1.1947199748580917E+00 a       979     0    40     1     4
  5.9483557566632095E-01 a       980     0    40     1     5
 -2.6614785423060585E-02 a       981     0    40     1     6
 -4.2446741250455566E-01 a       982     0    40     1     7
  1.5027684157417612E-01 a       983     0    40     1     8
  8.7595170071754813E-01 a       984     0    40     1     9
  5.6421101882059699E-01 a       985     0    40     1    10
  3.3544749237149174E-01 a       986     0    40     1    11
  1.3921342838552115E+00 a       987     0    40     1    12
 -1.2946561365935652E-01 a       988     0    40     1    13
 -1.0434359733721348E+00 a       989     0    40     1    14
  4.1652593148914668E-01 a       990     0    40     1    15
 -6.1414758410326731E-01 a       991     0    40     1    16
  9.3978053847225310E-02 a       992     0    40     1    17
  6.3960778475887570E-01 a       993     0    40     1    18
 -4.3888828918309608E-01 a       994     0    40     1    19
  7.4180276837797976E-01 a       995     0    40     1    20
  4.6861018511165631E-01 a       996     0    40     1    21
 -1.2911754568857281E+00 a       997     0    40     1    22
 -6.0133024679053926E-01 a       998     0    40     1    23
 -1.6549977192665821E+00 a       999     0    40     1    24
  3.3456345459552111E-01 a      1000     0    40     1    25
  8.5733609926974697E-01 a      1001     0    41     1     1
 -3.1383488835018925E-01 a      1002     0    41     1     2
  2.3690702822674298E-01 a      1003     0    41     1     3
  1.2730273146717299E+00 a      1004     0    41     1     4
  5.3801548696470125E-01 a      1005     0    41     1     5
 -7.6627430821793019E-02 a      1006     0    41     1     6
 -5.5273715871803453E-01 a      1007     0    41     1     7
  3.0564246779981108E-01 a      1008     0    41     1     8
  1.0324535572038611E+00 a      1009     0    41     1     9
  4.6857964557001985E-01 a      1010     0    41     1    10
  4.5544652172451683E-01 a      1011     0    41     1    11
  1.2272210872823424E+00 a      1012     0    41     1    12
  7.4415424091163127E-02 a      1013     0    41     1    13
 -1.0151060555936040E+00 a      1014     0    41     1    14
  3.5617046893375659E-01 a      1015     0    41     1    15
 -7.8473318807436609E-01 a      1016     0    41     1    16
  1.7569592103200238E-01 a      1017     0    41     1    17
  5.5751117778277315E-01 a      1018     0    41     1    18
 -4.8985024245650294E-01 a      1019     0    41     1    19
  6.0819716381223909E-01 a      1020     0    41     1    20
  4.5521298376772523E-01 a      1021     0    41     1    21
 -1.4355583106443004E+00 a      1022     0    41     1    22
 -6.8908507399054475E-01 a      1023     0    41     1    23
 -1.4608205503115201E+00 a      1024     0    41     1    24
  1.6821323914396635E-01 a      1025     0    41     1    25
 -1.3907128440750838E+00 a      1026     0    42     1     1
  3.8327116732589889E-01 a      1027     0    42     1     2
 -1.2551842054442699E+00 a      1028     0    42     1     3
 -4.7138468321119253E+00 a      1029     0    42     1     4
 -8.2049888093552270E-01 a      1030     0    42     1     5
 -2.7321257144081947E+00 a      1031     0    42     1     6
 -6.8386937898442557E-01 a      1032     0    42     1     7
  1.1228585682592913E+00 a      1033     0    42     1     8
  4.5322974173293851E-01 a      1034     0    42     1     9
 -4.1515276377680910E-01 a      1035     0    42     1    10
 -1.8060467612736273E+00 a      1036     0    42     1    11
 -1.4845989170102760E+00 a      1037     0    42     1    12
  1.4414822393011211E+00 a      1038     0    42     1    13
 -3.3870041360670439E-01 a      1039     0    42     1    14
  2.3402726263997584E+00 a      1040     0    42     1    15
  1.1503970018383344E-01 a      1041     0    42     1    16
  1.4234696670475505E-01 a      1042     0    42     1    17
  2.5663453400268055E+00 a      1043     0    42     1    18
 -1.5691894198400951E+00 a      1044     0    42     1    19
 -1.6990223426400690E+00 a      1045     0    42     1    20
  8.9755559765699311E-01 a      1046     0    42     1    21
  2.8266262525400196E+00 a      1047     0    42     1    22
  2.1383497269372937E+00 a      1048     0    42     1    23
  4.9889677087867232E+00 a      1049     0    42     1    24
 -4.0193995822487821E-01 a      1050     0    42     1    25
 -1.6566204179304977E+00 a      1051     0    43     1     1
  2.6914069752536507E-01 a      1052     0    43     1     2
 -1.3571560850550777E+00 a      1053     0    43     1     3
 -4.9580180183238411E+00 a      1054     0    43     1     4
 -8.8679858697524072E-01 a      1055     0    43     1     5
 -2.8410953393489904E+00 a      1056     0    43     1     6
 -8.5915279252245624E-01 a      1057     0    43     1     7
  1.2450736896011929E+00 a      1058     0    43     1     8
  4.3043144754020901E-01 a      1059     0    43     1     9
 -5.9391566507886395E-01 a      1060     0    43     1    10
 -1.8306424230963811E+00 a      1061     0    43     1    11
 -1.7484392052913185E+00 a      1062     0    43     1    12
  1.4309373351336971E+00 a      1063     0    43     1    13
 -2.0134935759194425E-01 a      1064     0    43     1    14
  2.1041059634965626E+00 a      1065     0    43     1    15
  2.5153774077916136E-01 a      1066     0    43     1    16
 -1.3793265601370819E-01 a      1067     0    43     1    17
  2.4933484906788133E+00 a      1068     0    43     1    18
 -1.5713349087216746E+00 a      1069     0    43     1    19
 -1.5569691968974317E+00 a      1070     0    43     1    20
  8.6739562615821131E-01 a      1071     0    43     1    21
  2.7532759492098862E+00 a      1072     0    43     1    22
  2.2903107786247952E+00 a      1073     0    43     1    23
  4.9879368811210796E+00 a      1074     0    43     1    24
 -2.3530940101194420E-01 a      1075     0    43     1    25
 -4.9324803923093716E+00 a      1076     0    44     1     1
  1.1860100374027680E+00 a      1077     0    44     1     2
 -1.5971210330663077E+00 a      1078     0    44     1     3
  1.9335268658217679E+00 a      1079     0    44     1     4
 -4.4196083866866859E-01 a      1080     0    44     1     5
 -4.5016212359877744E-01 a      1081     0    44     1     6
 -2.4999343667693474E+00 a      1082     0    44     1     7
  4.8172233468121273E-01 a      1083     0    44     1     8
  1.9652266148428725E+00 a      1084     0    44     1     9
  5.4319034317368779E-02 a      1085     0    44     1    10
  1.0416174073909736E+00 a      1086     0    44     1    11
 -1.0581801463077514E+00 a      1087     0    44     1    12
 -2.4765908315859080E+00 a      1088     0    44     1    13
 -2.7609843003922072E+00 a      1089     0    44     1    14
 -9.6465582719743648E-01 a      1090     0    44     1    15
  1.4641961760002895E+00 a      1091     0    44     1    16
  5.5698860708435416E-01 a      1092     0    44     1    17
 -4.1397199798074107E+00 a      1093     0    44     1    18
  1.4177366132183860E+00 a      1094     0    44     1    19
  3.8892202175775892E-01 a      1095     0    44     1    20
  2.1897548445873299E-01 a      1096     0    44     1    21
  3.0093760478357073E-01 a      1097     0    44     1    22
 -5.5589640131686631E+00 a      1098     0    44     1    23
  2.8821771505093738E+00 a      1099     0    44     1    24
 -1.5261705030721379E-01 a      1100     0    44     1    25
 -5.0260559048395637E+00 a      1101     0    45     1     1
  1.2595490129637925E+00 a      1102     0    45     1     2
 -1.8886147259786670E+00 a      1103     0    45     1     3
  1.8789332619599324E+00 a      1104     0    45     1     4
 -6.3917065545993024E-01 a      1105     0    45     1     5
 -4.3895765328432890E-01 a      1106     0    45     1     6
 -2.6011532829843893E+00 a      1107     0    45     1     7
  6.1605482172647774E-01 a      1108     0    45     1     8
  1.7212197945674457E+00 a      1109     0    45     1     9
  1.5447040961907204E-02 a      1110     0    45     1    10
  9.5832992535326311E-01 a      1111     0    45     1    11
 -1.1977812756236315E+00 a      1112     0    45     1    12
 -2.4197429887062754E+00 a      1113     0    45     1    13
 -2.7422623098268635E+00 a      1114     0    45     1    14
 -1.0950848241906797E+00 a      1115     0    45     1    15
  1.6534061046673378E+00 a      1116     0    45     1    16
  6.5894699513659150E-01 a      1117     0    45     1    17
 -4.1568729790147438E+00 a      1118     0    45     1    18
  1.4874950233212836E+00 a      1119     0    45     1    19
  1.8752848013640849E-01 a      1120     0    45     1    20
  1.4242841839276735E-01 a      1121     0    45     1    21
  5.5516361937334224E-01 a      1122     0    45     1    22
 -5.5770330848115233E+00 a      1123     0    45     1    23
  2.9059809258574658E+00 a      1124     0    45     1    24
 -2.5600569782733118E-01 a      1125     0    45     1    25
 -3.6138976515980109E-02 a      1126     0    46     1     1
 -1.1461442995413198E+00 a      1127     0    46     1     2
  6.7248325725906011E-01 a      1128     0    46     1     3
  3.1035751179586266E+00 a      1129     0    46     1     4
  2.9635407400541132E+00 a      1130     0    46     1     5
 -1.3723900333309863E-01 a      1131     0    46     1     6
 -7.8681955602429110E-01 a      1132     0    46     1     7
 -1.1616108099075133E+00 a      1133     0    46     1     8
  3.1795434107793561E+00 a      1134     0    46     1     9
 -1.7968551196879448E+00 a      1135     0    46     1    10
 -1.6647265968143232E+00 a      1136     0    46     1    11
 -6.1932288755173888E+00 a      1137     0    46     1    12
 -2.9959627719320419E+00 a      1138     0    46     1    13
 -7.3903669899366781E-02 a      1139     0    46     1    14
 -8.2879231415232502E-01 a      1140     0    46     1    15
  1.2282238485845880E+00 a      1141     0    46     1    16
  4.9028863563486125E-01 a      1142     0    46     1    17
 -1.0438635599072808E-01 a      1143     0    46     1    18
  1.4241161591121672E+00 a      1144     0    46     1    19
 -2.6298501542843691E+00 a      1145     0    46     1    20
  1.8187556919314929E+00 a      1146     0    46     1    21
 -1.7106724516495799E+00 a      1147     0    46     1    22
 -1.2758429837524838E+00 a      1148     0    46     1    23
  3.6654900038416831E+00 a      1149     0    46     1    24
 -2.0139382246070128E-01 a      1150     0    46     1    25
  1.5338812069199620E-01 a      1151     0    47     1     1
 -1.1235240365314676E+00 a      1152     0    47     1     2
  5.4240769717454052E-01 a      1153     0    47     1     3
  2.9457912442528027E+00 a      1154     0    47     1     4
  2.8325638728942537E+00 a      1155     0    47     1     5
 -1.7366116345783428E-01 a      1156     0    47     1     6
 -8.3046203287268006E-01 a      1157     0    47     1     7
 -1.3808879199864876E+00 a      1158     0    47     1     8
  3.1677485649395454E+00 a      1159     0    47     1     9
 -1.5993247575060685E+00 a      1160     0    47     1    10
 -1.6572680713981360E+00 a      1161     0    47     1    11
 -6.2032468713323441E+00 a      1162     0    47     1    12
 -2.8408312557582089E+00 a      1163     0    47     1    13
  1.0759219920598033E-01 a      1164     0    47     1    14
 -6.2418869278095823E-01 a      1165     0    47     1    15
  1.4464665551438842E+00 a      1166     0    47     1    16
  3.7199375467381063E-01 a      1167     0    47     1    17
  1.0535694238314336E-01 a      1168     0    47     1    18
  1.3818695736071986E+00 a      1169     0    47     1    19
 -2.6321736390998494E+00 a      1170     0    47     1    20
  1.6054871610199268E+00 a      1171     0    47     1    21
 -1.8354701431972125E+00 a      1172     0    47     1    22
 -1.3670542935166239E+00 a      1173     0    47     1    23
  3.7553627553179152E+00 a      1174     0    47     1    24
  3.5698539150899322E-02 a      1175     0    47     1    25
  1.2598830233527818E+00 a      1176     0    48     1     1
 -3.8547878876931496E-01 a      1177     0    48     1     2
  1.2324246787542632E+00 a      1178     0    48     1     3
  3.7202316921736269E+00 a      1179     0    48     1     4
  1.1271826209890794E+00 a      1180     0    48     1     5
  1.7871194560830117E+00 a      1181     0    48     1     6
  9.1746970395948901E-01 a      1182     0    48     1     7
 -6.4702026706816940E-01 a      1183     0    48     1     8
  4.5267776063656520E-02 a      1184     0    48     1     9
  3.0187150160339660E-01 a      1185     0    48     1    10
  1.2692051300770313E+00 a      1186     0    48     1    11
  7.0179507951255748E-01 a      1187     0    48     1    12
 -7.4156528096858287E-01 a      1188     0    48     1    13
  1.0153694850634244E-01 a      1189     0    48     1    14
 -1.2392285928730722E+00 a      1190     0    48     1    15
 -9.6697125484167534E-02 a      1191     0    48     1    16
  1.0732072208239689E-01 a      1192     0    48     1    17
 -1.6293135252750486E+00 a      1193     0    48     1    18
  1.1120935361931958E+00 a      1194     0    48     1    19
  1.7735093573127767E+00 a      1195     0    48     1    20
 -4.4461471905853522E-01 a      1196     0    48     1    21
 -1.6976470634068024E+00 a      1197     0    48     1    22
 -1.3233012514515723E+00 a      1198     0    48     1    23
 -3.5451013563192921E+00 a      1199     0    48     1    24
  7.1464747292939512E-01 a      1200     0    48     1    25
  1.2750340293243831E+00 a      1201     0    49     1     1
 -3.8819718626242922E-01 a      1202     0    49     1     2
  1.1837442279001287E+00 a      1203     0    49     1     3
  3.8817890539265831E+00 a      1204     0    49     1     4
  8.4858779629499470E-01 a      1205     0    49     1     5
  1.8878149187453246E+00 a      1206     0    49     1     6
  8.4830960856957438E-01 a      1207     0    49     1     7
 -7.9835890452060565E-01 a      1208     0    49     1     8
 -1.8134779594030984E-01 a      1209     0    49     1     9
  4.2747540442089788E-01 a      1210     0    49     1    10
  1.2957136776436620E+00 a      1211     0    49     1    11
  9.1930551953970085E-01 a      1212     0    49     1    12
 -8.3451066408994656E-01 a      1213     0    49     1    13
  2.3119450704161362E-01 a      1214     0    49     1    14
 -1.2205849010075538E+00 a      1215     0    49     1    15
  9.1441520883786723E-02 a      1216     0    49     1    16
 -1.1886691459679107E-01 a      1217     0    49     1    17
 -1.5018615020379422E+00 a      1218     0    49     1    18
  1.0656031045863670E+00 a      1219     0    49     1    19
  1.5635186870216089E+00 a      1220     0    49     1    20
 -6.2557597977620749E-01 a      1221     0    49     1    21
 -1.9025539666747358E+00 a      1222     0    49     1    22
 -1.1948335070572940E+00 a      1223     0    49     1    23
 -3.7889202213185915E+00 a      1224     0    49     1    24
  5.9818489165326649E-01 a      1225     0    49     1    25
  3.7786907709065098E+00 a      1226     0    50     1     1
 -1.3250574159454762E+00 a      1227     0    50     1     2
  1.0715757163964932E+00 a      1228     0    50     1     3
 -1.5175537829785788E+00 a      1229     0    50     1     4
  9.4391629525070561E-02 a      1230     0    50     1     5
  1.0248282908638416E-01 a      1231     0    50     1     6
  1.9356286701763550E+00 a      1232     0    50     1     7
 -2.5575397654781917E-01 a      1233     0    50     1     8
 -1.3829737770092514E+00 a      1234     0    50     1     9
  1.0326686315130564E-01 a      1235     0    50     1    10
 -7.5391557693194866E-01 a      1236     0    50     1    11
  6.0801244066116877E-01 a      1237     0    50     1    12
  1.4636156086814192E+00 a      1238     0    50     1    13
  1.6676926869942392E+00 a      1239     0    50     1    14
  8.5823439448333783E-01 a      1240     0    50     1    15
 -1.4775909573824018E+00 a      1241     0    50     1    16
  4.7290098301359018E-01 a      1242     0    50     1    17
  2.6222453535327506E+00 a      1243     0    50     1    18
 -1.1447001847407168E+00 a      1244     0    50     1    19
 -6.5556027724385357E-01 a      1245     0    50     1    20
  1.0320424022855029E-01 a      1246     0    50     1    21
 -2.7960686807955593E-01 a      1247     0    50     1    22
  4.4822864949005066E+00 a      1248     0    50     1    23
 -2.5990969005913347E+00 a      1249     0    50     1    24
 -1.3361411506973284E-01 a      1250     0    50     1    25
  3.9165083432817571E+00 a      1251     0    51     1     1
 -1.3322581926684307E+00 a      1252     0    51     1     2
  1.0876129232920055E+00 a      1253     0    51     1     3
 -1.4717243419755410E+00 a      1254     0    51     1     4
  9.2806806038142498E-03 a      1255     0    51     1     5
  3.9770741435101800E-02 a      1256     0    51     1     6
  2.0579183422238225E+00 a      1257     0    51     1     7
 -2.0174019084655551E-01 a      1258     0    51     1     8
 -1.3566631377341791E+00 a      1259     0    51     1     9
  2.9611927586356179E-01 a      1260     0    51     1    10
 -5.4059693129809527E-01 a      1261     0    51     1    11
  7.6171625046975744E-01 a      1262     0    51     1    12
  1.6620657912719965E+00 a      1263     0    51     1    13
  1.9341657546745390E+00 a      1264     0    51     1    14
  6.7632492804472111E-01 a      1265     0    51     1    15
 -1.4639721491349105E+00 a      1266     0    51     1    16
  2.7745762519720119E-01 a      1267     0    51     1    17
  2.3583943580311821E+00 a      1268     0    51     1    18
 -1.0692258573988145E+00 a      1269     0    51     1    19
 -5.3569047599342134E-01 a      1270     0    51     1    20
  3.1552285912994316E-01 a      1271     0    51     1    21
 -1.1679483037304769E-01 a      1272     0    51     1    22
  4.5971611353445709E+00 a      1273     0    51     1    23
 -2.5683336684025999E+00 a      1274     0    51     1    24
  8.1021335942853101E-02 a      1275     0    51     1    25
 -4.6637465619711632E-01 a      1276     0    52     1     1
  6.6354678950861934E-01 a      1277     0    52     1     2
  1.8860548124170215E-01 a      1278     0    52     1     3
 -1.8297113317343905E+00 a      1279     0    52     1     4
 -1.7114239498871624E+00 a      1280     0    52     1     5
  7.0778639036726362E-02 a      1281     0    52     1     6
  1.4322935126603868E+00 a      1282     0    52     1     7
  1.3017257921065333E+00 a      1283     0    52     1     8
 -1.6939030447604644E+00 a      1284     0    52     1     9
  1.3859990269160771E+00 a      1285     0    52     1    10
  7.7441129245857199E-01 a      1286     0    52     1    11
  3.9924991982059703E+00 a      1287     0    52     1    12
  2.8550594058101315E+00 a      1288     0    52     1    13
 -6.6736796216615346E-01 a      1289     0    52     1    14
  1.4855868775128771E+00 a      1290     0    52     1    15
 -1.7276978535971437E+00 a      1291     0    52     1    16
  3.5442626321556375E-01 a      1292     0    52     1    17
  4.7297111135242242E-01 a      1293     0    52     1    18
 -1.4655263419942137E+00 a      1294     0    52     1    19
  1.9107571792530222E+00 a      1295     0    52     1    20
 -1.1451929748240044E+00 a      1296     0    52     1    21
  1.9339745273170719E+00 a      1297     0    52     1    22
  1.6820283247004144E+00 a      1298     0    52     1    23
 -2.2031074570871723E+00 a      1299     0    52     1    24
  3.8624964104388054E-01 a      1300     0    52     1    25
 -3.8197389984700419E-01 a      1301     0    53     1     1
  8.7420351261974938E-01 a      1302     0    53     1     2
  5.2705075943141604E-02 a      1303     0    53     1     3
 -1.7705669425656965E+00 a      1304     0    53     1     4
 -1.8501029419279249E+00 a      1305     0    53     1     5
 -5.1454666953479732E-03 a      1306     0    53     1     6
  1.4323421962709670E+00 a      1307     0    53     1     7
  1.2840257279622078E+00 a      1308     0    53     1     8
 -1.5450169659897186E+00 a      1309     0    53     1     9
  1.3184470360985114E+00 a      1310     0    53     1    10
  9.8703463576894146E-01 a      1311     0    53     1    11
  3.9535017727237904E+00 a      1312     0    53     1    12
  2.6512769014616362E+00 a      1313     0    53     1    13
 -6.2383370970129992E-01 a      1314     0    53     1    14
  1.4770626717087001E+00 a      1315     0    53     1    15
 -1.7189817325649188E+00 a      1316     0    53     1    16
  1.9830482125861554E-01 a      1317     0    53     1    17
  3.8642420431914531E-01 a      1318     0    53     1    18
 -1.3355396891874596E+00 a      1319     0    53     1    19
  1.7393226296223794E+00 a      1320     0    53     1    20
 -9.3920708041887280E-01 a      1321     0    53     1    21
  1.7665119160561378E+00 a      1322     0    53     1    22
  1.6693886209989117E+00 a      1323     0    53     1    23
 -2.1892440325373319E+00 a      1324     0    53     1    24
  2.4956245760879625E-01 a      1325     0    53     1    25
  3.9696441336888577E-01 a      1326     0    54     1     1
 -7.3837604553186642E-01 a      1327     0    54     1     2
 -8.9796912090961667E-01 a      1328     0    54     1     3
 -6.9119595196535183E-02 a      1329     0    54     1     4
 -4.6249408166129630E-01 a      1330     0    54     1     5
  5.6831538829777695E-01 a      1331     0    54     1     6
  1.4699907138807161E-01 a      1332     0    54     1     7
  8.2708171626249272E-01 a      1333     0    54     1     8
 -1.0057669295423775E+00 a      1334     0    54     1     9
 -1.5782134023191402E-01 a      1335     0    54     1    10
  3.3992831191784062E-01 a      1336     0    54     1    11
 -2.7949013659580313E-01 a      1337     0    54     1    12
 -1.2477655738971763E-01 a      1338     0    54     1    13
  4.8808169418824399E-01 a      1339     0    54     1    14
  4.5674050132632454E-02 a      1340     0    54     1    15
 -5.9315221351034293E-02 a      1341     0    54     1    16
 -2.2603145799171356E-01 a      1342     0    54     1    17
 -3.9168944157316299E-01 a      1343     0    54     1    18
  5.4409549415442626E-01 a      1344     0    54     1    19
  1.6699253272837300E-01 a      1345     0    54     1    20
 -2.4490649020803260E-01 a      1346     0    54     1    21
  3.2778753154516660E-01 a      1347     0    54     1    22
 -5.2106269191573429E-01 a      1348     0    54     1    23
  1.2793399324813846E+00 a      1349     0    54     1    24
 -4.1132967407011189E-01 a      1350     0    54     1    25
  4.1340852297442943E-01 a      1351     0    55     1     1
 -5.3160527447411110E-01 a      1352     0    55     1     2
 -8.8698627917604944E-01 a      1353     0    55     1     3
 -1.0337272026494659E-01 a      1354     0    55     1     4
 -5.1611896820675640E-01 a      1355     0    55     1     5
  5.3459581912877552E-01 a      1356     0    55     1     6
  7.4942850837332931E-02 a      1357     0    55     1     7
  6.8402028512461344E-01 a      1358     0    55     1     8
 -1.0693205417105920E+00 a      1359     0    55     1     9
 -2.2596483062432116E-01 a      1360     0    55     1    10
  9.1278361022648094E-02 a      1361     0    55     1    11
 -2.2803132182435165E-01 a      1362     0    55     1    12
  5.3631033019864841E-02 a      1363     0    55     1    13
  4.2531528720854100E-01 a      1364     0    55     1    14
  2.2223782418077401E-01 a      1365     0    55     1    15
 -1.3969230348665301E-01 a      1366     0    55     1    16
  4.2786909141592213E-03 a      1367     0    55     1    17
 -2.5780569285152394E-01 a      1368     0    55     1    18
  6.3321895166424935E-01 a      1369     0    55     1    19
 -1.3226919461705325E-01 a      1370     0    55     1    20
 -1.9695169953072011E-01 a      1371     0    55     1    21
  3.3209363001141551E-01 a      1372     0    55     1    22
 -3.5840910767836509E-01 a      1373     0    55     1    23
  1.2853138989099850E+00 a      1374     0    55     1    24
 -4.9600900215947097E-01 a      1375     0    55     1    25
  3.0999719583522305E+00 a      1376     0    56     1     1
 -8.8544760383130250E-01 a      1377     0    56     1     2
  6.5997347986016242E-01 a      1378     0    56     1     3
 -2.7297956011675200E+00 a      1379     0    56     1     4
  1.6410062389952214E+00 a      1380     0    56     1     5
  1.3660791178758194E+00 a      1381     0    56     1     6
 -1.5826748370557722E+00 a      1382     0    56     1     7
 -1.7015634031291724E+00 a      1383     0    56     1     8
  1.1098681413040641E+00 a      1384     0    56     1     9
 -1.3064076662328887E+00 a      1385     0    56     1    10
  1.0542386829746848E+00 a      1386     0    56     1    11
  1.7214784243118344E+00 a      1387     0    56     1    12
 -6.8566547426216506E-01 a      1388     0    56     1    13
 -5.5198351618024810E-01 a      1389     0    56     1    14
 -4.2785294332942686E-01 a      1390     0    56     1    15
  2.7178892707830915E-01 a      1391     0    56     1    16
  1.2151240308458187E+00 a      1392     0    56     1    17
  1.7617855948150676E-01 a      1393     0    56     1    18
 -1.2044633009228793E+00 a      1394     0    56     1    19
  2.9326419351100599E+00 a      1395     0    56     1    20
  1.0181731132130631E+00 a      1396     0    56     1    21
  1.9412238948161828E+00 a      1397     0    56     1    22
  2.9173061899984578E+00 a      1398     0    56     1    23
 -2.3254557431988965E-01 a      1399     0    56     1    24
  1.8898198189406812E+00 a      1400     0    56     1    25
  3.2126155626664357E+00 a      1401     0    57     1     1
 -8.8488616621470417E-01 a      1402     0    57     1     2
  7.2180418847745098E-01 a      1403     0    57     1     3
 -2.7652791418545553E+00 a      1404     0    57     1     4
  1.6799700643252653E+00 a      1405     0    57     1     5
  1.3769687209256731E+00 a      1406     0    57     1     6
 -1.5157455425335917E+00 a      1407     0    57     1     7
 -1.5741366739233489E+00 a      1408     0    57     1     8
  1.1326212759925050E+00 a      1409     0    57     1     9
 -1.3666211479416148E+00 a      1410     0    57     1    10
  1.1020233444074512E+00 a      1411     0    57     1    11
  1.6275591367301148E+00 a      1412     0    57     1    12
 -6.1172364562750237E-01 a      1413     0    57     1    13
 -5.5083375329528839E-01 a      1414     0    57     1    14
 -5.2162996828856556E-01 a      1415     0    57     1    15
  1.4513455255885543E-01 a      1416     0    57     1    16
  1.2673337914044278E+00 a      1417     0    57     1    17
  2.3014058249750216E-01 a      1418     0    57     1    18
 -1.1345432933650663E+00 a      1419     0    57     1    19
  2.7828906489155210E+00 a      1420     0    57     1    20
  9.8562501933587465E-01 a      1421     0    57     1    21
  1.8372288145956948E+00 a      1422     0    57     1    22
  2.7511416661979120E+00 a      1423     0    57     1    23
 -2.6887336734261996E-01 a      1424     0    57     1    24
  1.6607711986242919E+00 a      1425     0    57     1    25
  6.7297601663282725E-01 a      1426     0    58     1     1
 -1.5301713960458663E+00 a      1427     0    58     1     2
 -2.3472797145443919E-01 a      1428     0    58     1     3
 -1.1496175833278552E+00 a      1429     0    58     1     4
 -7.8224623987871800E-01 a      1430     0    58     1     5
 -1.2468539160666678E+00 a      1431     0    58     1     6
  3.4402000170302227E-01 a      1432     0    58     1     7
  4.7681961860919120E-01 a      1433     0    58     1     8
  5.4882645701405115E-02 a      1434     0    58     1     9
  2.5307440286670796E-01 a      1435     0    58     1    10
  1.3750533855430971E-01 a      1436     0    58     1    11
 -8.0734001368223285E-02 a      1437     0    58     1    12
  3.4092271889813197E-01 a      1438     0    58     1    13
  1.2482883312231470E-01 a      1439     0    58     1    14
  2.4147393999216924E-02 a      1440     0    58     1    15
 -8.9159560649379599E-01 a      1441     0    58     1    16
  9.3447323266900528E-01 a      1442     0    58     1    17
 -6.7311484642853636E-01 a      1443     0    58     1    18
 -2.7480379249194192E-01 a      1444     0    58     1    19
 -7.4242280564714241E-02 a      1445     0    58     1    20
  4.8378083141828404E-01 a      1446     0    58     1    21
 -9.9851368388938788E-01 a      1447     0    58     1    22
 -1.7406729904914489E-01 a      1448     0    58     1    23
  1.3235016802810122E+00 a      1449     0    58     1    24
  1.2300125716920463E+00 a      1450     0    58     1    25
  4.7404570312963251E-01 a      1451     0    59     1     1
 -1.5587978002391976E+00 a      1452     0    59     1     2
 -2.5881748442082297E-01 a      1453     0    59     1     3
 -1.1671307834837459E+00 a      1454     0    59     1     4
 -6.3687128824280026E-01 a      1455     0    59     1     5
 -1.2863863276192633E+00 a      1456     0    59     1     6
  4.9219742792114063E-01 a      1457     0    59     1     7
  6.2090658446730473E-01 a      1458     0    59     1     8
  2.4171141503456506E-01 a      1459     0    59     1     9
  3.5774511276444615E-01 a      1460     0    59     1    10
  3.7906121861855924E-01 a      1461     0    59     1    11
  1.3873886907038843E-01 a      1462     0    59     1    12
  1.5253699022989547E-01 a      1463     0    59     1    13
  3.1653161676490094E-01 a      1464     0    59     1    14
  5.3259209180202001E-02 a      1465     0    59     1    15
 -1.0840366662832075E+00 a      1466     0    59     1    16
  7.8235606080272990E-01 a      1467     0    59     1    17
 -6.6103957963746507E-01 a      1468     0    59     1    18
 -4.9351792338374301E-01 a      1469     0    59     1    19
 -6.3940911612374571E-02 a      1470     0    59     1    20
  4.0846038651003169E-01 a      1471     0    59     1    21
 -9.1269611373158788E-01 a      1472     0    59     1    22
 -2.2281843671390852E-01 a      1473     0    59     1    23
  1.4596712222343304E+00 a      1474     0    59     1    24
  1.3380316898855582E+00 a      1475     0    59     1    25
  5.4130730467581478E-01 a      1476     0    60     1     1
 -6.1598080632027297E-01 a      1477     0    60     1     2
  6.0818130665693004E-01 a      1478     0    60     1     3
 -2.4265983118631240E-01 a      1479     0    60     1     4
 -4.5428390464465940E-01 a      1480     0    60     1     5
 -1.4675687797070069E-01 a      1481     0    60     1     6
 -8.8938207382869761E-01 a      1482     0    60     1     7
 -2.1410305702047713E-01 a      1483     0    60     1     8
 -9.9553566620648393E-01 a      1484     0    60     1     9
  9.2919341589377258E-01 a      1485     0    60     1    10
 -5.8459481772754096E-01 a      1486     0    60     1    11
  1.2191674194598316E+00 a      1487     0    60     1    12
 -6.3224012199861304E-02 a      1488     0    60     1    13
  1.5837209093924378E+00 a      1489     0    60     1    14
 -1.4752582973218251E+00 a      1490     0    60     1    15
  5.0866361694134987E-01 a      1491     0    60     1    16
  4.8455314943354040E-02 a      1492     0    60     1    17
  1.1632626040749459E+00 a      1493     0    60     1    18
 -4.1082684562677219E-01 a      1494     0    60     1    19
 -3.4286308180351860E-01 a      1495     0    60     1    20
  3.2116573330408393E-01 a      1496     0    60     1    21
 -4.3888356371795403E-02 a      1497     0    60     1    22
 -1.8155536170037860E+00 a      1498     0    60     1    23
 -7.5962503826396285E-02 a      1499     0    60     1    24
  1.9885957807145733E+00 a      1500     0    60     1    25
 -1.0792688159901613E+00 a      1501     0    61     1     1
  1.4572691957566000E+00 a      1502     0    61     1     2
  2.1799443453703618E-01 a      1503     0    61     1     3
  1.5376658870158083E-01 a      1504     0    61     1     4
  7.8893233138605345E-01 a      1505     0    61     1     5
 -4.5366832594908035E-01 a      1506     0    61     1     6
  1.1622855001082244E+00 a      1507     0    61     1     7
 -2.8074397634537690E-01 a      1508     0    61     1     8
 -3.8797818155080332E-01 a      1509     0    61     1     9
  2.1158100473503094E-01 a      1510     0    61     1    10
 -3.7529641667369135E-01 a      1511     0    61     1    11
  5.5360198940912819E-01 a      1512     0    61     1    12
  1.2895643701135542E-01 a      1513     0    61     1    13
 -2.4329794542336209E+00 a      1514     0    61     1    14
 -4.1965610248233703E-01 a      1515     0    61     1    15
 -7.2586853291119813E-01 a      1516     0    61     1    16
 -1.4390109608340393E-01 a      1517     0    61     1    17
  4.8093725034607065E-01 a      1518     0    61     1    18
  4.9145793705755247E-01 a      1519     0    61     1    19
  3.8981523131462975E-01 a      1520     0    61     1    20
  1.7471567045325806E-01 a      1521     0    61     1    21
  1.0257004851373492E+00 a      1522     0    61     1    22
  1.9326679179967894E+00 a      1523     0    61     1    23
 -9.6127604913269438E-01 a      1524     0    61     1    24
 -1.4931957723850249E+00 a      1525     0    61     1    25
 -1.0104859792350616E+00 a      1526     0    62     1     1
  1.5972520884319912E+00 a      1527     0    62     1     2
  1.5219419873538120E-01 a      1528     0    62     1     3
 -1.0936917938811017E-01 a      1529     0    62     1     4
  8.3827746759768729E-01 a      1530     0    62     1     5
 -7.4674058198674043E-01 a      1531     0    62     1     6
  1.2081021071796372E+00 a      1532     0    62     1     7
 -1.0415598589416969E-01 a      1533     0    62     1     8
 -3.3996723103601334E-01 a      1534     0    62     1     9
 -1.3063692236438176E-02 a      1535     0    62     1    10
 -1.6989496884380428E-01 a      1536     0    62     1    11
  5.9425131323249880E-01 a      1537     0    62     1    12
  1.2687821197010010E-01 a      1538     0    62     1    13
 -2.5295984975526289E+00 a      1539     0    62     1    14
 -2.6175382791613849E-01 a      1540     0    62     1    15
 -7.3159014763188535E-01 a      1541     0    62     1    16
 -4.1768028553887476E-01 a      1542     0    62     1    17
  4.7063874906822556E-01 a      1543     0    62     1    18
  6.6431270808123599E-01 a      1544     0    62     1    19
  3.7425234016598596E-01 a      1545     0    62     1    20
  2.0589282987454569E-01 a      1546     0    62     1    21
  8.8174223093245674E-01 a      1547     0    62     1    22
  1.9798751400909047E+00 a      1548     0    62     1    23
 -1.0033713115203544E+00 a      1549     0    62     1    24
 -1.3181170849234569E+00 a      1550     0    62     1    25
  6.9200325272865748E-01 a      1551     0    63     1     1
 -1.1019188815496092E-02 a      1552     0    63     1     2
 -1.2284438174802581E-01 a      1553     0    63     1     3
  1.6795261671423098E+00 a      1554     0    63     1     4
 -2.1966198531972395E-01 a      1555     0    63     1     5
  7.7295874391922104E-01 a      1556     0    63     1     6
  7.0544634662409911E-01 a      1557     0    63     1     7
  1.2150323371650346E-01 a      1558     0    63     1     8
 -8.6741364680036626E-01 a      1559     0    63     1     9
 -7.4665293300883351E-01 a      1560     0    63     1    10
  1.2765189732566093E-01 a      1561     0    63     1    11
  1.7585573414173465E+00 a      1562     0    63     1    12
  8.3347720906348477E-01 a      1563     0    63     1    13
 -5.1194098678957811E-01 a      1564     0    63     1    14
  7.3071069918934128E-01 a      1565     0    63     1    15
  8.4871259057316006E-01 a      1566     0    63     1    16
 -6.8601347358055786E-02 a      1567     0    63     1    17
  1.4817999640151708E-01 a      1568     0    63     1    18
 -1.0147466254042723E+00 a      1569     0    63     1    19
 -1.9970459329857515E-01 a      1570     0    63     1    20
 -1.3014953341715731E+00 a      1571     0    63     1    21
 -1.8925381520201992E-01 a      1572     0    63     1    22
  1.0453878935569665E+00 a      1573     0    63     1    23
 -1.5300508741861394E+00 a      1574     0    63     1    24
 -1.5034272379933358E+00 a      1575     0    63     1    25
  6.9432285041307196E-01 a      1576     0    64     1     1
 -1.9584864251574560E-01 a      1577     0    64     1     2
 -7.2590161244607945E-02 a      1578     0    64     1     3
  1.6873290777334287E+00 a      1579     0    64     1     4
 -4.5993640803861313E-01 a      1580     0    64     1     5
  5.4402423307043524E-01 a      1581     0    64     1     6
  5.0777868551788574E-01 a      1582     0    64     1     7
  4.2412152894623738E-02 a      1583     0    64     1     8
 -6.0353226705667551E-01 a      1584     0    64     1     9
 -7.3816781306456747E-01 a      1585     0    64     1    10
 -1.1888430543886587E-01 a      1586     0    64     1    11
  1.9098452130884176E+00 a      1587     0    64     1    12
  7.3688887610995935E-01 a      1588     0    64     1    13
 -6.0565635885515101E-01 a      1589     0    64     1    14
  7.6405381096201663E-01 a      1590     0    64     1    15
  8.4682915992630980E-01 a      1591     0    64     1    16
 -2.0821536013213848E-01 a      1592     0    64     1    17
  1.6198855156291306E-01 a      1593     0    64     1    18
 -8.0428894317513744E-01 a      1594     0    64     1    19
 -1.8394139640549612E-01 a      1595     0    64     1    20
 -1.1936130980344475E+00 a      1596     0    64     1    21
 -2.9058785810317073E-01 a      1597     0    64     1    22
  1.0201774263553567E+00 a      1598     0    64     1    23
 -1.6591809108271374E+00 a      1599     0    64     1    24
 -1.5315471094473621E+00 a      1600     0    64     1    25
  3.9079999729955361E-01 a      1601     0    65     1     1
 -1.1253609936482280E-01 a      1602     0    65     1     2
  1.8089837074932927E-01 a      1603     0    65     1     3
  1.5620763111643116E-01 a      1604     0    65     1     4
 -7.3822866759732209E-02 a      1605     0    65     1     5
 -5.8393015690947248E-01 a      1606     0    65     1     6
  3.5548625003466094E-01 a      1607     0    65     1     7
 -6.3685719748273584E-01 a      1608     0    65     1     8
  8.0603690428917817E-03 a      1609     0    65     1     9
 -4.5422062025327808E-01 a      1610     0    65     1    10
 -1.8692178678195459E-01 a      1611     0    65     1    11
  3.9229613761908350E-01 a      1612     0    65     1    12
 -1.0224873120301190E+00 a      1613     0    65     1    13
  2.9988994835488442E-01 a      1614     0    65     1    14
 -5.4192118674682765E-01 a      1615     0    65     1    15
  1.0525041003676623E+00 a      1616     0    65     1    16
  5.2906596403054873E-01 a      1617     0    65     1    17
 -1.1091916644848762E-01 a      1618     0    65     1    18
 -1.2986269482524564E+00 a      1619     0    65     1    19
  8.0937022881611875E-01 a      1620     0    65     1    20
  5.0707596830582358E-01 a      1621     0    65     1    21
  4.8084941721232932E-01 a      1622     0    65     1    22
 -4.9224242135237746E-02 a      1623     0    65     1    23
