################################################################################
# Neural network connection values (weights and biases).
################################################################################
# Col  Name       Description
################################################################################
# 1    connection Neural network connection value.
# 2    t          Connection type (a = weight, b = bias).
# 3    index      Index enumerating weights.
# 4    l_s        Starting point layer (end point layer for biases).
# 5    n_s        Starting point neuron in starting layer (end point neuron for biases).
# 6    l_e        End point layer.
# 7    n_e        End point neuron in end layer.
################################################################################
#                      1 2         3     4     5     6     7
#             connection t     index   l_s   n_s   l_e   n_e
############################################################
  9.1131320501450297E-01 a         1     0     1     1     1
  2.7453059897400114E+00 a         2     0     1     1     2
  4.3016669515110512E-01 a         3     0     1     1     3
 -9.3128503708773247E-01 a         4     0     1     1     4
  1.4792219470143864E-01 a         5     0     1     1     5
  3.1636164476010159E-01 a         6     0     1     1     6
  4.4478104970106619E-01 a         7     0     1     1     7
 -1.7914398767818827E+00 a         8     0     1     1     8
  5.0425385278371187E-03 a         9     0     1     1     9
  2.9207968943753881E+00 a        10     0     1     1    10
  6.9923350668260453E-01 a        11     0     1     1    11
 -5.4391734336387398E-01 a        12     0     1     1    12
  5.0913358166160438E-01 a        13     0     1     1    13
  2.7042590905318076E-02 a        14     0     1     1    14
  1.8510715098894144E+00 a        15     0     1     1    15
  2.6184130461762345E-01 a        16     0     1     1    16
  1.4093244661761062E+00 a        17     0     1     1    17
  1.0458087113535970E+00 a        18     0     1     1    18
 -3.3803690840684159E-01 a        19     0     1     1    19
 -9.9623210298543124E-02 a        20     0     1     1    20
 -2.0869901884494464E+00 a        21     0     1     1    21
  5.0419541588048922E-01 a        22     0     1     1    22
  5.8934268989201222E-01 a        23     0     1     1    23
 -1.2036729695921291E+00 a        24     0     1     1    24
 -4.0006383256293848E-01 a        25     0     1     1    25
  8.7271049340844864E-01 a        26     0     2     1     1
 -3.1952559889789107E+00 a        27     0     2     1     2
  1.5293518397997594E+00 a        28     0     2     1     3
  3.5349560201586894E-01 a        29     0     2     1     4
 -1.2781990613894532E+00 a        30     0     2     1     5
 -1.5809793850020257E+00 a        31     0     2     1     6
 -3.4541439578591421E-01 a        32     0     2     1     7
  3.4974891981892728E-02 a        33     0     2     1     8
 -2.0245524435565809E-01 a        34     0     2     1     9
  5.5956561299381202E-01 a        35     0     2     1    10
 -1.7815183324164232E+00 a        36     0     2     1    11
 -1.1037630658789635E-01 a        37     0     2     1    12
  2.6090218807863326E+00 a        38     0     2     1    13
 -2.8849157252003038E-01 a        39     0     2     1    14
 -7.8449843364532157E-01 a        40     0     2     1    15
  2.1798805718505867E-02 a        41     0     2     1    16
 -2.4732191715295815E+00 a        42     0     2     1    17
  3.5998038904723340E-01 a        43     0     2     1    18
  2.3792577767526424E-01 a        44     0     2     1    19
 -1.7088130892315376E+00 a        45     0     2     1    20
  2.7669457750461213E-01 a        46     0     2     1    21
 -9.5843334422453041E-01 a        47     0     2     1    22
 -9.5574835373378730E-01 a        48     0     2     1    23
  5.5232434042409928E-01 a        49     0     2     1    24
 -1.3657760523501616E+00 a        50     0     2     1    25
 -1.6256736015500461E-01 a        51     0     3     1     1
  7.4682694973840513E-01 a        52     0     3     1     2
  3.5743336803464587E-01 a        53     0     3     1     3
 -9.1668786263218893E-01 a        54     0     3     1     4
  5.5009326510157408E-01 a        55     0     3     1     5
 -2.4001878233199321E+00 a        56     0     3     1     6
  5.0146791971896081E-02 a        57     0     3     1     7
  2.0164205139308473E+00 a        58     0     3     1     8
 -2.2475533036233930E-01 a        59     0     3     1     9
 -1.9699644432624647E-01 a        60     0     3     1    10
 -4.3280481448166958E-02 a        61     0     3     1    11
  1.3236537040396914E+00 a        62     0     3     1    12
 -3.5105699142472468E-01 a        63     0     3     1    13
  5.1456174891300244E-01 a        64     0     3     1    14
  6.9785426194591926E-01 a        65     0     3     1    15
 -6.7119646043853412E-02 a        66     0     3     1    16
 -1.0547553328346406E+00 a        67     0     3     1    17
  7.9076000244267841E-01 a        68     0     3     1    18
 -2.4554573802737603E-01 a        69     0     3     1    19
  1.5351558278919791E-01 a        70     0     3     1    20
  4.8808163397635784E-01 a        71     0     3     1    21
  2.2951579509871248E-01 a        72     0     3     1    22
  1.9900270440435752E+00 a        73     0     3     1    23
 -7.2145807858558963E-01 a        74     0     3     1    24
 -1.6432704884796664E-01 a        75     0     3     1    25
  3.4857793030187822E-01 a        76     0     4     1     1
  1.6210399888909732E-01 a        77     0     4     1     2
 -9.8975612270954572E-01 a        78     0     4     1     3
 -9.0841728851632420E-01 a        79     0     4     1     4
  4.3959791979670393E-01 a        80     0     4     1     5
  1.1187501835582407E+00 a        81     0     4     1     6
  1.1059368907411400E+00 a        82     0     4     1     7
  1.7616593877983935E-01 a        83     0     4     1     8
 -4.9810047477559100E-02 a        84     0     4     1     9
 -1.7788973508996637E+00 a        85     0     4     1    10
 -2.9706207809025625E-01 a        86     0     4     1    11
  1.2827560231947359E+00 a        87     0     4     1    12
 -5.2151400311019736E-01 a        88     0     4     1    13
  4.7239330315377588E-02 a        89     0     4     1    14
  3.8421363080289633E-01 a        90     0     4     1    15
 -3.0279011014655571E-01 a        91     0     4     1    16
  1.1419022801744180E-01 a        92     0     4     1    17
 -1.5012628079339767E+00 a        93     0     4     1    18
  4.0393034621977314E-01 a        94     0     4     1    19
 -8.0239312523578743E-01 a        95     0     4     1    20
 -6.5972722048378363E-01 a        96     0     4     1    21
 -2.0616159260123318E-01 a        97     0     4     1    22
 -3.4647294659529460E-01 a        98     0     4     1    23
  3.2283909149743872E-01 a        99     0     4     1    24
 -4.8227535414093292E-01 a       100     0     4     1    25
 -9.5033205875414184E-01 a       101     0     5     1     1
 -1.0773136149445111E+00 a       102     0     5     1     2
  2.9505214118294948E-01 a       103     0     5     1     3
  1.7866998147213711E+00 a       104     0     5     1     4
 -2.0801199442502818E+00 a       105     0     5     1     5
 -1.1916192942986015E+00 a       106     0     5     1     6
 -9.0321067874776373E-01 a       107     0     5     1     7
  2.1165206387867896E+00 a       108     0     5     1     8
  1.1371203058305482E-01 a       109     0     5     1     9
 -1.4004315398806764E+00 a       110     0     5     1    10
 -3.7459479645414617E-01 a       111     0     5     1    11
  1.8163447308611680E+00 a       112     0     5     1    12
  1.3334238080001217E+00 a       113     0     5     1    13
  1.8697906621216792E-01 a       114     0     5     1    14
 -2.4492476045156861E+00 a       115     0     5     1    15
 -2.5045615334343894E+00 a       116     0     5     1    16
 -6.1998986543869428E-01 a       117     0     5     1    17
  3.8218020785565471E-01 a       118     0     5     1    18
 -1.5220345237260076E+00 a       119     0     5     1    19
 -7.1291187693297439E-02 a       120     0     5     1    20
  2.5173572329194860E-01 a       121     0     5     1    21
 -8.6379999461689350E-01 a       122     0     5     1    22
  1.5162444806406009E-01 a       123     0     5     1    23
 -6.5659145141845565E-01 a       124     0     5     1    24
  5.7996584534055062E-01 a       125     0     5     1    25
  3.4210438258445947E-01 a       126     0     6     1     1
  3.2447982066058163E+00 a       127     0     6     1     2
 -3.8140912636218429E+00 a       128     0     6     1     3
 -1.3856241058700312E+00 a       129     0     6     1     4
  3.2741064082902160E+00 a       130     0     6     1     5
  3.3550488845884890E-01 a       131     0     6     1     6
  3.5565644337137914E-01 a       132     0     6     1     7
 -2.2520204572269926E+00 a       133     0     6     1     8
 -1.1811880015669609E+00 a       134     0     6     1     9
  9.7818989272285950E-01 a       135     0     6     1    10
  2.5953035642614504E+00 a       136     0     6     1    11
  2.1894297509391767E+00 a       137     0     6     1    12
 -2.9442293259425503E+00 a       138     0     6     1    13
  3.0195425996172069E+00 a       139     0     6     1    14
  2.7824774738590139E+00 a       140     0     6     1    15
  1.9838570549592119E-01 a       141     0     6     1    16
  1.5465705342051741E+00 a       142     0     6     1    17
 -8.2139292143317510E-01 a       143     0     6     1    18
 -1.1340221414242615E+00 a       144     0     6     1    19
  2.8567246618306372E+00 a       145     0     6     1    20
 -4.7358490705032286E-01 a       146     0     6     1    21
 -5.0935629866162635E-01 a       147     0     6     1    22
  1.6361975682133576E+00 a       148     0     6     1    23
  2.3173768709976468E+00 a       149     0     6     1    24
 -4.9706368406247391E-02 a       150     0     6     1    25
 -8.1239854552380586E-01 a       151     0     7     1     1
 -1.6151058648570502E+00 a       152     0     7     1     2
  1.3039335443094726E+00 a       153     0     7     1     3
 -6.4481098693259728E-02 a       154     0     7     1     4
  9.0483114513522167E-01 a       155     0     7     1     5
  1.1405517870262617E-01 a       156     0     7     1     6
  8.1783364295878624E-02 a       157     0     7     1     7
  9.5118052213956561E-01 a       158     0     7     1     8
 -1.6206009274534643E+00 a       159     0     7     1     9
  1.3942300724792611E+00 a       160     0     7     1    10
  5.7502702767877967E-01 a       161     0     7     1    11
 -4.0639858561240683E+00 a       162     0     7     1    12
  8.9192197699477715E-01 a       163     0     7     1    13
 -1.4025010472500157E-01 a       164     0     7     1    14
 -2.4390213760926019E-01 a       165     0     7     1    15
  1.1940309247206651E+00 a       166     0     7     1    16
 -1.2206973014104927E+00 a       167     0     7     1    17
  1.8915308412552284E-01 a       168     0     7     1    18
 -1.3657354056039610E+00 a       169     0     7     1    19
  6.6198546940913550E-01 a       170     0     7     1    20
  1.8447722741014627E+00 a       171     0     7     1    21
  1.4429065794749101E+00 a       172     0     7     1    22
  1.5192207965632025E+00 a       173     0     7     1    23
  2.9674526507529414E-01 a       174     0     7     1    24
  2.9620318806945867E-01 a       175     0     7     1    25
  3.0585117758717645E-01 a       176     0     8     1     1
 -3.0496728675397056E-01 a       177     0     8     1     2
  1.7803699629642747E-01 a       178     0     8     1     3
 -1.8966346642561536E+00 a       179     0     8     1     4
  3.0762071043865107E+00 a       180     0     8     1     5
  1.2009031476110066E+00 a       181     0     8     1     6
  3.9072977471831799E-01 a       182     0     8     1     7
  2.0241359638031460E+00 a       183     0     8     1     8
 -4.8045332030431193E-01 a       184     0     8     1     9
 -2.5207837812678049E+00 a       185     0     8     1    10
  5.5605190841914631E-01 a       186     0     8     1    11
  9.6699550736685758E-01 a       187     0     8     1    12
 -2.0285427396115621E-01 a       188     0     8     1    13
  6.1735432689093561E-01 a       189     0     8     1    14
  3.8222266126950372E-01 a       190     0     8     1    15
  8.0902679047414539E-01 a       191     0     8     1    16
  2.8789574168156795E-01 a       192     0     8     1    17
 -9.4087284810687033E-01 a       193     0     8     1    18
  9.1250622143442561E-01 a       194     0     8     1    19
 -1.0777254184377518E+00 a       195     0     8     1    20
 -1.2230111821619718E+00 a       196     0     8     1    21
 -6.6073713222678698E-01 a       197     0     8     1    22
 -1.0580173873110246E+00 a       198     0     8     1    23
  1.3072821132391013E+00 a       199     0     8     1    24
 -1.0835268030481029E+00 a       200     0     8     1    25
  4.6654349159379693E-01 a       201     0     9     1     1
  1.3024459021299859E+00 a       202     0     9     1     2
  5.1881207555739206E-01 a       203     0     9     1     3
  2.3400931573111530E+00 a       204     0     9     1     4
 -4.0973075235058891E+00 a       205     0     9     1     5
  2.7190709810258533E+00 a       206     0     9     1     6
  5.5459452170244161E-01 a       207     0     9     1     7
  6.7616414917892986E-01 a       208     0     9     1     8
 -1.7949807063686611E+00 a       209     0     9     1     9
  5.0846925304316515E-01 a       210     0     9     1    10
 -2.1283631574540922E+00 a       211     0     9     1    11
  1.8772620621204521E+00 a       212     0     9     1    12
  1.8249707000702764E+00 a       213     0     9     1    13
 -3.0772162742612292E+00 a       214     0     9     1    14
 -1.3167000044749861E+00 a       215     0     9     1    15
 -1.0806277375208824E+00 a       216     0     9     1    16
  5.6715217717651356E-01 a       217     0     9     1    17
  2.1674082715008050E+00 a       218     0     9     1    18
 -1.2776282807168646E+00 a       219     0     9     1    19
  5.6159116216492377E-01 a       220     0     9     1    20
  4.2011485929550547E+00 a       221     0     9     1    21
 -1.0350799161521409E+00 a       222     0     9     1    22
 -5.0317648761972833E-01 a       223     0     9     1    23
 -1.4641726987597932E+00 a       224     0     9     1    24
 -2.9759449490943035E-01 a       225     0     9     1    25
 -8.9189202735406214E-01 a       226     0    10     1     1
 -5.7047453211255983E-01 a       227     0    10     1     2
 -1.1951848419737328E-01 a       228     0    10     1     3
  2.0136943618044247E+00 a       229     0    10     1     4
 -2.4761779971520133E+00 a       230     0    10     1     5
  1.1666123710254548E+00 a       231     0    10     1     6
 -8.3981493687165798E-01 a       232     0    10     1     7
 -6.1032589946846949E-01 a       233     0    10     1     8
 -1.0535499192864008E+00 a       234     0    10     1     9
  1.9833583479765327E-01 a       235     0    10     1    10
  5.4759297846754418E-01 a       236     0    10     1    11
 -3.7175249210080080E-01 a       237     0    10     1    12
  7.6367117908688065E-01 a       238     0    10     1    13
 -1.5281221886455398E-01 a       239     0    10     1    14
  7.9683487223838299E-03 a       240     0    10     1    15
 -2.2828393511357753E-01 a       241     0    10     1    16
 -1.1651913479105387E-01 a       242     0    10     1    17
  1.1136456797204524E+00 a       243     0    10     1    18
 -1.5581729489609630E-01 a       244     0    10     1    19
  1.2921067919668910E-01 a       245     0    10     1    20
  1.3159703722887670E+00 a       246     0    10     1    21
 -3.2436757921801673E-01 a       247     0    10     1    22
  5.9663176791939065E-01 a       248     0    10     1    23
 -8.3583667923177118E-01 a       249     0    10     1    24
  1.3964940831851200E+00 a       250     0    10     1    25
  1.0949588953441720E+00 a       251     0    11     1     1
 -8.3066308355519969E-01 a       252     0    11     1     2
 -1.1958689967479763E+00 a       253     0    11     1     3
  4.4529905633964129E+00 a       254     0    11     1     4
 -2.7487545366083608E+00 a       255     0    11     1     5
 -1.4395663224844821E+00 a       256     0    11     1     6
 -2.4503067607076923E+00 a       257     0    11     1     7
  6.7924162220065898E-01 a       258     0    11     1     8
 -9.2815152178162263E-01 a       259     0    11     1     9
  3.6410704371736817E+00 a       260     0    11     1    10
 -2.0232382651935445E+00 a       261     0    11     1    11
  5.3758576542988745E-01 a       262     0    11     1    12
  2.2354761445944460E+00 a       263     0    11     1    13
  6.9900220291024640E-01 a       264     0    11     1    14
 -1.0637625434724129E+00 a       265     0    11     1    15
 -3.3814867866837983E-01 a       266     0    11     1    16
 -3.3371651946269076E+00 a       267     0    11     1    17
 -2.4337092838640864E+00 a       268     0    11     1    18
  2.3044003103836377E-01 a       269     0    11     1    19
 -3.0505858944085618E+00 a       270     0    11     1    20
  1.7444744419830021E+00 a       271     0    11     1    21
  6.0906474566903568E-01 a       272     0    11     1    22
 -1.0156453466929987E+00 a       273     0    11     1    23
 -7.4129313643608252E-01 a       274     0    11     1    24
 -7.4574759803658885E-01 a       275     0    11     1    25
 -8.1313075649884908E-02 a       276     0    12     1     1
  1.2742750180663101E+00 a       277     0    12     1     2
 -5.1532998213378844E-01 a       278     0    12     1     3
  1.5946485080845074E+00 a       279     0    12     1     4
 -3.2044356838680392E+00 a       280     0    12     1     5
  6.7380883325377550E-01 a       281     0    12     1     6
 -8.5767449309445520E-01 a       282     0    12     1     7
  1.2778800982009360E+00 a       283     0    12     1     8
 -1.0652046283086514E+00 a       284     0    12     1     9
 -2.9883378261051491E-01 a       285     0    12     1    10
 -4.2847594105942910E-01 a       286     0    12     1    11
  1.9547208908130018E+00 a       287     0    12     1    12
  6.7840805212903796E-02 a       288     0    12     1    13
 -6.2054944691736857E-01 a       289     0    12     1    14
 -2.6972693339271254E+00 a       290     0    12     1    15
 -3.5510363263948252E-01 a       291     0    12     1    16
 -4.4491589228579109E-01 a       292     0    12     1    17
  3.0578222036370978E-01 a       293     0    12     1    18
  1.3871902255527300E+00 a       294     0    12     1    19
 -6.3430025606367046E-01 a       295     0    12     1    20
  2.7333112023303935E-01 a       296     0    12     1    21
  1.5244067162378432E+00 a       297     0    12     1    22
  6.0896341083068817E-01 a       298     0    12     1    23
 -4.0098305774835508E-01 a       299     0    12     1    24
  7.4222465101453783E-01 a       300     0    12     1    25
 -2.1804445774215242E-01 a       301     0    13     1     1
 -1.2593749236973397E+00 a       302     0    13     1     2
  1.1037097526683133E+00 a       303     0    13     1     3
 -1.0335475825309024E+00 a       304     0    13     1     4
  4.3652724015282267E+00 a       305     0    13     1     5
 -3.8277127976700509E-01 a       306     0    13     1     6
  2.9958333145011657E+00 a       307     0    13     1     7
  4.3099628945874663E-03 a       308     0    13     1     8
 -1.2973163607385529E+00 a       309     0    13     1     9
 -1.4859560839591890E+00 a       310     0    13     1    10
  1.9476333636939720E+00 a       311     0    13     1    11
 -2.8766194850153979E+00 a       312     0    13     1    12
  1.1758460509753914E+00 a       313     0    13     1    13
  1.0792792938051043E+00 a       314     0    13     1    14
  1.1613287539398209E+00 a       315     0    13     1    15
 -2.5453962968848134E+00 a       316     0    13     1    16
 -4.3322230138392798E-01 a       317     0    13     1    17
 -1.0111966459535637E+00 a       318     0    13     1    18
 -2.1430261114556964E-01 a       319     0    13     1    19
 -2.1059883955345846E+00 a       320     0    13     1    20
  4.6212963207555724E-01 a       321     0    13     1    21
 -8.3516657287941187E-01 a       322     0    13     1    22
 -8.7578767495765009E-01 a       323     0    13     1    23
  2.8755463022532664E+00 a       324     0    13     1    24
  4.8043721753900637E-01 a       325     0    13     1    25
  2.1276157836531890E+00 a       326     0    14     1     1
  8.9165784867372172E-02 a       327     0    14     1     2
 -1.3400358052660220E+00 a       328     0    14     1     3
  1.2527917966374833E+00 a       329     0    14     1     4
 -9.4310886509459413E-01 a       330     0    14     1     5
  1.2615420995131030E+00 a       331     0    14     1     6
 -4.0951874718582365E-01 a       332     0    14     1     7
  2.3659791599637843E+00 a       333     0    14     1     8
  8.4443530734081962E-01 a       334     0    14     1     9
 -1.7775466071543272E-01 a       335     0    14     1    10
 -1.4787009672764897E+00 a       336     0    14     1    11
  1.2769218804656304E+00 a       337     0    14     1    12
  1.7066167084507775E+00 a       338     0    14     1    13
 -1.2591393387052043E+00 a       339     0    14     1    14
  2.4801734087071949E+00 a       340     0    14     1    15
  5.0932490607382708E-01 a       341     0    14     1    16
  9.2590168826633779E-01 a       342     0    14     1    17
  1.0339129869447667E+00 a       343     0    14     1    18
  3.6361096647965840E-01 a       344     0    14     1    19
  5.6160375152450970E-01 a       345     0    14     1    20
  1.2499090586622550E+00 a       346     0    14     1    21
  2.3779854998878289E-01 a       347     0    14     1    22
  2.5239497521280757E-01 a       348     0    14     1    23
 -8.1304582466225439E-01 a       349     0    14     1    24
 -2.6771982083111634E-01 a       350     0    14     1    25
  1.6548878648980145E+00 a       351     0    15     1     1
  1.0403278641876763E+00 a       352     0    15     1     2
  7.2039659205817885E-01 a       353     0    15     1     3
  9.6007116686921767E-01 a       354     0    15     1     4
 -4.2058689506099354E+00 a       355     0    15     1     5
 -2.5764879884252192E+00 a       356     0    15     1     6
 -1.2005725040494426E+00 a       357     0    15     1     7
  1.6849563296105960E+00 a       358     0    15     1     8
 -2.9588602099044731E-01 a       359     0    15     1     9
  1.1678088144097969E+00 a       360     0    15     1    10
 -2.3623308942439700E+00 a       361     0    15     1    11
  4.0260659552090159E+00 a       362     0    15     1    12
  7.1719954775565098E-01 a       363     0    15     1    13
 -2.5222928957493114E+00 a       364     0    15     1    14
 -7.3065726837622336E-01 a       365     0    15     1    15
  5.8863056478862219E-01 a       366     0    15     1    16
  2.3989185425609055E-01 a       367     0    15     1    17
 -6.0685325320056238E-01 a       368     0    15     1    18
  1.8100211584161063E+00 a       369     0    15     1    19
  3.7113838792409454E-01 a       370     0    15     1    20
  1.8908789269701058E+00 a       371     0    15     1    21
  1.9620996178873933E+00 a       372     0    15     1    22
 -3.7667216910560153E-01 a       373     0    15     1    23
 -2.7322694948240450E-01 a       374     0    15     1    24
 -3.3338094279750285E-01 a       375     0    15     1    25
 -1.7469499244261781E+00 a       376     0    16     1     1
 -1.0202785807960011E+00 a       377     0    16     1     2
  3.5599365082147788E-01 a       378     0    16     1     3
 -1.4516581003862730E+00 a       379     0    16     1     4
  3.9138907484878165E+00 a       380     0    16     1     5
  1.1807141848483145E+00 a       381     0    16     1     6
  1.8390498603369050E+00 a       382     0    16     1     7
 -1.7283457108745286E+00 a       383     0    16     1     8
 -9.5107581406463526E-01 a       384     0    16     1     9
 -5.6430562971070308E-01 a       385     0    16     1    10
  2.2396696457947103E+00 a       386     0    16     1    11
 -2.3049048344947169E+00 a       387     0    16     1    12
 -3.9573967163720897E-01 a       388     0    16     1    13
  1.5572679411013326E+00 a       389     0    16     1    14
  2.6187019455125631E+00 a       390     0    16     1    15
 -8.1129636826325194E-02 a       391     0    16     1    16
  4.9720923491640340E-01 a       392     0    16     1    17
  4.5960688147983604E-02 a       393     0    16     1    18
 -7.7276515164458859E-01 a       394     0    16     1    19
  4.8361205706415368E-02 a       395     0    16     1    20
 -1.2805995029974262E+00 a       396     0    16     1    21
 -9.6318322338181062E-01 a       397     0    16     1    22
  9.2752148784275540E-02 a       398     0    16     1    23
  1.8634971457527878E+00 a       399     0    16     1    24
  1.2479052314862869E-01 a       400     0    16     1    25
  1.5674321081941029E+00 a       401     0    17     1     1
  1.7428321871282981E+00 a       402     0    17     1     2
 -2.6666562607765218E+00 a       403     0    17     1     3
  8.8536479557123393E-01 a       404     0    17     1     4
 -6.1227202774856151E+00 a       405     0    17     1     5
 -2.8992546390887675E-01 a       406     0    17     1     6
 -4.7252984019036255E+00 a       407     0    17     1     7
  1.6577589637145271E+00 a       408     0    17     1     8
  2.2423541893806231E-01 a       409     0    17     1     9
  1.5017048898680587E+00 a       410     0    17     1    10
 -3.5109514081766919E+00 a       411     0    17     1    11
  4.0331316298382793E+00 a       412     0    17     1    12
 -1.2514250114174321E+00 a       413     0    17     1    13
 -1.6759469853036986E+00 a       414     0    17     1    14
 -1.2142188116158985E+00 a       415     0    17     1    15
  1.3549002781422483E+00 a       416     0    17     1    16
  1.8568899841433126E+00 a       417     0    17     1    17
  2.6523184868218741E+00 a       418     0    17     1    18
 -1.4063504352452989E+00 a       419     0    17     1    19
  7.0664827140325492E-01 a       420     0    17     1    20
 -4.3302481391537773E-01 a       421     0    17     1    21
 -2.4449693466597072E-01 a       422     0    17     1    22
  2.6121642392077915E-01 a       423     0    17     1    23
 -1.7737084911261229E+00 a       424     0    17     1    24
 -3.5853078593136964E+00 a       425     0    17     1    25
 -4.7669245220974904E-01 a       426     0    18     1     1
 -4.2465145129582673E+00 a       427     0    18     1     2
  8.9857068480874047E-01 a       428     0    18     1     3
 -3.3578109806763323E+00 a       429     0    18     1     4
  6.2590171037297959E-01 a       430     0    18     1     5
 -2.5135418888600451E+00 a       431     0    18     1     6
 -1.6779491399008944E-01 a       432     0    18     1     7
 -5.7321873628728568E+00 a       433     0    18     1     8
  5.3317749543285409E-01 a       434     0    18     1     9
 -8.8512656710736648E-01 a       435     0    18     1    10
  2.3038945868320257E+00 a       436     0    18     1    11
  3.9622746530936165E-01 a       437     0    18     1    12
 -3.6275489189262782E+00 a       438     0    18     1    13
  2.6718172400920848E+00 a       439     0    18     1    14
 -2.2979951346619010E+00 a       440     0    18     1    15
 -1.2380992725290971E+00 a       441     0    18     1    16
 -3.3658714308306297E+00 a       442     0    18     1    17
 -5.2788615468168831E-01 a       443     0    18     1    18
 -1.7294250880949138E+00 a       444     0    18     1    19
 -1.1571106543620631E+00 a       445     0    18     1    20
 -2.1852809225433334E+00 a       446     0    18     1    21
 -6.9777913246171352E-01 a       447     0    18     1    22
  3.0735565665970666E+00 a       448     0    18     1    23
  1.2723784463847856E+00 a       449     0    18     1    24
  2.2344092176388610E+00 a       450     0    18     1    25
 -1.7795432615491407E+00 a       451     0    19     1     1
 -6.8087534054418541E-01 a       452     0    19     1     2
  9.7221461001070308E-01 a       453     0    19     1     3
 -2.6847894671711878E+00 a       454     0    19     1     4
  7.6015560968993467E+00 a       455     0    19     1     5
  3.4399554393714613E+00 a       456     0    19     1     6
  4.9657873955770020E+00 a       457     0    19     1     7
 -2.6672970361103503E+00 a       458     0    19     1     8
 -5.6976480412044594E-01 a       459     0    19     1     9
  8.3315958355933006E-01 a       460     0    19     1    10
  2.3487224642555407E+00 a       461     0    19     1    11
 -4.9956309370417262E+00 a       462     0    19     1    12
  2.4004908340493131E-01 a       463     0    19     1    13
  5.0664502098044091E+00 a       464     0    19     1    14
  4.5040191295994075E-01 a       465     0    19     1    15
  2.5205321966119128E-02 a       466     0    19     1    16
 -1.6152954486767244E+00 a       467     0    19     1    17
 -1.2794282132216422E-01 a       468     0    19     1    18
 -8.6585765736870557E-01 a       469     0    19     1    19
 -1.5391089343681250E+00 a       470     0    19     1    20
 -2.2152310580994885E+00 a       471     0    19     1    21
 -6.0439198711698250E-01 a       472     0    19     1    22
 -4.3497640881630423E-01 a       473     0    19     1    23
  1.8703036662627490E+00 a       474     0    19     1    24
  2.0312234596402385E+00 a       475     0    19     1    25
  2.1958104303645662E-01 a       476     0    20     1     1
 -1.1461806824906273E+00 a       477     0    20     1     2
 -2.0712420655625663E-01 a       478     0    20     1     3
  1.3843725589706115E+00 a       479     0    20     1     4
 -2.7584018334317171E+00 a       480     0    20     1     5
 -1.4317165992031888E+00 a       481     0    20     1     6
 -3.8802319314868872E-01 a       482     0    20     1     7
 -1.0253861641637834E+00 a       483     0    20     1     8
  5.7734910495356428E-01 a       484     0    20     1     9
  9.4323954682432443E-01 a       485     0    20     1    10
 -1.6730626698959323E+00 a       486     0    20     1    11
 -5.0603132245589844E-01 a       487     0    20     1    12
 -1.1772969199969014E+00 a       488     0    20     1    13
 -2.3791456237960671E+00 a       489     0    20     1    14
 -1.7069044811598697E+00 a       490     0    20     1    15
 -3.2292108330440111E-01 a       491     0    20     1    16
 -8.1352040765016476E-01 a       492     0    20     1    17
  2.1441533941256780E-01 a       493     0    20     1    18
 -8.2774688217546033E-01 a       494     0    20     1    19
  1.3854706917488899E+00 a       495     0    20     1    20
  2.4604580268551297E+00 a       496     0    20     1    21
  3.7945825598405736E-01 a       497     0    20     1    22
 -1.1935773360921997E+00 a       498     0    20     1    23
 -3.5110529798772239E-01 a       499     0    20     1    24
 -2.2305212416647041E-01 a       500     0    20     1    25
 -2.7857063405096849E-01 a       501     0    21     1     1
  5.7811556891648311E-02 a       502     0    21     1     2
  9.7485538313288611E-01 a       503     0    21     1     3
 -2.2192223956299090E-01 a       504     0    21     1     4
  2.2161039254858386E+00 a       505     0    21     1     5
  4.8425903697318207E-01 a       506     0    21     1     6
  1.6597736929725515E+00 a       507     0    21     1     7
 -3.6783769881198808E-01 a       508     0    21     1     8
  6.2879102517645738E-02 a       509     0    21     1     9
 -2.3706781802577240E-01 a       510     0    21     1    10
  1.9782470531895380E+00 a       511     0    21     1    11
 -1.8175480763424972E+00 a       512     0    21     1    12
 -4.9950925878039709E-01 a       513     0    21     1    13
  1.4483540609436696E+00 a       514     0    21     1    14
  1.6452870907787114E+00 a       515     0    21     1    15
  5.9255939288873671E-01 a       516     0    21     1    16
 -9.2807377907453892E-01 a       517     0    21     1    17
 -1.7920778335272705E+00 a       518     0    21     1    18
  1.8359359100988228E+00 a       519     0    21     1    19
 -2.6981045251646824E-01 a       520     0    21     1    20
 -3.6283239393758016E-01 a       521     0    21     1    21
  1.0853085611803222E+00 a       522     0    21     1    22
 -4.9659318434245481E-01 a       523     0    21     1    23
 -1.6333874313038269E-01 a       524     0    21     1    24
  3.8591599179745550E+00 a       525     0    21     1    25
 -4.6812981016556049E-01 a       526     0    22     1     1
  1.8208870722473915E+00 a       527     0    22     1     2
 -3.3319715107978193E-01 a       528     0    22     1     3
  3.5473125216460768E+00 a       529     0    22     1     4
 -1.0487907533273029E+00 a       530     0    22     1     5
  5.9950289154086382E+00 a       531     0    22     1     6
  4.2728553525187329E-01 a       532     0    22     1     7
  1.0955515113132783E+00 a       533     0    22     1     8
 -1.8757794944751547E+00 a       534     0    22     1     9
  3.7691402915659866E-01 a       535     0    22     1    10
 -6.2596893180576241E-01 a       536     0    22     1    11
 -1.3503260804146688E+00 a       537     0    22     1    12
  2.4144659619671449E+00 a       538     0    22     1    13
 -9.2186510913476405E-01 a       539     0    22     1    14
  5.1256171427423702E-01 a       540     0    22     1    15
  1.4988039004526960E-01 a       541     0    22     1    16
  3.7361713367560214E+00 a       542     0    22     1    17
 -1.3689244949543871E+00 a       543     0    22     1    18
  2.3470030360448613E+00 a       544     0    22     1    19
  4.0033987533720716E-01 a       545     0    22     1    20
  4.5582785437903409E-02 a       546     0    22     1    21
  2.0449810934369558E-01 a       547     0    22     1    22
 -4.1131481033515023E+00 a       548     0    22     1    23
 -7.7323681754864970E-01 a       549     0    22     1    24
 -7.2554530403095685E-01 a       550     0    22     1    25
 -6.5186377193088640E-01 a       551     0    23     1     1
 -1.0678721092426895E+00 a       552     0    23     1     2
 -2.6863037105140036E-01 a       553     0    23     1     3
  3.1165775312910156E+00 a       554     0    23     1     4
 -5.5163779286562535E+00 a       555     0    23     1     5
 -2.6296010145511377E+00 a       556     0    23     1     6
 -3.4864244505517079E+00 a       557     0    23     1     7
 -9.3772080420631443E-01 a       558     0    23     1     8
 -7.6051833759476817E-01 a       559     0    23     1     9
 -1.0057172292251833E-02 a       560     0    23     1    10
 -1.1498571473717740E+00 a       561     0    23     1    11
  1.5452732222667918E+00 a       562     0    23     1    12
  1.0358577701692975E+00 a       563     0    23     1    13
 -3.2288296671513201E+00 a       564     0    23     1    14
 -2.8232358875675083E+00 a       565     0    23     1    15
  8.2906917284173287E-01 a       566     0    23     1    16
  1.4624048153090485E+00 a       567     0    23     1    17
  3.0840031434471998E-01 a       568     0    23     1    18
 -7.6810987299632760E-01 a       569     0    23     1    19
  8.6356101331614632E-01 a       570     0    23     1    20
  2.3928521237544481E-01 a       571     0    23     1    21
 -6.1355988977965759E-01 a       572     0    23     1    22
  1.1163493707428396E+00 a       573     0    23     1    23
 -1.5430066676258085E+00 a       574     0    23     1    24
  1.0224042318318591E+00 a       575     0    23     1    25
  3.8837228304734756E-01 a       576     0    24     1     1
  4.2692595869607863E-01 a       577     0    24     1     2
 -7.4460015486162456E-01 a       578     0    24     1     3
 -1.5630915806311492E+00 a       579     0    24     1     4
  3.4117000345641446E+00 a       580     0    24     1     5
 -5.2472733441950303E-02 a       581     0    24     1     6
  7.9024724085756548E-01 a       582     0    24     1     7
 -7.3764353551639572E-01 a       583     0    24     1     8
  4.9279663497098175E-01 a       584     0    24     1     9
  1.0884163002540412E+00 a       585     0    24     1    10
 -7.3845471463125689E-01 a       586     0    24     1    11
 -1.4681161505060628E-01 a       587     0    24     1    12
 -1.4371905943112102E+00 a       588     0    24     1    13
 -3.0993300368604487E-01 a       589     0    24     1    14
  7.2454566068171328E-02 a       590     0    24     1    15
  1.3717077373896729E+00 a       591     0    24     1    16
 -4.5990982492632659E-01 a       592     0    24     1    17
 -2.1584831276146632E+00 a       593     0    24     1    18
  1.7400245166107320E+00 a       594     0    24     1    19
 -2.8820506453926059E-01 a       595     0    24     1    20
 -3.4737414600826111E-01 a       596     0    24     1    21
  1.5610948253435004E+00 a       597     0    24     1    22
 -4.1492224040261133E-01 a       598     0    24     1    23
  9.2926550442266509E-01 a       599     0    24     1    24
 -1.3331766390815376E+00 a       600     0    24     1    25
 -2.1909882318491194E+00 a       601     0    25     1     1
 -2.8756974748724922E+00 a       602     0    25     1     2
  2.2036400224087944E+00 a       603     0    25     1     3
  1.1786108450663053E+00 a       604     0    25     1     4
 -1.5131690176011887E+00 a       605     0    25     1     5
 -7.9761839363118847E-01 a       606     0    25     1     6
  2.4958219213215518E+00 a       607     0    25     1     7
  2.5308933063052097E-01 a       608     0    25     1     8
  1.0304055312959250E+00 a       609     0    25     1     9
 -3.1696903287009963E+00 a       610     0    25     1    10
 -4.1282968998173264E-01 a       611     0    25     1    11
 -1.3146907568285551E+00 a       612     0    25     1    12
  1.1293401387189055E+00 a       613     0    25     1    13
 -2.9322219296653556E+00 a       614     0    25     1    14
 -1.2593026070892688E+00 a       615     0    25     1    15
 -3.9143301895474725E-01 a       616     0    25     1    16
  1.0424989621008866E-01 a       617     0    25     1    17
  5.9062967617436279E-01 a       618     0    25     1    18
  1.4345843445678810E+00 a       619     0    25     1    19
  7.3273848660685292E-01 a       620     0    25     1    20
  1.0324599008261495E+00 a       621     0    25     1    21
  6.1291162354920770E-01 a       622     0    25     1    22
  9.6240813597539554E-01 a       623     0    25     1    23
 -1.9471538484044137E+00 a       624     0    25     1    24
  3.1383486534002141E+00 a       625     0    25     1    25
  3.1254696438120039E-02 a       626     0    26     1     1
  2.1603205868270443E+00 a       627     0    26     1     2
 -1.3396404373276416E+00 a       628     0    26     1     3
 -2.4727248709789967E-01 a       629     0    26     1     4
  7.7622799213917670E-01 a       630     0    26     1     5
  8.3776918627644337E-01 a       631     0    26     1     6
 -4.6035112523805316E-01 a       632     0    26     1     7
 -5.1394534975832928E-01 a       633     0    26     1     8
  1.6035618023467060E+00 a       634     0    26     1     9
 -7.9412071450993438E-01 a       635     0    26     1    10
  2.4676545472217004E-01 a       636     0    26     1    11
  2.9593396635865030E+00 a       637     0    26     1    12
 -2.0497625596833844E+00 a       638     0    26     1    13
  7.7809346243594846E-01 a       639     0    26     1    14
  5.8414944381361322E-01 a       640     0    26     1    15
 -1.3333960410083590E+00 a       641     0    26     1    16
  1.2195229734244468E+00 a       642     0    26     1    17
  4.0871660847074376E-01 a       643     0    26     1    18
  1.4459295372393144E+00 a       644     0    26     1    19
  2.6874327513799917E-01 a       645     0    26     1    20
 -1.2551402788645034E+00 a       646     0    26     1    21
 -1.4084630850528856E+00 a       647     0    26     1    22
 -1.1279657788541522E+00 a       648     0    26     1    23
 -1.6565009569977180E+00 a       649     0    26     1    24
 -1.0892358850705350E+00 a       650     0    26     1    25
 -8.9498556620195444E-02 a       651     0    27     1     1
 -1.8414586226404475E-01 a       652     0    27     1     2
 -4.4556932211013212E-01 a       653     0    27     1     3
  2.8869324683998271E-01 a       654     0    27     1     4
 -9.1642860242010926E-01 a       655     0    27     1     5
  3.8100800846856864E-01 a       656     0    27     1     6
 -3.0827592128071657E-01 a       657     0    27     1     7
 -7.0627391216737800E-01 a       658     0    27     1     8
 -4.4462065519831107E-01 a       659     0    27     1     9
  3.5238913478588496E-01 a       660     0    27     1    10
  5.9985630485307595E-01 a       661     0    27     1    11
 -3.8608677822587290E-01 a       662     0    27     1    12
 -3.8001107226912384E-01 a       663     0    27     1    13
  2.1508848202945338E-02 a       664     0    27     1    14
  8.3733868496703775E-03 a       665     0    27     1    15
  9.9104439188635471E-02 a       666     0    27     1    16
 -9.5785906756199846E-01 a       667     0    27     1    17
  3.1111145609319024E-01 a       668     0    27     1    18
  5.6055108255495389E-01 a       669     0    27     1    19
  1.4339570602293464E-01 a       670     0    27     1    20
  9.4174401202070601E-01 a       671     0    27     1    21
  1.6702696291098196E-01 a       672     0    27     1    22
  4.2094326963223394E-01 a       673     0    27     1    23
 -2.1329589833242493E-01 a       674     0    27     1    24
  7.1504968800541446E-01 a       675     0    27     1    25
 -6.0132589800506819E-01 a       676     0    28     1     1
  1.1321816540962495E+00 a       677     0    28     1     2
  1.8689227988206239E-01 a       678     0    28     1     3
 -7.3248391330970923E+00 a       679     0    28     1     4
  5.8385062267088994E+00 a       680     0    28     1     5
 -1.0426479032564879E+00 a       681     0    28     1     6
  1.1383876283701509E-01 a       682     0    28     1     7
  7.4497417736657717E-02 a       683     0    28     1     8
  2.2524002436214667E+00 a       684     0    28     1     9
 -3.1516641136782604E+00 a       685     0    28     1    10
  3.1631057506740912E+00 a       686     0    28     1    11
 -2.0562245272319526E+00 a       687     0    28     1    12
 -3.5654658270408146E+00 a       688     0    28     1    13
  2.6176469769944855E+00 a       689     0    28     1    14
  1.0268405255530331E+00 a       690     0    28     1    15
  1.4302446509420843E+00 a       691     0    28     1    16
  1.9703094432996917E+00 a       692     0    28     1    17
  7.6304407325412760E-01 a       693     0    28     1    18
  1.2293679098210965E-01 a       694     0    28     1    19
  5.6444165185921380E-01 a       695     0    28     1    20
 -7.8840431147216323E+00 a       696     0    28     1    21
  3.0782681829587616E-01 a       697     0    28     1    22
  2.3255123055430363E-01 a       698     0    28     1    23
  2.1344441209537952E+00 a       699     0    28     1    24
 -2.5373456644701213E+00 a       700     0    28     1    25
 -2.5315025008229314E-01 a       701     0    29     1     1
 -9.3374160446509494E-02 a       702     0    29     1     2
  5.2781777078547565E-01 a       703     0    29     1     3
  5.5956512676624201E-02 a       704     0    29     1     4
  4.8170925779344669E-02 a       705     0    29     1     5
  5.1991978425923191E-01 a       706     0    29     1     6
  9.2227019676843200E-02 a       707     0    29     1     7
 -1.5348707112897589E-01 a       708     0    29     1     8
 -4.2645719278817558E-02 a       709     0    29     1     9
 -1.6724929798828950E-01 a       710     0    29     1    10
  8.8209917090244144E-02 a       711     0    29     1    11
  2.2760709321773334E-01 a       712     0    29     1    12
  1.4345394964554575E-01 a       713     0    29     1    13
 -1.9615139337077184E-01 a       714     0    29     1    14
  1.6809800197539504E-01 a       715     0    29     1    15
 -1.4989496868394245E-01 a       716     0    29     1    16
  1.4713733952541215E+00 a       717     0    29     1    17
  1.6006024568720434E-01 a       718     0    29     1    18
  5.5972091588722050E-01 a       719     0    29     1    19
  7.3742375606091026E-01 a       720     0    29     1    20
  5.9581171104026576E-01 a       721     0    29     1    21
 -2.7521558689858944E-01 a       722     0    29     1    22
  1.3985397897038079E-01 a       723     0    29     1    23
 -7.1480285780562314E-01 a       724     0    29     1    24
  7.2097295306543085E-01 a       725     0    29     1    25
 -1.0356637155722585E-01 a       726     0    30     1     1
 -4.0996421843602260E-01 a       727     0    30     1     2
  8.9521889475594182E-02 a       728     0    30     1     3
  4.5156569362539728E-01 a       729     0    30     1     4
 -4.6569688523354463E-01 a       730     0    30     1     5
  9.5871795171952423E-01 a       731     0    30     1     6
  3.9838872515328366E-01 a       732     0    30     1     7
  2.1083331674201964E+00 a       733     0    30     1     8
 -5.5814612223435944E-01 a       734     0    30     1     9
 -1.1327655349447976E+00 a       735     0    30     1    10
 -5.2495174961458313E-01 a       736     0    30     1    11
 -1.1376211420881603E-01 a       737     0    30     1    12
 -7.4504316932448933E-01 a       738     0    30     1    13
  6.7866754625497028E-01 a       739     0    30     1    14
  4.3827307815255356E-01 a       740     0    30     1    15
  1.5022163171705127E-01 a       741     0    30     1    16
  2.9626043700951377E-01 a       742     0    30     1    17
 -1.1056117188483543E+00 a       743     0    30     1    18
  4.3149681880741048E-01 a       744     0    30     1    19
 -9.7792624330938371E-01 a       745     0    30     1    20
 -3.4175098226380063E-01 a       746     0    30     1    21
 -4.0799216921488679E-01 a       747     0    30     1    22
  4.7034260193746175E-01 a       748     0    30     1    23
  1.5660740101881485E-01 a       749     0    30     1    24
 -3.4304920254336613E-01 a       750     0    30     1    25
  1.3362722526427478E-01 a       751     0    31     1     1
 -3.7855724964127901E-01 a       752     0    31     1     2
  7.2312333736144936E-03 a       753     0    31     1     3
  4.5219233435069256E-01 a       754     0    31     1     4
 -2.9950758171507663E-01 a       755     0    31     1     5
  1.0268732830983638E+00 a       756     0    31     1     6
  8.0777389986452619E-02 a       757     0    31     1     7
  1.9404472378255733E+00 a       758     0    31     1     8
 -5.2771046449858916E-01 a       759     0    31     1     9
 -9.1085649707441663E-01 a       760     0    31     1    10
 -4.3295750844165548E-01 a       761     0    31     1    11
 -1.0408762758690479E-01 a       762     0    31     1    12
 -1.0651980672137797E+00 a       763     0    31     1    13
  8.3810974146241857E-01 a       764     0    31     1    14
  5.2928033294498233E-01 a       765     0    31     1    15
  1.9966730865319776E-01 a       766     0    31     1    16
  2.6002089893401037E-01 a       767     0    31     1    17
 -9.7518059447126049E-01 a       768     0    31     1    18
  6.9046308642534182E-01 a       769     0    31     1    19
 -1.0017742980001825E+00 a       770     0    31     1    20
 -4.6025588868924650E-01 a       771     0    31     1    21
 -5.8483447866515748E-01 a       772     0    31     1    22
  6.1671311083417868E-01 a       773     0    31     1    23
  2.4443200961725797E-01 a       774     0    31     1    24
 -2.9326376025017481E-01 a       775     0    31     1    25
 -6.5496840013629587E-01 a       776     0    32     1     1
 -1.3234442316722721E+00 a       777     0    32     1     2
 -1.0241745140070180E+00 a       778     0    32     1     3
 -2.5898859460609654E-02 a       779     0    32     1     4
  4.5588707602363227E-01 a       780     0    32     1     5
 -6.2284375065386222E-01 a       781     0    32     1     6
  2.0470287008004200E+00 a       782     0    32     1     7
  1.3083806335808998E+00 a       783     0    32     1     8
  1.6117931757684889E+00 a       784     0    32     1     9
 -3.1802993774863025E-01 a       785     0    32     1    10
 -5.4168243526362991E-01 a       786     0    32     1    11
  8.9316716198576662E-01 a       787     0    32     1    12
  8.6234929317201822E-02 a       788     0    32     1    13
  1.1787885039603321E+00 a       789     0    32     1    14
 -1.4757537682606885E+00 a       790     0    32     1    15
 -1.0268618346021050E-01 a       791     0    32     1    16
 -1.9670357242385859E+00 a       792     0    32     1    17
  1.5663052045179298E+00 a       793     0    32     1    18
 -6.5572959246437679E-01 a       794     0    32     1    19
 -1.6348466691107539E+00 a       795     0    32     1    20
  1.3497396269459960E+00 a       796     0    32     1    21
 -8.5424182719950970E-01 a       797     0    32     1    22
  1.0701387886564597E+00 a       798     0    32     1    23
 -1.2452785053784625E+00 a       799     0    32     1    24
 -2.9498811067762554E-01 a       800     0    32     1    25
 -6.8754784291722659E-01 a       801     0    33     1     1
 -1.3084860835092325E+00 a       802     0    33     1     2
 -9.6287052352139380E-01 a       803     0    33     1     3
  2.1519247213365925E-01 a       804     0    33     1     4
  5.2617792205675973E-01 a       805     0    33     1     5
 -2.9890397197852059E-01 a       806     0    33     1     6
  2.0525908082437136E+00 a       807     0    33     1     7
  1.3942189545735295E+00 a       808     0    33     1     8
  1.2879686559983203E+00 a       809     0    33     1     9
 -1.8709493042267664E-01 a       810     0    33     1    10
 -3.1939719398586586E-01 a       811     0    33     1    11
  7.0119735038595821E-01 a       812     0    33     1    12
 -6.5864997564524658E-03 a       813     0    33     1    13
  1.1605218455009660E+00 a       814     0    33     1    14
 -1.3796739855709297E+00 a       815     0    33     1    15
  5.7595951620937960E-02 a       816     0    33     1    16
 -1.7597881307845331E+00 a       817     0    33     1    17
  1.5024280144001341E+00 a       818     0    33     1    18
 -4.5459530722695513E-01 a       819     0    33     1    19
 -1.4367028543916387E+00 a       820     0    33     1    20
  1.6227119946326714E+00 a       821     0    33     1    21
 -9.4856951526370181E-01 a       822     0    33     1    22
  1.0139382962920480E+00 a       823     0    33     1    23
 -1.2054645139816935E+00 a       824     0    33     1    24
 -3.1309655132850345E-01 a       825     0    33     1    25
 -2.7203661669421769E-01 a       826     0    34     1     1
 -3.4384648975095966E-02 a       827     0    34     1     2
  1.1248073852008127E+00 a       828     0    34     1     3
 -1.9061454565505453E-01 a       829     0    34     1     4
  6.4707440752726397E-01 a       830     0    34     1     5
 -1.1763573346075471E+00 a       831     0    34     1     6
 -3.6364000924694517E-01 a       832     0    34     1     7
 -4.6304718580231602E-01 a       833     0    34     1     8
  1.0684764964263176E-01 a       834     0    34     1     9
  5.2006332893652529E-01 a       835     0    34     1    10
 -1.0888234600345437E+00 a       836     0    34     1    11
  1.1928853649689473E+00 a       837     0    34     1    12
  6.7310446072565777E-01 a       838     0    34     1    13
  2.2169131393776284E-01 a       839     0    34     1    14
 -1.1599706041531948E+00 a       840     0    34     1    15
 -4.1318691844606836E-01 a       841     0    34     1    16
  1.5902233352609485E-01 a       842     0    34     1    17
 -6.0626730629538761E-01 a       843     0    34     1    18
 -2.9727625671486374E-02 a       844     0    34     1    19
 -8.1967963764604423E-01 a       845     0    34     1    20
 -2.3629841129539946E+00 a       846     0    34     1    21
  1.1075036293025500E-01 a       847     0    34     1    22
 -3.7093325328128812E-01 a       848     0    34     1    23
 -7.4458919809728619E-01 a       849     0    34     1    24
 -2.7380149572241591E-01 a       850     0    34     1    25
 -1.0523613827858487E+00 a       851     0    35     1     1
  1.2955204704809433E+00 a       852     0    35     1     2
  2.8767991656491025E+00 a       853     0    35     1     3
 -5.2031405926999075E-01 a       854     0    35     1     4
  2.1451872434163026E+00 a       855     0    35     1     5
  7.5838480662474739E-01 a       856     0    35     1     6
 -2.1369447729706992E+00 a       857     0    35     1     7
  1.2796358368180352E+00 a       858     0    35     1     8
  1.1157014447578590E+00 a       859     0    35     1     9
  1.6850991302903476E-01 a       860     0    35     1    10
  1.3089494013561529E+00 a       861     0    35     1    11
 -3.7889555663651819E-01 a       862     0    35     1    12
 -1.2257519975280702E+00 a       863     0    35     1    13
  2.1756481362364961E+00 a       864     0    35     1    14
  8.4469181365400747E-01 a       865     0    35     1    15
 -6.9186736627952272E-01 a       866     0    35     1    16
 -1.7489613013354158E-01 a       867     0    35     1    17
 -1.8555815787315428E+00 a       868     0    35     1    18
  3.1633238230872768E-01 a       869     0    35     1    19
  1.1031749487628761E+00 a       870     0    35     1    20
  4.0013006161508741E-01 a       871     0    35     1    21
  5.9298846259361115E-01 a       872     0    35     1    22
  1.3401752261165567E+00 a       873     0    35     1    23
  4.8619332984191094E-01 a       874     0    35     1    24
  3.8489617916876534E-01 a       875     0    35     1    25
 -1.1899197515808473E+00 a       876     0    36     1     1
  1.3166263731616352E+00 a       877     0    36     1     2
  3.0773341816268780E+00 a       878     0    36     1     3
 -5.5469631877901615E-01 a       879     0    36     1     4
  1.9183694835439891E+00 a       880     0    36     1     5
  5.4152117886519890E-01 a       881     0    36     1     6
 -2.1871647081235341E+00 a       882     0    36     1     7
  1.1979614524537117E+00 a       883     0    36     1     8
  9.6819016674984393E-01 a       884     0    36     1     9
  1.3965777141058103E-01 a       885     0    36     1    10
  1.3123342242502896E+00 a       886     0    36     1    11
 -2.9812794495670591E-01 a       887     0    36     1    12
 -9.9231275767941252E-01 a       888     0    36     1    13
  2.2588683615888447E+00 a       889     0    36     1    14
  5.5789446736557713E-01 a       890     0    36     1    15
 -5.0978296950707336E-01 a       891     0    36     1    16
 -1.7690345567974164E-01 a       892     0    36     1    17
 -1.5812961942960611E+00 a       893     0    36     1    18
  5.4032431496260469E-01 a       894     0    36     1    19
  1.0918135624987171E+00 a       895     0    36     1    20
  5.4815752885370561E-01 a       896     0    36     1    21
  6.1357089348159322E-01 a       897     0    36     1    22
  1.3494566285370149E+00 a       898     0    36     1    23
  4.1640463695237268E-01 a       899     0    36     1    24
  4.7842491793720199E-01 a       900     0    36     1    25
  2.3439971932097789E-01 a       901     0    37     1     1
  1.1788311807369296E+00 a       902     0    37     1     2
 -2.3345901268961763E-01 a       903     0    37     1     3
 -3.0174515137254585E-02 a       904     0    37     1     4
 -2.0233424825695806E-01 a       905     0    37     1     5
  7.5285646791038763E-01 a       906     0    37     1     6
 -1.3164363882096415E+00 a       907     0    37     1     7
 -3.9752006195110190E-01 a       908     0    37     1     8
 -9.0369183099989248E-01 a       909     0    37     1     9
  5.0659314853168125E-01 a       910     0    37     1    10
  9.8593974265725093E-01 a       911     0    37     1    11
  5.3960315039021522E-01 a       912     0    37     1    12
 -5.5353827281361201E-01 a       913     0    37     1    13
 -1.0753391899665234E+00 a       914     0    37     1    14
  6.1534940046144659E-01 a       915     0    37     1    15
 -2.1977246829837449E-01 a       916     0    37     1    16
  1.2351991850383466E+00 a       917     0    37     1    17
 -1.0131692584834562E+00 a       918     0    37     1    18
  2.3077202747957098E-01 a       919     0    37     1    19
  5.3881598444011547E-01 a       920     0    37     1    20
 -6.6655082206028937E-01 a       921     0    37     1    21
  4.3592597063402050E-01 a       922     0    37     1    22
 -9.9877562201626280E-01 a       923     0    37     1    23
  6.9365638730728163E-01 a       924     0    37     1    24
 -4.2925175897741120E-02 a       925     0    37     1    25
  4.5794574154202367E-01 a       926     0    38     1     1
  1.3782575694127055E+00 a       927     0    38     1     2
  1.7802079652138158E-02 a       928     0    38     1     3
 -2.5172792226327317E-01 a       929     0    38     1     4
 -2.9387437866126209E-01 a       930     0    38     1     5
  9.9477699080620052E-01 a       931     0    38     1     6
 -1.3010675183668976E+00 a       932     0    38     1     7
 -5.9663337300424368E-01 a       933     0    38     1     8
 -1.1584882319555008E+00 a       934     0    38     1     9
  3.8120627521533768E-01 a       935     0    38     1    10
  8.5071402233409221E-01 a       936     0    38     1    11
  4.7583352592471617E-01 a       937     0    38     1    12
 -3.6554634321349072E-01 a       938     0    38     1    13
 -1.2604369842455314E+00 a       939     0    38     1    14
  4.4907683107829083E-01 a       940     0    38     1    15
  2.4790892584222755E-02 a       941     0    38     1    16
  1.0922165985296235E+00 a       942     0    38     1    17
 -1.1051552699878200E+00 a       943     0    38     1    18
  2.7167921940076872E-01 a       944     0    38     1    19
  4.6296677318864737E-01 a       945     0    38     1    20
 -6.4360012477176787E-01 a       946     0    38     1    21
  3.8898475261154464E-01 a       947     0    38     1    22
 -8.2421194319930791E-01 a       948     0    38     1    23
  7.4939704617039604E-01 a       949     0    38     1    24
  2.8999237491126064E-02 a       950     0    38     1    25
  6.4977111230549611E-01 a       951     0    39     1     1
 -6.1639205980885226E-01 a       952     0    39     1     2
 -2.7014896374573825E+00 a       953     0    39     1     3
  1.9493426203810565E-01 a       954     0    39     1     4
 -1.4315204037147182E+00 a       955     0    39     1     5
 -3.1772936588791501E-01 a       956     0    39     1     6
  1.7692657147423816E+00 a       957     0    39     1     7
 -6.4305334775908907E-01 a       958     0    39     1     8
 -4.1093350119247490E-01 a       959     0    39     1     9
  1.8073657090115403E-01 a       960     0    39     1    10
 -6.6001957691328761E-01 a       961     0    39     1    11
  1.1475732814476380E-01 a       962     0    39     1    12
  6.4886500807738756E-01 a       963     0    39     1    13
 -1.7362609395941715E+00 a       964     0    39     1    14
 -4.1956480854576211E-01 a       965     0    39     1    15
  5.5554753348299624E-01 a       966     0    39     1    16
  3.0378445880686827E-01 a       967     0    39     1    17
  1.1323575149561489E+00 a       968     0    39     1    18
 -5.4454066596361250E-01 a       969     0    39     1    19
 -7.6875470965633208E-01 a       970     0    39     1    20
  6.6003882170799577E-01 a       971     0    39     1    21
 -2.0883549563584355E-01 a       972     0    39     1    22
 -1.7234463298319913E+00 a       973     0    39     1    23
 -3.3825902960041743E-01 a       974     0    39     1    24
 -2.5554382037924345E-01 a       975     0    39     1    25
  7.1888768323129271E-01 a       976     0    40     1     1
 -6.3898018214839003E-01 a       977     0    40     1     2
 -2.5570832863071837E+00 a       978     0    40     1     3
 -6.7424116810159404E-02 a       979     0    40     1     4
 -1.5612759207040818E+00 a       980     0    40     1     5
 -4.9682028091016583E-01 a       981     0    40     1     6
  1.9186526940666282E+00 a       982     0    40     1     7
 -7.5311981285456664E-01 a       983     0    40     1     8
 -4.9856872703577049E-01 a       984     0    40     1     9
  2.0091544151784277E-01 a       985     0    40     1    10
 -7.2373558777951397E-01 a       986     0    40     1    11
  1.9480154629080038E-01 a       987     0    40     1    12
  7.4804170222520849E-01 a       988     0    40     1    13
 -1.7508098488320132E+00 a       989     0    40     1    14
 -2.9049186025729024E-01 a       990     0    40     1    15
  5.3038989904509481E-01 a       991     0    40     1    16
  4.4486897852768259E-01 a       992     0    40     1    17
  1.2357053910723899E+00 a       993     0    40     1    18
 -8.1913979305210394E-01 a       994     0    40     1    19
 -7.3896904044257228E-01 a       995     0    40     1    20
  6.3081635821906235E-01 a       996     0    40     1    21
 -2.7692289025020544E-01 a       997     0    40     1    22
 -1.4338178556364256E+00 a       998     0    40     1    23
 -3.4211627638163628E-01 a       999     0    40     1    24
 -4.1798177730140901E-01 a      1000     0    40     1    25
 -2.5342005687378738E-01 a      1001     0    41     1     1
 -4.2757967271382907E-01 a      1002     0    41     1     2
  2.4680308723858560E-01 a      1003     0    41     1     3
  2.6161825178865611E-01 a      1004     0    41     1     4
 -7.3934547913453486E-01 a      1005     0    41     1     5
 -4.2093527599179170E-01 a      1006     0    41     1     6
 -8.8608043618770505E-01 a      1007     0    41     1     7
 -7.6566611801822781E-02 a      1008     0    41     1     8
 -1.6308344967483550E+00 a      1009     0    41     1     9
 -2.3414982487705832E-01 a      1010     0    41     1    10
  6.1024748213131963E-01 a      1011     0    41     1    11
  2.0469997956008362E-01 a      1012     0    41     1    12
 -3.2867871542572630E-01 a      1013     0    41     1    13
 -1.1185014323385374E-01 a      1014     0    41     1    14
 -2.3148658306992195E-01 a      1015     0    41     1    15
 -8.8011394663530063E-01 a      1016     0    41     1    16
 -7.8049006133547860E-01 a      1017     0    41     1    17
 -5.4544401615365290E-01 a      1018     0    41     1    18
 -3.9386348049899639E-01 a      1019     0    41     1    19
  1.1961638602888540E+00 a      1020     0    41     1    20
  2.6940280684853468E-01 a      1021     0    41     1    21
  3.2525282447259796E-01 a      1022     0    41     1    22
  8.1858217545172152E-01 a      1023     0    41     1    23
 -3.4928614835097549E-01 a      1024     0    41     1    24
  4.5870251024807246E-01 a      1025     0    41     1    25
 -2.3476977781438138E-01 a      1026     0    42     1     1
 -2.6322057704193003E-01 a      1027     0    42     1     2
  3.0062208136534929E-01 a      1028     0    42     1     3
  2.6781584994864543E-01 a      1029     0    42     1     4
 -6.7216648213669761E-01 a      1030     0    42     1     5
 -5.1254952008654175E-01 a      1031     0    42     1     6
 -7.8531453124744743E-01 a      1032     0    42     1     7
 -2.1193961671685249E-01 a      1033     0    42     1     8
 -1.6001413804759768E+00 a      1034     0    42     1     9
 -2.9553220953183873E-01 a      1035     0    42     1    10
  5.4918659857249974E-01 a      1036     0    42     1    11
  3.1688351324036168E-01 a      1037     0    42     1    12
 -4.5122536028716731E-01 a      1038     0    42     1    13
 -1.1589501472577039E-01 a      1039     0    42     1    14
 -2.3604592083827872E-01 a      1040     0    42     1    15
 -7.0933629190004777E-01 a      1041     0    42     1    16
 -8.3193754630415162E-01 a      1042     0    42     1    17
 -8.1738486890556361E-01 a      1043     0    42     1    18
 -3.4401911788990891E-01 a      1044     0    42     1    19
  1.2994281865972124E+00 a      1045     0    42     1    20
  3.8562292063479980E-01 a      1046     0    42     1    21
  1.5008448681090077E-02 a      1047     0    42     1    22
  8.2624512113750193E-01 a      1048     0    42     1    23
 -1.4092714639219758E-01 a      1049     0    42     1    24
  6.4313278717557620E-01 a      1050     0    42     1    25
 -2.0105952697366138E+00 a      1051     0    43     1     1
 -3.1850719216650369E+00 a      1052     0    43     1     2
 -2.8094078489865563E-02 a      1053     0    43     1     3
 -8.8457817756977730E-01 a      1054     0    43     1     4
 -3.7325274150769343E+00 a      1055     0    43     1     5
  2.1619461247905683E-01 a      1056     0    43     1     6
  2.3091172286164512E+00 a      1057     0    43     1     7
  1.8734960157186040E+00 a      1058     0    43     1     8
 -3.2928809017590068E+00 a      1059     0    43     1     9
  1.0953695613889423E+00 a      1060     0    43     1    10
  5.4087155964307528E-02 a      1061     0    43     1    11
  7.2637108075390933E-01 a      1062     0    43     1    12
  2.3811254054424564E+00 a      1063     0    43     1    13
 -3.3370380113635206E-01 a      1064     0    43     1    14
 -3.6127339888576776E-01 a      1065     0    43     1    15
 -2.2912771626163606E-01 a      1066     0    43     1    16
 -1.6964823088973646E+00 a      1067     0    43     1    17
 -1.1199862827142530E+00 a      1068     0    43     1    18
 -1.5060115794916074E+00 a      1069     0    43     1    19
 -9.4361861273551451E-01 a      1070     0    43     1    20
 -3.0720892511234926E-01 a      1071     0    43     1    21
 -6.6165844893036393E-03 a      1072     0    43     1    22
 -4.0907905005163553E-01 a      1073     0    43     1    23
 -1.2475536493897907E+00 a      1074     0    43     1    24
  6.8922353881925358E-01 a      1075     0    43     1    25
  1.0454765659920828E-01 a      1076     0    44     1     1
 -1.3615741550729926E-01 a      1077     0    44     1     2
 -4.9936792111531403E-02 a      1078     0    44     1     3
  1.0959319316047499E-01 a      1079     0    44     1     4
 -2.9614298326951882E-01 a      1080     0    44     1     5
 -6.4324860722597577E-01 a      1081     0    44     1     6
 -1.7654094425181280E-01 a      1082     0    44     1     7
 -1.2735729708656213E-01 a      1083     0    44     1     8
  1.3784749173807517E-01 a      1084     0    44     1     9
  1.3191960085758794E-01 a      1085     0    44     1    10
 -3.2545443156396409E-01 a      1086     0    44     1    11
  5.2586046375364093E-01 a      1087     0    44     1    12
  2.0894925389529312E-01 a      1088     0    44     1    13
 -1.2409493996704614E-01 a      1089     0    44     1    14
  2.5668183498836117E-01 a      1090     0    44     1    15
  2.5881351639606132E-01 a      1091     0    44     1    16
  7.3984434739836971E-02 a      1092     0    44     1    17
  3.1795935431433625E-01 a      1093     0    44     1    18
  1.3699512791837429E-01 a      1094     0    44     1    19
 -2.2438245386944413E-02 a      1095     0    44     1    20
 -3.4862964085429654E-01 a      1096     0    44     1    21
 -3.3962202453769991E-01 a      1097     0    44     1    22
 -3.0077636357157311E-01 a      1098     0    44     1    23
 -1.0357224243276356E-01 a      1099     0    44     1    24
  1.0080766043672576E-01 a      1100     0    44     1    25
  1.1058854712984381E-01 a      1101     0    45     1     1
 -4.0499455028845760E-01 a      1102     0    45     1     2
  2.3126540649278338E-01 a      1103     0    45     1     3
 -5.6983684196966443E-02 a      1104     0    45     1     4
 -2.5653351647992928E-01 a      1105     0    45     1     5
 -8.3711854295042043E-01 a      1106     0    45     1     6
 -7.3480373811069297E-02 a      1107     0    45     1     7
 -3.4515810096230531E-01 a      1108     0    45     1     8
  2.7107241909149016E-01 a      1109     0    45     1     9
  3.4893064257930179E-01 a      1110     0    45     1    10
 -2.7348420664049972E-01 a      1111     0    45     1    11
  5.6131824907225247E-01 a      1112     0    45     1    12
  2.0080816622795570E-02 a      1113     0    45     1    13
  7.6634823575598435E-02 a      1114     0    45     1    14
  2.6798633666908017E-01 a      1115     0    45     1    15
  1.2606473445793878E-01 a      1116     0    45     1    16
  1.1941867278533852E-01 a      1117     0    45     1    17
  2.6971371768073127E-01 a      1118     0    45     1    18
 -6.6996803500370905E-02 a      1119     0    45     1    19
  2.3464484411010689E-01 a      1120     0    45     1    20
 -4.2367878209073895E-01 a      1121     0    45     1    21
 -4.2140192935408044E-01 a      1122     0    45     1    22
 -3.4087497923444821E-01 a      1123     0    45     1    23
 -1.7222267499243843E-01 a      1124     0    45     1    24
  3.5092949668068230E-01 a      1125     0    45     1    25
 -1.9423085953974328E-01 a      1126     0    46     1     1
  3.7855728461985982E-01 a      1127     0    46     1     2
  2.4186523836039417E-01 a      1128     0    46     1     3
  2.7441516019015955E-01 a      1129     0    46     1     4
 -1.2296088644335839E+00 a      1130     0    46     1     5
 -2.8859941934169847E-01 a      1131     0    46     1     6
 -4.8148278211981987E-01 a      1132     0    46     1     7
 -5.9285613754210587E-01 a      1133     0    46     1     8
 -1.1578570511283384E+00 a      1134     0    46     1     9
  4.2600513170416771E-01 a      1135     0    46     1    10
  2.5092500726911138E-01 a      1136     0    46     1    11
  6.2431535055878351E-01 a      1137     0    46     1    12
 -4.5252517303913942E-01 a      1138     0    46     1    13
 -3.9903828397741858E-01 a      1139     0    46     1    14
 -5.4280899326116550E-01 a      1140     0    46     1    15
 -9.8283579509274521E-01 a      1141     0    46     1    16
 -3.7686897798572067E-01 a      1142     0    46     1    17
 -2.5199332417615983E-01 a      1143     0    46     1    18
 -1.0105519322297310E-01 a      1144     0    46     1    19
  4.4628347122389356E-01 a      1145     0    46     1    20
  7.4051362623813222E-01 a      1146     0    46     1    21
  1.9197940016099641E-01 a      1147     0    46     1    22
  9.9004484042606555E-01 a      1148     0    46     1    23
  6.5577753851897319E-02 a      1149     0    46     1    24
 -2.7042314941941276E-01 a      1150     0    46     1    25
 -5.0886904280325163E-01 a      1151     0    47     1     1
  4.1196879834752781E-01 a      1152     0    47     1     2
  3.2115507434460261E-01 a      1153     0    47     1     3
  2.3625562911268114E-01 a      1154     0    47     1     4
 -1.3521438866208808E+00 a      1155     0    47     1     5
 -9.0132545297520086E-02 a      1156     0    47     1     6
 -6.7677889038017469E-01 a      1157     0    47     1     7
 -3.7903917265413012E-01 a      1158     0    47     1     8
 -8.6115836375919386E-01 a      1159     0    47     1     9
  2.6272314991851631E-01 a      1160     0    47     1    10
  2.6711324984002399E-01 a      1161     0    47     1    11
  8.3768532184152500E-01 a      1162     0    47     1    12
 -6.8543481640601989E-01 a      1163     0    47     1    13
 -4.2775361191351979E-01 a      1164     0    47     1    14
 -4.5541307422554667E-01 a      1165     0    47     1    15
 -7.7522997875817146E-01 a      1166     0    47     1    16
 -6.4731628658185036E-01 a      1167     0    47     1    17
 -3.8642144342184359E-01 a      1168     0    47     1    18
 -1.0393914184539928E-01 a      1169     0    47     1    19
  6.4630171661263680E-01 a      1170     0    47     1    20
  6.4457622041164275E-01 a      1171     0    47     1    21
  2.1239451980531596E-01 a      1172     0    47     1    22
  9.3754855572486029E-01 a      1173     0    47     1    23
 -2.7407840401647149E-01 a      1174     0    47     1    24
 -1.5802481490695125E-01 a      1175     0    47     1    25
  2.9582418891243434E-01 a      1176     0    48     1     1
  6.0114373976651869E-01 a      1177     0    48     1     2
  5.4729666665834314E-02 a      1178     0    48     1     3
  5.1083156597678869E-01 a      1179     0    48     1     4
  2.3612532184443982E-01 a      1180     0    48     1     5
  9.9125890297773300E-01 a      1181     0    48     1     6
 -1.1461221601098976E+00 a      1182     0    48     1     7
  1.8607964909488922E-01 a      1183     0    48     1     8
  1.7517041349718192E+00 a      1184     0    48     1     9
 -6.6349404157620062E-01 a      1185     0    48     1    10
 -6.8414880969160474E-01 a      1186     0    48     1    11
 -5.2652339714062169E-01 a      1187     0    48     1    12
 -1.1536344373301748E+00 a      1188     0    48     1    13
 -7.3377298285595549E-01 a      1189     0    48     1    14
 -8.6600665512268959E-01 a      1190     0    48     1    15
  5.2095826348554297E-01 a      1191     0    48     1    16
  9.2722320223430688E-01 a      1192     0    48     1    17
 -2.5189632492338299E-01 a      1193     0    48     1    18
  9.2251806727631958E-01 a      1194     0    48     1    19
  6.4942628009103864E-01 a      1195     0    48     1    20
  1.0235560557535087E-01 a      1196     0    48     1    21
  3.4712665325348668E-02 a      1197     0    48     1    22
  6.8347338673043945E-01 a      1198     0    48     1    23
 -1.8780812664931071E-01 a      1199     0    48     1    24
  3.7122006891754677E-01 a      1200     0    48     1    25
  4.3922814315590247E-01 a      1201     0    49     1     1
  4.1667722649424022E-01 a      1202     0    49     1     2
  1.1309482458657871E-01 a      1203     0    49     1     3
  5.7976726821469378E-02 a      1204     0    49     1     4
 -8.8013896341108039E-02 a      1205     0    49     1     5
 -7.9770387049596589E-02 a      1206     0    49     1     6
 -4.7562056038819034E-01 a      1207     0    49     1     7
 -4.1273286649525970E-01 a      1208     0    49     1     8
  2.0687804814229788E-01 a      1209     0    49     1     9
  1.8210548529588000E-01 a      1210     0    49     1    10
  9.2443093792468622E-02 a      1211     0    49     1    11
  5.8817656766446791E-01 a      1212     0    49     1    12
  4.5689722865644583E-01 a      1213     0    49     1    13
  3.9313708632751948E-01 a      1214     0    49     1    14
 -1.8764218058630489E-01 a      1215     0    49     1    15
 -2.7369848976937544E-01 a      1216     0    49     1    16
  2.9466601834201933E-01 a      1217     0    49     1    17
  1.5894037720604876E-01 a      1218     0    49     1    18
 -2.1364665537550531E-01 a      1219     0    49     1    19
 -2.5368084063867220E-02 a      1220     0    49     1    20
 -2.0395963326527344E-01 a      1221     0    49     1    21
  4.2102280790272187E-02 a      1222     0    49     1    22
 -3.1246669096483787E-01 a      1223     0    49     1    23
 -2.2871240699335385E-01 a      1224     0    49     1    24
  9.3435734861557790E-02 a      1225     0    49     1    25
  2.3503293708057008E-01 a      1226     0    50     1     1
  3.7097618742806621E-01 a      1227     0    50     1     2
  5.6377029033956312E-02 a      1228     0    50     1     3
  1.2709094792941969E-01 a      1229     0    50     1     4
 -1.9924742655388664E-01 a      1230     0    50     1     5
  1.9822730771740421E-01 a      1231     0    50     1     6
 -4.7276065864098926E-01 a      1232     0    50     1     7
 -4.2741851955073162E-01 a      1233     0    50     1     8
  1.8253327869641905E-01 a      1234     0    50     1     9
  1.6382843643625131E-01 a      1235     0    50     1    10
 -5.5123101684363116E-02 a      1236     0    50     1    11
  4.4936360333465286E-01 a      1237     0    50     1    12
  5.8825272715721477E-01 a      1238     0    50     1    13
  4.3269213557035935E-01 a      1239     0    50     1    14
 -9.8697697599549647E-02 a      1240     0    50     1    15
 -1.8604912381137451E-01 a      1241     0    50     1    16
  2.7957231127037779E-01 a      1242     0    50     1    17
  1.8033549859698089E-01 a      1243     0    50     1    18
 -2.2469014405164273E-01 a      1244     0    50     1    19
  1.1007989074318951E-01 a      1245     0    50     1    20
 -1.9492796013743302E-01 a      1246     0    50     1    21
  1.8985403379920970E-01 a      1247     0    50     1    22
 -1.0058567463119374E-01 a      1248     0    50     1    23
 -2.4822531899169503E-01 a      1249     0    50     1    24
  2.2513168940165135E-01 a      1250     0    50     1    25
  3.5841773663397186E-01 a      1251     0    51     1     1
 -5.7687210937290323E-01 a      1252     0    51     1     2
 -2.5664950794586922E-01 a      1253     0    51     1     3
 -1.1698785316391067E-01 a      1254     0    51     1     4
  1.4447900428171288E+00 a      1255     0    51     1     5
  5.2490665983897811E-01 a      1256     0    51     1     6
 -7.8522025790118855E-02 a      1257     0    51     1     7
  3.9837044644169595E-01 a      1258     0    51     1     8
  8.9626768394317313E-01 a      1259     0    51     1     9
 -3.1102644535214724E-01 a      1260     0    51     1    10
  8.8397628401478093E-02 a      1261     0    51     1    11
 -1.0808063991504919E+00 a      1262     0    51     1    12
 -6.4610012796018440E-02 a      1263     0    51     1    13
  5.0547160789142387E-01 a      1264     0    51     1    14
  4.3553327359475680E-01 a      1265     0    51     1    15
  6.8904476530233316E-01 a      1266     0    51     1    16
  9.4862867956747288E-01 a      1267     0    51     1    17
  3.9471530304200281E-01 a      1268     0    51     1    18
  4.8374589317753480E-01 a      1269     0    51     1    19
 -6.0171543893058121E-01 a      1270     0    51     1    20
 -3.1680093817307442E-01 a      1271     0    51     1    21
  4.9571926629607327E-02 a      1272     0    51     1    22
 -9.9300755938431295E-01 a      1273     0    51     1    23
  3.1033700678092629E-01 a      1274     0    51     1    24
  3.8021831108929055E-01 a      1275     0    51     1    25
  4.4229798311427726E-01 a      1276     0    52     1     1
 -6.8761351570914508E-01 a      1277     0    52     1     2
 -1.8168344962385813E-01 a      1278     0    52     1     3
 -2.7070435114494279E-01 a      1279     0    52     1     4
  1.1461548126453065E+00 a      1280     0    52     1     5
  4.8767398591843597E-01 a      1281     0    52     1     6
  1.2837797039921636E-01 a      1282     0    52     1     7
  4.2890352207454974E-01 a      1283     0    52     1     8
  8.4460175020676209E-01 a      1284     0    52     1     9
 -4.9465857418466286E-01 a      1285     0    52     1    10
  1.7687923223650351E-01 a      1286     0    52     1    11
 -1.0225630873498279E+00 a      1287     0    52     1    12
  1.5202280260823736E-01 a      1288     0    52     1    13
  3.2004526641881265E-01 a      1289     0    52     1    14
  4.3976371391115110E-01 a      1290     0    52     1    15
  6.3895085018660014E-01 a      1291     0    52     1    16
  9.0640825512506851E-01 a      1292     0    52     1    17
  6.1436525874883896E-01 a      1293     0    52     1    18
  3.8836390875887450E-01 a      1294     0    52     1    19
 -5.7821690690177274E-01 a      1295     0    52     1    20
 -3.3045877806581958E-01 a      1296     0    52     1    21
  2.8737287683641977E-02 a      1297     0    52     1    22
 -8.6605929603604714E-01 a      1298     0    52     1    23
  4.0655830345686948E-02 a      1299     0    52     1    24
  2.4151120367722120E-01 a      1300     0    52     1    25
  7.8416586921451847E-01 a      1301     0    53     1     1
  1.9211323161924954E+00 a      1302     0    53     1     2
 -3.1243153447862054E-01 a      1303     0    53     1     3
  6.0643190173779560E-01 a      1304     0    53     1     4
  3.0253687794553823E+00 a      1305     0    53     1     5
 -1.2851909890964193E+00 a      1306     0    53     1     6
 -1.1231653845764197E-01 a      1307     0    53     1     7
 -4.1250803688130333E-01 a      1308     0    53     1     8
  2.0144542364997351E+00 a      1309     0    53     1     9
 -1.1823293242068203E-01 a      1310     0    53     1    10
  1.7450873032733213E-01 a      1311     0    53     1    11
 -1.1884408569040814E+00 a      1312     0    53     1    12
 -1.8132035423716852E+00 a      1313     0    53     1    13
 -3.3265994950279010E-01 a      1314     0    53     1    14
  9.1028944928749544E-01 a      1315     0    53     1    15
 -2.7311615500761649E-01 a      1316     0    53     1    16
  1.3136312439434963E+00 a      1317     0    53     1    17
  1.6404992159555758E+00 a      1318     0    53     1    18
 -1.0721843783250995E+00 a      1319     0    53     1    19
 -4.4299695529395844E-01 a      1320     0    53     1    20
 -7.7789656722426070E-01 a      1321     0    53     1    21
  4.9121076603943425E-01 a      1322     0    53     1    22
 -5.7250481001811704E-01 a      1323     0    53     1    23
  8.3320961329025589E-01 a      1324     0    53     1    24
 -9.4456146220412918E-01 a      1325     0    53     1    25
 -1.4250432067703311E-03 a      1326     0    54     1     1
  3.7237227218234709E-01 a      1327     0    54     1     2
 -2.5228812033934045E-01 a      1328     0    54     1     3
 -2.0334737964277302E-01 a      1329     0    54     1     4
  4.3641086402231738E-01 a      1330     0    54     1     5
  1.1143076984565450E+00 a      1331     0    54     1     6
  4.3762886461356787E-01 a      1332     0    54     1     7
  2.5801034154607533E-01 a      1333     0    54     1     8
  1.5667538933886527E+00 a      1334     0    54     1     9
  1.9378667166629915E-01 a      1335     0    54     1    10
 -3.4333862578682833E-01 a      1336     0    54     1    11
 -2.4665865598074735E-01 a      1337     0    54     1    12
  3.0115076457405788E-02 a      1338     0    54     1    13
  1.8094134279500776E-01 a      1339     0    54     1    14
  4.5019692013438878E-01 a      1340     0    54     1    15
  5.1125838373745691E-01 a      1341     0    54     1    16
  1.2204830666635142E+00 a      1342     0    54     1    17
  8.8861876845641530E-01 a      1343     0    54     1    18
  1.1869750827420440E+00 a      1344     0    54     1    19
 -1.6946287694534743E+00 a      1345     0    54     1    20
 -3.8775138884201527E-01 a      1346     0    54     1    21
 -3.4065546415008296E-01 a      1347     0    54     1    22
 -1.0348810657829464E+00 a      1348     0    54     1    23
  5.5082683548413591E-01 a      1349     0    54     1    24
 -7.5542601833760492E-01 a      1350     0    54     1    25
  1.5163952638720918E-01 a      1351     0    55     1     1
  1.1206906082877531E-01 a      1352     0    55     1     2
 -3.7999100619992959E-01 a      1353     0    55     1     3
 -1.6974390285582543E-02 a      1354     0    55     1     4
  6.4221750919467790E-01 a      1355     0    55     1     5
  1.0004705105588023E+00 a      1356     0    55     1     6
  2.6944713490025096E-01 a      1357     0    55     1     7
  3.7785612713900996E-01 a      1358     0    55     1     8
  1.8520277143046451E+00 a      1359     0    55     1     9
  2.7345503562587808E-01 a      1360     0    55     1    10
 -3.2247709710675154E-01 a      1361     0    55     1    11
 -3.7020031578993634E-01 a      1362     0    55     1    12
 -1.1062728735031578E-01 a      1363     0    55     1    13
  1.6142993492673740E-02 a      1364     0    55     1    14
  3.5110128362264642E-01 a      1365     0    55     1    15
  4.4042882718687570E-01 a      1366     0    55     1    16
  1.5034843884919049E+00 a      1367     0    55     1    17
  9.5679904846171637E-01 a      1368     0    55     1    18
  1.0428102140204136E+00 a      1369     0    55     1    19
 -1.6280293266346217E+00 a      1370     0    55     1    20
 -1.5556943231605599E-01 a      1371     0    55     1    21
 -5.1340626632033211E-02 a      1372     0    55     1    22
 -1.0928383165830440E+00 a      1373     0    55     1    23
  4.2084530576381241E-01 a      1374     0    55     1    24
 -5.4356605164414751E-01 a      1375     0    55     1    25
  7.9470012214312513E-01 a      1376     0    56     1     1
  1.5462257880909380E-01 a      1377     0    56     1     2
 -1.1228121956179855E+00 a      1378     0    56     1     3
  1.0362419635554558E+00 a      1379     0    56     1     4
 -2.7230070069598750E-01 a      1380     0    56     1     5
 -6.7959293041961788E-01 a      1381     0    56     1     6
  3.8948729526512299E-01 a      1382     0    56     1     7
 -9.0594407529624088E-01 a      1383     0    56     1     8
  8.7839457068043447E-01 a      1384     0    56     1     9
  1.0697734293552172E+00 a      1385     0    56     1    10
 -7.6269299594413376E-01 a      1386     0    56     1    11
 -7.0868479204481319E-02 a      1387     0    56     1    12
 -1.4384683587355984E-01 a      1388     0    56     1    13
 -2.6803198830376929E-01 a      1389     0    56     1    14
  1.1523592053716507E+00 a      1390     0    56     1    15
  1.3997729181200955E+00 a      1391     0    56     1    16
 -5.6770215876406482E-01 a      1392     0    56     1    17
  1.8567408889452839E+00 a      1393     0    56     1    18
 -8.2180450582307030E-01 a      1394     0    56     1    19
 -8.7410195792859816E-02 a      1395     0    56     1    20
  8.7068329727416668E-02 a      1396     0    56     1    21
  2.2931595802699042E-01 a      1397     0    56     1    22
 -3.0123461890682812E-01 a      1398     0    56     1    23
  6.0983051651261655E-01 a      1399     0    56     1    24
  7.3967199077494183E-01 a      1400     0    56     1    25
  7.4360316587707243E-01 a      1401     0    57     1     1
  3.3989833623236310E-01 a      1402     0    57     1     2
 -1.1530252198387212E+00 a      1403     0    57     1     3
  9.6518774486448655E-01 a      1404     0    57     1     4
 -3.6152890609822746E-01 a      1405     0    57     1     5
 -7.4039041011009821E-01 a      1406     0    57     1     6
  3.3179274183738378E-01 a      1407     0    57     1     7
 -1.1595022709470308E+00 a      1408     0    57     1     8
  5.3986731560734558E-01 a      1409     0    57     1     9
  1.3112279998197727E+00 a      1410     0    57     1    10
 -7.5032215523708345E-01 a      1411     0    57     1    11
 -1.2811328487034182E-01 a      1412     0    57     1    12
 -2.3002137445213003E-01 a      1413     0    57     1    13
 -4.2753928319809908E-01 a      1414     0    57     1    14
  1.1976489046036785E+00 a      1415     0    57     1    15
  1.2680200112454216E+00 a      1416     0    57     1    16
 -3.7059135820000405E-01 a      1417     0    57     1    17
  1.6606992516948427E+00 a      1418     0    57     1    18
 -8.5099262543174059E-01 a      1419     0    57     1    19
 -1.6697752345365505E-01 a      1420     0    57     1    20
  1.0802434482865579E-01 a      1421     0    57     1    21
  1.8369368916166237E-01 a      1422     0    57     1    22
 -5.0779284392638135E-01 a      1423     0    57     1    23
  3.1436572318214923E-01 a      1424     0    57     1    24
  6.7963409905397776E-01 a      1425     0    57     1    25
 -7.2676240081734822E-01 a      1426     0    58     1     1
  5.3742674057297650E-02 a      1427     0    58     1     2
  5.5954145712269121E-01 a      1428     0    58     1     3
  2.5996959523284996E-01 a      1429     0    58     1     4
 -1.2568960553454698E+00 a      1430     0    58     1     5
  4.2159045114225285E-01 a      1431     0    58     1     6
  9.9407690586652986E-01 a      1432     0    58     1     7
 -1.7793214304891766E-01 a      1433     0    58     1     8
 -6.7951685097977410E-01 a      1434     0    58     1     9
  3.4366619959169792E-01 a      1435     0    58     1    10
  6.3416797429540636E-02 a      1436     0    58     1    11
 -1.5717981939551828E-01 a      1437     0    58     1    12
  4.5137876724905351E-02 a      1438     0    58     1    13
 -3.0873416724419545E-01 a      1439     0    58     1    14
 -1.0327407618650506E+00 a      1440     0    58     1    15
 -5.5123176606436031E-01 a      1441     0    58     1    16
 -9.4642904602980293E-01 a      1442     0    58     1    17
 -5.9967371824962701E-01 a      1443     0    58     1    18
 -6.3255895138266149E-01 a      1444     0    58     1    19
 -8.2090541545300000E-01 a      1445     0    58     1    20
  5.3538230823667432E-01 a      1446     0    58     1    21
  9.6848649723678981E-01 a      1447     0    58     1    22
 -1.4027635989759848E-01 a      1448     0    58     1    23
 -4.5736888739232423E-01 a      1449     0    58     1    24
  7.9598806976103897E-01 a      1450     0    58     1    25
 -8.1684984684789963E-01 a      1451     0    59     1     1
  2.6614587637512160E-01 a      1452     0    59     1     2
  7.6072601417151764E-01 a      1453     0    59     1     3
  2.0423578027848649E-01 a      1454     0    59     1     4
 -1.2346472747442849E+00 a      1455     0    59     1     5
  4.8300366163677383E-01 a      1456     0    59     1     6
  1.0164896851951208E+00 a      1457     0    59     1     7
 -3.2916409993935736E-01 a      1458     0    59     1     8
 -6.1187863448264124E-01 a      1459     0    59     1     9
  4.2020619701583756E-01 a      1460     0    59     1    10
  1.6315321171344466E-01 a      1461     0    59     1    11
  8.2319241402582607E-02 a      1462     0    59     1    12
  1.6238711756831628E-01 a      1463     0    59     1    13
 -4.4350844041246401E-01 a      1464     0    59     1    14
 -1.2552333201264505E+00 a      1465     0    59     1    15
 -6.9045222604881817E-01 a      1466     0    59     1    16
 -9.9136329535573009E-01 a      1467     0    59     1    17
 -7.3631966464586829E-01 a      1468     0    59     1    18
 -6.2933801222295382E-01 a      1469     0    59     1    19
 -9.9226101271918177E-01 a      1470     0    59     1    20
  5.8391377193810845E-01 a      1471     0    59     1    21
  1.0637021006455709E+00 a      1472     0    59     1    22
 -7.4726835173302045E-02 a      1473     0    59     1    23
 -6.3985731633485998E-01 a      1474     0    59     1    24
  6.2244012734800036E-01 a      1475     0    59     1    25
 -1.2184733769228395E-01 a      1476     0    60     1     1
  4.9156112024484289E-01 a      1477     0    60     1     2
  2.4528866175988812E-01 a      1478     0    60     1     3
  5.3574697223989609E-01 a      1479     0    60     1     4
  3.9188109690832383E-02 a      1480     0    60     1     5
 -6.6558127426145575E-01 a      1481     0    60     1     6
 -2.4253840854158365E-01 a      1482     0    60     1     7
 -7.4099089548763084E-02 a      1483     0    60     1     8
  5.6380854231063349E-01 a      1484     0    60     1     9
 -7.9561488874503900E-02 a      1485     0    60     1    10
  4.8824706120442396E-01 a      1486     0    60     1    11
 -5.0835513598612858E-01 a      1487     0    60     1    12
 -1.8753530237281038E-01 a      1488     0    60     1    13
 -5.8605883738459659E-02 a      1489     0    60     1    14
  3.0394997166748365E-02 a      1490     0    60     1    15
  1.6439717165633164E-01 a      1491     0    60     1    16
  3.8576221421206203E-01 a      1492     0    60     1    17
 -1.6709253969524177E-01 a      1493     0    60     1    18
  1.4871767716036394E-01 a      1494     0    60     1    19
 -7.6454578507587256E-01 a      1495     0    60     1    20
  2.7655817243731534E-01 a      1496     0    60     1    21
 -3.4774906910320680E-01 a      1497     0    60     1    22
 -3.0258499907631903E-01 a      1498     0    60     1    23
  2.5873600479571290E-01 a      1499     0    60     1    24
 -3.6770676587012519E-01 a      1500     0    60     1    25
  2.5154013996617530E-01 a      1501     0    61     1     1
 -4.2222251956991630E-01 a      1502     0    61     1     2
  1.0682914599424902E-01 a      1503     0    61     1     3
  4.9842910973868815E-01 a      1504     0    61     1     4
  3.4856363845087168E-01 a      1505     0    61     1     5
 -4.4128487777456094E-01 a      1506     0    61     1     6
 -1.1628657870564951E+00 a      1507     0    61     1     7
  1.0820901547562045E+00 a      1508     0    61     1     8
  5.2537104591980655E-01 a      1509     0    61     1     9
  6.5194590725977963E-01 a      1510     0    61     1    10
 -1.4507630110121209E-01 a      1511     0    61     1    11
  1.2774507776426338E+00 a      1512     0    61     1    12
 -1.8779145549977100E-01 a      1513     0    61     1    13
 -2.2375522188282282E-01 a      1514     0    61     1    14
  6.1371739151328930E-01 a      1515     0    61     1    15
 -2.7571261885542575E-01 a      1516     0    61     1    16
 -3.3072586116317665E-02 a      1517     0    61     1    17
  5.8787670305949979E-01 a      1518     0    61     1    18
 -4.7883578043686023E-02 a      1519     0    61     1    19
  8.3756390191051322E-01 a      1520     0    61     1    20
 -2.3979924629500518E-01 a      1521     0    61     1    21
 -1.9540737721516510E-01 a      1522     0    61     1    22
  4.8263577821992787E-01 a      1523     0    61     1    23
  2.5391342149848750E-01 a      1524     0    61     1    24
  3.7552177057964528E-02 a      1525     0    61     1    25
  1.9951476569629822E-01 a      1526     0    62     1     1
 -2.1700879903131415E-01 a      1527     0    62     1     2
  4.3183030968506245E-02 a      1528     0    62     1     3
  2.9937243960872983E-01 a      1529     0    62     1     4
  3.2027486364441576E-01 a      1530     0    62     1     5
 -3.3770100848424706E-01 a      1531     0    62     1     6
 -1.3287247273162528E+00 a      1532     0    62     1     7
  1.0489902048572577E+00 a      1533     0    62     1     8
  5.9132310453256587E-01 a      1534     0    62     1     9
  4.4443833481925654E-01 a      1535     0    62     1    10
  8.5101341182579573E-02 a      1536     0    62     1    11
  1.2462702065779097E+00 a      1537     0    62     1    12
 -2.8828741451376783E-01 a      1538     0    62     1    13
 -6.0132665712535734E-02 a      1539     0    62     1    14
  5.5997434500063581E-01 a      1540     0    62     1    15
 -6.0822545461377261E-02 a      1541     0    62     1    16
  4.3564496078412812E-02 a      1542     0    62     1    17
  6.3697098775218119E-01 a      1543     0    62     1    18
  4.4990784505723441E-02 a      1544     0    62     1    19
  1.1521289780280828E+00 a      1545     0    62     1    20
 -3.1775584727374540E-01 a      1546     0    62     1    21
 -5.8719516544944991E-02 a      1547     0    62     1    22
  2.9385374486054600E-01 a      1548     0    62     1    23
  4.5536520941229547E-01 a      1549     0    62     1    24
  6.4182184421776631E-02 a      1550     0    62     1    25
  4.0280223286296213E-01 a      1551     0    63     1     1
  1.4248781469563019E-02 a      1552     0    63     1     2
 -1.9945863773276382E-01 a      1553     0    63     1     3
 -2.3581956189072195E-01 a      1554     0    63     1     4
  1.6520815457576324E-01 a      1555     0    63     1     5
 -3.5564045610927025E-01 a      1556     0    63     1     6
 -4.3671090645223148E-01 a      1557     0    63     1     7
 -1.1828180351373900E-01 a      1558     0    63     1     8
 -2.6983425380839243E-01 a      1559     0    63     1     9
  9.0626999230816477E-02 a      1560     0    63     1    10
 -4.3638725635818748E-01 a      1561     0    63     1    11
 -7.2602321533681813E-01 a      1562     0    63     1    12
 -7.7588337091780660E-02 a      1563     0    63     1    13
  1.7554600762281658E-01 a      1564     0    63     1    14
  8.2643582967765999E-02 a      1565     0    63     1    15
 -2.9168429608485114E-01 a      1566     0    63     1    16
 -2.4743695987316250E-01 a      1567     0    63     1    17
  5.8153438086824598E-02 a      1568     0    63     1    18
 -3.0144123551796154E-01 a      1569     0    63     1    19
  2.7884101756672314E-01 a      1570     0    63     1    20
  2.0053714560757255E-01 a      1571     0    63     1    21
 -4.5811762913205384E-01 a      1572     0    63     1    22
  2.7365120113321556E-01 a      1573     0    63     1    23
 -2.0946292802835792E-01 a      1574     0    63     1    24
 -1.5344482106771479E-01 a      1575     0    63     1    25
  2.8110508193693440E-01 a      1576     0    64     1     1
  8.5606904472902257E-02 a      1577     0    64     1     2
 -2.8087993465508815E-01 a      1578     0    64     1     3
 -3.9916780369975557E-01 a      1579     0    64     1     4
  4.2379909959634932E-01 a      1580     0    64     1     5
 -3.4780133468798746E-01 a      1581     0    64     1     6
 -2.4799572998737193E-01 a      1582     0    64     1     7
 -1.1616774215501494E-01 a      1583     0    64     1     8
 -1.5542733955967297E-01 a      1584     0    64     1     9
 -1.6613461637392885E-01 a      1585     0    64     1    10
 -3.1742932430799553E-01 a      1586     0    64     1    11
 -8.4179616221823861E-01 a      1587     0    64     1    12
  5.4837488030651214E-02 a      1588     0    64     1    13
  5.0893122690237755E-02 a      1589     0    64     1    14
  1.3876551168878232E-02 a      1590     0    64     1    15
 -2.8502179948764489E-01 a      1591     0    64     1    16
 -1.9874782878469210E-01 a      1592     0    64     1    17
  1.3969682560096383E-01 a      1593     0    64     1    18
 -4.9084305668235635E-02 a      1594     0    64     1    19
  2.7458812318291465E-01 a      1595     0    64     1    20
  1.9785091997803117E-01 a      1596     0    64     1    21
 -4.0880370168378904E-01 a      1597     0    64     1    22
  2.8639273557018641E-01 a      1598     0    64     1    23
 -5.4482278066595134E-02 a      1599     0    64     1    24
 -3.7030719778305565E-01 a      1600     0    64     1    25
  1.2184207206778222E-01 a      1601     0    65     1     1
  1.9751492859388101E-01 a      1602     0    65     1     2
  1.4407708989848247E-01 a      1603     0    65     1     3
 -1.2749457891205382E-01 a      1604     0    65     1     4
 -1.3502725878010172E-01 a      1605     0    65     1     5
 -4.1918180168345975E-01 a      1606     0    65     1     6
  8.1331404315902994E-02 a      1607     0    65     1     7
 -7.8603295360444914E-02 a      1608     0    65     1     8
 -2.9954619266482024E-01 a      1609     0    65     1     9
  3.5286187411252035E-01 a      1610     0    65     1    10
 -9.0473956629399277E-02 a      1611     0    65     1    11
 -1.0592188496965384E-01 a      1612     0    65     1    12
  4.2694209334230085E-02 a      1613     0    65     1    13
  7.5076260019705479E-02 a      1614     0    65     1    14
  1.1260085758123992E-01 a      1615     0    65     1    15
  4.9112388565820619E-02 a      1616     0    65     1    16
  1.9582341398506914E-01 a      1617     0    65     1    17
 -8.0612498088469708E-02 a      1618     0    65     1    18
 -2.2484512847239521E-01 a      1619     0    65     1    19
 -2.7651245254736022E-02 a      1620     0    65     1    20
 -7.8397808609086184E-02 a      1621     0    65     1    21
  3.1127854981853914E-02 a      1622     0    65     1    22
  8.4081949854980631E-02 a      1623     0    65     1    23
