################################################################################
# Neural network connection values (weights and biases).
################################################################################
# Col  Name       Description
################################################################################
# 1    connection Neural network connection value.
# 2    t          Connection type (a = weight, b = bias).
# 3    index      Index enumerating weights.
# 4    l_s        Starting point layer (end point layer for biases).
# 5    n_s        Starting point neuron in starting layer (end point neuron for biases).
# 6    l_e        End point layer.
# 7    n_e        End point neuron in end layer.
################################################################################
#                      1 2         3     4     5     6     7
#             connection t     index   l_s   n_s   l_e   n_e
############################################################
  9.5518197042321940E-01 a         1     0     1     1     1
 -1.8397219578863562E+00 a         2     0     1     1     2
  1.2107051202535968E+00 a         3     0     1     1     3
 -5.4787677002753510E-01 a         4     0     1     1     4
 -3.8611756601462566E+00 a         5     0     1     1     5
  6.5235830208882506E-01 a         6     0     1     1     6
  5.1770881497413725E+00 a         7     0     1     1     7
 -3.5012070296661606E+00 a         8     0     1     1     8
 -2.3124224613773223E+00 a         9     0     1     1     9
  1.6125872636295711E+00 a        10     0     1     1    10
  5.5730647278221046E-01 a        11     0     1     1    11
  3.2856413433045697E+00 a        12     0     1     1    12
 -4.7504528183393591E-01 a        13     0     1     1    13
  4.9886307232615601E-01 a        14     0     1     1    14
  9.0049315578411160E-01 a        15     0     1     1    15
 -1.2848795166501370E+00 a        16     0     1     1    16
 -4.1899910639209530E+00 a        17     0     1     1    17
 -6.9389445289824880E-01 a        18     0     1     1    18
 -1.8086483352733602E+00 a        19     0     1     1    19
  1.1300267820291106E+00 a        20     0     1     1    20
 -7.2495518248846424E-01 a        21     0     1     1    21
  7.2503665068008916E-01 a        22     0     1     1    22
  2.1951150124506547E+00 a        23     0     1     1    23
 -7.9149186243576364E-01 a        24     0     1     1    24
 -2.9734351554029892E-01 a        25     0     1     1    25
 -2.0788065000844178E-01 a        26     0     2     1     1
 -3.9971081514544053E+00 a        27     0     2     1     2
 -8.1095453733982392E+00 a        28     0     2     1     3
 -4.0900603476220185E+00 a        29     0     2     1     4
 -2.8998705069584103E+00 a        30     0     2     1     5
 -2.2178500546264699E+00 a        31     0     2     1     6
  1.9764678144948320E+00 a        32     0     2     1     7
 -1.2321225032631160E+00 a        33     0     2     1     8
 -3.0170305697701587E+00 a        34     0     2     1     9
 -4.0881176365100531E+00 a        35     0     2     1    10
  1.1923388193688069E+00 a        36     0     2     1    11
  1.1032315934006540E+00 a        37     0     2     1    12
  3.6332111628181276E+00 a        38     0     2     1    13
  3.4775770217375581E+00 a        39     0     2     1    14
  3.7662564862626060E+00 a        40     0     2     1    15
  3.8532306647319942E-01 a        41     0     2     1    16
 -4.3810998096349927E+00 a        42     0     2     1    17
  8.5851262050146708E+00 a        43     0     2     1    18
 -1.4603756796950848E-01 a        44     0     2     1    19
 -4.4218282415197949E+00 a        45     0     2     1    20
 -1.2800340844603300E+00 a        46     0     2     1    21
  4.7828738383803922E+00 a        47     0     2     1    22
  1.2827405477710865E+00 a        48     0     2     1    23
  3.7495298557573888E+00 a        49     0     2     1    24
 -1.3935125861056996E+00 a        50     0     2     1    25
  1.6162462251015239E+00 a        51     0     3     1     1
 -7.3617507707810690E+00 a        52     0     3     1     2
 -2.2553483140547455E+00 a        53     0     3     1     3
 -8.0085794053085291E+00 a        54     0     3     1     4
  9.2977473350217676E-01 a        55     0     3     1     5
  5.0512590801114436E+00 a        56     0     3     1     6
 -2.5904429240230091E+00 a        57     0     3     1     7
 -3.0788332242664049E+00 a        58     0     3     1     8
 -3.6074238716550244E+00 a        59     0     3     1     9
 -2.2242768443240521E+00 a        60     0     3     1    10
 -1.3707601211756635E+00 a        61     0     3     1    11
  5.0192816181451905E+00 a        62     0     3     1    12
  1.6027055230901468E+00 a        63     0     3     1    13
  4.0616498862057497E+00 a        64     0     3     1    14
 -2.3681793497915096E+00 a        65     0     3     1    15
 -5.3385938760132987E+00 a        66     0     3     1    16
  3.1865863880601468E+00 a        67     0     3     1    17
 -7.4089931558025111E+00 a        68     0     3     1    18
 -6.4016593742814279E-02 a        69     0     3     1    19
 -2.4053976407891153E+00 a        70     0     3     1    20
 -1.2545516155548471E+00 a        71     0     3     1    21
  2.6608843069300190E+00 a        72     0     3     1    22
 -9.7531216661509945E-01 a        73     0     3     1    23
  5.2775144857212936E-02 a        74     0     3     1    24
  3.2174303311310033E+00 a        75     0     3     1    25
  1.0678588484081117E+00 a        76     0     4     1     1
  2.0585301266436726E+00 a        77     0     4     1     2
  2.1543367317668416E+00 a        78     0     4     1     3
  1.7916771288898750E+00 a        79     0     4     1     4
  2.7862020955621194E+00 a        80     0     4     1     5
 -4.0458326905937630E-01 a        81     0     4     1     6
  5.3072374717998301E+00 a        82     0     4     1     7
 -2.0436291612692461E+00 a        83     0     4     1     8
  1.6214226752563543E+00 a        84     0     4     1     9
  2.0756300179754610E+00 a        85     0     4     1    10
  3.8388117830218955E+00 a        86     0     4     1    11
  2.9080466855970348E+00 a        87     0     4     1    12
 -5.4724397595784069E-01 a        88     0     4     1    13
 -2.7135653781591231E+00 a        89     0     4     1    14
  5.6145583706414621E+00 a        90     0     4     1    15
  1.4690423339021492E+00 a        91     0     4     1    16
  8.6536425943684592E-01 a        92     0     4     1    17
 -3.6909321077746311E+00 a        93     0     4     1    18
  5.3627703435931409E+00 a        94     0     4     1    19
 -2.1548592475921269E+00 a        95     0     4     1    20
 -2.6156721012767234E+00 a        96     0     4     1    21
 -1.1984287774750100E+00 a        97     0     4     1    22
  9.8845057398997938E-01 a        98     0     4     1    23
  8.2788707294818209E-01 a        99     0     4     1    24
 -2.6743732492656433E+00 a       100     0     4     1    25
 -1.8362747190327020E+00 a       101     0     5     1     1
  4.0529918027364098E-01 a       102     0     5     1     2
 -2.2760993517904629E+00 a       103     0     5     1     3
  6.0519644249137761E-01 a       104     0     5     1     4
  9.3915388583614068E-01 a       105     0     5     1     5
  1.3408037708816580E+00 a       106     0     5     1     6
  2.1763220198059492E+00 a       107     0     5     1     7
  7.5510148309304848E+00 a       108     0     5     1     8
  1.3863239503410482E-01 a       109     0     5     1     9
  9.5182382904369131E-02 a       110     0     5     1    10
 -1.6140158865925298E+00 a       111     0     5     1    11
 -2.6257467323722095E+00 a       112     0     5     1    12
  2.7569839033734334E-01 a       113     0     5     1    13
 -7.4791720260526906E-01 a       114     0     5     1    14
 -1.5744084934784333E+00 a       115     0     5     1    15
  6.4325375245459193E-01 a       116     0     5     1    16
  1.9763422380242059E+00 a       117     0     5     1    17
  1.8904109046843502E+00 a       118     0     5     1    18
  1.1777067970890466E-01 a       119     0     5     1    19
 -1.7629219707114678E+00 a       120     0     5     1    20
  2.6176894320896320E+00 a       121     0     5     1    21
  2.1738788255902938E-01 a       122     0     5     1    22
  1.1277574123284338E-01 a       123     0     5     1    23
  2.0673437454268502E+00 a       124     0     5     1    24
 -2.7926601800030073E+00 a       125     0     5     1    25
  2.0406581547227378E+00 a       126     0     6     1     1
  3.0872608414987561E+00 a       127     0     6     1     2
  1.0596387884535947E+01 a       128     0     6     1     3
  5.8173698840973591E+00 a       129     0     6     1     4
  7.5122220865414384E+00 a       130     0     6     1     5
  3.8953640865584122E-01 a       131     0     6     1     6
 -6.5068802716504335E+00 a       132     0     6     1     7
 -1.1247453659295632E+00 a       133     0     6     1     8
  4.0659932243129759E+00 a       134     0     6     1     9
  3.6339923975534800E+00 a       135     0     6     1    10
  6.8991036999997937E-02 a       136     0     6     1    11
 -1.4900066640973015E+00 a       137     0     6     1    12
 -6.0709540740326799E+00 a       138     0     6     1    13
 -6.6505064014595980E+00 a       139     0     6     1    14
 -1.0068641261913402E+01 a       140     0     6     1    15
 -1.9712107155479679E+00 a       141     0     6     1    16
  7.4849207491005352E+00 a       142     0     6     1    17
 -8.7899071262043655E+00 a       143     0     6     1    18
  4.6005387405020265E-01 a       144     0     6     1    19
  6.5978021843091730E+00 a       145     0     6     1    20
  3.9567412922362150E-01 a       146     0     6     1    21
 -8.6873282949674113E+00 a       147     0     6     1    22
 -2.6568661502830522E+00 a       148     0     6     1    23
 -7.8102753470884210E+00 a       149     0     6     1    24
  2.9417083687331615E+00 a       150     0     6     1    25
 -6.6028018532331121E+00 a       151     0     7     1     1
  7.7882126493834498E+00 a       152     0     7     1     2
 -7.0803038930847928E-01 a       153     0     7     1     3
  6.7541866539475031E+00 a       154     0     7     1     4
  5.4252502103256128E-01 a       155     0     7     1     5
  3.5538710151717363E+00 a       156     0     7     1     6
  5.4138770844108244E+00 a       157     0     7     1     7
  7.8039782338405619E+00 a       158     0     7     1     8
  4.6258951105688908E+00 a       159     0     7     1     9
  4.4296321229175444E+00 a       160     0     7     1    10
  1.8085228994709052E+01 a       161     0     7     1    11
 -6.4179894840545879E+00 a       162     0     7     1    12
  2.3190727469940979E+00 a       163     0     7     1    13
  5.1175097198993424E-01 a       164     0     7     1    14
 -1.8857275818401280E+00 a       165     0     7     1    15
  1.1738192847081509E+01 a       166     0     7     1    16
 -3.6761487074217389E+00 a       167     0     7     1    17
  1.3203767910587899E+01 a       168     0     7     1    18
  2.2827207562983678E+00 a       169     0     7     1    19
 -6.2463710884909345E+00 a       170     0     7     1    20
  4.6250081343197778E+00 a       171     0     7     1    21
  5.5771304357154907E+00 a       172     0     7     1    22
 -3.6366720858991055E+00 a       173     0     7     1    23
 -2.3784139575771142E+00 a       174     0     7     1    24
 -1.3622874426910720E+01 a       175     0     7     1    25
  1.1113745254298200E+00 a       176     0     8     1     1
 -2.9378508547653555E+00 a       177     0     8     1     2
  3.2437929705430407E-01 a       178     0     8     1     3
 -4.0561217602982158E-01 a       179     0     8     1     4
 -4.3421473304375313E+00 a       180     0     8     1     5
 -1.7469865610395481E+00 a       181     0     8     1     6
 -2.4010984666268178E+00 a       182     0     8     1     7
 -1.6434641063799746E+00 a       183     0     8     1     8
 -5.5024785333408390E+00 a       184     0     8     1     9
 -1.5625080800022217E+00 a       185     0     8     1    10
 -1.9591360812831875E+00 a       186     0     8     1    11
  1.3982847407702084E-01 a       187     0     8     1    12
  1.5848011549315395E+00 a       188     0     8     1    13
  8.7364235845665017E-01 a       189     0     8     1    14
 -6.6718087045074439E+00 a       190     0     8     1    15
 -1.7443519323755001E+00 a       191     0     8     1    16
 -3.3121293683315631E+00 a       192     0     8     1    17
 -7.3264055978686993E-01 a       193     0     8     1    18
  2.4720780195934995E+00 a       194     0     8     1    19
  4.0613271388001584E+00 a       195     0     8     1    20
  3.2252317147883698E+00 a       196     0     8     1    21
  2.8678305308034493E+00 a       197     0     8     1    22
  8.0419586211222105E-01 a       198     0     8     1    23
 -6.2439513249304535E-01 a       199     0     8     1    24
  2.7169914798661274E+00 a       200     0     8     1    25
 -7.9370682078070443E-01 a       201     0     9     1     1
  8.2172659593194153E-01 a       202     0     9     1     2
 -4.8388922939465268E-01 a       203     0     9     1     3
  1.9752123020262013E+00 a       204     0     9     1     4
  2.6581329517862313E+00 a       205     0     9     1     5
 -1.1013618926411548E+00 a       206     0     9     1     6
 -2.0984133863173420E+00 a       207     0     9     1     7
  1.9678574547240757E+00 a       208     0     9     1     8
  7.5331164622787539E-01 a       209     0     9     1     9
 -1.7855864017041216E+00 a       210     0     9     1    10
 -3.0283921016225386E+00 a       211     0     9     1    11
 -1.0713125379766566E+00 a       212     0     9     1    12
  8.7913525658847425E-01 a       213     0     9     1    13
  7.0059030152957780E-01 a       214     0     9     1    14
 -2.0670735391063375E+00 a       215     0     9     1    15
 -3.9249022533797984E+00 a       216     0     9     1    16
  3.1735133439813081E+00 a       217     0     9     1    17
 -1.8651633780384740E+00 a       218     0     9     1    18
  1.5184990642656533E+00 a       219     0     9     1    19
 -8.0794108462642622E-01 a       220     0     9     1    20
  1.8512665250307092E+00 a       221     0     9     1    21
  2.0960710008968255E+00 a       222     0     9     1    22
  9.6875655648049108E-01 a       223     0     9     1    23
  1.8385953294451840E+00 a       224     0     9     1    24
 -6.8876557567353314E-01 a       225     0     9     1    25
  4.2505765656526218E-01 a       226     0    10     1     1
 -7.4319760560674042E-01 a       227     0    10     1     2
 -1.7237717501619387E+00 a       228     0    10     1     3
 -1.8429665516985463E+00 a       229     0    10     1     4
 -2.5029794940700048E+00 a       230     0    10     1     5
 -9.8608925628122757E-01 a       231     0    10     1     6
 -3.9240673874710164E-01 a       232     0    10     1     7
  5.4764415638923125E-01 a       233     0    10     1     8
 -1.1886800778701709E+00 a       234     0    10     1     9
 -1.1967371369159008E+00 a       235     0    10     1    10
  2.1420454389876467E+00 a       236     0    10     1    11
  6.5006168307325496E-01 a       237     0    10     1    12
  1.1218860878411825E+00 a       238     0    10     1    13
  3.7106936396961561E+00 a       239     0    10     1    14
  4.7022715456271298E+00 a       240     0    10     1    15
  7.9096491397461854E-01 a       241     0    10     1    16
 -4.2863237680542534E+00 a       242     0    10     1    17
  3.6583222332907015E+00 a       243     0    10     1    18
 -6.2100359677884343E-01 a       244     0    10     1    19
 -2.9880732542623107E+00 a       245     0    10     1    20
  8.2907921205661184E-01 a       246     0    10     1    21
  6.5198536096331816E+00 a       247     0    10     1    22
  8.3197652283567181E-01 a       248     0    10     1    23
  1.5477284436150127E+00 a       249     0    10     1    24
 -2.6787275265139918E+00 a       250     0    10     1    25
  3.0589374970346732E+00 a       251     0    11     1     1
  8.9144025461612593E+00 a       252     0    11     1     2
  9.7209858881862576E+00 a       253     0    11     1     3
  6.0838892798865869E+00 a       254     0    11     1     4
 -8.4564159633665561E+00 a       255     0    11     1     5
 -1.0656473699612757E+01 a       256     0    11     1     6
  9.0952294685819712E-01 a       257     0    11     1     7
 -9.7311734218518176E+00 a       258     0    11     1     8
 -3.9833142468165539E+00 a       259     0    11     1     9
 -9.7868317034020045E+00 a       260     0    11     1    10
 -1.9807112666768322E+01 a       261     0    11     1    11
  1.6929835419824242E+00 a       262     0    11     1    12
 -4.0897384443656565E-01 a       263     0    11     1    13
 -2.6560545538760789E+00 a       264     0    11     1    14
  5.1261196602416712E+00 a       265     0    11     1    15
 -6.0401810155713225E+00 a       266     0    11     1    16
 -2.3393526092304928E-01 a       267     0    11     1    17
 -1.1822713267691329E+01 a       268     0    11     1    18
  2.9939140795492327E+00 a       269     0    11     1    19
  8.1143401411897500E+00 a       270     0    11     1    20
 -1.1340690006936331E+00 a       271     0    11     1    21
 -6.1824879023305082E+00 a       272     0    11     1    22
  5.9702958328478459E+00 a       273     0    11     1    23
 -1.0572730638765384E+00 a       274     0    11     1    24
  7.8898475055621624E+00 a       275     0    11     1    25
  1.1792720864562815E-01 a       276     0    12     1     1
 -1.9084538584293504E+00 a       277     0    12     1     2
 -2.6520523732966685E+00 a       278     0    12     1     3
 -9.7007450466010585E+00 a       279     0    12     1     4
 -7.9368426769731437E+00 a       280     0    12     1     5
  3.7020116828507627E-01 a       281     0    12     1     6
 -5.5268509026810273E+00 a       282     0    12     1     7
  3.0949016715118698E+00 a       283     0    12     1     8
 -4.7941202612197857E+00 a       284     0    12     1     9
 -3.5885584186941673E+00 a       285     0    12     1    10
  7.6528000452838629E-01 a       286     0    12     1    11
 -7.4739131257099300E-01 a       287     0    12     1    12
  3.1951083615440024E-01 a       288     0    12     1    13
  9.9914960665997721E-01 a       289     0    12     1    14
 -6.5593591634738164E+00 a       290     0    12     1    15
  1.0893134360768611E+01 a       291     0    12     1    16
 -1.9232605354321552E+00 a       292     0    12     1    17
  1.3655944438680585E+01 a       293     0    12     1    18
  2.7246661179861814E-01 a       294     0    12     1    19
  3.7378709671929351E+00 a       295     0    12     1    20
  7.3549144730911546E+00 a       296     0    12     1    21
 -2.0677859860811711E+00 a       297     0    12     1    22
 -8.2382925647449206E+00 a       298     0    12     1    23
 -1.0877484688484842E+00 a       299     0    12     1    24
 -6.3058929544473408E+00 a       300     0    12     1    25
  1.5832454328574275E+00 a       301     0    13     1     1
 -6.1436814204354617E-01 a       302     0    13     1     2
  1.0026379624011683E+00 a       303     0    13     1     3
 -2.4852363583510955E+00 a       304     0    13     1     4
  9.5081575269384799E-01 a       305     0    13     1     5
  1.3958366822432451E+00 a       306     0    13     1     6
 -1.7674191119176164E+00 a       307     0    13     1     7
 -2.8128622347359773E+00 a       308     0    13     1     8
  6.2987164137056884E-01 a       309     0    13     1     9
  5.6592798117466647E-01 a       310     0    13     1    10
  2.1250482654449230E+00 a       311     0    13     1    11
  1.2760491328434991E+00 a       312     0    13     1    12
 -6.6415800682007398E-01 a       313     0    13     1    13
 -7.7709107276172928E-01 a       314     0    13     1    14
  1.3860189309449602E+00 a       315     0    13     1    15
  1.1645978941210194E-01 a       316     0    13     1    16
 -1.5278441989248235E+00 a       317     0    13     1    17
 -5.9585821428343344E-01 a       318     0    13     1    18
 -8.3454952670641269E-01 a       319     0    13     1    19
  1.0111096820601686E+00 a       320     0    13     1    20
 -1.7125847739465858E+00 a       321     0    13     1    21
 -1.3640197362184042E-01 a       322     0    13     1    22
 -2.3058639326458703E+00 a       323     0    13     1    23
 -2.4268916674458172E+00 a       324     0    13     1    24
 -2.4976924085614360E+00 a       325     0    13     1    25
 -3.7523925765757085E+00 a       326     0    14     1     1
 -4.7883068184265243E+00 a       327     0    14     1     2
 -6.7754024021110197E+00 a       328     0    14     1     3
 -2.5647206553702819E+00 a       329     0    14     1     4
  3.9805744662268627E+00 a       330     0    14     1     5
  9.2521249356269042E+00 a       331     0    14     1     6
 -7.8082047547475264E-01 a       332     0    14     1     7
  5.9190102507602687E+00 a       333     0    14     1     8
  3.5949696665257780E+00 a       334     0    14     1     9
  7.0922596402629798E+00 a       335     0    14     1    10
  2.0888357072799430E+01 a       336     0    14     1    11
 -3.2182031028057061E+00 a       337     0    14     1    12
  3.4184977089432800E+00 a       338     0    14     1    13
  4.9002756425179621E+00 a       339     0    14     1    14
 -3.5450528679245572E+00 a       340     0    14     1    15
  4.4561348271019945E+00 a       341     0    14     1    16
  3.0151014045163149E-01 a       342     0    14     1    17
  1.0485572306475945E+01 a       343     0    14     1    18
 -1.0723927243919228E-02 a       344     0    14     1    19
 -7.2117000406192071E+00 a       345     0    14     1    20
  8.4968290516105860E-01 a       346     0    14     1    21
  4.7171140656645241E+00 a       347     0    14     1    22
 -3.1374546354352364E+00 a       348     0    14     1    23
 -6.3283428743442738E-01 a       349     0    14     1    24
 -1.0053066263006910E+01 a       350     0    14     1    25
 -6.7128394784324141E-01 a       351     0    15     1     1
  2.3622035160375061E+00 a       352     0    15     1     2
 -3.7441565658947100E+00 a       353     0    15     1     3
 -1.0718988111257739E+00 a       354     0    15     1     4
  3.0409617668640294E+00 a       355     0    15     1     5
  4.7187618858122554E-01 a       356     0    15     1     6
 -1.7098189450713966E-01 a       357     0    15     1     7
  2.5622064958411470E+00 a       358     0    15     1     8
  6.7068652233615573E+00 a       359     0    15     1     9
  2.9355271864871866E+00 a       360     0    15     1    10
  4.4510763828673374E+00 a       361     0    15     1    11
  1.1886716084573532E+00 a       362     0    15     1    12
 -3.3694149116818801E+00 a       363     0    15     1    13
  1.1578781622089949E+00 a       364     0    15     1    14
  1.0256256984097526E+01 a       365     0    15     1    15
 -3.4338324045695088E+00 a       366     0    15     1    16
 -2.3011914249946255E-01 a       367     0    15     1    17
 -6.5534439358645935E+00 a       368     0    15     1    18
 -6.1297903708082364E+00 a       369     0    15     1    19
 -4.3028232204511960E+00 a       370     0    15     1    20
 -5.1567635981401976E+00 a       371     0    15     1    21
  6.2729419304594936E-01 a       372     0    15     1    22
  3.3656071712135769E+00 a       373     0    15     1    23
 -1.3653468754816926E+00 a       374     0    15     1    24
 -1.9219669738053444E+00 a       375     0    15     1    25
 -2.1423846627960774E+00 a       376     0    16     1     1
  1.6864091486134649E+00 a       377     0    16     1     2
  7.2591344058690932E-01 a       378     0    16     1     3
  4.3621373240674357E+00 a       379     0    16     1     4
  1.8014637799398839E-01 a       380     0    16     1     5
 -4.8314896845422171E+00 a       381     0    16     1     6
  2.4396173575967034E-01 a       382     0    16     1     7
  3.4599688328295164E+00 a       383     0    16     1     8
 -8.7511704637935828E-01 a       384     0    16     1     9
 -4.2007563563620892E-01 a       385     0    16     1    10
  2.1977759561362360E+00 a       386     0    16     1    11
 -1.5722927028696865E+00 a       387     0    16     1    12
  2.2705121310119627E+00 a       388     0    16     1    13
  2.9889984712186202E+00 a       389     0    16     1    14
 -2.9777267218741094E-01 a       390     0    16     1    15
  8.3245484101588929E-01 a       391     0    16     1    16
 -2.6941232233714252E+00 a       392     0    16     1    17
  8.0994001319602145E+00 a       393     0    16     1    18
  1.2773744917053935E+00 a       394     0    16     1    19
 -1.7902697895230035E+00 a       395     0    16     1    20
  2.5484734052945908E+00 a       396     0    16     1    21
  3.6380007973076296E+00 a       397     0    16     1    22
 -1.5434524453157170E-01 a       398     0    16     1    23
 -1.4654480960059968E+00 a       399     0    16     1    24
 -2.1589863477124314E+00 a       400     0    16     1    25
 -1.9711714110030532E-01 a       401     0    17     1     1
  1.5908319439454041E-01 a       402     0    17     1     2
 -2.6313682143329302E+00 a       403     0    17     1     3
  9.3787121554001356E+00 a       404     0    17     1     4
 -4.7485622212940098E-01 a       405     0    17     1     5
 -3.5955383515774214E-01 a       406     0    17     1     6
  3.7109771566504224E-01 a       407     0    17     1     7
  1.3313015900539384E+00 a       408     0    17     1     8
  7.7174127298522521E-01 a       409     0    17     1     9
  1.5901272367229669E+00 a       410     0    17     1    10
  2.7547088991151982E+00 a       411     0    17     1    11
 -2.6934189042867280E+00 a       412     0    17     1    12
  7.2361522940531986E-01 a       413     0    17     1    13
 -2.3406633887736492E-01 a       414     0    17     1    14
  1.4585320321622393E+00 a       415     0    17     1    15
  5.1532228395866542E-01 a       416     0    17     1    16
  2.5926793821875144E-01 a       417     0    17     1    17
  3.8138967971723599E+00 a       418     0    17     1    18
 -9.5604848813579790E-01 a       419     0    17     1    19
 -7.3261700694527809E-02 a       420     0    17     1    20
  3.9795798000517664E+00 a       421     0    17     1    21
 -7.3604523243364517E-01 a       422     0    17     1    22
  6.6058501752734977E-01 a       423     0    17     1    23
 -1.5526463529358390E+00 a       424     0    17     1    24
 -4.6256265359632440E+00 a       425     0    17     1    25
 -1.4953307854728513E+00 a       426     0    18     1     1
  3.9581501413957652E+00 a       427     0    18     1     2
  7.7710904775929068E-01 a       428     0    18     1     3
  1.8420054938971353E+00 a       429     0    18     1     4
  3.1671229646744030E+00 a       430     0    18     1     5
  1.4762664073228395E+00 a       431     0    18     1     6
  1.0054481429772413E+00 a       432     0    18     1     7
 -4.8429528012056611E-01 a       433     0    18     1     8
 -3.2543911922138764E+00 a       434     0    18     1     9
 -7.5476746229235248E-01 a       435     0    18     1    10
 -8.5827440585779224E-01 a       436     0    18     1    11
 -2.5209214155828974E+00 a       437     0    18     1    12
  1.6563426715406399E-01 a       438     0    18     1    13
 -1.5207980204722633E+00 a       439     0    18     1    14
 -3.8074972424589055E+00 a       440     0    18     1    15
 -1.0398543637479392E+00 a       441     0    18     1    16
 -3.8674735397270238E-01 a       442     0    18     1    17
  3.2752620005987461E+00 a       443     0    18     1    18
 -2.4036629373758007E+00 a       444     0    18     1    19
  1.1456443552592703E+00 a       445     0    18     1    20
  3.8358503586915543E-01 a       446     0    18     1    21
 -6.4616054099943976E-01 a       447     0    18     1    22
  1.8189396989461368E+00 a       448     0    18     1    23
 -1.6809465105230954E+00 a       449     0    18     1    24
  1.6208215313510843E+00 a       450     0    18     1    25
  1.9304430031413300E+00 a       451     0    19     1     1
  2.4041115974581588E+00 a       452     0    19     1     2
 -1.8359722779181471E+00 a       453     0    19     1     3
  2.7699039799535569E-01 a       454     0    19     1     4
  4.3345599864741597E+00 a       455     0    19     1     5
 -2.9406498898237090E+00 a       456     0    19     1     6
 -8.5489648355985992E-01 a       457     0    19     1     7
 -2.6236342633683010E+00 a       458     0    19     1     8
 -4.2159899422494063E-01 a       459     0    19     1     9
 -4.9345787029604654E-01 a       460     0    19     1    10
  4.3751333316736662E+00 a       461     0    19     1    11
  2.3763817517292696E-01 a       462     0    19     1    12
 -3.6074330027893109E-01 a       463     0    19     1    13
  1.8333967685039292E+00 a       464     0    19     1    14
 -1.0132778854674225E+00 a       465     0    19     1    15
  2.7681233948867638E+00 a       466     0    19     1    16
  3.9798194522101680E+00 a       467     0    19     1    17
 -6.6089790854511898E+00 a       468     0    19     1    18
  7.7424614723955912E-02 a       469     0    19     1    19
  6.5592387560746909E-02 a       470     0    19     1    20
 -2.4133613683028465E+00 a       471     0    19     1    21
 -3.8757185102779852E+00 a       472     0    19     1    22
  4.2286739373028931E-01 a       473     0    19     1    23
 -7.2929048540153376E+00 a       474     0    19     1    24
 -1.1590774807847666E+00 a       475     0    19     1    25
  4.3032933692506625E-01 a       476     0    20     1     1
 -4.8056021114564601E-01 a       477     0    20     1     2
 -1.3210906902263269E+00 a       478     0    20     1     3
  2.8903372376502734E+00 a       479     0    20     1     4
 -2.3471550367287380E-01 a       480     0    20     1     5
  4.1115064494017712E+00 a       481     0    20     1     6
 -7.8194623304819189E-01 a       482     0    20     1     7
 -2.6806165544886449E+00 a       483     0    20     1     8
  1.4851933623583993E+00 a       484     0    20     1     9
 -2.4150923027082496E+00 a       485     0    20     1    10
  2.4011356010605516E+00 a       486     0    20     1    11
  4.6641998127571210E-01 a       487     0    20     1    12
  1.8300141784227693E+00 a       488     0    20     1    13
  1.0399795542243799E+00 a       489     0    20     1    14
 -6.3462408527100926E+00 a       490     0    20     1    15
 -5.4335387953274967E+00 a       491     0    20     1    16
 -1.2077136797850769E+00 a       492     0    20     1    17
  1.2742455113420109E+01 a       493     0    20     1    18
 -1.0954574072332648E+00 a       494     0    20     1    19
  5.1322771264279088E-01 a       495     0    20     1    20
 -2.7096237180949018E-01 a       496     0    20     1    21
  2.0641825428833838E+00 a       497     0    20     1    22
  1.4948790230574101E+00 a       498     0    20     1    23
 -1.1688975031994198E+00 a       499     0    20     1    24
 -1.1106784703382744E+00 a       500     0    20     1    25
  1.3963927298330532E+00 a       501     0    21     1     1
 -1.2832494880571301E+00 a       502     0    21     1     2
  3.5812755456093415E+00 a       503     0    21     1     3
  1.2523716185053471E+00 a       504     0    21     1     4
  1.6415606964411673E+00 a       505     0    21     1     5
  4.7893391098777034E+00 a       506     0    21     1     6
 -4.5552569337604520E+00 a       507     0    21     1     7
  4.3696748298649185E-01 a       508     0    21     1     8
  1.7342329715608629E-01 a       509     0    21     1     9
 -3.3728976261080827E+00 a       510     0    21     1    10
  1.4413197331944212E+00 a       511     0    21     1    11
  5.4583428796956046E-01 a       512     0    21     1    12
  3.2114792016604321E+00 a       513     0    21     1    13
 -5.0666924256859236E-01 a       514     0    21     1    14
 -2.0203222335220472E+00 a       515     0    21     1    15
 -7.0041695134050270E+00 a       516     0    21     1    16
  8.4391312761288451E-01 a       517     0    21     1    17
  1.1604829455394590E+01 a       518     0    21     1    18
  2.9604732445136746E+00 a       519     0    21     1    19
  2.4545689222131073E+00 a       520     0    21     1    20
 -3.6972240413212232E+00 a       521     0    21     1    21
 -7.3987029284372374E-01 a       522     0    21     1    22
  1.7549899338554651E+00 a       523     0    21     1    23
  2.3437023781026403E+00 a       524     0    21     1    24
  6.5705631716816393E-01 a       525     0    21     1    25
  4.3444208182210282E+00 a       526     0    22     1     1
 -1.8184865631065075E+00 a       527     0    22     1     2
  3.3721996310986349E+00 a       528     0    22     1     3
 -3.7755080283185385E+00 a       529     0    22     1     4
  6.3198460843848725E-01 a       530     0    22     1     5
 -1.9170476679695672E-01 a       531     0    22     1     6
 -3.4020980206028106E+00 a       532     0    22     1     7
  3.5651508758252448E+00 a       533     0    22     1     8
  2.6494345606409824E+00 a       534     0    22     1     9
  1.5369429220961001E-01 a       535     0    22     1    10
 -1.8736396408830371E+00 a       536     0    22     1    11
  1.5246483630860861E+00 a       537     0    22     1    12
  9.0324323208746626E-01 a       538     0    22     1    13
  2.4240860081781168E+00 a       539     0    22     1    14
  1.0657500001192128E+00 a       540     0    22     1    15
 -2.6921951946249889E+00 a       541     0    22     1    16
  1.8665689070631366E+00 a       542     0    22     1    17
 -3.3129167142533826E+00 a       543     0    22     1    18
  4.2318424936751153E+00 a       544     0    22     1    19
 -5.1370486614745348E-01 a       545     0    22     1    20
  1.5417524900357020E+00 a       546     0    22     1    21
 -8.3993818270782317E-01 a       547     0    22     1    22
 -2.8544628834731385E+00 a       548     0    22     1    23
  1.5037209027472911E+00 a       549     0    22     1    24
 -3.9982836033361608E+00 a       550     0    22     1    25
 -2.3202035937216733E-01 a       551     0    23     1     1
 -4.2414484988728249E+00 a       552     0    23     1     2
  1.6317161051660867E+00 a       553     0    23     1     3
  7.4354897227390182E-01 a       554     0    23     1     4
 -1.6757810148940677E+00 a       555     0    23     1     5
  2.7364012502381194E+00 a       556     0    23     1     6
 -2.6255820131768404E-01 a       557     0    23     1     7
  1.7191004312750706E+00 a       558     0    23     1     8
  1.0096648618303790E+00 a       559     0    23     1     9
 -1.9772469445531182E+00 a       560     0    23     1    10
 -9.6304584234891486E+00 a       561     0    23     1    11
 -5.2384096711911232E-01 a       562     0    23     1    12
  1.6593257640745247E+00 a       563     0    23     1    13
 -3.6534095790427084E+00 a       564     0    23     1    14
  7.8742408172982101E-02 a       565     0    23     1    15
 -3.7703814153169803E+00 a       566     0    23     1    16
 -3.8480121783264378E+00 a       567     0    23     1    17
  1.3922631042035714E+01 a       568     0    23     1    18
 -3.4891493634288397E+00 a       569     0    23     1    19
 -3.5470502954167787E-01 a       570     0    23     1    20
  4.3492643427297327E-02 a       571     0    23     1    21
  5.2712539070137741E+00 a       572     0    23     1    22
 -1.5496147138088592E+00 a       573     0    23     1    23
  1.0831690430144294E+01 a       574     0    23     1    24
  3.3164568976597040E+00 a       575     0    23     1    25
  1.6389377656825039E+00 a       576     0    24     1     1
  1.2911377929712609E+00 a       577     0    24     1     2
  3.3580997160218753E+00 a       578     0    24     1     3
 -5.3263243580886011E+00 a       579     0    24     1     4
 -1.2406318455480252E+00 a       580     0    24     1     5
 -2.5081330535581308E+00 a       581     0    24     1     6
  4.3596946533260237E+00 a       582     0    24     1     7
  1.6533557068211384E+00 a       583     0    24     1     8
 -2.1108204138952864E+00 a       584     0    24     1     9
  1.2591296490135560E+00 a       585     0    24     1    10
 -3.5443558989786776E+00 a       586     0    24     1    11
  2.7802980633540419E-01 a       587     0    24     1    12
 -8.0251015376849100E-01 a       588     0    24     1    13
 -1.6671293431991938E+00 a       589     0    24     1    14
  6.2773324310396585E+00 a       590     0    24     1    15
  1.1538788092707787E+01 a       591     0    24     1    16
  4.0612283094442754E+00 a       592     0    24     1    17
 -2.3387723781383876E+01 a       593     0    24     1    18
  4.3082105042553254E+00 a       594     0    24     1    19
 -1.7947216803127604E+00 a       595     0    24     1    20
  1.6266588908549242E+00 a       596     0    24     1    21
 -4.1364185889559657E+00 a       597     0    24     1    22
 -2.3957666661194037E+00 a       598     0    24     1    23
 -2.3717710653459174E+00 a       599     0    24     1    24
  1.0467414610086316E+00 a       600     0    24     1    25
  5.2339295978586069E+00 a       601     0    25     1     1
  4.8407105519551665E+00 a       602     0    25     1     2
  1.2218412992528462E+00 a       603     0    25     1     3
 -3.5937921749718083E+00 a       604     0    25     1     4
 -3.7634097036493563E+00 a       605     0    25     1     5
 -3.9264925725532049E+00 a       606     0    25     1     6
  1.4432200358965910E+00 a       607     0    25     1     7
 -9.8252249109340950E-01 a       608     0    25     1     8
 -3.5525528115642078E+00 a       609     0    25     1     9
  1.2104003513855421E+00 a       610     0    25     1    10
  2.0097932772708069E+00 a       611     0    25     1    11
  1.3311241259947226E+00 a       612     0    25     1    12
 -1.6456977809078117E+00 a       613     0    25     1    13
  2.1984616241182597E+00 a       614     0    25     1    14
  2.0208176112808500E+00 a       615     0    25     1    15
  5.1254820011883648E+00 a       616     0    25     1    16
 -2.5091216029954495E+00 a       617     0    25     1    17
 -1.6266454465311433E+01 a       618     0    25     1    18
 -2.9585474273142469E+00 a       619     0    25     1    19
 -2.1713048258981780E+00 a       620     0    25     1    20
  8.2363771714061649E+00 a       621     0    25     1    21
 -3.5293166657535044E+00 a       622     0    25     1    22
 -3.5570088703773921E+00 a       623     0    25     1    23
 -3.2301039859107066E+00 a       624     0    25     1    24
 -1.2622751891763866E+00 a       625     0    25     1    25
  2.0935139737302252E-01 a       626     0    26     1     1
 -5.9539869479867125E-01 a       627     0    26     1     2
 -9.9392277254573391E-01 a       628     0    26     1     3
  1.9997521711031312E+00 a       629     0    26     1     4
 -1.9140114701446831E+00 a       630     0    26     1     5
 -2.5227751131913383E+00 a       631     0    26     1     6
 -1.5500023622215013E+00 a       632     0    26     1     7
 -2.2959847088483070E+00 a       633     0    26     1     8
  9.3636919765338700E-01 a       634     0    26     1     9
  1.3052109147318893E+00 a       635     0    26     1    10
  4.3241347945726423E+00 a       636     0    26     1    11
  9.6571182985548032E-01 a       637     0    26     1    12
 -2.7550133410324701E-01 a       638     0    26     1    13
  6.5649181810653456E-01 a       639     0    26     1    14
  1.9502471320429240E+00 a       640     0    26     1    15
  2.3884922200672447E+00 a       641     0    26     1    16
 -1.2318359217548300E+00 a       642     0    26     1    17
  7.1815718052233035E-01 a       643     0    26     1    18
  3.1599013194300213E-01 a       644     0    26     1    19
 -1.1488108393476764E+00 a       645     0    26     1    20
 -2.5468509096968499E+00 a       646     0    26     1    21
 -5.8715513714098089E-01 a       647     0    26     1    22
 -1.6083647452362546E+00 a       648     0    26     1    23
 -9.4074512238540786E-01 a       649     0    26     1    24
  4.0838618182448512E+00 a       650     0    26     1    25
  2.7354107455012117E-02 a       651     0    27     1     1
  3.9822213520360621E+00 a       652     0    27     1     2
  4.3282525560739140E+00 a       653     0    27     1     3
  1.0853381885485500E+00 a       654     0    27     1     4
 -3.1591838696729297E+00 a       655     0    27     1     5
  1.7488762782755751E+00 a       656     0    27     1     6
  6.2875679287612307E-01 a       657     0    27     1     7
  3.5954521901411813E+00 a       658     0    27     1     8
 -3.3672658498774699E-01 a       659     0    27     1     9
  4.6149829838068710E+00 a       660     0    27     1    10
  7.2875334280019946E+00 a       661     0    27     1    11
  1.1893007225625949E+00 a       662     0    27     1    12
 -3.0589812679251636E+00 a       663     0    27     1    13
  4.3319213362979587E+00 a       664     0    27     1    14
  3.0668456064888252E+00 a       665     0    27     1    15
  1.3817685611857786E+00 a       666     0    27     1    16
 -1.4224697522154108E+00 a       667     0    27     1    17
 -1.1583541192144995E+01 a       668     0    27     1    18
  1.5521456424525881E+00 a       669     0    27     1    19
  2.7069790599315264E+00 a       670     0    27     1    20
  6.9222027542003230E+00 a       671     0    27     1    21
  3.5829359744757530E+00 a       672     0    27     1    22
  1.0878886872260032E+00 a       673     0    27     1    23
 -5.8758723623245528E+00 a       674     0    27     1    24
 -4.3823087769015272E+00 a       675     0    27     1    25
 -2.5872597930883439E+00 a       676     0    28     1     1
  1.0992169633240640E+00 a       677     0    28     1     2
 -1.9345441456171859E+00 a       678     0    28     1     3
  7.9488950330793156E+00 a       679     0    28     1     4
  2.5099684239277220E+00 a       680     0    28     1     5
 -2.7790378279609391E+00 a       681     0    28     1     6
  1.5145295820285374E+00 a       682     0    28     1     7
  2.9631925690270111E+00 a       683     0    28     1     8
  5.4307100967335940E+00 a       684     0    28     1     9
  3.8440248815819658E+00 a       685     0    28     1    10
  6.6006498854510856E+00 a       686     0    28     1    11
 -8.6742592636838334E-01 a       687     0    28     1    12
  5.6262823257922845E-01 a       688     0    28     1    13
  1.0389598732649044E+00 a       689     0    28     1    14
 -3.2153085076887655E+00 a       690     0    28     1    15
 -6.4780882779737858E+00 a       691     0    28     1    16
 -1.1807960231972787E+00 a       692     0    28     1    17
  1.3980523108366203E+01 a       693     0    28     1    18
 -1.0059012323623531E+00 a       694     0    28     1    19
 -3.4893540971530048E+00 a       695     0    28     1    20
 -5.1844509510779813E-01 a       696     0    28     1    21
  5.7473189400115725E+00 a       697     0    28     1    22
  1.0553830984525752E+00 a       698     0    28     1    23
  4.3428061464948282E+00 a       699     0    28     1    24
 -1.7432705660643344E+00 a       700     0    28     1    25
 -4.7182849459044141E+00 a       701     0    29     1     1
 -2.2299116281644134E+00 a       702     0    29     1     2
 -1.1577571646707034E+00 a       703     0    29     1     3
  1.6536054910864086E+00 a       704     0    29     1     4
  3.4034101615708372E+00 a       705     0    29     1     5
 -9.5556167534679237E-01 a       706     0    29     1     6
  1.8468682226645385E+00 a       707     0    29     1     7
  2.1543718655258712E+00 a       708     0    29     1     8
  2.5515833069827325E+00 a       709     0    29     1     9
  5.9720799450041695E-01 a       710     0    29     1    10
 -4.1954895003335944E+00 a       711     0    29     1    11
 -2.3672407939451969E+00 a       712     0    29     1    12
 -2.0611228549650327E+00 a       713     0    29     1    13
 -2.3212649434812085E+00 a       714     0    29     1    14
 -6.1018190103351690E+00 a       715     0    29     1    15
  2.3498373985033032E+00 a       716     0    29     1    16
  1.3578288690341607E+00 a       717     0    29     1    17
  5.2543641502220568E+00 a       718     0    29     1    18
 -2.2407821459707313E+00 a       719     0    29     1    19
 -3.0933291578808713E+00 a       720     0    29     1    20
 -2.0385105717722172E+00 a       721     0    29     1    21
  1.3671469703454420E+00 a       722     0    29     1    22
 -3.9123616782362309E+00 a       723     0    29     1    23
  2.1302130501751000E+00 a       724     0    29     1    24
  4.9501980122758260E+00 a       725     0    29     1    25
 -1.7534245890660385E+00 a       726     0    30     1     1
  1.3974983963140271E+00 a       727     0    30     1     2
 -1.3651195471535795E+00 a       728     0    30     1     3
  9.8815747534754661E-01 a       729     0    30     1     4
 -1.4504222669595843E-01 a       730     0    30     1     5
 -2.1602678922018552E+00 a       731     0    30     1     6
 -1.4812173881022583E+00 a       732     0    30     1     7
 -2.4539744445379621E+00 a       733     0    30     1     8
 -5.5314605177402654E-01 a       734     0    30     1     9
 -7.9817066068869402E-01 a       735     0    30     1    10
  1.5036921428428025E+00 a       736     0    30     1    11
  9.8603167912127421E-01 a       737     0    30     1    12
 -8.3805731165753061E-01 a       738     0    30     1    13
 -6.0037651561259253E-01 a       739     0    30     1    14
  5.4228802172252211E-01 a       740     0    30     1    15
  2.6601653987159564E+00 a       741     0    30     1    16
  5.2461323740686028E-01 a       742     0    30     1    17
  1.1648916624319576E+00 a       743     0    30     1    18
 -8.5397988003979330E-01 a       744     0    30     1    19
 -2.5343207297390851E-02 a       745     0    30     1    20
 -5.0788754514308442E-02 a       746     0    30     1    21
  3.8115590823050194E-01 a       747     0    30     1    22
 -3.1978686529924150E-01 a       748     0    30     1    23
 -4.1801126593367183E-02 a       749     0    30     1    24
  4.5361758659388514E+00 a       750     0    30     1    25
 -3.6984488326289413E+00 a       751     0    31     1     1
 -1.1995209103881623E+00 a       752     0    31     1     2
 -4.1901875930574413E+00 a       753     0    31     1     3
 -1.2303439387733142E+00 a       754     0    31     1     4
 -6.1044735263710603E-01 a       755     0    31     1     5
  2.7502320901334838E+00 a       756     0    31     1     6
  5.0218647955633902E+00 a       757     0    31     1     7
 -1.2074542145991050E-01 a       758     0    31     1     8
 -7.6535595210797314E-01 a       759     0    31     1     9
  2.4123898029930015E-02 a       760     0    31     1    10
 -4.9686164011198501E+00 a       761     0    31     1    11
 -9.5853623756514428E-01 a       762     0    31     1    12
  3.6910206510679102E+00 a       763     0    31     1    13
 -3.6126062828665688E+00 a       764     0    31     1    14
 -8.2781544359246262E-01 a       765     0    31     1    15
  1.2020611125746656E+00 a       766     0    31     1    16
  2.3043617864638297E+00 a       767     0    31     1    17
  1.1198997795761714E+00 a       768     0    31     1    18
  1.4948126876011398E+00 a       769     0    31     1    19
  2.5750287665751920E-01 a       770     0    31     1    20
 -3.4704609243389575E+00 a       771     0    31     1    21
 -6.7613466108505680E+00 a       772     0    31     1    22
  3.2347369832358491E-01 a       773     0    31     1    23
  5.0835604705891342E+00 a       774     0    31     1    24
  3.3283019641870135E+00 a       775     0    31     1    25
  4.7906922962647585E+00 a       776     0    32     1     1
  3.5892244247473100E+00 a       777     0    32     1     2
  4.0797768573670830E+00 a       778     0    32     1     3
 -3.3660099435157091E+00 a       779     0    32     1     4
 -1.7937799576459510E+00 a       780     0    32     1     5
 -6.4422873503103535E+00 a       781     0    32     1     6
 -3.2872128352377348E+00 a       782     0    32     1     7
  3.4147370457482734E-01 a       783     0    32     1     8
 -8.2449635757855888E-01 a       784     0    32     1     9
 -4.2064027718410628E+00 a       785     0    32     1    10
 -1.7994086276691018E+01 a       786     0    32     1    11
  3.5124117469754248E+00 a       787     0    32     1    12
 -7.7899329347017607E+00 a       788     0    32     1    13
 -6.6466419170822553E+00 a       789     0    32     1    14
  3.1357848786116356E+00 a       790     0    32     1    15
 -4.4092880541180579E-01 a       791     0    32     1    16
 -3.4367548187200292E+00 a       792     0    32     1    17
  2.1189110565435016E+00 a       793     0    32     1    18
 -5.0295710250427286E+00 a       794     0    32     1    19
  9.0750626595892303E+00 a       795     0    32     1    20
 -1.9921008343428388E+00 a       796     0    32     1    21
 -7.0377647824519336E+00 a       797     0    32     1    22
 -2.4217230077550815E+00 a       798     0    32     1    23
 -6.2263295852159950E-01 a       799     0    32     1    24
  8.0800514929662626E+00 a       800     0    32     1    25
 -3.7585308885405535E+00 a       801     0    33     1     1
 -1.4865061306055576E+00 a       802     0    33     1     2
 -2.2692209842472693E+00 a       803     0    33     1     3
  1.8285323239359641E+00 a       804     0    33     1     4
 -7.5955599811180796E-01 a       805     0    33     1     5
 -3.6965812125478342E-01 a       806     0    33     1     6
 -2.5254626312186432E+00 a       807     0    33     1     7
  6.5345722352947044E-01 a       808     0    33     1     8
  3.2620246727508689E-01 a       809     0    33     1     9
 -2.4824178044300846E+00 a       810     0    33     1    10
 -3.9200727368100199E+00 a       811     0    33     1    11
 -1.0980654206498506E+00 a       812     0    33     1    12
 -1.3200891256819851E+00 a       813     0    33     1    13
  4.4210477802592307E-01 a       814     0    33     1    14
 -3.2401365931224553E+00 a       815     0    33     1    15
  3.9254100804824472E+00 a       816     0    33     1    16
  2.9820787689141763E+00 a       817     0    33     1    17
  1.0506925739062943E+01 a       818     0    33     1    18
  6.4823610919961383E-01 a       819     0    33     1    19
 -9.7963246850491170E-01 a       820     0    33     1    20
 -1.4289604134564360E-01 a       821     0    33     1    21
  5.7523936960237432E-01 a       822     0    33     1    22
 -3.8914759414354414E+00 a       823     0    33     1    23
 -7.6251295049451484E-01 a       824     0    33     1    24
 -4.2434927928733929E-01 a       825     0    33     1    25
  1.1735276277818727E+00 a       826     0    34     1     1
 -1.6406064934129683E-01 a       827     0    34     1     2
  5.2588104726504092E-01 a       828     0    34     1     3
 -2.8460723192369288E+00 a       829     0    34     1     4
  4.5727578383510525E-01 a       830     0    34     1     5
  9.1333595879176055E-01 a       831     0    34     1     6
 -1.7814647101451344E+00 a       832     0    34     1     7
 -3.1673743637427605E+00 a       833     0    34     1     8
  1.5245300740875255E-02 a       834     0    34     1     9
 -2.6955333797940978E-01 a       835     0    34     1    10
  8.5771075091227489E-01 a       836     0    34     1    11
  1.6468740956249233E+00 a       837     0    34     1    12
 -1.0795974370383936E+00 a       838     0    34     1    13
 -7.8500682436048164E-01 a       839     0    34     1    14
  1.1858957325580572E+00 a       840     0    34     1    15
  4.7458135313928163E-01 a       841     0    34     1    16
 -2.7830952581852886E-01 a       842     0    34     1    17
 -1.3894618302812689E+00 a       843     0    34     1    18
 -7.7554719339011557E-01 a       844     0    34     1    19
  1.2013848876620370E+00 a       845     0    34     1    20
 -1.4948279984304946E+00 a       846     0    34     1    21
 -2.8232098917483028E-01 a       847     0    34     1    22
 -1.2537669214233786E+00 a       848     0    34     1    23
 -1.1929032470957430E+00 a       849     0    34     1    24
  5.7822989676707659E-01 a       850     0    34     1    25
  2.6812615498396881E+00 a       851     0    35     1     1
 -5.7087312090283788E+00 a       852     0    35     1     2
 -1.7815953260558381E+00 a       853     0    35     1     3
 -3.8908719403074477E+00 a       854     0    35     1     4
  1.2599445415695070E+00 a       855     0    35     1     5
  6.7254630166985641E-01 a       856     0    35     1     6
 -2.7254696437549293E+00 a       857     0    35     1     7
 -4.7037339176879183E+00 a       858     0    35     1     8
 -1.4792769386271034E+00 a       859     0    35     1     9
 -2.9226003237161802E-01 a       860     0    35     1    10
 -7.1723862884596263E+00 a       861     0    35     1    11
  2.8255817691794958E+00 a       862     0    35     1    12
 -8.5041942239558721E-01 a       863     0    35     1    13
  4.1957903956987702E-01 a       864     0    35     1    14
 -2.5269362094654375E+00 a       865     0    35     1    15
 -4.3513460718745556E+00 a       866     0    35     1    16
  2.7583804727252974E+00 a       867     0    35     1    17
 -8.7041667660098270E+00 a       868     0    35     1    18
 -1.1768428832054736E+00 a       869     0    35     1    19
  6.2996530901103476E-01 a       870     0    35     1    20
 -2.8332037382252890E+00 a       871     0    35     1    21
 -1.0779976937531000E+00 a       872     0    35     1    22
  1.3333755825937186E+00 a       873     0    35     1    23
  3.5358100447045762E+00 a       874     0    35     1    24
  7.3071473984055926E+00 a       875     0    35     1    25
 -4.8114756542309550E-01 a       876     0    36     1     1
  5.9304861370932105E-01 a       877     0    36     1     2
 -2.7920679140899436E+00 a       878     0    36     1     3
  8.2083349824678304E+00 a       879     0    36     1     4
  3.7162066211544467E+00 a       880     0    36     1     5
 -2.1430526545167332E+00 a       881     0    36     1     6
 -1.3599817900786819E+00 a       882     0    36     1     7
 -4.1500255706434244E+00 a       883     0    36     1     8
  5.2588640152655985E+00 a       884     0    36     1     9
  1.8152863914863635E+00 a       885     0    36     1    10
 -1.2882794972037999E+00 a       886     0    36     1    11
  1.4708810048133336E+00 a       887     0    36     1    12
 -1.1913511390520963E+00 a       888     0    36     1    13
  5.9491624813307817E+00 a       889     0    36     1    14
  6.4991044545895358E+00 a       890     0    36     1    15
 -1.7155521879044667E+01 a       891     0    36     1    16
  9.5812971646310607E-01 a       892     0    36     1    17
 -1.9232672379843912E+01 a       893     0    36     1    18
 -4.5543305023806715E+00 a       894     0    36     1    19
 -4.4718793878626855E+00 a       895     0    36     1    20
 -6.8139892001561746E+00 a       896     0    36     1    21
  6.2144107555745203E+00 a       897     0    36     1    22
  1.3558341746932870E+01 a       898     0    36     1    23
  2.0634412159989760E-01 a       899     0    36     1    24
  6.2010940220981974E+00 a       900     0    36     1    25
 -4.9546409868686893E-02 a       901     0    37     1     1
 -3.7587629424453355E+00 a       902     0    37     1     2
 -3.3369664589427206E+00 a       903     0    37     1     3
  5.7355593954362316E+00 a       904     0    37     1     4
 -1.7060721527153984E+00 a       905     0    37     1     5
 -1.6570519276596243E+00 a       906     0    37     1     6
  2.2405025940733294E+00 a       907     0    37     1     7
  3.1352027806026368E+00 a       908     0    37     1     8
 -1.9347473303365195E+00 a       909     0    37     1     9
  1.1622776559443343E-01 a       910     0    37     1    10
 -9.0644407241475700E-01 a       911     0    37     1    11
 -4.3555116655961896E+00 a       912     0    37     1    12
  2.8405595649489208E+00 a       913     0    37     1    13
  4.8023698149809585E-01 a       914     0    37     1    14
 -1.1852353329386314E+00 a       915     0    37     1    15
 -9.0261291971485927E-02 a       916     0    37     1    16
  6.8972482731545581E-01 a       917     0    37     1    17
  2.8588841717297355E+00 a       918     0    37     1    18
 -2.0688357787472134E+00 a       919     0    37     1    19
 -2.5599271180457190E+00 a       920     0    37     1    20
  1.8768654131845015E+00 a       921     0    37     1    21
 -1.6942779810812980E+00 a       922     0    37     1    22
  2.9052899887313535E+00 a       923     0    37     1    23
  2.7796030660706204E+00 a       924     0    37     1    24
 -3.0863233451606181E-01 a       925     0    37     1    25
  9.7657328329954596E-01 a       926     0    38     1     1
  5.9309214734708726E-01 a       927     0    38     1     2
  3.8788974521392605E+00 a       928     0    38     1     3
  7.6236116382739072E-01 a       929     0    38     1     4
 -3.3280366383116383E-01 a       930     0    38     1     5
  2.3826692918136622E-01 a       931     0    38     1     6
  3.2904925686102273E+00 a       932     0    38     1     7
 -1.0589876339558515E+00 a       933     0    38     1     8
 -4.3165591436309096E+00 a       934     0    38     1     9
 -1.4538171350437772E+00 a       935     0    38     1    10
 -1.7507882320768939E+00 a       936     0    38     1    11
 -7.9183376644345091E-02 a       937     0    38     1    12
  2.9184862925261168E+00 a       938     0    38     1    13
 -3.7634976555336181E+00 a       939     0    38     1    14
 -4.0395431831464759E+00 a       940     0    38     1    15
  5.4695453612118463E+00 a       941     0    38     1    16
  3.0004428601685906E+00 a       942     0    38     1    17
  7.5866097772932566E+00 a       943     0    38     1    18
  5.5183362743062538E+00 a       944     0    38     1    19
  2.2585477972408623E+00 a       945     0    38     1    20
  3.8058180109226925E+00 a       946     0    38     1    21
 -3.7240360174587974E+00 a       947     0    38     1    22
 -4.7097418897649277E+00 a       948     0    38     1    23
  1.4318840655913236E+00 a       949     0    38     1    24
 -9.4170828807447937E-01 a       950     0    38     1    25
  2.3978533091963397E+00 a       951     0    39     1     1
  3.6291442223222514E-01 a       952     0    39     1     2
  4.0945842171502704E+00 a       953     0    39     1     3
 -1.6301889674947777E+01 a       954     0    39     1     4
  1.0748852568082334E+00 a       955     0    39     1     5
  4.2104209511185839E+00 a       956     0    39     1     6
 -1.2073597811921006E+00 a       957     0    39     1     7
 -5.6614526887745855E+00 a       958     0    39     1     8
  1.2812481385153893E-01 a       959     0    39     1     9
 -1.8346801982346304E+00 a       960     0    39     1    10
 -5.5002042221213427E+00 a       961     0    39     1    11
  6.2365024398550180E+00 a       962     0    39     1    12
 -3.7444027088707843E+00 a       963     0    39     1    13
 -1.7077720801142875E+00 a       964     0    39     1    14
 -9.4549082072967072E-01 a       965     0    39     1    15
 -4.4691520941382845E-01 a       966     0    39     1    16
  2.1374782838903168E+00 a       967     0    39     1    17
 -1.2648443732174560E+01 a       968     0    39     1    18
  1.4952498129402387E+00 a       969     0    39     1    19
  3.0647959609379507E+00 a       970     0    39     1    20
 -7.7478796478040071E+00 a       971     0    39     1    21
 -1.1442282915528059E+00 a       972     0    39     1    22
 -1.9195820517099773E+00 a       973     0    39     1    23
  2.8674937728378262E+00 a       974     0    39     1    24
  8.4001706549058301E+00 a       975     0    39     1    25
 -1.9441572324579676E-01 a       976     0    40     1     1
 -1.1782995738389928E+00 a       977     0    40     1     2
 -1.8065516935341726E+00 a       978     0    40     1     3
  6.9411428883277421E-02 a       979     0    40     1     4
 -2.9439830289033364E+00 a       980     0    40     1     5
 -5.7421357469980305E-01 a       981     0    40     1     6
 -5.5224813259489924E-01 a       982     0    40     1     7
  1.0539794722713811E-01 a       983     0    40     1     8
 -3.8758309110552119E-01 a       984     0    40     1     9
  6.4540610914431518E-01 a       985     0    40     1    10
  5.0231425314327027E-01 a       986     0    40     1    11
  1.8006780434453673E+00 a       987     0    40     1    12
 -3.7498854992681421E-02 a       988     0    40     1    13
 -3.8679948951650739E-01 a       989     0    40     1    14
 -1.0559310210473251E-01 a       990     0    40     1    15
 -1.3904985382505039E-01 a       991     0    40     1    16
 -2.5160268752248567E+00 a       992     0    40     1    17
  1.9186838353645101E-02 a       993     0    40     1    18
 -6.5512252852668185E-01 a       994     0    40     1    19
  9.8554743426189240E-01 a       995     0    40     1    20
 -3.5216348645753887E-01 a       996     0    40     1    21
  1.0883006237042816E+00 a       997     0    40     1    22
  1.2923213215925194E-01 a       998     0    40     1    23
  9.5005123320703921E-01 a       999     0    40     1    24
  2.0829647303043869E-01 a      1000     0    40     1    25
 -1.0538821463518015E-01 a      1001     0    41     1     1
 -9.9655523694452508E-01 a      1002     0    41     1     2
 -1.6703790332510251E+00 a      1003     0    41     1     3
  2.3007520043642965E-01 a      1004     0    41     1     4
 -3.1674660129772709E+00 a      1005     0    41     1     5
 -4.2946446771707208E-01 a      1006     0    41     1     6
 -3.3392287941442117E-01 a      1007     0    41     1     7
 -9.5516411097758668E-03 a      1008     0    41     1     8
 -4.2102266037787184E-01 a      1009     0    41     1     9
  8.3754789637842386E-01 a      1010     0    41     1    10
  3.4112130899603871E-01 a      1011     0    41     1    11
  1.6296017227391566E+00 a      1012     0    41     1    12
  1.2407769262020391E-01 a      1013     0    41     1    13
 -4.6640767015888418E-01 a      1014     0    41     1    14
 -1.5342986300613837E-01 a      1015     0    41     1    15
 -2.8785080967575322E-01 a      1016     0    41     1    16
 -2.6571324868963004E+00 a      1017     0    41     1    17
  2.8899486941102892E-01 a      1018     0    41     1    18
 -8.4533653017137844E-01 a      1019     0    41     1    19
  9.8351896564619967E-01 a      1020     0    41     1    20
 -3.4602356728696354E-01 a      1021     0    41     1    21
  9.2616787012596913E-01 a      1022     0    41     1    22
 -3.6439209881304259E-02 a      1023     0    41     1    23
  7.9809922931388377E-01 a      1024     0    41     1    24
  3.4717716154402278E-01 a      1025     0    41     1    25
  1.3559932949095823E+00 a      1026     0    42     1     1
  2.2954096567122049E+00 a      1027     0    42     1     2
 -2.3905258111673300E+00 a      1028     0    42     1     3
  2.8970021560468209E+00 a      1029     0    42     1     4
  2.7800495255960684E+00 a      1030     0    42     1     5
  6.3631277029855127E-01 a      1031     0    42     1     6
  4.0832543608360199E+00 a      1032     0    42     1     7
  1.5545383082795436E+00 a      1033     0    42     1     8
 -2.3466640063971265E+00 a      1034     0    42     1     9
  1.0630460182943291E+00 a      1035     0    42     1    10
 -2.2307334910717977E+00 a      1036     0    42     1    11
 -3.8646876307418845E+00 a      1037     0    42     1    12
 -2.1401146805230691E+00 a      1038     0    42     1    13
 -2.0574168970171063E+00 a      1039     0    42     1    14
  2.4052319059425037E-01 a      1040     0    42     1    15
 -3.0332853285378163E+00 a      1041     0    42     1    16
  7.0155473228006784E+00 a      1042     0    42     1    17
 -1.4743133193705564E+00 a      1043     0    42     1    18
 -1.5216471899044770E+00 a      1044     0    42     1    19
  6.3335776064417737E-01 a      1045     0    42     1    20
 -9.9687165583497239E-01 a      1046     0    42     1    21
 -5.6547799216674841E-02 a      1047     0    42     1    22
 -2.5994796773999025E+00 a      1048     0    42     1    23
  4.2437559363345712E-01 a      1049     0    42     1    24
 -1.7170835622160903E+00 a      1050     0    42     1    25
  1.2115028266744932E+00 a      1051     0    43     1     1
  2.2685754328649383E+00 a      1052     0    43     1     2
 -2.2938830893404272E+00 a      1053     0    43     1     3
  3.1349181426026402E+00 a      1054     0    43     1     4
  2.7608349420378238E+00 a      1055     0    43     1     5
  6.2690169613362534E-01 a      1056     0    43     1     6
  4.0236641231262613E+00 a      1057     0    43     1     7
  1.4443725707992501E+00 a      1058     0    43     1     8
 -2.2087312597900026E+00 a      1059     0    43     1     9
  1.1542526296464681E+00 a      1060     0    43     1    10
 -2.2253532381761758E+00 a      1061     0    43     1    11
 -3.8777575479097597E+00 a      1062     0    43     1    12
 -1.9611638645946583E+00 a      1063     0    43     1    13
 -1.9387302832151527E+00 a      1064     0    43     1    14
  3.1594805194052833E-01 a      1065     0    43     1    15
 -3.1460988974419202E+00 a      1066     0    43     1    16
  6.8864735914770385E+00 a      1067     0    43     1    17
 -1.4030887972980828E+00 a      1068     0    43     1    18
 -1.7577962972393655E+00 a      1069     0    43     1    19
  8.2907139026693677E-01 a      1070     0    43     1    20
 -8.6430940330848338E-01 a      1071     0    43     1    21
  4.7628339127424812E-02 a      1072     0    43     1    22
 -2.7939560849766054E+00 a      1073     0    43     1    23
  4.2091409898932147E-01 a      1074     0    43     1    24
 -1.8462561057468845E+00 a      1075     0    43     1    25
 -3.7332118767964584E+00 a      1076     0    44     1     1
 -3.1772919780166871E+00 a      1077     0    44     1     2
 -8.1254793165955630E-02 a      1078     0    44     1     3
  2.5387788419875741E+00 a      1079     0    44     1     4
  1.4315533642729408E+00 a      1080     0    44     1     5
  4.2094838255121019E+00 a      1081     0    44     1     6
 -1.5511771257909672E+00 a      1082     0    44     1     7
 -1.2113190327891155E+00 a      1083     0    44     1     8
 -4.1502088320553510E+00 a      1084     0    44     1     9
  4.9600751959605011E-01 a      1085     0    44     1    10
  5.1020432785585518E-02 a      1086     0    44     1    11
  5.3468530124816549E-01 a      1087     0    44     1    12
  2.0400930826991588E+00 a      1088     0    44     1    13
  3.2622236850382182E+00 a      1089     0    44     1    14
 -3.8225640633681257E+00 a      1090     0    44     1    15
  6.0762733839366800E-01 a      1091     0    44     1    16
  3.7433282222193187E-01 a      1092     0    44     1    17
  3.1727543129727449E+00 a      1093     0    44     1    18
  1.1025587889112488E-01 a      1094     0    44     1    19
 -1.7279838943063262E+00 a      1095     0    44     1    20
 -2.0919116991463493E+00 a      1096     0    44     1    21
 -4.7758683168030878E+00 a      1097     0    44     1    22
  3.0401712818869870E+00 a      1098     0    44     1    23
 -3.2371960884758955E+00 a      1099     0    44     1    24
 -1.2632201552200231E+00 a      1100     0    44     1    25
 -3.6614858853037591E+00 a      1101     0    45     1     1
 -3.3618299308272732E+00 a      1102     0    45     1     2
 -2.2330546441068541E-01 a      1103     0    45     1     3
  2.7433125739520170E+00 a      1104     0    45     1     4
  1.5304586094587815E+00 a      1105     0    45     1     5
  3.9268727142522111E+00 a      1106     0    45     1     6
 -1.6329108767081992E+00 a      1107     0    45     1     7
 -1.0179568614644210E+00 a      1108     0    45     1     8
 -4.0773472631497043E+00 a      1109     0    45     1     9
  3.1945077902240271E-01 a      1110     0    45     1    10
 -1.4237287421494441E-01 a      1111     0    45     1    11
  3.1042232192178632E-01 a      1112     0    45     1    12
  2.1214061740323173E+00 a      1113     0    45     1    13
  3.1986000232950684E+00 a      1114     0    45     1    14
 -4.0640219736450707E+00 a      1115     0    45     1    15
  5.2811193333253870E-01 a      1116     0    45     1    16
  5.8245841319978486E-01 a      1117     0    45     1    17
  3.1492180792407098E+00 a      1118     0    45     1    18
  3.6063383799779164E-01 a      1119     0    45     1    19
 -1.7246884783323821E+00 a      1120     0    45     1    20
 -2.0698552345438688E+00 a      1121     0    45     1    21
 -4.5514282286494900E+00 a      1122     0    45     1    22
  2.8329216805969271E+00 a      1123     0    45     1    23
 -3.2114253392929735E+00 a      1124     0    45     1    24
 -1.3282031352177002E+00 a      1125     0    45     1    25
 -3.7070002796781059E+00 a      1126     0    46     1     1
 -1.1085380209382152E+00 a      1127     0    46     1     2
 -2.9428331357400572E-01 a      1128     0    46     1     3
  3.2215835620520985E+00 a      1129     0    46     1     4
  7.7331946375391092E-01 a      1130     0    46     1     5
 -2.4535817902782102E+00 a      1131     0    46     1     6
 -7.5478852532661855E-01 a      1132     0    46     1     7
 -2.8333359928319557E-01 a      1133     0    46     1     8
  3.7490706010783426E-01 a      1134     0    46     1     9
  6.5605222070641522E-01 a      1135     0    46     1    10
 -3.3247594601687780E-01 a      1136     0    46     1    11
  4.0538382628666203E-01 a      1137     0    46     1    12
 -6.7290071807165253E-01 a      1138     0    46     1    13
  2.3623638505143942E+00 a      1139     0    46     1    14
 -5.9913765709217837E-01 a      1140     0    46     1    15
  2.5558747814650840E+00 a      1141     0    46     1    16
  2.7523525246139000E+00 a      1142     0    46     1    17
  5.0205703429446846E-01 a      1143     0    46     1    18
  2.0735707088481217E+00 a      1144     0    46     1    19
 -3.5549536909499724E-01 a      1145     0    46     1    20
 -1.5431365274169804E+00 a      1146     0    46     1    21
  1.2830134213288136E+00 a      1147     0    46     1    22
  1.3746759064065122E+00 a      1148     0    46     1    23
 -2.9196222984515150E+00 a      1149     0    46     1    24
 -2.2505221283083325E+00 a      1150     0    46     1    25
 -3.7695444436605161E+00 a      1151     0    47     1     1
 -1.0941314247784510E+00 a      1152     0    47     1     2
 -4.3659442931356712E-01 a      1153     0    47     1     3
  3.4163870606299311E+00 a      1154     0    47     1     4
  8.5189033584793039E-01 a      1155     0    47     1     5
 -2.4424477523516011E+00 a      1156     0    47     1     6
 -6.2886000876521608E-01 a      1157     0    47     1     7
 -2.6835439536428024E-01 a      1158     0    47     1     8
  4.9605405110969142E-01 a      1159     0    47     1     9
  9.1335919333713356E-01 a      1160     0    47     1    10
 -4.9644580394982052E-01 a      1161     0    47     1    11
  5.6240236747250882E-01 a      1162     0    47     1    12
 -7.7458024248625645E-01 a      1163     0    47     1    13
  2.3163410451421940E+00 a      1164     0    47     1    14
 -6.2410329934209308E-01 a      1165     0    47     1    15
  2.5887423309862174E+00 a      1166     0    47     1    16
  2.7801649995504474E+00 a      1167     0    47     1    17
  5.5736891527437871E-01 a      1168     0    47     1    18
  2.0234791717173959E+00 a      1169     0    47     1    19
 -1.7727661816514484E-01 a      1170     0    47     1    20
 -1.6077798931894962E+00 a      1171     0    47     1    21
  1.1419169838132657E+00 a      1172     0    47     1    22
  1.6214018068846192E+00 a      1173     0    47     1    23
 -2.9497225108496270E+00 a      1174     0    47     1    24
 -2.3131655544946521E+00 a      1175     0    47     1    25
 -7.1555926467724407E-01 a      1176     0    48     1     1
 -1.3899948938355766E+00 a      1177     0    48     1     2
  1.0564864430629688E+00 a      1178     0    48     1     3
 -1.9057237013125214E+00 a      1179     0    48     1     4
 -2.2765941893944226E+00 a      1180     0    48     1     5
 -7.8595405836277621E-01 a      1181     0    48     1     6
 -3.0665743615610221E+00 a      1182     0    48     1     7
 -1.8574209533838091E+00 a      1183     0    48     1     8
  2.2016891995897074E+00 a      1184     0    48     1     9
 -4.5787396896564975E-01 a      1185     0    48     1    10
  1.9399731723621851E+00 a      1186     0    48     1    11
  2.5475862509751521E+00 a      1187     0    48     1    12
  1.2109097005306999E+00 a      1188     0    48     1    13
  8.7720034291944304E-01 a      1189     0    48     1    14
 -1.9297391955425286E-01 a      1190     0    48     1    15
  2.5169464153320700E+00 a      1191     0    48     1    16
 -5.1565515384603176E+00 a      1192     0    48     1    17
  1.0617858318242319E+00 a      1193     0    48     1    18
  1.0445155551751319E-01 a      1194     0    48     1    19
 -2.8257874069782868E-01 a      1195     0    48     1    20
 -5.5381726038682744E-01 a      1196     0    48     1    21
  1.7037071699905121E-01 a      1197     0    48     1    22
  2.5462903347661716E+00 a      1198     0    48     1    23
 -4.5399394293463508E-01 a      1199     0    48     1    24
  1.3126537755118466E+00 a      1200     0    48     1    25
 -7.0804552650241992E-01 a      1201     0    49     1     1
 -1.4972559427873742E+00 a      1202     0    49     1     2
  1.2845615053876900E+00 a      1203     0    49     1     3
 -2.0347341604471838E+00 a      1204     0    49     1     4
 -2.3286051211577554E+00 a      1205     0    49     1     5
 -8.6943574542602930E-01 a      1206     0    49     1     6
 -3.1162008716924592E+00 a      1207     0    49     1     7
 -1.8583340206098558E+00 a      1208     0    49     1     8
  2.0916025548638508E+00 a      1209     0    49     1     9
 -3.9594434328711159E-01 a      1210     0    49     1    10
  1.9341353916519721E+00 a      1211     0    49     1    11
  2.6737549953578985E+00 a      1212     0    49     1    12
  1.2821195819020348E+00 a      1213     0    49     1    13
  8.8377364320247398E-01 a      1214     0    49     1    14
 -7.0886589954649318E-02 a      1215     0    49     1    15
  2.5421497953048591E+00 a      1216     0    49     1    16
 -5.1776957395267766E+00 a      1217     0    49     1    17
  1.0028532754062225E+00 a      1218     0    49     1    18
  5.0723551894932543E-02 a      1219     0    49     1    19
 -4.3779806693130238E-02 a      1220     0    49     1    20
 -4.0319349049251874E-01 a      1221     0    49     1    21
  1.1361886351623203E-01 a      1222     0    49     1    22
  2.5480703113328871E+00 a      1223     0    49     1    23
 -3.3149560125913130E-01 a      1224     0    49     1    24
  1.1931586965869629E+00 a      1225     0    49     1    25
  2.2846175379938036E+00 a      1226     0    50     1     1
  1.4835425380658271E+00 a      1227     0    50     1     2
 -2.5517464632043541E-01 a      1228     0    50     1     3
 -2.2841659974792909E+00 a      1229     0    50     1     4
 -6.1337042694330335E-01 a      1230     0    50     1     5
 -3.1770797336637417E+00 a      1231     0    50     1     6
 -3.6943660277643453E-01 a      1232     0    50     1     7
  8.9626596305712181E-02 a      1233     0    50     1     8
  2.3887796071444072E+00 a      1234     0    50     1     9
 -7.6785158088813488E-01 a      1235     0    50     1    10
  6.4259856105505964E-01 a      1236     0    50     1    11
 -6.8893433554787542E-01 a      1237     0    50     1    12
 -1.4065251262157181E+00 a      1238     0    50     1    13
 -1.8891162438041285E+00 a      1239     0    50     1    14
  2.4642612349399426E+00 a      1240     0    50     1    15
 -1.2462486520956018E+00 a      1241     0    50     1    16
  1.8807627125025986E-02 a      1242     0    50     1    17
 -1.9226749449671199E+00 a      1243     0    50     1    18
  3.9237180159248083E-02 a      1244     0    50     1    19
  1.0069591057728804E+00 a      1245     0    50     1    20
  9.9787496801436315E-01 a      1246     0    50     1    21
  2.8668410049969459E+00 a      1247     0    50     1    22
 -2.0575160854625900E+00 a      1248     0    50     1    23
  1.8949325303910678E+00 a      1249     0    50     1    24
  2.9564583048012694E-01 a      1250     0    50     1    25
  2.1451616643125959E+00 a      1251     0    51     1     1
  1.3918948316121782E+00 a      1252     0    51     1     2
 -1.7127868925695405E-01 a      1253     0    51     1     3
 -2.4450865185652213E+00 a      1254     0    51     1     4
 -3.2385039949094535E-01 a      1255     0    51     1     5
 -2.9872927776835008E+00 a      1256     0    51     1     6
 -5.4827709223640397E-01 a      1257     0    51     1     7
  6.6442736516847817E-02 a      1258     0    51     1     8
  2.1814892388997071E+00 a      1259     0    51     1     9
 -8.0689132726863222E-01 a      1260     0    51     1    10
  6.1401354753632309E-01 a      1261     0    51     1    11
 -7.4114255710981125E-01 a      1262     0    51     1    12
 -1.3516964915838818E+00 a      1263     0    51     1    13
 -2.0921740860428297E+00 a      1264     0    51     1    14
  2.5191226710088799E+00 a      1265     0    51     1    15
 -1.2310774283963122E+00 a      1266     0    51     1    16
 -1.0042266272639208E-01 a      1267     0    51     1    17
 -1.7301066949666088E+00 a      1268     0    51     1    18
 -9.1213026145035465E-03 a      1269     0    51     1    19
  1.1090498070467794E+00 a      1270     0    51     1    20
  8.0426474188716790E-01 a      1271     0    51     1    21
  3.0602904304758023E+00 a      1272     0    51     1    22
 -1.9437171312504189E+00 a      1273     0    51     1    23
  1.8188445191356588E+00 a      1274     0    51     1    24
  4.5848023869868365E-01 a      1275     0    51     1    25
  3.4357051738606716E+00 a      1276     0    52     1     1
  1.4603125018508165E+00 a      1277     0    52     1     2
 -1.5830335895614154E+00 a      1278     0    52     1     3
 -2.0300033135620961E+00 a      1279     0    52     1     4
 -4.9872802352316603E-01 a      1280     0    52     1     5
  1.3547289287259887E+00 a      1281     0    52     1     6
  1.6020067365802384E+00 a      1282     0    52     1     7
 -9.7253292719936923E-01 a      1283     0    52     1     8
  3.2326387637706500E-01 a      1284     0    52     1     9
  5.6500946502760696E-01 a      1285     0    52     1    10
 -8.7105989721523003E-01 a      1286     0    52     1    11
  8.5029137372954380E-02 a      1287     0    52     1    12
 -1.8814677682597514E-01 a      1288     0    52     1    13
 -1.8392519100023821E+00 a      1289     0    52     1    14
  1.8209938123319797E-01 a      1290     0    52     1    15
 -2.5311167201735145E+00 a      1291     0    52     1    16
 -1.5332142444990460E+00 a      1292     0    52     1    17
 -2.5888202177538339E-01 a      1293     0    52     1    18
 -1.5117709330416989E+00 a      1294     0    52     1    19
 -8.6617821680258367E-01 a      1295     0    52     1    20
 -5.7913969098224416E-01 a      1296     0    52     1    21
 -4.8027020514799540E-02 a      1297     0    52     1    22
 -3.3803766509663206E-02 a      1298     0    52     1    23
  2.1330017188934041E+00 a      1299     0    52     1    24
  7.4232322888553171E-01 a      1300     0    52     1    25
  3.3752721479799819E+00 a      1301     0    53     1     1
  1.4668501019586289E+00 a      1302     0    53     1     2
 -1.5848100555675910E+00 a      1303     0    53     1     3
 -2.2047190994683104E+00 a      1304     0    53     1     4
 -3.8313743715882131E-01 a      1305     0    53     1     5
  1.4868440266401841E+00 a      1306     0    53     1     6
  1.7910224069922014E+00 a      1307     0    53     1     7
 -1.1159389375841453E+00 a      1308     0    53     1     8
  3.7013289057876586E-01 a      1309     0    53     1     9
  6.3810460630290333E-01 a      1310     0    53     1    10
 -8.1092562382881983E-01 a      1311     0    53     1    11
  4.4136648159345100E-02 a      1312     0    53     1    12
 -3.3746006746991247E-01 a      1313     0    53     1    13
 -2.0325758840393560E+00 a      1314     0    53     1    14
  3.0507379421433856E-01 a      1315     0    53     1    15
 -2.7175708054981143E+00 a      1316     0    53     1    16
 -1.4708071453339511E+00 a      1317     0    53     1    17
 -4.5229501738776223E-01 a      1318     0    53     1    18
 -1.7531551534582350E+00 a      1319     0    53     1    19
 -8.6254134993966880E-01 a      1320     0    53     1    20
 -3.9873225724800548E-01 a      1321     0    53     1    21
 -3.5405063488623760E-02 a      1322     0    53     1    22
 -2.3221444979501918E-01 a      1323     0    53     1    23
  2.1415382006255013E+00 a      1324     0    53     1    24
  6.2257229313923390E-01 a      1325     0    53     1    25
  3.1856791819084113E-01 a      1326     0    54     1     1
  1.4128323678878405E+00 a      1327     0    54     1     2
  1.1661332673297089E+00 a      1328     0    54     1     3
  4.1824438315465895E-01 a      1329     0    54     1     4
  9.6072809140763815E-01 a      1330     0    54     1     5
  4.1301787217555963E-01 a      1331     0    54     1     6
  4.9286330991348569E-02 a      1332     0    54     1     7
 -1.2453297315913034E+00 a      1333     0    54     1     8
  1.3832125513799759E-01 a      1334     0    54     1     9
 -3.2141565918879528E-01 a      1335     0    54     1    10
  8.0543875765206926E-02 a      1336     0    54     1    11
  3.7163468468589977E-02 a      1337     0    54     1    12
  1.7100725816168905E-01 a      1338     0    54     1    13
  8.4744581427265253E-01 a      1339     0    54     1    14
 -2.8892369571647893E-02 a      1340     0    54     1    15
 -5.7177647572581436E-01 a      1341     0    54     1    16
 -7.9167975806266153E-02 a      1342     0    54     1    17
  5.7135460482694989E-01 a      1343     0    54     1    18
 -5.6779606797325277E-01 a      1344     0    54     1    19
 -2.0108553197573495E-01 a      1345     0    54     1    20
  2.0941712053391210E+00 a      1346     0    54     1    21
 -9.2836226627537644E-01 a      1347     0    54     1    22
 -1.1815681314209374E+00 a      1348     0    54     1    23
 -8.6194823839075385E-01 a      1349     0    54     1    24
 -1.3665133238093446E-01 a      1350     0    54     1    25
  3.5479705959081237E-01 a      1351     0    55     1     1
  1.3778395559847245E+00 a      1352     0    55     1     2
  1.1542667628745547E+00 a      1353     0    55     1     3
  2.9685328659250260E-01 a      1354     0    55     1     4
  1.1968911777908160E+00 a      1355     0    55     1     5
  4.4386294732645304E-01 a      1356     0    55     1     6
  5.2645779232461221E-02 a      1357     0    55     1     7
 -1.3150945963334071E+00 a      1358     0    55     1     8
  8.7069054407097182E-02 a      1359     0    55     1     9
 -2.8670701383561986E-01 a      1360     0    55     1    10
  3.2869244825347443E-01 a      1361     0    55     1    11
  1.5758960995516433E-01 a      1362     0    55     1    12
  9.6205621534276503E-02 a      1363     0    55     1    13
  7.1051369149412757E-01 a      1364     0    55     1    14
  1.1273655220549063E-01 a      1365     0    55     1    15
 -3.4982680499874957E-01 a      1366     0    55     1    16
  2.1623207108883113E-01 a      1367     0    55     1    17
  4.3611140385851571E-01 a      1368     0    55     1    18
 -6.3211954910615553E-01 a      1369     0    55     1    19
 -2.1472412725614634E-01 a      1370     0    55     1    20
  1.9273765499952435E+00 a      1371     0    55     1    21
 -8.3151969652583391E-01 a      1372     0    55     1    22
 -1.1735978405914884E+00 a      1373     0    55     1    23
 -6.6807293521633881E-01 a      1374     0    55     1    24
  6.2907037434279209E-02 a      1375     0    55     1    25
 -1.0649549212153104E+00 a      1376     0    56     1     1
  2.2775919540575695E+00 a      1377     0    56     1     2
  4.6095188063795151E-01 a      1378     0    56     1     3
  7.4819997510796177E-01 a      1379     0    56     1     4
  3.5035317696047139E+00 a      1380     0    56     1     5
 -1.7660655777156395E+00 a      1381     0    56     1     6
 -2.4089413456379627E+00 a      1382     0    56     1     7
 -4.7720239102743159E-02 a      1383     0    56     1     8
 -1.6915037112788753E+00 a      1384     0    56     1     9
  5.1951914613266903E-01 a      1385     0    56     1    10
  2.2868201068702509E+00 a      1386     0    56     1    11
  4.9638972183967861E-01 a      1387     0    56     1    12
  5.7422307477684476E-01 a      1388     0    56     1    13
 -1.8590410118418510E+00 a      1389     0    56     1    14
 -4.1030154346136344E-01 a      1390     0    56     1    15
 -2.3104347647472254E+00 a      1391     0    56     1    16
  1.2813584214108431E+00 a      1392     0    56     1    17
 -1.6378566149885785E+00 a      1393     0    56     1    18
 -8.1998626339793934E-01 a      1394     0    56     1    19
  2.2879503979561826E+00 a      1395     0    56     1    20
  2.7849765501153928E-01 a      1396     0    56     1    21
 -1.0575993495919893E+00 a      1397     0    56     1    22
  1.4380781987643028E+00 a      1398     0    56     1    23
  1.0146827554929696E+00 a      1399     0    56     1    24
 -2.9774563695153953E+00 a      1400     0    56     1    25
 -1.2030407451709004E+00 a      1401     0    57     1     1
  2.2471053422145348E+00 a      1402     0    57     1     2
  3.2932274926118427E-01 a      1403     0    57     1     3
  6.0547513878089532E-01 a      1404     0    57     1     4
  3.5224440817567624E+00 a      1405     0    57     1     5
 -1.9298295642249610E+00 a      1406     0    57     1     6
 -2.4184993654720222E+00 a      1407     0    57     1     7
 -6.1168747743714939E-02 a      1408     0    57     1     8
 -1.4667582709472549E+00 a      1409     0    57     1     9
  2.5992482887864687E-01 a      1410     0    57     1    10
  2.3063534079257897E+00 a      1411     0    57     1    11
  5.8489159852863903E-01 a      1412     0    57     1    12
  5.9346873676780099E-01 a      1413     0    57     1    13
 -2.0715805041347299E+00 a      1414     0    57     1    14
 -4.6350182209012336E-01 a      1415     0    57     1    15
 -2.2385211557135660E+00 a      1416     0    57     1    16
  1.3225495273611261E+00 a      1417     0    57     1    17
 -1.3996876816530199E+00 a      1418     0    57     1    18
 -8.0559988635208257E-01 a      1419     0    57     1    19
  2.2780934306758223E+00 a      1420     0    57     1    20
  4.9341948705810706E-01 a      1421     0    57     1    21
 -1.0857108625646121E+00 a      1422     0    57     1    22
  1.4513830298700132E+00 a      1423     0    57     1    23
  8.8996536089907086E-01 a      1424     0    57     1    24
 -3.0261955992409764E+00 a      1425     0    57     1    25
 -2.3675437142597233E+00 a      1426     0    58     1     1
 -7.6789521904897884E-01 a      1427     0    58     1     2
  1.7329862508669722E+00 a      1428     0    58     1     3
 -9.8809278845575166E-01 a      1429     0    58     1     4
 -7.6935642529187731E-01 a      1430     0    58     1     5
  2.3572160918263005E+00 a      1431     0    58     1     6
 -2.7095020471650572E-01 a      1432     0    58     1     7
 -6.8902979139863729E-01 a      1433     0    58     1     8
 -3.0827753508045164E-02 a      1434     0    58     1     9
  6.8738047703620342E-01 a      1435     0    58     1    10
 -1.4603301553172318E-01 a      1436     0    58     1    11
  1.1616193682346900E+00 a      1437     0    58     1    12
  2.0530454479405531E+00 a      1438     0    58     1    13
 -1.0970330245617574E+00 a      1439     0    58     1    14
  7.4614673748325522E-01 a      1440     0    58     1    15
 -1.0606736080086296E+00 a      1441     0    58     1    16
 -1.3856921626624481E+00 a      1442     0    58     1    17
  7.1678900602193940E-01 a      1443     0    58     1    18
  1.4140908407382335E+00 a      1444     0    58     1    19
  1.7230432921926303E-01 a      1445     0    58     1    20
 -1.5882967462374389E-01 a      1446     0    58     1    21
  7.2759729906072601E-01 a      1447     0    58     1    22
  2.8163573943152154E-01 a      1448     0    58     1    23
 -3.8774984912611732E-01 a      1449     0    58     1    24
  1.1070672328221256E+00 a      1450     0    58     1    25
 -2.6258093224202321E+00 a      1451     0    59     1     1
 -9.9810845684736504E-01 a      1452     0    59     1     2
  1.5936606257540920E+00 a      1453     0    59     1     3
 -8.9743745262520347E-01 a      1454     0    59     1     4
 -6.6190295494609941E-01 a      1455     0    59     1     5
  2.5717768631776776E+00 a      1456     0    59     1     6
 -6.4466204691840098E-02 a      1457     0    59     1     7
 -6.4206421838045979E-01 a      1458     0    59     1     8
 -4.6707691190516723E-02 a      1459     0    59     1     9
  5.0590658229732210E-01 a      1460     0    59     1    10
 -1.1142637964701680E-02 a      1461     0    59     1    11
  1.4204366096923879E+00 a      1462     0    59     1    12
  1.9275505284529633E+00 a      1463     0    59     1    13
 -1.1376078254860380E+00 a      1464     0    59     1    14
  9.8283943253330330E-01 a      1465     0    59     1    15
 -1.0544432027923001E+00 a      1466     0    59     1    16
 -1.4592964418045584E+00 a      1467     0    59     1    17
  8.5070481014883403E-01 a      1468     0    59     1    18
  1.3894088339015451E+00 a      1469     0    59     1    19
  1.3676017864735920E-01 a      1470     0    59     1    20
 -9.7301169320708508E-02 a      1471     0    59     1    21
  7.6600267120661802E-01 a      1472     0    59     1    22
  1.6226482685881066E-01 a      1473     0    59     1    23
 -3.2768372289707615E-01 a      1474     0    59     1    24
  9.8308217455162572E-01 a      1475     0    59     1    25
  1.6654964982933612E-01 a      1476     0    60     1     1
 -5.1228284575107663E-01 a      1477     0    60     1     2
  3.2851434307785266E-01 a      1478     0    60     1     3
 -7.9786468897946239E-01 a      1479     0    60     1     4
 -9.0195744273147505E-01 a      1480     0    60     1     5
  6.3461945515139462E-01 a      1481     0    60     1     6
  9.9198037851926724E-01 a      1482     0    60     1     7
  1.8007828884184032E+00 a      1483     0    60     1     8
  3.4073189221712019E-01 a      1484     0    60     1     9
 -8.7065084667016102E-01 a      1485     0    60     1    10
  3.6151227761980970E-01 a      1486     0    60     1    11
  6.6075285293225580E-02 a      1487     0    60     1    12
  5.7582590834240492E-02 a      1488     0    60     1    13
  3.2101623748031000E-01 a      1489     0    60     1    14
  1.1226529449635136E+00 a      1490     0    60     1    15
  2.0449461364093806E+00 a      1491     0    60     1    16
 -7.4374233063605721E-01 a      1492     0    60     1    17
 -1.3952700371175679E+00 a      1493     0    60     1    18
  9.7669893404224950E-01 a      1494     0    60     1    19
  1.6418970369099462E-01 a      1495     0    60     1    20
  1.3623955655898963E+00 a      1496     0    60     1    21
  6.7579959483675800E-01 a      1497     0    60     1    22
  3.1612334877572096E-01 a      1498     0    60     1    23
  4.4112164018441841E-01 a      1499     0    60     1    24
  8.8015107407311954E-01 a      1500     0    60     1    25
  9.2752092500952427E-02 a      1501     0    61     1     1
  1.1640881561155914E+00 a      1502     0    61     1     2
 -6.2787107708192513E-01 a      1503     0    61     1     3
  5.2507416004808329E-02 a      1504     0    61     1     4
  1.4454864807097570E-01 a      1505     0    61     1     5
 -1.4312150871447986E+00 a      1506     0    61     1     6
 -8.9058005115519034E-01 a      1507     0    61     1     7
 -6.3408367374843322E-01 a      1508     0    61     1     8
  3.6647149165053056E-01 a      1509     0    61     1     9
  9.9958471091129342E-01 a      1510     0    61     1    10
 -9.4798286933743325E-01 a      1511     0    61     1    11
 -5.0012787094382294E-01 a      1512     0    61     1    12
  2.5363133080173900E-01 a      1513     0    61     1    13
 -7.1835532006891800E-01 a      1514     0    61     1    14
  4.1373200697922524E-01 a      1515     0    61     1    15
 -1.0108842287975439E+00 a      1516     0    61     1    16
 -4.7627008261480352E-01 a      1517     0    61     1    17
  5.8201261875460053E-01 a      1518     0    61     1    18
  9.2617965424213000E-01 a      1519     0    61     1    19
 -3.4444757387465103E-01 a      1520     0    61     1    20
 -2.1258889612273152E-01 a      1521     0    61     1    21
 -1.1497395569870936E-02 a      1522     0    61     1    22
 -9.0102861147478219E-01 a      1523     0    61     1    23
  3.5395556379068049E-01 a      1524     0    61     1    24
 -4.3613352040367141E-02 a      1525     0    61     1    25
 -4.3993883639074867E-02 a      1526     0    62     1     1
  1.3480961549818107E+00 a      1527     0    62     1     2
 -5.1219464794683667E-01 a      1528     0    62     1     3
  1.6972692803736494E-01 a      1529     0    62     1     4
  1.8950313818016007E-01 a      1530     0    62     1     5
 -1.4469644556966363E+00 a      1531     0    62     1     6
 -8.0151862509995231E-01 a      1532     0    62     1     7
 -7.4673958363285786E-01 a      1533     0    62     1     8
  4.4773348018142634E-01 a      1534     0    62     1     9
  1.1052349216421724E+00 a      1535     0    62     1    10
 -8.4692564949312632E-01 a      1536     0    62     1    11
 -6.5278825337052682E-01 a      1537     0    62     1    12
  3.4833182610409896E-01 a      1538     0    62     1    13
 -6.1560806731879281E-01 a      1539     0    62     1    14
  5.3163934707964144E-01 a      1540     0    62     1    15
 -1.2002144050350305E+00 a      1541     0    62     1    16
 -6.3440269727088927E-01 a      1542     0    62     1    17
  4.6816472093508527E-01 a      1543     0    62     1    18
  1.1338725723441356E+00 a      1544     0    62     1    19
 -2.9869749056277928E-01 a      1545     0    62     1    20
  2.4035388463647948E-02 a      1546     0    62     1    21
 -2.1108058206258112E-01 a      1547     0    62     1    22
 -9.1426300337608646E-01 a      1548     0    62     1    23
  4.1336714271878960E-01 a      1549     0    62     1    24
 -2.7510048349996113E-01 a      1550     0    62     1    25
  1.9866107758490889E-01 a      1551     0    63     1     1
  5.6534509960449608E-01 a      1552     0    63     1     2
  1.0934879602386767E+00 a      1553     0    63     1     3
 -6.1792948866643593E-01 a      1554     0    63     1     4
 -7.5243185473101226E-01 a      1555     0    63     1     5
 -8.2715929895616280E-01 a      1556     0    63     1     6
  7.2079749353921663E-01 a      1557     0    63     1     7
 -1.6753551903160721E-01 a      1558     0    63     1     8
  1.6174375081718737E-01 a      1559     0    63     1     9
  7.7544686308321675E-01 a      1560     0    63     1    10
  1.5826413094198977E+00 a      1561     0    63     1    11
  5.4013170364413818E-02 a      1562     0    63     1    12
  4.9321865822664607E-01 a      1563     0    63     1    13
  9.7985337205243384E-01 a      1564     0    63     1    14
 -3.9681033775866215E-01 a      1565     0    63     1    15
 -1.6880125832588910E+00 a      1566     0    63     1    16
 -5.1849751768184793E-01 a      1567     0    63     1    17
  5.2468027592252720E-02 a      1568     0    63     1    18
 -1.0263766149723910E+00 a      1569     0    63     1    19
 -1.0402979361693960E+00 a      1570     0    63     1    20
 -1.6574640078062436E-01 a      1571     0    63     1    21
  1.2755078713537360E-01 a      1572     0    63     1    22
 -1.0338629390245824E+00 a      1573     0    63     1    23
 -2.6092090218602826E-01 a      1574     0    63     1    24
 -8.2896529996261914E-01 a      1575     0    63     1    25
  2.9344607535245226E-01 a      1576     0    64     1     1
  5.0816536446908067E-01 a      1577     0    64     1     2
  1.0778490652967943E+00 a      1578     0    64     1     3
 -8.6209900096730163E-01 a      1579     0    64     1     4
 -8.3692149987734699E-01 a      1580     0    64     1     5
 -8.3928919937209001E-01 a      1581     0    64     1     6
  9.3005282746586848E-01 a      1582     0    64     1     7
 -2.4001879987961841E-01 a      1583     0    64     1     8
 -6.3377228834567090E-02 a      1584     0    64     1     9
  5.0417501489341399E-01 a      1585     0    64     1    10
  1.4926021502706215E+00 a      1586     0    64     1    11
  8.6662109264182260E-02 a      1587     0    64     1    12
  5.2399993032888548E-01 a      1588     0    64     1    13
  8.6943316781696200E-01 a      1589     0    64     1    14
 -3.3641242958724071E-01 a      1590     0    64     1    15
 -1.7047428773337230E+00 a      1591     0    64     1    16
 -3.9831267105463619E-01 a      1592     0    64     1    17
 -4.6943791671723571E-02 a      1593     0    64     1    18
 -1.0519177191357685E+00 a      1594     0    64     1    19
 -1.0359149843941153E+00 a      1595     0    64     1    20
 -3.3224384646539029E-01 a      1596     0    64     1    21
  2.9615579286298016E-01 a      1597     0    64     1    22
 -1.2439918362250457E+00 a      1598     0    64     1    23
 -2.2608030957635153E-01 a      1599     0    64     1    24
 -8.7648690523804407E-01 a      1600     0    64     1    25
 -3.8856744003957938E-01 a      1601     0    65     1     1
 -6.5844086014680669E-01 a      1602     0    65     1     2
  2.5728410449871419E-01 a      1603     0    65     1     3
 -2.6499144018237603E-01 a      1604     0    65     1     4
  7.3270078655492554E-01 a      1605     0    65     1     5
  9.9591924624709127E-01 a      1606     0    65     1     6
  8.6963239491561151E-01 a      1607     0    65     1     7
  7.3825430531810080E-02 a      1608     0    65     1     8
  6.6069891542516135E-01 a      1609     0    65     1     9
  4.6983058957145829E-01 a      1610     0    65     1    10
 -8.4822230881829308E-01 a      1611     0    65     1    11
 -4.3600862314058458E-01 a      1612     0    65     1    12
  7.5989461474745890E-01 a      1613     0    65     1    13
 -1.2504667117564141E+00 a      1614     0    65     1    14
 -9.2018913205434719E-02 a      1615     0    65     1    15
  2.0983370770491672E-01 a      1616     0    65     1    16
 -7.4918428120971281E-01 a      1617     0    65     1    17
 -5.5850374049577356E-01 a      1618     0    65     1    18
 -5.0632069531596713E-01 a      1619     0    65     1    19
  7.3162374632645832E-01 a      1620     0    65     1    20
  5.2305067913455427E-01 a      1621     0    65     1    21
 -3.5033995444787636E-01 a      1622     0    65     1    22
 -1.2207709707975220E-01 a      1623     0    65     1    23
