################################################################################
# Neural network connection values (weights and biases).
################################################################################
# Col  Name       Description
################################################################################
# 1    connection Neural network connection value.
# 2    t          Connection type (a = weight, b = bias).
# 3    index      Index enumerating weights.
# 4    l_s        Starting point layer (end point layer for biases).
# 5    n_s        Starting point neuron in starting layer (end point neuron for biases).
# 6    l_e        End point layer.
# 7    n_e        End point neuron in end layer.
################################################################################
#                      1 2         3     4     5     6     7
#             connection t     index   l_s   n_s   l_e   n_e
############################################################
  3.2874325200894905E-01 a         1     0     1     1     1
  2.1467710696989624E+00 a         2     0     1     1     2
  1.3631457118478787E-01 a         3     0     1     1     3
  1.5212314657179746E+00 a         4     0     1     1     4
 -1.0173904421594575E+00 a         5     0     1     1     5
 -5.3190568294016849E-01 a         6     0     1     1     6
  7.8109777876826225E-01 a         7     0     1     1     7
 -3.6373805274017967E-01 a         8     0     1     1     8
  1.6302522099250012E+00 a         9     0     1     1     9
  4.3841795157105523E-01 a        10     0     1     1    10
  2.7307777345301171E-01 a        11     0     1     1    11
 -1.2058322802106560E+00 a        12     0     1     1    12
  1.2574762311486607E+00 a        13     0     1     1    13
 -3.1655146174554660E-01 a        14     0     1     1    14
  1.9013124088815292E+00 a        15     0     1     1    15
  1.8128726969056497E-01 a        16     0     1     1    16
 -9.8430347554350095E-02 a        17     0     1     1    17
 -4.2501215076764348E-01 a        18     0     1     1    18
 -1.5446172132267486E+00 a        19     0     1     1    19
  2.1851717839939508E-01 a        20     0     1     1    20
  5.2290696358768651E-02 a        21     0     1     1    21
  1.0454165255984083E+00 a        22     0     1     1    22
  2.3563560662354317E+00 a        23     0     1     1    23
  1.5634122765931968E+00 a        24     0     1     1    24
  2.5499265085033646E-01 a        25     0     1     1    25
 -2.9808154411006380E+00 a        26     0     2     1     1
 -3.6695925337561928E+00 a        27     0     2     1     2
 -2.1773988699579547E+00 a        28     0     2     1     3
 -5.6955295034497810E-01 a        29     0     2     1     4
  1.0476611758184100E+00 a        30     0     2     1     5
 -9.0676017712942175E-02 a        31     0     2     1     6
 -1.3590306343028189E+00 a        32     0     2     1     7
  6.6304708605803997E-01 a        33     0     2     1     8
 -1.8500929259890748E+00 a        34     0     2     1     9
 -7.1225513595553314E-01 a        35     0     2     1    10
  1.0285839515825952E+00 a        36     0     2     1    11
  3.7558696181868849E+00 a        37     0     2     1    12
 -1.9408479329136943E-01 a        38     0     2     1    13
  3.0155730896100785E-01 a        39     0     2     1    14
 -2.6256022268446264E+00 a        40     0     2     1    15
  8.0835614802637934E-01 a        41     0     2     1    16
 -2.3736664529040885E+00 a        42     0     2     1    17
 -4.7035536680428558E-01 a        43     0     2     1    18
 -9.5141079642236823E-02 a        44     0     2     1    19
 -1.1601778616141469E+00 a        45     0     2     1    20
  1.9386093848420636E+00 a        46     0     2     1    21
 -1.8943926937084703E+00 a        47     0     2     1    22
 -2.4282085529390396E+00 a        48     0     2     1    23
 -2.1434225341094426E+00 a        49     0     2     1    24
 -6.0446710827054539E-01 a        50     0     2     1    25
  4.9955021893521612E-01 a        51     0     3     1     1
  1.2367436597906722E-01 a        52     0     3     1     2
  3.2636803732241160E-01 a        53     0     3     1     3
  1.0407589600835574E+00 a        54     0     3     1     4
 -1.7561417673774893E+00 a        55     0     3     1     5
  6.7615134741340310E-01 a        56     0     3     1     6
  1.1905129774484926E+00 a        57     0     3     1     7
  8.2573196744305177E-01 a        58     0     3     1     8
 -1.8814737131201620E+00 a        59     0     3     1     9
 -1.2897261321315701E+00 a        60     0     3     1    10
  1.0257128181126596E+00 a        61     0     3     1    11
 -3.9255555421788420E+00 a        62     0     3     1    12
 -1.0497019473404348E+00 a        63     0     3     1    13
  2.9263862032469729E-01 a        64     0     3     1    14
 -1.8117613610297920E+00 a        65     0     3     1    15
 -5.8880738156595847E-01 a        66     0     3     1    16
 -6.9461453984617327E-01 a        67     0     3     1    17
  1.4344154341285837E+00 a        68     0     3     1    18
 -1.1928078136343485E+00 a        69     0     3     1    19
 -1.1256523212767027E+00 a        70     0     3     1    20
 -1.0913693279676362E+00 a        71     0     3     1    21
  6.0913983371278080E-01 a        72     0     3     1    22
  6.6071145535491727E-01 a        73     0     3     1    23
 -3.1952400609420512E-01 a        74     0     3     1    24
 -2.2131473046413599E-01 a        75     0     3     1    25
  1.6318577725387304E+00 a        76     0     4     1     1
 -1.4616283607758174E-01 a        77     0     4     1     2
 -6.6486182526390691E-01 a        78     0     4     1     3
  1.1981162681270814E-01 a        79     0     4     1     4
  6.1372184690538245E-01 a        80     0     4     1     5
  9.5493286541289302E-01 a        81     0     4     1     6
 -8.2836756308776527E-01 a        82     0     4     1     7
 -7.9761369962710926E-01 a        83     0     4     1     8
 -5.8863554883719937E-01 a        84     0     4     1     9
  6.6187216398862714E-01 a        85     0     4     1    10
  1.3937299817613185E+00 a        86     0     4     1    11
 -1.6385994753974944E+00 a        87     0     4     1    12
  4.4737150857488403E-02 a        88     0     4     1    13
 -7.3384551848027413E-01 a        89     0     4     1    14
 -6.0768641668517587E-01 a        90     0     4     1    15
  1.5096782797399116E-01 a        91     0     4     1    16
  1.9778374303123378E+00 a        92     0     4     1    17
 -7.3046488854755087E-01 a        93     0     4     1    18
 -1.7641628271870109E+00 a        94     0     4     1    19
 -2.6279840717252416E-02 a        95     0     4     1    20
 -1.3376815760941887E+00 a        96     0     4     1    21
 -5.3523772822653704E-01 a        97     0     4     1    22
  3.6512318849771552E-01 a        98     0     4     1    23
  1.8810021633572178E+00 a        99     0     4     1    24
  1.2502162682182836E+00 a       100     0     4     1    25
  1.2170864273454537E-01 a       101     0     5     1     1
  1.3278356081453129E+00 a       102     0     5     1     2
 -3.5399647223813047E-01 a       103     0     5     1     3
 -7.4435005325630166E-01 a       104     0     5     1     4
 -8.4602068403576069E-01 a       105     0     5     1     5
 -2.8512026216480080E-01 a       106     0     5     1     6
 -2.4757411901774223E-01 a       107     0     5     1     7
  4.8208603068738554E-01 a       108     0     5     1     8
 -2.2772913817394564E-02 a       109     0     5     1     9
 -3.8444930328446147E-01 a       110     0     5     1    10
  6.9871615329498626E-01 a       111     0     5     1    11
  7.0620116974639202E-01 a       112     0     5     1    12
  5.6456177200785918E-01 a       113     0     5     1    13
  7.2355303784740854E-01 a       114     0     5     1    14
  6.5599593727999173E-01 a       115     0     5     1    15
  4.7997911744209604E-01 a       116     0     5     1    16
  8.8591125364961176E-01 a       117     0     5     1    17
 -3.9654370732583621E-01 a       118     0     5     1    18
  5.2248830288073955E-01 a       119     0     5     1    19
  4.0358971002525329E-01 a       120     0     5     1    20
  3.6417878626403138E-01 a       121     0     5     1    21
  1.9924992806307373E-01 a       122     0     5     1    22
 -3.0540819654451455E-02 a       123     0     5     1    23
 -1.8469508749667679E-01 a       124     0     5     1    24
 -2.6939377317334134E-01 a       125     0     5     1    25
 -2.7308492318066966E+00 a       126     0     6     1     1
  4.6293278998081250E-01 a       127     0     6     1     2
 -5.3650034043411199E-01 a       128     0     6     1     3
 -1.7232158304680021E+00 a       129     0     6     1     4
  1.9497297980512369E+00 a       130     0     6     1     5
 -3.7509547905390872E+00 a       131     0     6     1     6
 -1.1865373704366449E+00 a       132     0     6     1     7
 -5.2011217920374764E-01 a       133     0     6     1     8
  4.4566444898606630E+00 a       134     0     6     1     9
  1.7168247128735974E+00 a       135     0     6     1    10
 -1.6939433904679675E+00 a       136     0     6     1    11
  4.7417259292882221E+00 a       137     0     6     1    12
 -5.5738438562737591E-01 a       138     0     6     1    13
  1.2854671674743818E+00 a       139     0     6     1    14
  5.1541610824285042E+00 a       140     0     6     1    15
  1.6610046368222964E+00 a       141     0     6     1    16
  2.5630898984041817E-01 a       142     0     6     1    17
 -2.7738435937577397E+00 a       143     0     6     1    18
 -7.9472701782535937E-01 a       144     0     6     1    19
  2.2633772774442069E+00 a       145     0     6     1    20
  7.5242462692038270E-01 a       146     0     6     1    21
 -5.7083293173972545E-02 a       147     0     6     1    22
 -3.5741502081472049E-01 a       148     0     6     1    23
 -9.1039694201500909E-01 a       149     0     6     1    24
 -1.3973105786236306E+00 a       150     0     6     1    25
 -3.2607687772601208E+00 a       151     0     7     1     1
 -1.6660356427251410E-01 a       152     0     7     1     2
  2.9277630047404368E-01 a       153     0     7     1     3
 -7.1796643542682104E-01 a       154     0     7     1     4
  1.9622782541483024E+00 a       155     0     7     1     5
  4.8740261453638417E-01 a       156     0     7     1     6
  1.6362797618031639E+00 a       157     0     7     1     7
 -4.1733021362888964E-02 a       158     0     7     1     8
  1.6986848343769179E+00 a       159     0     7     1     9
 -1.0230959794642991E+00 a       160     0     7     1    10
 -3.5053936984588199E+00 a       161     0     7     1    11
  9.4296958160780120E-01 a       162     0     7     1    12
 -2.0036521590409344E+00 a       163     0     7     1    13
  8.6467357430255942E-01 a       164     0     7     1    14
  4.4075555037844322E-01 a       165     0     7     1    15
 -3.4260849507093538E-01 a       166     0     7     1    16
 -1.0180026631855403E+00 a       167     0     7     1    17
  1.4102989357318703E+00 a       168     0     7     1    18
  3.3751362833070262E+00 a       169     0     7     1    19
  1.0832957969082044E+00 a       170     0     7     1    20
 -6.5300814986731326E-01 a       171     0     7     1    21
 -1.7359924230788162E+00 a       172     0     7     1    22
  1.8163796725433776E+00 a       173     0     7     1    23
 -1.2250177603947574E+00 a       174     0     7     1    24
 -5.2240440473914529E-01 a       175     0     7     1    25
  8.8342137115103148E-01 a       176     0     8     1     1
 -1.8717249277353711E+00 a       177     0     8     1     2
 -1.6471241378583870E+00 a       178     0     8     1     3
 -9.9198933866627681E-01 a       179     0     8     1     4
 -1.1850246714472354E+00 a       180     0     8     1     5
  2.6799669261494024E+00 a       181     0     8     1     6
  3.2663218985557496E-01 a       182     0     8     1     7
  1.0756570478876248E+00 a       183     0     8     1     8
 -5.2813659569173765E+00 a       184     0     8     1     9
 -5.3659252076523375E-02 a       185     0     8     1    10
  1.4470225968003531E-01 a       186     0     8     1    11
 -1.5037252372727974E+00 a       187     0     8     1    12
  1.3263964275257751E+00 a       188     0     8     1    13
 -1.7171532308586877E+00 a       189     0     8     1    14
 -5.9372495968217907E+00 a       190     0     8     1    15
 -9.3625861190498583E-01 a       191     0     8     1    16
 -2.2594645150477841E-01 a       192     0     8     1    17
  2.4628659696830235E+00 a       193     0     8     1    18
  2.9429139334177643E+00 a       194     0     8     1    19
 -1.3142000760375501E+00 a       195     0     8     1    20
 -7.5406908650016369E-01 a       196     0     8     1    21
 -7.2010629972806184E-01 a       197     0     8     1    22
 -1.4198828253390128E-01 a       198     0     8     1    23
  6.0347106283008067E-01 a       199     0     8     1    24
  7.2704632969208771E-01 a       200     0     8     1    25
  4.8655301781433499E-02 a       201     0     9     1     1
 -1.1608619919597971E+00 a       202     0     9     1     2
  1.4528703419076829E+00 a       203     0     9     1     3
 -5.9638705973774553E-01 a       204     0     9     1     4
 -1.0988362979195117E+00 a       205     0     9     1     5
  1.0853490951915898E-01 a       206     0     9     1     6
 -8.4631996066738935E-01 a       207     0     9     1     7
 -2.6568981056923641E-01 a       208     0     9     1     8
 -2.4182829446309184E-01 a       209     0     9     1     9
 -6.6474108760450423E-01 a       210     0     9     1    10
 -7.9992895353261109E-02 a       211     0     9     1    11
 -4.2831873635687567E-01 a       212     0     9     1    12
  7.3727025506402732E-01 a       213     0     9     1    13
 -1.3900131322260217E-01 a       214     0     9     1    14
 -5.7652548399987114E-01 a       215     0     9     1    15
 -8.7659248299122805E-01 a       216     0     9     1    16
 -4.1181493240979766E-01 a       217     0     9     1    17
 -7.7978280948881273E-01 a       218     0     9     1    18
  3.4283147757430738E-01 a       219     0     9     1    19
 -3.4230459813354847E-01 a       220     0     9     1    20
 -2.2418920447768181E-01 a       221     0     9     1    21
  2.1617215913429857E+00 a       222     0     9     1    22
 -1.9315617278233381E+00 a       223     0     9     1    23
  3.7245879065196531E-02 a       224     0     9     1    24
 -1.0423962583201039E+00 a       225     0     9     1    25
  2.2159201415198861E+00 a       226     0    10     1     1
  3.0868200875448659E+00 a       227     0    10     1     2
  2.9485402484904375E+00 a       228     0    10     1     3
 -2.7618816227885867E-01 a       229     0    10     1     4
  9.9493697325156183E-01 a       230     0    10     1     5
 -4.4438601682173028E-02 a       231     0    10     1     6
  9.5419570589935096E-02 a       232     0    10     1     7
 -1.0836945337382549E+00 a       233     0    10     1     8
  2.4854623450885613E+00 a       234     0    10     1     9
  5.4661953893578497E-01 a       235     0    10     1    10
 -1.5916365177676504E+00 a       236     0    10     1    11
 -2.7126983740787138E+00 a       237     0    10     1    12
 -1.5979955314662670E+00 a       238     0    10     1    13
  1.0916287342499771E+00 a       239     0    10     1    14
  3.3847791393688738E+00 a       240     0    10     1    15
 -9.6257828378851795E-01 a       241     0    10     1    16
  2.7210261492277588E+00 a       242     0    10     1    17
  5.9681450889127330E-01 a       243     0    10     1    18
  1.7365519104288132E+00 a       244     0    10     1    19
  8.5511280424779079E-01 a       245     0    10     1    20
 -2.2967826051541715E+00 a       246     0    10     1    21
  1.3203686392442955E+00 a       247     0    10     1    22
  1.3467294094169853E+00 a       248     0    10     1    23
  1.1559024016145314E+00 a       249     0    10     1    24
  3.3026275643576303E-01 a       250     0    10     1    25
 -2.0372774614770936E-01 a       251     0    11     1     1
 -1.5600103780872115E-01 a       252     0    11     1     2
  1.9929493156047962E-01 a       253     0    11     1     3
  1.9874330616777666E-01 a       254     0    11     1     4
  4.3707786338235266E-01 a       255     0    11     1     5
  2.8928694501264718E-01 a       256     0    11     1     6
 -3.5325324375353129E-01 a       257     0    11     1     7
  2.6917299814841733E-01 a       258     0    11     1     8
  3.2779480081674572E-01 a       259     0    11     1     9
  2.4092378662740818E-01 a       260     0    11     1    10
  1.0967389486792176E+00 a       261     0    11     1    11
  6.6956517711189723E-01 a       262     0    11     1    12
 -7.3874047923593622E-01 a       263     0    11     1    13
  4.6529653866044346E-01 a       264     0    11     1    14
  4.0614988424814458E-01 a       265     0    11     1    15
 -1.0413766346632123E+00 a       266     0    11     1    16
  1.2602375458698578E-01 a       267     0    11     1    17
  2.7865166100453448E-01 a       268     0    11     1    18
 -6.3060821610127507E-02 a       269     0    11     1    19
 -3.3038594342929667E-01 a       270     0    11     1    20
  1.1086594425888701E+00 a       271     0    11     1    21
  1.9885729066251587E-01 a       272     0    11     1    22
 -7.9372438329807393E-02 a       273     0    11     1    23
 -7.3461024877327930E-01 a       274     0    11     1    24
  4.3295292398759466E-01 a       275     0    11     1    25
  8.3356229209516786E-01 a       276     0    12     1     1
  4.5904576562368271E-01 a       277     0    12     1     2
 -1.6379845586120070E-01 a       278     0    12     1     3
 -1.7030127110821067E-01 a       279     0    12     1     4
  1.4521907669692641E-01 a       280     0    12     1     5
 -4.2515385482209012E-01 a       281     0    12     1     6
  4.9834560855426024E-01 a       282     0    12     1     7
  1.7108418224183557E-02 a       283     0    12     1     8
 -1.6375536392927537E-01 a       284     0    12     1     9
 -4.9986078905921000E-01 a       285     0    12     1    10
 -1.2009409590881610E-01 a       286     0    12     1    11
 -6.4185010018596844E-01 a       287     0    12     1    12
  1.7537155664565923E-01 a       288     0    12     1    13
 -2.3457739241905645E-01 a       289     0    12     1    14
  1.0820764697803123E-01 a       290     0    12     1    15
 -3.1905229678982799E-01 a       291     0    12     1    16
  3.9211889947148965E-01 a       292     0    12     1    17
  6.0065417579317059E-03 a       293     0    12     1    18
  7.1353363938450853E-01 a       294     0    12     1    19
  3.8674874078765645E-02 a       295     0    12     1    20
  2.9791402734414031E-02 a       296     0    12     1    21
 -6.6043896108149355E-02 a       297     0    12     1    22
  5.3146953324153801E-01 a       298     0    12     1    23
  6.9492997413602775E-01 a       299     0    12     1    24
 -6.0808414261479049E-01 a       300     0    12     1    25
  6.8296413527989930E-01 a       301     0    13     1     1
  7.4082949855077962E-01 a       302     0    13     1     2
  2.0755396948358807E-02 a       303     0    13     1     3
 -2.7271594861997561E-01 a       304     0    13     1     4
  4.5236375016946932E-02 a       305     0    13     1     5
 -5.3192928969320641E-01 a       306     0    13     1     6
  2.6708175569743953E-01 a       307     0    13     1     7
 -3.9672646345688067E-02 a       308     0    13     1     8
 -4.0842149184775894E-01 a       309     0    13     1     9
 -5.7100802195118860E-01 a       310     0    13     1    10
  2.5432000785263120E-01 a       311     0    13     1    11
 -6.0365024053032090E-01 a       312     0    13     1    12
  4.1042698375194603E-01 a       313     0    13     1    13
  8.5456843409436087E-02 a       314     0    13     1    14
 -2.6452619975574132E-01 a       315     0    13     1    15
 -3.8682554572006622E-01 a       316     0    13     1    16
  3.4282664271820640E-01 a       317     0    13     1    17
 -3.2350777556817512E-01 a       318     0    13     1    18
  6.4338035670864679E-01 a       319     0    13     1    19
 -4.8200624587126109E-02 a       320     0    13     1    20
  5.2329454520665217E-02 a       321     0    13     1    21
 -2.5056206068959204E-02 a       322     0    13     1    22
  4.0569660666527213E-01 a       323     0    13     1    23
  6.9954420745171753E-01 a       324     0    13     1    24
 -9.2927812676912747E-01 a       325     0    13     1    25
 -5.8758354905228971E-01 a       326     0    14     1     1
 -4.3791954492911650E-01 a       327     0    14     1     2
  9.3830883073019997E-02 a       328     0    14     1     3
 -5.7671273390464273E-01 a       329     0    14     1     4
  1.9943140508069504E-01 a       330     0    14     1     5
 -5.5340340582791204E-03 a       331     0    14     1     6
  7.5350862425986417E-02 a       332     0    14     1     7
 -3.5326203042122789E-01 a       333     0    14     1     8
  3.5828380023061940E-01 a       334     0    14     1     9
 -6.6855158189819283E-02 a       335     0    14     1    10
 -2.8564198626025102E-02 a       336     0    14     1    11
 -9.4354062390431537E-02 a       337     0    14     1    12
  3.7724637390212601E-01 a       338     0    14     1    13
 -4.6170852182155553E-02 a       339     0    14     1    14
 -1.6628278118629994E-01 a       340     0    14     1    15
 -3.2685554387822785E-01 a       341     0    14     1    16
  6.2571319352007981E-01 a       342     0    14     1    17
  8.9430669899997331E-02 a       343     0    14     1    18
 -1.5286329491880954E-01 a       344     0    14     1    19
 -3.3870984797456405E-01 a       345     0    14     1    20
 -4.7597338755501584E-01 a       346     0    14     1    21
  1.7717381896686812E-01 a       347     0    14     1    22
  4.5454184628464629E-02 a       348     0    14     1    23
 -4.4487269886030056E-01 a       349     0    14     1    24
 -2.2620585108825236E-01 a       350     0    14     1    25
 -2.0900034863322239E-01 a       351     0    15     1     1
 -3.9466939399903334E-01 a       352     0    15     1     2
  2.5372478987541675E-01 a       353     0    15     1     3
 -5.0427981515970133E-01 a       354     0    15     1     4
  4.2619671680960614E-01 a       355     0    15     1     5
 -1.1302437235946820E-01 a       356     0    15     1     6
 -1.1647167860322549E-01 a       357     0    15     1     7
 -1.9255868366541548E-01 a       358     0    15     1     8
  2.7539491164848889E-01 a       359     0    15     1     9
 -8.8007033117263156E-02 a       360     0    15     1    10
 -6.6497686694209787E-02 a       361     0    15     1    11
 -1.3645221548579842E-01 a       362     0    15     1    12
  3.5119320717502717E-01 a       363     0    15     1    13
  1.0947824879286008E-01 a       364     0    15     1    14
  1.0618658970036834E-01 a       365     0    15     1    15
 -4.3071518574254558E-01 a       366     0    15     1    16
  3.4462767565711200E-01 a       367     0    15     1    17
 -7.4369593428347924E-02 a       368     0    15     1    18
 -3.5835158252724186E-01 a       369     0    15     1    19
  5.5699523833378242E-02 a       370     0    15     1    20
 -5.9961866779592454E-01 a       371     0    15     1    21
  1.8289887965975413E-01 a       372     0    15     1    22
  2.0102724106097866E-02 a       373     0    15     1    23
 -4.9095705431782505E-01 a       374     0    15     1    24
 -4.8868144822665205E-01 a       375     0    15     1    25
 -1.1966559000018853E+00 a       376     0    16     1     1
  2.9416211648989915E-02 a       377     0    16     1     2
 -6.8505093197734512E-01 a       378     0    16     1     3
 -1.2219704163382139E-01 a       379     0    16     1     4
 -4.3967443270234885E-02 a       380     0    16     1     5
 -1.1018099066728486E+00 a       381     0    16     1     6
 -4.0895578660943996E-02 a       382     0    16     1     7
  1.0167850520007717E+00 a       383     0    16     1     8
  7.6677650789343355E-01 a       384     0    16     1     9
 -1.2361381688948905E-01 a       385     0    16     1    10
 -5.7390127743056474E-01 a       386     0    16     1    11
 -6.2553737766576289E-01 a       387     0    16     1    12
  1.6581155861571470E-01 a       388     0    16     1    13
  3.1036436464981643E-01 a       389     0    16     1    14
  2.6925825987385932E-01 a       390     0    16     1    15
 -1.2764995631086348E-01 a       391     0    16     1    16
 -9.2477508651701568E-01 a       392     0    16     1    17
  1.4591620992072403E+00 a       393     0    16     1    18
 -1.8517803728319909E-01 a       394     0    16     1    19
  2.1716593833664269E-01 a       395     0    16     1    20
  5.3430613475475841E-01 a       396     0    16     1    21
  6.0430277415498079E-01 a       397     0    16     1    22
  5.9270190943269518E-02 a       398     0    16     1    23
 -2.5950131968460755E-01 a       399     0    16     1    24
  6.4491938914571145E-01 a       400     0    16     1    25
 -1.0746921476379876E+00 a       401     0    17     1     1
 -1.4373907196949287E-01 a       402     0    17     1     2
 -4.0069548988292625E-01 a       403     0    17     1     3
 -3.0678560557324763E-01 a       404     0    17     1     4
 -1.8150135311272272E-01 a       405     0    17     1     5
 -7.7160032533957668E-01 a       406     0    17     1     6
 -2.9238710879548702E-01 a       407     0    17     1     7
  7.5671959930114641E-01 a       408     0    17     1     8
  2.9913529136354516E-01 a       409     0    17     1     9
 -2.3822710554187521E-01 a       410     0    17     1    10
 -4.0190373679295788E-01 a       411     0    17     1    11
 -4.2940536242089300E-01 a       412     0    17     1    12
  8.3737121732505485E-02 a       413     0    17     1    13
  3.2573910890001806E-01 a       414     0    17     1    14
  1.8117065993542347E-01 a       415     0    17     1    15
 -2.8157886940916960E-01 a       416     0    17     1    16
 -9.8944938392282888E-01 a       417     0    17     1    17
  1.4383123415994772E+00 a       418     0    17     1    18
 -3.4321599449468365E-01 a       419     0    17     1    19
  2.7134835881472347E-01 a       420     0    17     1    20
  4.8509641196250364E-01 a       421     0    17     1    21
  7.1253416219889998E-01 a       422     0    17     1    22
 -2.0935526430211077E-01 a       423     0    17     1    23
 -1.0948726686083689E-01 a       424     0    17     1    24
  8.1637307009665305E-01 a       425     0    17     1    25
  4.8431344323292175E-01 a       426     0    18     1     1
  1.1900637824426787E-01 a       427     0    18     1     2
  4.1417157178490138E-01 a       428     0    18     1     3
 -1.3173265003591790E+00 a       429     0    18     1     4
 -1.9474037718092674E-01 a       430     0    18     1     5
 -6.5373270149105362E-03 a       431     0    18     1     6
  1.2086093281675701E+00 a       432     0    18     1     7
 -7.0846410367820703E-02 a       433     0    18     1     8
  4.2378382484837390E-01 a       434     0    18     1     9
  1.2982872976131428E+00 a       435     0    18     1    10
 -3.0931338851704726E-01 a       436     0    18     1    11
  8.2177543378901252E-01 a       437     0    18     1    12
 -3.4146216570495318E-02 a       438     0    18     1    13
  9.4051711399352400E-01 a       439     0    18     1    14
  4.0899665813473501E-01 a       440     0    18     1    15
  2.5463033441066343E-02 a       441     0    18     1    16
  2.2871508947298565E-02 a       442     0    18     1    17
 -4.1041174892588689E-01 a       443     0    18     1    18
  1.3894641542386992E+00 a       444     0    18     1    19
 -2.0433249551881624E-01 a       445     0    18     1    20
  2.6139258058191822E-01 a       446     0    18     1    21
  6.1631164317275444E-02 a       447     0    18     1    22
 -9.0417410725614245E-01 a       448     0    18     1    23
  4.6438864305970057E-01 a       449     0    18     1    24
  2.6575344182881822E-01 a       450     0    18     1    25
  4.5826404527466939E-02 a       451     0    19     1     1
  1.7626535532493889E-01 a       452     0    19     1     2
  4.4015819904193937E-01 a       453     0    19     1     3
  3.0013594369299151E-01 a       454     0    19     1     4
 -3.7858285384732260E-01 a       455     0    19     1     5
 -4.9383098986154261E-01 a       456     0    19     1     6
 -1.2316851451436268E-01 a       457     0    19     1     7
  3.1198585096757475E-01 a       458     0    19     1     8
  4.1735227947701409E-01 a       459     0    19     1     9
 -4.7865264237922411E-01 a       460     0    19     1    10
 -1.3395982372727294E-01 a       461     0    19     1    11
  1.6688267501225282E-01 a       462     0    19     1    12
  2.0730580229294956E-02 a       463     0    19     1    13
  2.8603837996023843E-02 a       464     0    19     1    14
  2.9864776452656056E-01 a       465     0    19     1    15
 -4.5812076020677666E-04 a       466     0    19     1    16
 -6.1552411688904296E-01 a       467     0    19     1    17
  3.9507464547702525E-01 a       468     0    19     1    18
 -3.7914295663823111E-01 a       469     0    19     1    19
 -1.9379906055401638E-01 a       470     0    19     1    20
  1.2213632380733008E-02 a       471     0    19     1    21
  3.8595506328908141E-01 a       472     0    19     1    22
 -3.5066871009104378E-01 a       473     0    19     1    23
 -3.8489004455080211E-01 a       474     0    19     1    24
 -3.3412919012675890E-01 a       475     0    19     1    25
 -1.6347280467984809E-01 a       476     0    20     1     1
  1.7495853925104327E-01 a       477     0    20     1     2
  3.2732828444592854E-01 a       478     0    20     1     3
  2.9371535006651345E-01 a       479     0    20     1     4
 -2.5988828984138379E-01 a       480     0    20     1     5
 -6.5898763872981059E-01 a       481     0    20     1     6
  2.2896364939302011E-01 a       482     0    20     1     7
  2.2751388411078080E-01 a       483     0    20     1     8
  2.9333425184613549E-01 a       484     0    20     1     9
 -5.7054741487156779E-01 a       485     0    20     1    10
 -5.9212965980110832E-02 a       486     0    20     1    11
 -2.5200231516635863E-02 a       487     0    20     1    12
  2.0542150641861590E-01 a       488     0    20     1    13
  2.1617057584280233E-01 a       489     0    20     1    14
  3.9644688043562321E-01 a       490     0    20     1    15
 -5.9228023970615681E-03 a       491     0    20     1    16
 -6.4494550862876021E-01 a       492     0    20     1    17
 -1.0830362358771983E-01 a       493     0    20     1    18
 -2.7367070054736137E-01 a       494     0    20     1    19
 -1.0901139611287732E-01 a       495     0    20     1    20
 -6.3816384228638140E-02 a       496     0    20     1    21
  3.5875710743255523E-01 a       497     0    20     1    22
 -1.9262004087114712E-01 a       498     0    20     1    23
 -2.8212621032865309E-01 a       499     0    20     1    24
  1.5170557108504690E-01 a       500     0    20     1    25
  2.9844072927706899E-01 a       501     0    21     1     1
 -2.1804298870739405E-01 a       502     0    21     1     2
  8.5253509013811096E-02 a       503     0    21     1     3
  8.4559239289921528E-01 a       504     0    21     1     4
 -1.6185854438381272E-01 a       505     0    21     1     5
 -2.5355209048801541E-01 a       506     0    21     1     6
  1.8290445768695332E-01 a       507     0    21     1     7
  2.4730113233818247E-02 a       508     0    21     1     8
 -3.7744524122104195E-01 a       509     0    21     1     9
 -3.6350681997055545E-01 a       510     0    21     1    10
 -1.1772918065879718E+00 a       511     0    21     1    11
  1.9195076625667043E-01 a       512     0    21     1    12
  7.9316774379307131E-01 a       513     0    21     1    13
 -1.9710458274476916E-01 a       514     0    21     1    14
  4.2579375943707842E-01 a       515     0    21     1    15
 -6.3618889227549391E-01 a       516     0    21     1    16
 -8.0705120374859329E-01 a       517     0    21     1    17
  3.0980022020482739E-01 a       518     0    21     1    18
 -3.6167580660646143E-01 a       519     0    21     1    19
 -4.4860639138125974E-01 a       520     0    21     1    20
 -9.7624656082187025E-02 a       521     0    21     1    21
  6.2481938612048329E-02 a       522     0    21     1    22
 -5.0779510318029616E-02 a       523     0    21     1    23
 -3.9679883808286709E-01 a       524     0    21     1    24
 -4.5011091860916524E-01 a       525     0    21     1    25
  2.6961469784279879E-01 a       526     0    22     1     1
 -2.4589406157216637E-01 a       527     0    22     1     2
 -2.8026699992688964E-01 a       528     0    22     1     3
  1.1351098068463263E+00 a       529     0    22     1     4
 -6.7152855753957907E-02 a       530     0    22     1     5
 -6.3067504120855600E-01 a       531     0    22     1     6
  3.7444055163650214E-01 a       532     0    22     1     7
 -3.8764687873918874E-01 a       533     0    22     1     8
 -1.7619776291301653E-01 a       534     0    22     1     9
 -3.3487580288058116E-01 a       535     0    22     1    10
 -1.3767169638656136E+00 a       536     0    22     1    11
  1.9442128104645787E-01 a       537     0    22     1    12
  6.3780465552246612E-01 a       538     0    22     1    13
 -3.7009835062156750E-02 a       539     0    22     1    14
  2.7285153278145635E-01 a       540     0    22     1    15
 -3.5584385186770107E-01 a       541     0    22     1    16
 -6.9747496610935655E-01 a       542     0    22     1    17
  7.0478270566447432E-01 a       543     0    22     1    18
 -8.1022138524700560E-01 a       544     0    22     1    19
 -3.0046313764812893E-01 a       545     0    22     1    20
  2.7974089627986903E-02 a       546     0    22     1    21
  4.3443564819556080E-01 a       547     0    22     1    22
  2.2372612029282677E-02 a       548     0    22     1    23
 -4.4158082448072755E-01 a       549     0    22     1    24
 -3.0849128344394988E-01 a       550     0    22     1    25
  3.4901308968247080E-01 a       551     0    23     1     1
 -7.8656469724615352E-01 a       552     0    23     1     2
  2.1404174837090664E-01 a       553     0    23     1     3
  4.7166730645600158E-01 a       554     0    23     1     4
  1.5422876345290712E-01 a       555     0    23     1     5
 -1.0833987006303197E-01 a       556     0    23     1     6
 -5.9366795584114218E-01 a       557     0    23     1     7
 -2.2012534128817912E-01 a       558     0    23     1     8
  1.9490687400481002E-01 a       559     0    23     1     9
  1.9863367639233279E-01 a       560     0    23     1    10
  9.0864762267303056E-01 a       561     0    23     1    11
  5.1802798127808647E-01 a       562     0    23     1    12
 -5.7204361221975975E-01 a       563     0    23     1    13
  2.3422545673050094E-01 a       564     0    23     1    14
  9.7617484896490858E-02 a       565     0    23     1    15
 -8.2747675608970797E-02 a       566     0    23     1    16
  3.7052680157763879E-01 a       567     0    23     1    17
  3.0976846450475759E-01 a       568     0    23     1    18
  2.4557715405088107E-01 a       569     0    23     1    19
 -5.2131742656907828E-02 a       570     0    23     1    20
  7.7026662008004676E-01 a       571     0    23     1    21
 -3.1292010827508587E-01 a       572     0    23     1    22
 -2.3707985323629552E-01 a       573     0    23     1    23
 -4.5939443476152414E-01 a       574     0    23     1    24
  3.5883642368659741E-01 a       575     0    23     1    25
  1.1203161427831614E-01 a       576     0    24     1     1
  3.9950648509528863E-01 a       577     0    24     1     2
  1.3787535426671277E-01 a       578     0    24     1     3
 -2.6917448613659771E-03 a       579     0    24     1     4
  7.2586655396128852E-01 a       580     0    24     1     5
  1.4118542884517030E-01 a       581     0    24     1     6
 -9.3840533211466477E-04 a       582     0    24     1     7
  4.9758810120531030E-02 a       583     0    24     1     8
 -4.3657952494666252E-02 a       584     0    24     1     9
  7.3716500085305239E-02 a       585     0    24     1    10
  5.9421746349410642E-01 a       586     0    24     1    11
 -6.6205976053667248E-01 a       587     0    24     1    12
  7.5108771199498880E-01 a       588     0    24     1    13
 -2.4583332761256627E-01 a       589     0    24     1    14
  7.7319754905791566E-03 a       590     0    24     1    15
 -2.7948950428881719E-01 a       591     0    24     1    16
  1.9750797940471584E-01 a       592     0    24     1    17
  3.6467285155812890E-01 a       593     0    24     1    18
  7.0990769910716467E-01 a       594     0    24     1    19
 -1.9121670374667257E-01 a       595     0    24     1    20
 -1.7977899759681500E-03 a       596     0    24     1    21
  3.0365615070822038E-01 a       597     0    24     1    22
  1.6370782290448027E-01 a       598     0    24     1    23
  1.8370702441043280E-01 a       599     0    24     1    24
 -6.8243706076907817E-01 a       600     0    24     1    25
 -9.7596677806315701E-02 a       601     0    25     1     1
  1.6155070977679414E-01 a       602     0    25     1     2
  1.5754027409430660E-01 a       603     0    25     1     3
  1.8690655355135052E-01 a       604     0    25     1     4
  6.1456207434364163E-01 a       605     0    25     1     5
  6.6084284145105185E-02 a       606     0    25     1     6
  2.2140753756117892E-01 a       607     0    25     1     7
 -1.1452246646072878E-01 a       608     0    25     1     8
  2.8622273012772320E-01 a       609     0    25     1     9
 -1.4363830108189771E-01 a       610     0    25     1    10
  1.8349582992683472E-01 a       611     0    25     1    11
 -7.6375784164248672E-01 a       612     0    25     1    12
  5.7111927056380551E-01 a       613     0    25     1    13
  8.7498782710937376E-02 a       614     0    25     1    14
 -2.6269896008223655E-03 a       615     0    25     1    15
 -2.0773118914529107E-01 a       616     0    25     1    16
  4.7262065394145819E-01 a       617     0    25     1    17
 -4.3686724700536354E-02 a       618     0    25     1    18
  6.7601563560809186E-01 a       619     0    25     1    19
  3.0481199844228518E-01 a       620     0    25     1    20
 -1.0053353064150605E-01 a       621     0    25     1    21
  6.2920579292535445E-02 a       622     0    25     1    22
 -1.0603160731504908E-01 a       623     0    25     1    23
  1.7603244479794883E-01 a       624     0    25     1    24
 -6.6033345640068486E-01 a       625     0    25     1    25
 -1.3406602430475068E-01 a       626     0    26     1     1
 -1.5131030241402904E-01 a       627     0    26     1     2
  2.9106501571913057E-01 a       628     0    26     1     3
  1.8461448694663925E-02 a       629     0    26     1     4
  1.8012662501927024E-01 a       630     0    26     1     5
  5.7484392171375820E-01 a       631     0    26     1     6
 -2.3225698314546636E-01 a       632     0    26     1     7
  7.6224216141199076E-03 a       633     0    26     1     8
  9.3255697520014766E-02 a       634     0    26     1     9
  5.4210642145877708E-01 a       635     0    26     1    10
 -3.7285525190689134E-01 a       636     0    26     1    11
  6.0488191886130560E-01 a       637     0    26     1    12
  1.1018216159566445E-01 a       638     0    26     1    13
  9.7119526699626868E-02 a       639     0    26     1    14
 -3.2701336647933027E-01 a       640     0    26     1    15
 -3.0665942367857218E-01 a       641     0    26     1    16
  5.7507656291602482E-01 a       642     0    26     1    17
 -1.1727037234851939E-01 a       643     0    26     1    18
 -7.1841380318511325E-02 a       644     0    26     1    19
 -7.1582286180647048E-02 a       645     0    26     1    20
 -1.7541031207700553E-02 a       646     0    26     1    21
  1.3051483983714368E-01 a       647     0    26     1    22
  1.5857988877987531E-01 a       648     0    26     1    23
 -7.8649116802340768E-02 a       649     0    26     1    24
  5.4705535204985977E-03 a       650     0    26     1    25
 -3.5188909386662565E-01 a       651     0    27     1     1
 -5.7850043712348487E-01 a       652     0    27     1     2
 -1.5750019489223568E-01 a       653     0    27     1     3
  2.0016420573972052E-01 a       654     0    27     1     4
  2.4820498864440069E-01 a       655     0    27     1     5
  7.2801772884894966E-01 a       656     0    27     1     6
  6.0113651607699867E-02 a       657     0    27     1     7
 -8.5504817794696444E-02 a       658     0    27     1     8
  1.5945883370019509E-02 a       659     0    27     1     9
  3.3533612415757647E-01 a       660     0    27     1    10
 -3.0091277876384109E-01 a       661     0    27     1    11
  7.2943094838065026E-01 a       662     0    27     1    12
  7.2588364707467254E-02 a       663     0    27     1    13
 -8.6393441854249686E-02 a       664     0    27     1    14
 -6.9419640397737559E-01 a       665     0    27     1    15
 -8.0438608020247193E-01 a       666     0    27     1    16
  1.8952220998900560E-01 a       667     0    27     1    17
  1.3853547447976855E-01 a       668     0    27     1    18
 -2.4971304526235191E-01 a       669     0    27     1    19
  4.1694924466494709E-01 a       670     0    27     1    20
 -5.6610158280058671E-02 a       671     0    27     1    21
  5.8666267256964083E-02 a       672     0    27     1    22
  7.8208982080346864E-02 a       673     0    27     1    23
 -1.8306681912932124E-01 a       674     0    27     1    24
  1.3904762240733665E-01 a       675     0    27     1    25
  5.3109539635089653E-01 a       676     0    28     1     1
 -1.5649724938737136E-01 a       677     0    28     1     2
  3.4092554149228893E-01 a       678     0    28     1     3
  2.0668542132984769E-01 a       679     0    28     1     4
  2.7813033829548728E-01 a       680     0    28     1     5
  5.6184149406893014E-01 a       681     0    28     1     6
 -2.5710992914077058E-01 a       682     0    28     1     7
 -4.1002448438301470E-01 a       683     0    28     1     8
 -2.6686568746745187E-01 a       684     0    28     1     9
  2.0379025250612010E-01 a       685     0    28     1    10
  2.9317871898874193E-01 a       686     0    28     1    11
  5.5770338686380672E-01 a       687     0    28     1    12
 -6.0989568915010861E-01 a       688     0    28     1    13
 -1.2246554870423804E-01 a       689     0    28     1    14
 -1.9563866954664108E-01 a       690     0    28     1    15
 -5.1720384799781638E-02 a       691     0    28     1    16
  2.2354202062152581E-01 a       692     0    28     1    17
 -1.1597240109104401E-01 a       693     0    28     1    18
  2.1027489521244250E-01 a       694     0    28     1    19
 -2.6463942815363473E-01 a       695     0    28     1    20
 -2.2731442462391135E-01 a       696     0    28     1    21
 -1.1425681181654783E-01 a       697     0    28     1    22
  1.2900871887015231E-01 a       698     0    28     1    23
  1.6035371128349613E-01 a       699     0    28     1    24
 -2.1324287128893052E-01 a       700     0    28     1    25
  4.9458162605012690E-01 a       701     0    29     1     1
 -1.0636774168003189E-01 a       702     0    29     1     2
  4.3036097407953033E-01 a       703     0    29     1     3
  3.4959493671340136E-01 a       704     0    29     1     4
 -1.7790786783908424E-01 a       705     0    29     1     5
  2.2782639207239164E-01 a       706     0    29     1     6
 -2.4290982956363361E-01 a       707     0    29     1     7
 -1.4221000097255307E-01 a       708     0    29     1     8
 -5.0003211713751272E-01 a       709     0    29     1     9
  4.0761438873917294E-01 a       710     0    29     1    10
  3.8823904898564721E-01 a       711     0    29     1    11
  1.3424514095273937E-01 a       712     0    29     1    12
 -3.3398535698904319E-01 a       713     0    29     1    13
  4.7172174859793504E-02 a       714     0    29     1    14
 -5.3129708059938963E-01 a       715     0    29     1    15
  8.3834188621325315E-02 a       716     0    29     1    16
  6.7211761201703291E-01 a       717     0    29     1    17
 -6.9781836584459286E-02 a       718     0    29     1    18
 -2.6089834592837931E-02 a       719     0    29     1    19
  8.7321614925641042E-02 a       720     0    29     1    20
  2.4784085259909223E-02 a       721     0    29     1    21
 -2.8111561609646829E-01 a       722     0    29     1    22
  3.2005052542248308E-01 a       723     0    29     1    23
  8.6676982467372765E-02 a       724     0    29     1    24
 -1.8727516634700939E-01 a       725     0    29     1    25
 -7.8469832734141520E-01 a       726     0    30     1     1
  1.8648570639490983E-01 a       727     0    30     1     2
  5.9735565436163829E-01 a       728     0    30     1     3
 -8.3578236767228042E-01 a       729     0    30     1     4
 -1.6817946900985474E+00 a       730     0    30     1     5
 -7.5216334769724313E-01 a       731     0    30     1     6
 -2.7541142796357143E-01 a       732     0    30     1     7
  1.0787344241205062E-01 a       733     0    30     1     8
 -4.4125883032442786E-01 a       734     0    30     1     9
 -6.0143515311879603E-01 a       735     0    30     1    10
 -4.4301245227254343E-01 a       736     0    30     1    11
  1.5508571607709161E+00 a       737     0    30     1    12
 -4.8981619703454349E-01 a       738     0    30     1    13
  9.9905328323675158E-01 a       739     0    30     1    14
 -2.8958158420149155E-01 a       740     0    30     1    15
  2.7082683375468880E-01 a       741     0    30     1    16
  5.7270088612695069E-01 a       742     0    30     1    17
 -1.3577402149862041E+00 a       743     0    30     1    18
  1.5358987054190163E+00 a       744     0    30     1    19
  2.7214165674151930E-01 a       745     0    30     1    20
  1.3934842089508537E+00 a       746     0    30     1    21
  1.2376462615002299E+00 a       747     0    30     1    22
 -4.7312277888296872E-01 a       748     0    30     1    23
  7.5383011026972702E-01 a       749     0    30     1    24
 -1.1570165540651354E+00 a       750     0    30     1    25
  2.4178700452259586E-01 a       751     0    31     1     1
 -3.1318260017408207E-02 a       752     0    31     1     2
 -1.9073374761438136E-01 a       753     0    31     1     3
  3.3238389605856705E-01 a       754     0    31     1     4
 -1.6314456299164118E-01 a       755     0    31     1     5
 -4.0179947601176175E-01 a       756     0    31     1     6
 -1.3560124679581079E-01 a       757     0    31     1     7
  7.4327237653272413E-02 a       758     0    31     1     8
  1.0718620193508001E-01 a       759     0    31     1     9
 -1.9962481095112436E-01 a       760     0    31     1    10
 -5.2976935547725972E-02 a       761     0    31     1    11
 -1.2448441640290300E-01 a       762     0    31     1    12
  1.6630035994696676E-01 a       763     0    31     1    13
 -1.2815365887717620E-01 a       764     0    31     1    14
  5.1840238721643772E-01 a       765     0    31     1    15
  2.6358783734210295E-01 a       766     0    31     1    16
 -1.9181929831134215E-01 a       767     0    31     1    17
  3.8333654963722935E-01 a       768     0    31     1    18
 -2.9636917634062471E-01 a       769     0    31     1    19
 -3.7399376635951920E-01 a       770     0    31     1    20
  1.2325154842531882E-01 a       771     0    31     1    21
  2.9594401934642661E-01 a       772     0    31     1    22
  2.4531664041165385E-01 a       773     0    31     1    23
 -4.5273715471003789E-01 a       774     0    31     1    24
 -3.3291000328533060E-01 a       775     0    31     1    25
  3.5041359796721522E-01 a       776     0    32     1     1
  3.9147986055951145E-01 a       777     0    32     1     2
  4.5046844071940234E-02 a       778     0    32     1     3
 -5.2910420700626536E-02 a       779     0    32     1     4
  6.2287326398013571E-02 a       780     0    32     1     5
 -5.6910449124603379E-01 a       781     0    32     1     6
 -3.4552146889143168E-02 a       782     0    32     1     7
  7.3630837919305248E-02 a       783     0    32     1     8
 -7.4291179778464583E-02 a       784     0    32     1     9
 -6.1099240476361845E-02 a       785     0    32     1    10
  5.3559739738717235E-02 a       786     0    32     1    11
 -9.6047687587136558E-03 a       787     0    32     1    12
  4.7181283660520788E-02 a       788     0    32     1    13
  7.5339252669859727E-03 a       789     0    32     1    14
  4.3685007403774523E-01 a       790     0    32     1    15
  4.8191368962755200E-02 a       791     0    32     1    16
 -2.3960349332185288E-01 a       792     0    32     1    17
  2.3041584174409185E-01 a       793     0    32     1    18
 -1.6524865718714093E-01 a       794     0    32     1    19
 -2.1356765766744387E-01 a       795     0    32     1    20
 -1.0179839330825381E-01 a       796     0    32     1    21
  1.9002969379451401E-01 a       797     0    32     1    22
  2.2740625976771373E-02 a       798     0    32     1    23
 -4.7724115752997698E-01 a       799     0    32     1    24
 -3.2130489584212085E-01 a       800     0    32     1    25
  2.5882435355756328E-01 a       801     0    33     1     1
 -3.9592189330609739E-01 a       802     0    33     1     2
  1.6681775550931563E-01 a       803     0    33     1     3
  6.6624453351127144E-01 a       804     0    33     1     4
  9.6951747897425413E-03 a       805     0    33     1     5
  4.5835390406672892E-04 a       806     0    33     1     6
  6.9128930072073469E-01 a       807     0    33     1     7
 -1.7735163455472824E-01 a       808     0    33     1     8
 -1.3024878904801118E-01 a       809     0    33     1     9
 -2.6085133274382355E-01 a       810     0    33     1    10
 -1.0260209007062626E+00 a       811     0    33     1    11
 -2.6259579303996949E-01 a       812     0    33     1    12
  7.9842829166564633E-01 a       813     0    33     1    13
 -1.9907131445320603E-01 a       814     0    33     1    14
  1.2402689037050678E-01 a       815     0    33     1    15
 -4.9428842399217948E-01 a       816     0    33     1    16
 -9.1302176709599547E-01 a       817     0    33     1    17
  4.0369796773698302E-01 a       818     0    33     1    18
 -5.7221503015229758E-01 a       819     0    33     1    19
 -7.0053605769355154E-02 a       820     0    33     1    20
 -4.2418192207104610E-01 a       821     0    33     1    21
  1.3763263134004930E-01 a       822     0    33     1    22
 -1.4420903658122305E-01 a       823     0    33     1    23
 -3.8491047943775786E-01 a       824     0    33     1    24
 -1.4011836724125940E-01 a       825     0    33     1    25
  1.8329829829312574E-01 a       826     0    34     1     1
 -2.4637384056618480E-01 a       827     0    34     1     2
  1.0694092026597540E-01 a       828     0    34     1     3
  1.0452952047585469E+00 a       829     0    34     1     4
 -3.5441159973228470E-02 a       830     0    34     1     5
 -1.8056157336333351E-01 a       831     0    34     1     6
  3.5644807497408987E-01 a       832     0    34     1     7
 -1.1105309166548212E-01 a       833     0    34     1     8
 -1.8438538065729709E-01 a       834     0    34     1     9
 -2.4335299426066095E-01 a       835     0    34     1    10
 -9.7763385332905828E-01 a       836     0    34     1    11
 -1.2030681701739421E-01 a       837     0    34     1    12
  8.8851485249315354E-01 a       838     0    34     1    13
 -4.1129705230022262E-01 a       839     0    34     1    14
  2.2249381659491904E-01 a       840     0    34     1    15
 -4.2143496870711750E-01 a       841     0    34     1    16
 -9.0179375970311126E-01 a       842     0    34     1    17
  6.5652250724488304E-01 a       843     0    34     1    18
 -6.7119363971324053E-01 a       844     0    34     1    19
 -3.3756130931615536E-01 a       845     0    34     1    20
 -2.1867538283639829E-01 a       846     0    34     1    21
  1.9554561721806540E-02 a       847     0    34     1    22
 -1.0249064328226101E-01 a       848     0    34     1    23
 -3.7687114917556680E-01 a       849     0    34     1    24
 -1.3827016429433653E-01 a       850     0    34     1    25
  3.8412863560665887E-02 a       851     0    35     1     1
  7.5506922819818811E-01 a       852     0    35     1     2
 -1.7479324487808504E-01 a       853     0    35     1     3
  6.9418099279531589E-02 a       854     0    35     1     4
 -2.6445700652651261E-01 a       855     0    35     1     5
  6.2763265424416528E-02 a       856     0    35     1     6
  2.6571700270861409E-01 a       857     0    35     1     7
  4.4745346274118010E-03 a       858     0    35     1     8
 -2.2715642103189802E-02 a       859     0    35     1     9
  1.8028564832945744E-02 a       860     0    35     1    10
 -5.6033909394514625E-01 a       861     0    35     1    11
  5.8595539027821730E-01 a       862     0    35     1    12
  3.2416990088263303E-01 a       863     0    35     1    13
  4.9963830917210628E-02 a       864     0    35     1    14
 -2.8973087497566868E-01 a       865     0    35     1    15
  4.8081211462859763E-02 a       866     0    35     1    16
 -1.4919357223630406E-01 a       867     0    35     1    17
  1.1656159697679452E-01 a       868     0    35     1    18
 -5.8593577577722511E-01 a       869     0    35     1    19
 -5.0903532113998984E-01 a       870     0    35     1    20
  1.0987478332695876E-01 a       871     0    35     1    21
  6.1425594750344636E-01 a       872     0    35     1    22
  6.4452410014639638E-01 a       873     0    35     1    23
  7.3775475549968195E-01 a       874     0    35     1    24
 -5.1665485794893329E-01 a       875     0    35     1    25
  6.4261912344078065E-01 a       876     0    36     1     1
 -2.5713840737910776E-01 a       877     0    36     1     2
 -5.1885109683372621E-01 a       878     0    36     1     3
  6.5571802809456931E-02 a       879     0    36     1     4
 -5.2185179927091896E-01 a       880     0    36     1     5
 -2.9938807162487813E-01 a       881     0    36     1     6
 -1.2757698524485647E-01 a       882     0    36     1     7
  7.0660755656353116E-02 a       883     0    36     1     8
 -4.2720968531029524E-01 a       884     0    36     1     9
 -3.0582903743201501E-01 a       885     0    36     1    10
 -9.4526771050856495E-01 a       886     0    36     1    11
  7.1808482982233257E-01 a       887     0    36     1    12
 -2.4893437736715884E-01 a       888     0    36     1    13
 -6.5662709752267318E-02 a       889     0    36     1    14
 -6.3744287544470262E-03 a       890     0    36     1    15
  5.4673334512388283E-01 a       891     0    36     1    16
 -6.7467488761492023E-01 a       892     0    36     1    17
 -2.2400859445296870E-01 a       893     0    36     1    18
 -1.7650171395424502E-01 a       894     0    36     1    19
 -4.4279560995534831E-02 a       895     0    36     1    20
  1.0360631630403684E-01 a       896     0    36     1    21
 -6.1709084236085521E-01 a       897     0    36     1    22
 -9.1006884625651430E-02 a       898     0    36     1    23
  3.9969386682769281E-01 a       899     0    36     1    24
  1.1182187705152848E+00 a       900     0    36     1    25
  4.3479362823756368E-01 a       901     0    37     1     1
  7.5874872889446984E-02 a       902     0    37     1     2
 -4.1146808962125475E-01 a       903     0    37     1     3
  4.4630473909794244E-02 a       904     0    37     1     4
 -6.3834874677113351E-01 a       905     0    37     1     5
 -2.8836353826492167E-01 a       906     0    37     1     6
 -4.2893508396897290E-01 a       907     0    37     1     7
  1.5524517375314332E-02 a       908     0    37     1     8
 -2.0590484984982541E-01 a       909     0    37     1     9
 -4.1641303815360686E-01 a       910     0    37     1    10
 -8.5704715244205976E-01 a       911     0    37     1    11
  6.2731609057148308E-01 a       912     0    37     1    12
 -1.9177141955141033E-01 a       913     0    37     1    13
 -2.4778330500943688E-01 a       914     0    37     1    14
  9.4132008012906748E-02 a       915     0    37     1    15
  1.6774468019535799E-01 a       916     0    37     1    16
 -7.2358749559962987E-01 a       917     0    37     1    17
 -2.6004492224921005E-01 a       918     0    37     1    18
 -1.6212629313749050E-02 a       919     0    37     1    19
 -1.8568933616565583E-01 a       920     0    37     1    20
 -1.4627595630986906E-01 a       921     0    37     1    21
 -6.4603207652189543E-01 a       922     0    37     1    22
  1.3202418269860827E-01 a       923     0    37     1    23
  1.5945243929988924E-02 a       924     0    37     1    24
  1.0441424623731044E+00 a       925     0    37     1    25
  7.2480192657672482E-01 a       926     0    38     1     1
  4.5530612717999991E-01 a       927     0    38     1     2
  5.7154287647924396E-01 a       928     0    38     1     3
  2.0849349686586405E-01 a       929     0    38     1     4
 -9.3518509576532446E-02 a       930     0    38     1     5
  1.2134723025241623E+00 a       931     0    38     1     6
 -1.2917978202313812E-01 a       932     0    38     1     7
 -5.5870266768362775E-01 a       933     0    38     1     8
 -2.3872527371431659E-01 a       934     0    38     1     9
  3.7203751285264763E-01 a       935     0    38     1    10
  6.1860130991378925E-01 a       936     0    38     1    11
  5.6673615645118824E-01 a       937     0    38     1    12
 -3.6830316464663815E-01 a       938     0    38     1    13
 -3.0077766687078805E-01 a       939     0    38     1    14
 -1.4283861834747677E-01 a       940     0    38     1    15
  8.9488905297907734E-02 a       941     0    38     1    16
  7.9332873581527208E-01 a       942     0    38     1    17
 -1.2228051192636062E+00 a       943     0    38     1    18
 -1.8158445767586548E-01 a       944     0    38     1    19
 -3.7771850907419519E-01 a       945     0    38     1    20
 -1.8602158132701795E-02 a       946     0    38     1    21
 -2.9936092100661515E-01 a       947     0    38     1    22
  3.3734067000815438E-01 a       948     0    38     1    23
  1.7750080356382661E-02 a       949     0    38     1    24
 -5.3685793716004448E-01 a       950     0    38     1    25
  7.5857596446491227E-01 a       951     0    39     1     1
  8.0292117934422057E-03 a       952     0    39     1     2
  4.5934949432303540E-01 a       953     0    39     1     3
 -8.7885092987941144E-02 a       954     0    39     1     4
 -1.4608280312748817E-01 a       955     0    39     1     5
  1.0435550328991907E+00 a       956     0    39     1     6
  3.3202837697518528E-01 a       957     0    39     1     7
 -8.7070399042457314E-01 a       958     0    39     1     8
 -1.1995896611962366E-01 a       959     0    39     1     9
  9.9300418269034768E-02 a       960     0    39     1    10
  5.0299656940011817E-01 a       961     0    39     1    11
  3.4448897031779629E-01 a       962     0    39     1    12
 -1.3106542989107856E-01 a       963     0    39     1    13
 -4.4079349200356371E-01 a       964     0    39     1    14
 -1.3043846538973508E-01 a       965     0    39     1    15
  4.4317213612852261E-03 a       966     0    39     1    16
  7.9454567764344919E-01 a       967     0    39     1    17
 -1.3129241926431525E+00 a       968     0    39     1    18
  2.9828986179688721E-01 a       969     0    39     1    19
 -5.0238109159200706E-01 a       970     0    39     1    20
 -1.7272427151048242E-01 a       971     0    39     1    21
 -2.3636206768049151E-01 a       972     0    39     1    22
  1.6712916042708639E-01 a       973     0    39     1    23
 -8.7888638612468373E-02 a       974     0    39     1    24
 -7.2268419877895984E-01 a       975     0    39     1    25
  6.5058795626787957E-01 a       976     0    40     1     1
  1.4300637548582470E-01 a       977     0    40     1     2
 -9.2525529014165456E-02 a       978     0    40     1     3
  1.2159295876863696E-01 a       979     0    40     1     4
  1.6221424172722561E+00 a       980     0    40     1     5
  5.0006469270491993E-01 a       981     0    40     1     6
  8.9391238098417858E-01 a       982     0    40     1     7
  2.7704008611134623E-01 a       983     0    40     1     8
  1.1367199524191138E+00 a       984     0    40     1     9
  1.4920352000262733E+00 a       985     0    40     1    10
  1.2121654189401663E+00 a       986     0    40     1    11
 -8.2558516046923192E-01 a       987     0    40     1    12
  6.8448554529861061E-01 a       988     0    40     1    13
 -5.2297101440569160E-01 a       989     0    40     1    14
  4.3621444730611819E-01 a       990     0    40     1    15
 -7.7652330819209081E-01 a       991     0    40     1    16
 -7.5472941909802616E-01 a       992     0    40     1    17
  1.2229924729859210E+00 a       993     0    40     1    18
 -1.4385472629823488E+00 a       994     0    40     1    19
 -7.9157086562481016E-01 a       995     0    40     1    20
 -7.0308253617969563E-01 a       996     0    40     1    21
 -7.3017271524607008E-01 a       997     0    40     1    22
 -2.9166710973657545E-01 a       998     0    40     1    23
 -1.3873290968470189E+00 a       999     0    40     1    24
  8.1865949251060266E-01 a      1000     0    40     1    25
  2.3873675357465396E-01 a      1001     0    41     1     1
 -3.3379863735220100E-01 a      1002     0    41     1     2
  1.4196148861495642E-01 a      1003     0    41     1     3
  3.3883434862972393E-03 a      1004     0    41     1     4
 -2.3737968283186414E-01 a      1005     0    41     1     5
  1.5198923451064059E-01 a      1006     0    41     1     6
 -2.6900323803854514E-01 a      1007     0    41     1     7
  6.2469161308504384E-02 a      1008     0    41     1     8
 -7.7772621819859028E-02 a      1009     0    41     1     9
 -1.9435473133176448E-01 a      1010     0    41     1    10
  2.2080354104499270E-02 a      1011     0    41     1    11
 -1.6332071856590716E-01 a      1012     0    41     1    12
 -3.8801147005371317E-01 a      1013     0    41     1    13
 -2.9947469621984441E-01 a      1014     0    41     1    14
  1.7478605384393636E-02 a      1015     0    41     1    15
 -7.4279660565220781E-03 a      1016     0    41     1    16
  7.9039830270635131E-02 a      1017     0    41     1    17
 -4.6827653764180782E-01 a      1018     0    41     1    18
  1.7565576824470239E-01 a      1019     0    41     1    19
  5.9446995401069502E-01 a      1020     0    41     1    20
 -3.8814197114287421E-02 a      1021     0    41     1    21
 -2.2928099012246542E-01 a      1022     0    41     1    22
  9.3007088312415540E-02 a      1023     0    41     1    23
  4.3348160646462386E-01 a      1024     0    41     1    24
  1.6574614209839700E-01 a      1025     0    41     1    25
  6.0378925508622706E-02 a      1026     0    42     1     1
 -2.1253916237472470E-02 a      1027     0    42     1     2
 -2.0668246972607676E-01 a      1028     0    42     1     3
  1.8261841306294430E-01 a      1029     0    42     1     4
 -3.3166917479807317E-01 a      1030     0    42     1     5
  3.5808518733811356E-01 a      1031     0    42     1     6
 -6.2497236739785682E-02 a      1032     0    42     1     7
  9.6197624799038151E-02 a      1033     0    42     1     8
 -1.2884243747502216E-01 a      1034     0    42     1     9
  1.0025351997393434E-02 a      1035     0    42     1    10
  1.2715036837077526E-01 a      1036     0    42     1    11
  1.1922882786821992E-02 a      1037     0    42     1    12
 -5.5613235831326802E-01 a      1038     0    42     1    13
  1.2908358123868505E-01 a      1039     0    42     1    14
 -1.0829535072250708E-01 a      1040     0    42     1    15
 -2.7349444289821007E-01 a      1041     0    42     1    16
  7.3590445601991100E-02 a      1042     0    42     1    17
 -3.3920152060207970E-01 a      1043     0    42     1    18
 -3.0402485574668441E-02 a      1044     0    42     1    19
  4.6118956649564674E-01 a      1045     0    42     1    20
  2.6739273440190930E-01 a      1046     0    42     1    21
 -2.2934675535469379E-01 a      1047     0    42     1    22
 -1.4755003621656004E-01 a      1048     0    42     1    23
  7.2780169942467277E-01 a      1049     0    42     1    24
 -1.6984991326671296E-02 a      1050     0    42     1    25
 -2.1770938713763087E-02 a      1051     0    43     1     1
 -5.2429742543101586E-02 a      1052     0    43     1     2
 -8.4379188324160234E-02 a      1053     0    43     1     3
 -5.2927457852117832E-01 a      1054     0    43     1     4
  9.7114142501810247E-02 a      1055     0    43     1     5
 -2.2892663992340977E-02 a      1056     0    43     1     6
 -2.8529721388270340E-01 a      1057     0    43     1     7
  9.3487987841711903E-02 a      1058     0    43     1     8
  6.8561996665545938E-02 a      1059     0    43     1     9
  1.1328711676513316E-01 a      1060     0    43     1    10
  8.7230374829782820E-01 a      1061     0    43     1    11
 -3.4660903506343865E-01 a      1062     0    43     1    12
 -6.0293757331659814E-01 a      1063     0    43     1    13
 -5.2464434973031104E-02 a      1064     0    43     1    14
 -3.0094879369045396E-01 a      1065     0    43     1    15
  9.7748394957238749E-02 a      1066     0    43     1    16
  4.2714296538527696E-01 a      1067     0    43     1    17
 -5.1261052167685606E-01 a      1068     0    43     1    18
  3.1751396896242623E-01 a      1069     0    43     1    19
  4.6054673179667410E-01 a      1070     0    43     1    20
  1.4520020077134435E-01 a      1071     0    43     1    21
 -3.8764674234018769E-02 a      1072     0    43     1    22
  1.9569384256319924E-03 a      1073     0    43     1    23
  6.7529589312373772E-01 a      1074     0    43     1    24
  1.6165679665660601E-01 a      1075     0    43     1    25
 -2.1285680125969891E-01 a      1076     0    44     1     1
  6.3222863139135915E-02 a      1077     0    44     1     2
 -2.5857334376895902E-01 a      1078     0    44     1     3
 -2.0464362126474828E-01 a      1079     0    44     1     4
  3.0550332396666192E-02 a      1080     0    44     1     5
 -3.6524733894689682E-01 a      1081     0    44     1     6
 -6.7831945577298336E-01 a      1082     0    44     1     7
  8.0414217151971487E-02 a      1083     0    44     1     8
 -3.8738872709662381E-01 a      1084     0    44     1     9
 -9.6050118722896066E-02 a      1085     0    44     1    10
  6.7489768701209385E-01 a      1086     0    44     1    11
 -1.5435020414326180E-02 a      1087     0    44     1    12
 -8.1357458058559906E-01 a      1088     0    44     1    13
 -1.4002594098618973E-01 a      1089     0    44     1    14
 -3.6692257513179977E-01 a      1090     0    44     1    15
  3.7319330437910941E-01 a      1091     0    44     1    16
  3.2745358777266753E-01 a      1092     0    44     1    17
 -5.4441114465351559E-01 a      1093     0    44     1    18
  4.9084299931389086E-01 a      1094     0    44     1    19
  2.1870553481170554E-01 a      1095     0    44     1    20
 -2.4755563217152024E-01 a      1096     0    44     1    21
 -1.9466025126832404E-01 a      1097     0    44     1    22
  1.5595885040299287E-01 a      1098     0    44     1    23
  5.1256234727495265E-01 a      1099     0    44     1    24
  3.1874546531761283E-01 a      1100     0    44     1    25
  6.3616878631817253E-01 a      1101     0    45     1     1
  1.4621692038181228E-01 a      1102     0    45     1     2
  5.3273053419264929E-02 a      1103     0    45     1     3
  2.9610897759920574E-01 a      1104     0    45     1     4
  1.6729393001045642E-01 a      1105     0    45     1     5
  1.4113659830005607E-01 a      1106     0    45     1     6
  5.2307224229081906E-01 a      1107     0    45     1     7
 -3.9447802156459894E-01 a      1108     0    45     1     8
 -8.0084417821025211E-01 a      1109     0    45     1     9
  6.6631114538021086E-01 a      1110     0    45     1    10
 -4.2057357043869453E-01 a      1111     0    45     1    11
 -1.6507920815565544E-01 a      1112     0    45     1    12
  9.0122023600117483E-03 a      1113     0    45     1    13
 -4.8797666169945336E-01 a      1114     0    45     1    14
 -3.5313421095662823E-01 a      1115     0    45     1    15
  8.8534029207296749E-01 a      1116     0    45     1    16
  6.4335108382514850E-01 a      1117     0    45     1    17
 -2.3830247637788689E-02 a      1118     0    45     1    18
 -1.8470152799354012E-01 a      1119     0    45     1    19
  9.1921400822355115E-02 a      1120     0    45     1    20
 -3.7990238869170752E-02 a      1121     0    45     1    21
 -1.8222772534237708E-01 a      1122     0    45     1    22
  4.7264244823216256E-02 a      1123     0    45     1    23
  9.3523676318942162E-01 a      1124     0    45     1    24
 -2.5533177584224837E-01 a      1125     0    45     1    25
 -8.8068770018014486E-01 a      1126     0    46     1     1
 -1.2447067477585155E-01 a      1127     0    46     1     2
 -2.3171142512274651E-01 a      1128     0    46     1     3
  1.5529649342764767E-01 a      1129     0    46     1     4
 -1.4760860495339567E-01 a      1130     0    46     1     5
  1.5812901669461277E-01 a      1131     0    46     1     6
 -3.9968770641705537E-01 a      1132     0    46     1     7
  1.2070733939156032E-01 a      1133     0    46     1     8
  7.4565751661226615E-02 a      1134     0    46     1     9
  3.1092347751517968E-01 a      1135     0    46     1    10
 -3.3617204606491480E-01 a      1136     0    46     1    11
  3.9496732963087716E-01 a      1137     0    46     1    12
  4.9003037133233801E-01 a      1138     0    46     1    13
  2.4763563702527875E-02 a      1139     0    46     1    14
  3.5921518153411347E-01 a      1140     0    46     1    15
  5.3872263107373797E-01 a      1141     0    46     1    16
 -9.7891037853269425E-01 a      1142     0    46     1    17
 -2.0258872700267919E-01 a      1143     0    46     1    18
  2.3476427385632032E-01 a      1144     0    46     1    19
 -3.6997962205630947E-01 a      1145     0    46     1    20
 -4.0297587296560189E-02 a      1146     0    46     1    21
 -3.9887962156768519E-01 a      1147     0    46     1    22
 -6.9570889750732057E-01 a      1148     0    46     1    23
 -8.5810774086238245E-02 a      1149     0    46     1    24
  7.6476279722662543E-01 a      1150     0    46     1    25
 -8.1277599687433488E-01 a      1151     0    47     1     1
  4.4214186675739509E-02 a      1152     0    47     1     2
 -2.1370316074368736E-01 a      1153     0    47     1     3
  5.7435850684736868E-02 a      1154     0    47     1     4
 -4.2281385623277323E-02 a      1155     0    47     1     5
  5.9499152434996105E-01 a      1156     0    47     1     6
 -6.1675474957919008E-01 a      1157     0    47     1     7
  2.1733816096655167E-01 a      1158     0    47     1     8
  1.4195013453480343E-01 a      1159     0    47     1     9
  2.3455539874734799E-01 a      1160     0    47     1    10
 -2.3297216894634509E-01 a      1161     0    47     1    11
  3.4322821856999602E-01 a      1162     0    47     1    12
  4.3122890482475384E-01 a      1163     0    47     1    13
 -2.3397986560880757E-01 a      1164     0    47     1    14
  2.7392807750268844E-01 a      1165     0    47     1    15
  5.5383147680946920E-01 a      1166     0    47     1    16
 -1.1646614426502453E+00 a      1167     0    47     1    17
  1.9981977494610409E-01 a      1168     0    47     1    18
 -1.4538758070800561E-01 a      1169     0    47     1    19
 -1.6368728890193357E-01 a      1170     0    47     1    20
 -4.0326896876795959E-01 a      1171     0    47     1    21
 -1.8149469176957397E-01 a      1172     0    47     1    22
 -7.7899040099043970E-01 a      1173     0    47     1    23
 -2.2809978805880421E-01 a      1174     0    47     1    24
  8.9219131573109212E-01 a      1175     0    47     1    25
 -1.1001612435526935E+00 a      1176     0    48     1     1
 -2.6871166552219983E-01 a      1177     0    48     1     2
 -7.6558941401385205E-01 a      1178     0    48     1     3
  1.0186902367219983E+00 a      1179     0    48     1     4
 -5.8032169242482490E-01 a      1180     0    48     1     5
 -8.1173021737844653E-01 a      1181     0    48     1     6
 -1.1806354362630875E+00 a      1182     0    48     1     7
  3.2576600757548330E-01 a      1183     0    48     1     8
  8.5967633602720986E-02 a      1184     0    48     1     9
 -1.3670443018009122E+00 a      1185     0    48     1    10
  4.5294240286919485E-01 a      1186     0    48     1    11
  2.1681886202609013E-01 a      1187     0    48     1    12
  7.3418197135120833E-01 a      1188     0    48     1    13
 -5.1618057746427071E-01 a      1189     0    48     1    14
 -8.7010394772829547E-01 a      1190     0    48     1    15
 -4.2250508444046236E-01 a      1191     0    48     1    16
 -4.4947498060208096E-01 a      1192     0    48     1    17
  1.0443781741469735E+00 a      1193     0    48     1    18
 -2.0981715563199042E+00 a      1194     0    48     1    19
  2.5519150299948817E-01 a      1195     0    48     1    20
  1.1141172957772008E+00 a      1196     0    48     1    21
  1.5647221394461348E+00 a      1197     0    48     1    22
  4.8694932164311727E-01 a      1198     0    48     1    23
 -1.2660340579256251E+00 a      1199     0    48     1    24
 -6.3314708673450282E-01 a      1200     0    48     1    25
  2.3134782087661904E-01 a      1201     0    49     1     1
  3.3434052308166617E-01 a      1202     0    49     1     2
 -2.3080729213894138E-01 a      1203     0    49     1     3
 -2.8618739903822094E-01 a      1204     0    49     1     4
  4.9272600073226980E-02 a      1205     0    49     1     5
  2.8256583227391147E-01 a      1206     0    49     1     6
 -1.9957451773532583E-01 a      1207     0    49     1     7
 -3.3720777861834361E-01 a      1208     0    49     1     8
 -5.2890765359121805E-01 a      1209     0    49     1     9
  8.5503832442775451E-01 a      1210     0    49     1    10
  6.7170054026785186E-01 a      1211     0    49     1    11
 -3.6499448425749198E-01 a      1212     0    49     1    12
 -1.3829012412781619E-01 a      1213     0    49     1    13
  1.2397480666282083E-03 a      1214     0    49     1    14
  6.3201103362244049E-02 a      1215     0    49     1    15
  3.8009608965152569E-01 a      1216     0    49     1    16
  3.4222890709179221E-01 a      1217     0    49     1    17
  1.5530572891701228E-01 a      1218     0    49     1    18
  4.6068845783260159E-01 a      1219     0    49     1    19
 -1.5655406879020226E-01 a      1220     0    49     1    20
  1.0320449676661449E-01 a      1221     0    49     1    21
 -7.4173267758424544E-01 a      1222     0    49     1    22
  1.2461009620324849E-01 a      1223     0    49     1    23
  3.6829118512888659E-01 a      1224     0    49     1    24
  1.9203187505954469E-01 a      1225     0    49     1    25
  3.7613250208957161E-01 a      1226     0    50     1     1
 -5.6307405359210874E-02 a      1227     0    50     1     2
 -2.3666134603190739E-01 a      1228     0    50     1     3
  9.5260039924469585E-04 a      1229     0    50     1     4
  1.2245767707327200E-01 a      1230     0    50     1     5
  6.3877644270931699E-01 a      1231     0    50     1     6
  1.4988763106227582E-01 a      1232     0    50     1     7
 -2.2728647435591411E-02 a      1233     0    50     1     8
 -6.5453956633403032E-01 a      1234     0    50     1     9
  7.7259426890235794E-01 a      1235     0    50     1    10
  2.5583998369019778E-01 a      1236     0    50     1    11
 -1.8627468947847986E-01 a      1237     0    50     1    12
 -5.3471668455254284E-01 a      1238     0    50     1    13
 -1.4975620881302304E-01 a      1239     0    50     1    14
 -3.1046694635508160E-01 a      1240     0    50     1    15
  6.9579905963420918E-01 a      1241     0    50     1    16
  1.8769891402558500E-01 a      1242     0    50     1    17
 -3.2014503247504933E-01 a      1243     0    50     1    18
  5.7473247537592898E-01 a      1244     0    50     1    19
 -1.5480897677821850E-01 a      1245     0    50     1    20
  2.1124388697670229E-01 a      1246     0    50     1    21
 -6.8884163180642177E-01 a      1247     0    50     1    22
 -2.1408608202450448E-02 a      1248     0    50     1    23
  2.3979585154510441E-01 a      1249     0    50     1    24
  8.5220077792430057E-02 a      1250     0    50     1    25
 -6.1924208434504868E-01 a      1251     0    51     1     1
 -2.8123374035453763E-01 a      1252     0    51     1     2
  1.0471690147220689E-01 a      1253     0    51     1     3
 -7.7274169308486773E-01 a      1254     0    51     1     4
  3.1320516258830883E-01 a      1255     0    51     1     5
  4.9103855378565830E-01 a      1256     0    51     1     6
 -1.9948433446792199E-01 a      1257     0    51     1     7
 -1.0939274144843554E-01 a      1258     0    51     1     8
  5.8045200932893247E-02 a      1259     0    51     1     9
  3.2361594334602195E-01 a      1260     0    51     1    10
  7.2987317880626434E-01 a      1261     0    51     1    11
 -3.4574854321794729E-01 a      1262     0    51     1    12
 -7.5325049385253706E-01 a      1263     0    51     1    13
  5.7979371179866512E-02 a      1264     0    51     1    14
 -9.2790686041184702E-03 a      1265     0    51     1    15
  5.7851548123028729E-01 a      1266     0    51     1    16
  5.0957876510670375E-01 a      1267     0    51     1    17
 -5.5981630254973180E-01 a      1268     0    51     1    18
  4.0542993057581039E-01 a      1269     0    51     1    19
  3.1719857437619919E-01 a      1270     0    51     1    20
 -2.1772123068649307E-01 a      1271     0    51     1    21
 -2.8647026245781981E-01 a      1272     0    51     1    22
 -1.8856498129764426E-01 a      1273     0    51     1    23
  4.6668756915730453E-01 a      1274     0    51     1    24
  4.1852128679939454E-01 a      1275     0    51     1    25
 -5.5025417493950113E-01 a      1276     0    52     1     1
 -5.3946015004151054E-02 a      1277     0    52     1     2
  1.0022889654814625E-01 a      1278     0    52     1     3
 -6.7724393213099543E-01 a      1279     0    52     1     4
  6.8884891037194318E-01 a      1280     0    52     1     5
  1.4563786338634788E-01 a      1281     0    52     1     6
 -1.1167378851505093E-01 a      1282     0    52     1     7
  1.4855075471701545E-01 a      1283     0    52     1     8
  2.5888291906968652E-01 a      1284     0    52     1     9
  5.8359954352404264E-01 a      1285     0    52     1    10
  5.2134179181887175E-01 a      1286     0    52     1    11
 -5.1927203591239102E-01 a      1287     0    52     1    12
 -5.8314742797416452E-01 a      1288     0    52     1    13
 -1.2790537119119222E-01 a      1289     0    52     1    14
 -2.4767430498573215E-01 a      1290     0    52     1    15
  4.2759202106179600E-01 a      1291     0    52     1    16
  3.4214976891966714E-01 a      1292     0    52     1    17
 -3.8282956920542321E-01 a      1293     0    52     1    18
  4.6338822901715615E-01 a      1294     0    52     1    19
  2.1229261464388655E-01 a      1295     0    52     1    20
 -4.9230150729239081E-01 a      1296     0    52     1    21
 -6.3480490402954937E-01 a      1297     0    52     1    22
 -1.9255026844208994E-01 a      1298     0    52     1    23
  5.5045927392727656E-01 a      1299     0    52     1    24
  2.1812679211455316E-01 a      1300     0    52     1    25
 -2.5071525297970887E-01 a      1301     0    53     1     1
 -2.1848412986263582E-01 a      1302     0    53     1     2
  8.8604695169249681E-02 a      1303     0    53     1     3
  3.8931415780433395E-02 a      1304     0    53     1     4
 -4.4631887638755496E-01 a      1305     0    53     1     5
  2.0757034689183174E-01 a      1306     0    53     1     6
 -7.2330094435456307E-02 a      1307     0    53     1     7
 -1.5814359305920464E-01 a      1308     0    53     1     8
  2.5070398207367761E-01 a      1309     0    53     1     9
 -2.3404451632131817E-03 a      1310     0    53     1    10
 -1.0715115739237933E-01 a      1311     0    53     1    11
  4.6783625710390320E-01 a      1312     0    53     1    12
  7.9473745663350776E-02 a      1313     0    53     1    13
  7.0823175739165523E-02 a      1314     0    53     1    14
  2.2922691967588188E-01 a      1315     0    53     1    15
  2.2105123849929825E-01 a      1316     0    53     1    16
  4.4981684392225707E-01 a      1317     0    53     1    17
 -2.7749865108744720E-01 a      1318     0    53     1    18
 -3.8935863742292554E-01 a      1319     0    53     1    19
 -1.9268427566181359E-01 a      1320     0    53     1    20
  1.0076252836225268E-01 a      1321     0    53     1    21
 -5.7388272015506248E-01 a      1322     0    53     1    22
 -8.6305019460602950E-01 a      1323     0    53     1    23
 -1.2149619760636026E+00 a      1324     0    53     1    24
  5.4628431349862505E-01 a      1325     0    53     1    25
 -1.3050235444982830E-01 a      1326     0    54     1     1
 -2.1905498869129142E-01 a      1327     0    54     1     2
 -6.1312700707694123E-02 a      1328     0    54     1     3
  3.9130539998968022E-01 a      1329     0    54     1     4
 -6.4338653333138895E-01 a      1330     0    54     1     5
  5.3537311956093792E-01 a      1331     0    54     1     6
 -2.9897063610990099E-01 a      1332     0    54     1     7
 -2.5539107234117975E-01 a      1333     0    54     1     8
  3.7356151363314009E-03 a      1334     0    54     1     9
 -1.0853099403544260E-01 a      1335     0    54     1    10
  3.1951738911909322E-01 a      1336     0    54     1    11
  1.6600096461556854E-01 a      1337     0    54     1    12
  3.2688862510388723E-02 a      1338     0    54     1    13
  1.4421788474845895E-01 a      1339     0    54     1    14
  2.7761427400896899E-01 a      1340     0    54     1    15
  4.0999199132027442E-01 a      1341     0    54     1    16
  4.0610187097300432E-01 a      1342     0    54     1    17
 -4.3058041068348912E-01 a      1343     0    54     1    18
 -4.6869227723757040E-01 a      1344     0    54     1    19
 -1.7883770173598057E-01 a      1345     0    54     1    20
 -2.0301611549187459E-01 a      1346     0    54     1    21
 -1.2993188067884878E-01 a      1347     0    54     1    22
 -1.2049222888479034E+00 a      1348     0    54     1    23
 -1.3899501409249053E+00 a      1349     0    54     1    24
  4.8670395840436848E-01 a      1350     0    54     1    25
 -8.3015763729494940E-01 a      1351     0    55     1     1
  5.8246566501143870E-01 a      1352     0    55     1     2
 -1.3095453517139406E+00 a      1353     0    55     1     3
  2.7969545660872336E-01 a      1354     0    55     1     4
 -4.1684497181485464E-01 a      1355     0    55     1     5
 -6.6291295889358615E-01 a      1356     0    55     1     6
 -5.1747183217307668E-01 a      1357     0    55     1     7
 -5.0603542396919166E-01 a      1358     0    55     1     8
 -6.6973767059121658E-01 a      1359     0    55     1     9
 -9.0064291746837788E-01 a      1360     0    55     1    10
 -4.2619398400480041E-01 a      1361     0    55     1    11
  5.7322318576316256E-01 a      1362     0    55     1    12
  6.2065951794141316E-01 a      1363     0    55     1    13
 -1.0801270584949788E-01 a      1364     0    55     1    14
 -7.5756833346595120E-01 a      1365     0    55     1    15
  1.1676548179938260E+00 a      1366     0    55     1    16
  3.5031304068881497E-01 a      1367     0    55     1    17
 -1.5569638626189372E-01 a      1368     0    55     1    18
  6.0472110117019084E-02 a      1369     0    55     1    19
  3.1511170681014417E-01 a      1370     0    55     1    20
  1.2649177891950807E+00 a      1371     0    55     1    21
 -1.7524287313232023E-01 a      1372     0    55     1    22
  1.3533721425488432E+00 a      1373     0    55     1    23
  6.4891388067265188E-01 a      1374     0    55     1    24
  7.9529939906060387E-02 a      1375     0    55     1    25
  5.9234727094404382E-01 a      1376     0    56     1     1
  1.0682474226114755E-01 a      1377     0    56     1     2
  1.5597972778789784E-01 a      1378     0    56     1     3
  3.6257578925297257E-01 a      1379     0    56     1     4
 -1.0070667514669758E+00 a      1380     0    56     1     5
  1.2142155894666651E-01 a      1381     0    56     1     6
 -7.4725524494826848E-02 a      1382     0    56     1     7
 -3.2097245574490441E-01 a      1383     0    56     1     8
  4.1587162721781934E-01 a      1384     0    56     1     9
 -8.4065546741885910E-01 a      1385     0    56     1    10
 -5.2057245161336285E-01 a      1386     0    56     1    11
  3.3726967698982813E-01 a      1387     0    56     1    12
 -7.1444455411890373E-02 a      1388     0    56     1    13
  2.0550646434383243E-01 a      1389     0    56     1    14
  1.9600889833231347E-01 a      1390     0    56     1    15
  2.3695719238045845E-01 a      1391     0    56     1    16
  1.7507310308860219E-01 a      1392     0    56     1    17
 -6.6841397203964914E-01 a      1393     0    56     1    18
 -9.2267191562136763E-01 a      1394     0    56     1    19
  3.1088585407043751E-01 a      1395     0    56     1    20
 -9.7147378862382186E-02 a      1396     0    56     1    21
 -4.0169147603970290E-01 a      1397     0    56     1    22
 -1.0294709647994620E+00 a      1398     0    56     1    23
 -1.2258285358075298E+00 a      1399     0    56     1    24
  4.9603450571531571E-01 a      1400     0    56     1    25
  3.2474347298617212E-01 a      1401     0    57     1     1
 -2.3464715690639495E-01 a      1402     0    57     1     2
 -1.0288636988494301E-01 a      1403     0    57     1     3
  1.1208415123195090E-01 a      1404     0    57     1     4
 -7.4865693570324754E-01 a      1405     0    57     1     5
  8.0994666074082358E-02 a      1406     0    57     1     6
  4.1285830970803454E-02 a      1407     0    57     1     7
 -1.3794336149414188E-01 a      1408     0    57     1     8
  4.0068820847117409E-03 a      1409     0    57     1     9
 -6.1442689111057236E-01 a      1410     0    57     1    10
 -4.6735867265416936E-01 a      1411     0    57     1    11
  3.8675706324257725E-01 a      1412     0    57     1    12
  2.5845663457377020E-02 a      1413     0    57     1    13
  2.3376851757022676E-01 a      1414     0    57     1    14
  4.4393522599536933E-01 a      1415     0    57     1    15
  2.7053329597006148E-01 a      1416     0    57     1    16
 -9.2026678458709085E-02 a      1417     0    57     1    17
 -5.2826858010731248E-01 a      1418     0    57     1    18
 -7.5620844294382594E-01 a      1419     0    57     1    19
 -6.9391071540349056E-02 a      1420     0    57     1    20
 -4.1093894787331947E-01 a      1421     0    57     1    21
 -2.8138448965704504E-01 a      1422     0    57     1    22
 -1.0183592337139591E+00 a      1423     0    57     1    23
 -1.2059723080509817E+00 a      1424     0    57     1    24
  5.4509958587130691E-01 a      1425     0    57     1    25
  1.5199575827342440E+00 a      1426     0    58     1     1
  4.2728917669451461E-01 a      1427     0    58     1     2
  1.0301529388611633E-01 a      1428     0    58     1     3
  6.4791066471681003E-01 a      1429     0    58     1     4
  5.8436150981138846E-01 a      1430     0    58     1     5
  9.1142669840846646E-01 a      1431     0    58     1     6
  1.9219122762115090E-01 a      1432     0    58     1     7
  8.7403954141285078E-01 a      1433     0    58     1     8
 -2.9250422143880345E-01 a      1434     0    58     1     9
  1.6814541635338818E+00 a      1435     0    58     1    10
  2.0537284089327792E+00 a      1436     0    58     1    11
 -2.7859527770785331E-01 a      1437     0    58     1    12
 -5.3293072462493507E-01 a      1438     0    58     1    13
 -5.0455249495900464E-03 a      1439     0    58     1    14
  4.8905101505061099E-01 a      1440     0    58     1    15
  3.6526213294086257E-02 a      1441     0    58     1    16
  7.7478886790466317E-01 a      1442     0    58     1    17
  2.8104097163032926E-01 a      1443     0    58     1    18
 -7.8644792363946459E-01 a      1444     0    58     1    19
 -6.0814057862269100E-01 a      1445     0    58     1    20
 -3.0046172049562619E-01 a      1446     0    58     1    21
 -1.3468653726225779E+00 a      1447     0    58     1    22
  3.6114691547014854E-01 a      1448     0    58     1    23
 -5.4510029642830339E-02 a      1449     0    58     1    24
  1.3294876144319046E+00 a      1450     0    58     1    25
 -1.2329453654302086E-01 a      1451     0    59     1     1
  3.2748240151682644E-02 a      1452     0    59     1     2
  1.4030910326996257E-01 a      1453     0    59     1     3
 -8.4974990108694581E-02 a      1454     0    59     1     4
  4.7323846485304394E-01 a      1455     0    59     1     5
 -1.8094050385031885E-01 a      1456     0    59     1     6
  2.4235435435223937E-01 a      1457     0    59     1     7
 -8.1890400249674256E-02 a      1458     0    59     1     8
  2.3871785333575833E-02 a      1459     0    59     1     9
  4.9437955596620847E-01 a      1460     0    59     1    10
  7.8007440144549067E-01 a      1461     0    59     1    11
 -3.5245624633048350E-01 a      1462     0    59     1    12
 -6.8470032546753504E-02 a      1463     0    59     1    13
 -4.0864778947911845E-01 a      1464     0    59     1    14
 -8.3324928748915436E-02 a      1465     0    59     1    15
 -3.2189850558083272E-01 a      1466     0    59     1    16
 -4.0155799424840916E-01 a      1467     0    59     1    17
  1.5647095383495457E-01 a      1468     0    59     1    18
  4.0536239885884862E-01 a      1469     0    59     1    19
  3.9736840331386358E-01 a      1470     0    59     1    20
  9.3837705244787906E-02 a      1471     0    59     1    21
  4.6046837667022306E-01 a      1472     0    59     1    22
  4.2200506230177931E-01 a      1473     0    59     1    23
  1.0367776491255518E+00 a      1474     0    59     1    24
 -3.9778606532740102E-01 a      1475     0    59     1    25
 -1.8022049006034652E-01 a      1476     0    60     1     1
 -1.5925291077192585E-01 a      1477     0    60     1     2
  3.6482454910507062E-01 a      1478     0    60     1     3
  2.2041073736720218E-01 a      1479     0    60     1     4
  6.6169415332574621E-01 a      1480     0    60     1     5
 -4.1512765652914847E-02 a      1481     0    60     1     6
  3.3993783998320692E-01 a      1482     0    60     1     7
  2.5955843614724139E-01 a      1483     0    60     1     8
 -7.2810440625108622E-02 a      1484     0    60     1     9
  4.5362325251192875E-01 a      1485     0    60     1    10
  4.6254747626444503E-01 a      1486     0    60     1    11
 -3.8739071568003025E-01 a      1487     0    60     1    12
 -2.7526917833919617E-01 a      1488     0    60     1    13
 -1.9461771108447659E-01 a      1489     0    60     1    14
 -1.1169947560500100E-01 a      1490     0    60     1    15
 -1.5136181507488111E-01 a      1491     0    60     1    16
 -1.2687928141946239E-02 a      1492     0    60     1    17
  5.4909183306175746E-01 a      1493     0    60     1    18
  1.7849174782130325E-01 a      1494     0    60     1    19
  2.8850958844823343E-01 a      1495     0    60     1    20
  2.9577677304365563E-01 a      1496     0    60     1    21
  1.7862284137470560E-01 a      1497     0    60     1    22
  6.5342574120611674E-01 a      1498     0    60     1    23
  8.7352696128367735E-01 a      1499     0    60     1    24
 -6.3830834834437333E-01 a      1500     0    60     1    25
  4.6017142639766684E-01 a      1501     0    61     1     1
 -2.8049658522753772E-02 a      1502     0    61     1     2
  3.6089269315210809E-01 a      1503     0    61     1     3
 -1.0948071332157358E-01 a      1504     0    61     1     4
  1.2713483771958226E-01 a      1505     0    61     1     5
 -7.0658754628561393E-01 a      1506     0    61     1     6
  4.9579049451020940E-01 a      1507     0    61     1     7
  3.4216903182443470E-01 a      1508     0    61     1     8
  1.6980785715211699E-01 a      1509     0    61     1     9
 -4.4269352146562319E-01 a      1510     0    61     1    10
  2.3883728747285693E-01 a      1511     0    61     1    11
 -3.1841324099171719E-01 a      1512     0    61     1    12
 -1.1907243851272842E-01 a      1513     0    61     1    13
 -1.8725058125543087E-01 a      1514     0    61     1    14
 -1.9251826296956268E-01 a      1515     0    61     1    15
 -2.8452195272051478E-01 a      1516     0    61     1    16
 -3.0596648707191348E-01 a      1517     0    61     1    17
 -7.5370581212478045E-03 a      1518     0    61     1    18
 -1.2737622145069638E-01 a      1519     0    61     1    19
  5.0590108395473676E-01 a      1520     0    61     1    20
  2.4217413142357991E-01 a      1521     0    61     1    21
  2.8138026776244651E-01 a      1522     0    61     1    22
  6.7182630635206331E-01 a      1523     0    61     1    23
  1.0527689247309930E+00 a      1524     0    61     1    24
 -2.1461236523807384E-01 a      1525     0    61     1    25
  7.4262763437500678E-01 a      1526     0    62     1     1
 -2.9007790659994720E-01 a      1527     0    62     1     2
  4.8912513777112981E-01 a      1528     0    62     1     3
  1.4136915096605149E-01 a      1529     0    62     1     4
  3.9336167555586804E-01 a      1530     0    62     1     5
 -7.7702296643425328E-01 a      1531     0    62     1     6
  5.3398228638894285E-01 a      1532     0    62     1     7
  6.9446291805171173E-02 a      1533     0    62     1     8
  1.3621002149184194E-01 a      1534     0    62     1     9
 -3.6740562024442686E-01 a      1535     0    62     1    10
  2.0608085898200240E-01 a      1536     0    62     1    11
 -7.2275652861231632E-01 a      1537     0    62     1    12
 -9.4132339222216272E-03 a      1538     0    62     1    13
  1.2039936547584526E-02 a      1539     0    62     1    14
 -8.9401188828196459E-03 a      1540     0    62     1    15
 -1.3289625023529883E-01 a      1541     0    62     1    16
 -5.9386122363923666E-01 a      1542     0    62     1    17
  6.2819843806793965E-02 a      1543     0    62     1    18
 -1.6883335068366240E-01 a      1544     0    62     1    19
  4.3542794946475777E-01 a      1545     0    62     1    20
 -6.8646458173992064E-02 a      1546     0    62     1    21
  3.0804954486760122E-01 a      1547     0    62     1    22
  6.6884079509467376E-01 a      1548     0    62     1    23
  1.1392767893698852E+00 a      1549     0    62     1    24
 -4.2889647712775109E-01 a      1550     0    62     1    25
 -7.0849960793820044E-01 b      1551     1     1
  6.0639698927090013E-01 b      1552     1     2
 -3.8963237748086677E-01 b      1553     1     3
  3.2848268102692552E-01 b      1554     1     4
  9.7062537460465545E-02 b      1555     1     5
 -1.0823070036739327E-03 b      1556     1     6
  2.7652785876863012E-01 b      1557     1     7
  2.5627713174676331E-01 b      1558     1     8
 -5.6079391119791966E-01 b      1559     1     9
 -1.9458467162933926E-01 b      1560     1    10
  1.8974413280731928E-01 b      1561     1    11
  5.5506662252769658E-02 b      1562     1    12
  4.0988478547772267E-01 b      1563     1    13
  1.6849578498502349E-01 b      1564     1    14
 -4.5501313825952233E-01 b      1565     1    15
  8.6867306156830748E-02 b      1566     1    16
 -6.7832056200045940E-02 b      1567     1    17
 -9.7419029304497098E-02 b      1568     1    18
 -6.2756789269425228E-01 b      1569     1    19
  2.4905893548645980E-01 b      1570     1    20
 -8.9237462495560152E-04 b      1571     1    21
 -1.0985839073132259E-01 b      1572     1    22
 -2.3535180489044322E-01 b      1573     1    23
 -2.9122954434456838E-01 b      1574     1    24
  2.6049195617873017E-01 b      1575     1    25
  2.1398550643262718E-01 a      1576     1     1     2     1
 -3.9803136703642411E-01 a      1577     1     1     2     2
 -1.6725361053723078E-01 a      1578     1     1     2     3
 -6.2952186938837376E-02 a      1579     1     1     2     4
 -5.0869134825368333E-02 a      1580     1     1     2     5
 -9.2073532467104841E-02 a      1581     1     1     2     6
 -6.1814725848647993E-02 a      1582     1     1     2     7
 -4.0516782428734362E-02 a      1583     1     1     2     8
 -1.8045256122273626E-01 a      1584     1     1     2     9
  1.3920112932397732E-01 a      1585     1     1     2    10
  2.9471713697952279E-01 a      1586     1     1     2    11
 -1.5793394194823959E-01 a      1587     1     1     2    12
 -6.9022092628200388E-02 a      1588     1     1     2    13
 -4.8710864676446519E-01 a      1589     1     1     2    14
 -3.4484678781998533E-02 a      1590     1     1     2    15
 -5.2647558896710589E-01 a      1591     1     1     2    16
 -2.2836981149909419E+00 a      1592     1     1     2    17
 -7.2253679376311009E-01 a      1593     1     1     2    18
 -1.0786546482286312E-01 a      1594     1     1     2    19
 -6.2893101187011274E-02 a      1595     1     1     2    20
  6.4171424583281192E-02 a      1596     1     1     2    21
 -4.2602311024388179E-01 a      1597     1     1     2    22
 -2.0299513823235690E-01 a      1598     1     1     2    23
  8.9723255384000922E-01 a      1599     1     1     2    24
  6.5890328528264402E-02 a      1600     1     1     2    25
  8.1423153641176169E-03 a      1601     1     2     2     1
  8.1057361572316922E-01 a      1602     1     2     2     2
  3.7467278325434852E-02 a      1603     1     2     2     3
 -4.3704750177361634E-01 a      1604     1     2     2     4
  8.2590889148889179E-01 a      1605     1     2     2     5
 -7.3593892882915669E-03 a      1606     1     2     2     6
  4.7441562339702115E-01 a      1607     1     2     2     7
  5.9213567292048852E-01 a      1608     1     2     2     8
 -3.1760190912642050E-01 a      1609     1     2     2     9
  4.6980984788595387E-01 a      1610     1     2     2    10
  2.9024172577318563E-01 a      1611     1     2     2    11
  5.4495850773079368E-01 a      1612     1     2     2    12
  1.2790769479829683E-01 a      1613     1     2     2    13
  1.5893673854412707E-01 a      1614     1     2     2    14
 -1.9056310494752999E-02 a      1615     1     2     2    15
 -4.7990963107036222E-01 a      1616     1     2     2    16
 -1.1823920336741951E+00 a      1617     1     2     2    17
 -2.2816021119452118E-01 a      1618     1     2     2    18
  4.8447917320372832E-02 a      1619     1     2     2    19
 -2.5183347436681652E-01 a      1620     1     2     2    20
  1.3736809126193864E-01 a      1621     1     2     2    21
  3.1516389492698449E-01 a      1622     1     2     2    22
  1.7187541699454792E-01 a      1623     1     2     2    23
  9.4776253595652293E-01 a      1624     1     2     2    24
 -3.1898406133553442E-01 a      1625     1     2     2    25
 -2.0244299260350596E-01 a      1626     1     3     2     1
  4.4008219525465009E-01 a      1627     1     3     2     2
  2.4149850354050338E-02 a      1628     1     3     2     3
