################################################################################
# Neural network connection values (weights and biases).
################################################################################
# Col  Name       Description
################################################################################
# 1    connection Neural network connection value.
# 2    t          Connection type (a = weight, b = bias).
# 3    index      Index enumerating weights.
# 4    l_s        Starting point layer (end point layer for biases).
# 5    n_s        Starting point neuron in starting layer (end point neuron for biases).
# 6    l_e        End point layer.
# 7    n_e        End point neuron in end layer.
################################################################################
#                      1 2         3     4     5     6     7
#             connection t     index   l_s   n_s   l_e   n_e
############################################################
 -8.0019073161297072E-01 a         1     0     1     1     1
 -7.6658785728443557E-01 a         2     0     1     1     2
  1.4797686968978468E-01 a         3     0     1     1     3
  9.3732742834796323E-01 a         4     0     1     1     4
 -3.4438881039013469E-01 a         5     0     1     1     5
 -1.3812735382616698E-01 a         6     0     1     1     6
  1.8429546223997122E+00 a         7     0     1     1     7
 -1.1713506662859466E-01 a         8     0     1     1     8
 -2.9794305349064030E+00 a         9     0     1     1     9
  1.3013742830100442E-01 a        10     0     1     1    10
 -2.5475653598575878E+00 a        11     0     1     1    11
  3.0623628986490747E-01 a        12     0     1     1    12
  1.7895800061068723E+00 a        13     0     1     1    13
 -5.2406538899572985E-01 a        14     0     1     1    14
 -3.4028266977654975E-01 a        15     0     1     1    15
  2.7097966034933045E+00 a        16     0     1     1    16
  2.3009837902108514E+00 a        17     0     1     1    17
 -8.1750616357498063E-01 a        18     0     1     1    18
 -4.2587849510676650E+00 a        19     0     1     1    19
  1.4004495092889443E-01 a        20     0     1     1    20
 -1.3963756163184979E+00 a        21     0     1     1    21
 -4.8111553034873084E-01 a        22     0     1     1    22
  1.8445978335734916E+00 a        23     0     1     1    23
 -1.5881098616974532E-01 a        24     0     1     1    24
 -1.4913373977295714E+00 a        25     0     1     1    25
  9.5870113219444542E-01 a        26     0     2     1     1
  1.4454481778763308E+00 a        27     0     2     1     2
  1.0888894643833178E+00 a        28     0     2     1     3
  8.8092897040835805E-01 a        29     0     2     1     4
  7.2656006217211500E-01 a        30     0     2     1     5
  2.0054998508281603E+00 a        31     0     2     1     6
 -2.9230272329257745E+00 a        32     0     2     1     7
  9.0108683642125542E-01 a        33     0     2     1     8
  3.7573044076706448E+00 a        34     0     2     1     9
 -7.8856666748955739E-01 a        35     0     2     1    10
  3.4456316641438756E+00 a        36     0     2     1    11
 -6.9210361809893084E-01 a        37     0     2     1    12
 -3.0452433288953422E+00 a        38     0     2     1    13
  1.4730087335014630E+00 a        39     0     2     1    14
  3.2394951552910700E+00 a        40     0     2     1    15
 -3.5128307441976347E+00 a        41     0     2     1    16
 -8.9507557949118066E-01 a        42     0     2     1    17
  5.6520636579321269E-03 a        43     0     2     1    18
  5.6474476190209639E+00 a        44     0     2     1    19
  1.4291319585993481E+00 a        45     0     2     1    20
  1.5860409512790348E+00 a        46     0     2     1    21
  2.3439943731297612E+00 a        47     0     2     1    22
 -1.6551549779060115E+00 a        48     0     2     1    23
 -3.1614160714593997E-01 a        49     0     2     1    24
  3.1465071045851767E+00 a        50     0     2     1    25
  2.0644099768261253E+00 a        51     0     3     1     1
  1.4525560499073944E+00 a        52     0     3     1     2
 -1.7675763882599727E+00 a        53     0     3     1     3
  8.6185636708390423E-01 a        54     0     3     1     4
  2.2202156070024843E+00 a        55     0     3     1     5
  1.6423313781223590E+00 a        56     0     3     1     6
 -7.3153631307700517E-01 a        57     0     3     1     7
  5.9618941629858080E-01 a        58     0     3     1     8
  3.8055378585049149E-01 a        59     0     3     1     9
 -1.2587105258803812E+00 a        60     0     3     1    10
 -8.6610120433769788E-01 a        61     0     3     1    11
  1.9499737652623694E+00 a        62     0     3     1    12
  7.8442433816234913E-01 a        63     0     3     1    13
  8.0918067115478187E-01 a        64     0     3     1    14
  8.7435754492477069E-01 a        65     0     3     1    15
 -5.0938317969866664E-01 a        66     0     3     1    16
 -3.7363453890659604E+00 a        67     0     3     1    17
 -4.0209944448921764E-01 a        68     0     3     1    18
 -5.7055246818522709E-01 a        69     0     3     1    19
 -1.8161575176914655E+00 a        70     0     3     1    20
  8.6124839000867492E-01 a        71     0     3     1    21
 -5.4391062061027473E-01 a        72     0     3     1    22
 -4.5332870356561994E+00 a        73     0     3     1    23
 -7.4699097374617140E-01 a        74     0     3     1    24
  2.0372998544373129E+00 a        75     0     3     1    25
  1.0566373063646299E+00 a        76     0     4     1     1
 -9.4623428725486824E-01 a        77     0     4     1     2
  1.4929046374378776E+00 a        78     0     4     1     3
 -2.8253688349214041E+00 a        79     0     4     1     4
 -1.7739626241302504E+00 a        80     0     4     1     5
  1.3989301956042337E+00 a        81     0     4     1     6
  6.3558868515103173E-02 a        82     0     4     1     7
  4.3063485395403156E-01 a        83     0     4     1     8
  8.7690515239106903E-01 a        84     0     4     1     9
  1.7049015939791493E-01 a        85     0     4     1    10
 -1.0500556225291493E+00 a        86     0     4     1    11
 -1.7184231013679423E+00 a        87     0     4     1    12
 -1.0409800352252669E+00 a        88     0     4     1    13
 -2.1153183367396736E-01 a        89     0     4     1    14
  1.8543224950050710E+00 a        90     0     4     1    15
 -7.4816005079979186E-01 a        91     0     4     1    16
  5.3825302328523872E-01 a        92     0     4     1    17
  1.3145658662835553E+00 a        93     0     4     1    18
 -1.7339269965118866E+00 a        94     0     4     1    19
  2.3919991531719514E-02 a        95     0     4     1    20
  7.1954065580347826E-01 a        96     0     4     1    21
 -1.7445134843963277E+00 a        97     0     4     1    22
 -9.6843084748551217E-02 a        98     0     4     1    23
 -6.8745498671435468E-01 a        99     0     4     1    24
  6.9852226018264763E-01 a       100     0     4     1    25
 -2.5021846045847951E-01 a       101     0     5     1     1
  1.4148578731879735E+00 a       102     0     5     1     2
  1.2326756915752974E+00 a       103     0     5     1     3
 -3.2808374010196700E-01 a       104     0     5     1     4
 -2.2166431689440211E-01 a       105     0     5     1     5
  1.7227128792900994E+00 a       106     0     5     1     6
  6.1178617121840106E-01 a       107     0     5     1     7
 -1.0862847912617402E+00 a       108     0     5     1     8
  2.9581599578509443E-01 a       109     0     5     1     9
 -1.2353700711368629E+00 a       110     0     5     1    10
  4.3110841983003012E-01 a       111     0     5     1    11
 -1.1502058707023390E+00 a       112     0     5     1    12
 -1.0918752837899361E+00 a       113     0     5     1    13
 -9.7316286065876145E-01 a       114     0     5     1    14
 -9.9910739829276274E-01 a       115     0     5     1    15
  1.9440276357045447E+00 a       116     0     5     1    16
  2.5231257515283267E-01 a       117     0     5     1    17
 -1.7296069869231305E+00 a       118     0     5     1    18
 -8.2339682345951704E-01 a       119     0     5     1    19
  4.2768339548048824E-02 a       120     0     5     1    20
 -7.3688042704309553E-01 a       121     0     5     1    21
 -2.0488075988375462E-01 a       122     0     5     1    22
  3.6616321930040857E-01 a       123     0     5     1    23
 -6.2253964727325606E-01 a       124     0     5     1    24
 -1.8662079049517042E+00 a       125     0     5     1    25
 -1.2529529942922342E+00 a       126     0     6     1     1
 -2.0491134029240321E+00 a       127     0     6     1     2
 -7.0041816651125399E-01 a       128     0     6     1     3
 -2.0444783644873632E-01 a       129     0     6     1     4
 -1.4272948459192991E+00 a       130     0     6     1     5
 -4.1402050833883344E+00 a       131     0     6     1     6
  2.4700351609244482E+00 a       132     0     6     1     7
 -3.7958209708313082E+00 a       133     0     6     1     8
 -6.0992554041915381E-01 a       134     0     6     1     9
  2.2670555792423484E+00 a       135     0     6     1    10
  6.8117727968259312E-01 a       136     0     6     1    11
 -2.7321988541983848E+00 a       137     0     6     1    12
  1.1717372309133409E+00 a       138     0     6     1    13
 -2.2443925995271083E+00 a       139     0     6     1    14
 -1.4197814632450507E+00 a       140     0     6     1    15
  1.6043063041868366E+00 a       141     0     6     1    16
  4.2843896353608386E+00 a       142     0     6     1    17
  1.1773277911263162E+00 a       143     0     6     1    18
 -6.6740746713571504E+00 a       144     0     6     1    19
  1.1381217575184872E+00 a       145     0     6     1    20
 -2.5685831081173678E+00 a       146     0     6     1    21
 -2.4700400241304545E+00 a       147     0     6     1    22
  3.1481602897048790E+00 a       148     0     6     1    23
  7.4205939744497695E-01 a       149     0     6     1    24
 -1.4341207023981122E+00 a       150     0     6     1    25
  1.0017100743827159E+00 a       151     0     7     1     1
  3.6443913296595309E-01 a       152     0     7     1     2
  1.3483140300834806E+00 a       153     0     7     1     3
  1.2232645396190560E+00 a       154     0     7     1     4
  1.6037396425373949E+00 a       155     0     7     1     5
 -1.9099342105466546E+00 a       156     0     7     1     6
 -2.0633566175381701E+00 a       157     0     7     1     7
 -1.4559362998120698E-02 a       158     0     7     1     8
  2.2141061125314576E+00 a       159     0     7     1     9
 -1.0401001709944233E+00 a       160     0     7     1    10
  8.3944034620986818E-01 a       161     0     7     1    11
  3.5039458499971943E-01 a       162     0     7     1    12
  8.3114886904397511E-01 a       163     0     7     1    13
  5.4835470346217285E-01 a       164     0     7     1    14
  2.5906898261071026E-01 a       165     0     7     1    15
  1.1912052743350747E+00 a       166     0     7     1    16
 -1.0403118653592498E-01 a       167     0     7     1    17
  2.0970855762206169E+00 a       168     0     7     1    18
 -1.2213408938832850E+00 a       169     0     7     1    19
  1.0097872550533075E-01 a       170     0     7     1    20
 -1.7561786571012148E+00 a       171     0     7     1    21
  5.4159983535565370E-01 a       172     0     7     1    22
  6.6174028685467401E-01 a       173     0     7     1    23
  4.0472957000516252E-01 a       174     0     7     1    24
  1.4174862988546311E+00 a       175     0     7     1    25
 -1.9518847141652083E+00 a       176     0     8     1     1
  9.0477350050018668E-01 a       177     0     8     1     2
  3.2084360767854209E-01 a       178     0     8     1     3
  3.8881819593951694E-01 a       179     0     8     1     4
  2.3663817582515954E+00 a       180     0     8     1     5
  1.8568543774402562E+00 a       181     0     8     1     6
 -3.4548282801444081E+00 a       182     0     8     1     7
  4.0377498030392811E+00 a       183     0     8     1     8
  2.9090660561147841E+00 a       184     0     8     1     9
 -4.7160711553605811E-01 a       185     0     8     1    10
  8.6626300399920003E-02 a       186     0     8     1    11
  2.3481138366472449E+00 a       187     0     8     1    12
 -2.0281151646512758E+00 a       188     0     8     1    13
  3.2629813703259614E+00 a       189     0     8     1    14
  7.7515930447593820E-02 a       190     0     8     1    15
 -1.6614104923752062E+00 a       191     0     8     1    16
 -4.9136213196049434E+00 a       192     0     8     1    17
 -1.4813374739955163E+00 a       193     0     8     1    18
  9.4384304403997614E+00 a       194     0     8     1    19
 -1.4940902746510762E+00 a       195     0     8     1    20
  3.9164598651289499E+00 a       196     0     8     1    21
  4.8559203420859358E+00 a       197     0     8     1    22
 -4.3847543466772310E+00 a       198     0     8     1    23
  1.0959556861294799E+00 a       199     0     8     1    24
  2.1903518122741534E+00 a       200     0     8     1    25
 -3.2332590875530359E-01 a       201     0     9     1     1
 -1.6374099679428239E-01 a       202     0     9     1     2
 -2.6791597274873930E-01 a       203     0     9     1     3
  1.3010469341985542E+00 a       204     0     9     1     4
  1.0263918879628635E+00 a       205     0     9     1     5
 -4.1601259409770310E-02 a       206     0     9     1     6
 -1.5966403622838610E+00 a       207     0     9     1     7
 -2.2198156435614574E-01 a       208     0     9     1     8
  5.8817957679147138E-02 a       209     0     9     1     9
  1.8000670521894586E+00 a       210     0     9     1    10
 -1.5312444765431424E-01 a       211     0     9     1    11
 -1.6455571489208212E-01 a       212     0     9     1    12
  5.3049202351227336E-02 a       213     0     9     1    13
  1.2997320293698420E+00 a       214     0     9     1    14
 -9.0025089602221264E-01 a       215     0     9     1    15
 -8.8219464686259208E-01 a       216     0     9     1    16
 -3.9427983166004550E-02 a       217     0     9     1    17
 -3.4386568547769042E-01 a       218     0     9     1    18
  1.6160254231786113E+00 a       219     0     9     1    19
 -5.5046519818793005E-01 a       220     0     9     1    20
  1.0794620976317848E+00 a       221     0     9     1    21
  1.1484793395601742E-02 a       222     0     9     1    22
 -5.8437317161363256E-01 a       223     0     9     1    23
  4.4425046139354024E-01 a       224     0     9     1    24
 -4.2092170825828479E-01 a       225     0     9     1    25
 -2.5826429050153327E-01 a       226     0    10     1     1
 -2.0139857429554926E+00 a       227     0    10     1     2
 -1.0206563048032082E+00 a       228     0    10     1     3
 -1.0812034716088801E+00 a       229     0    10     1     4
 -1.6704586854882442E+00 a       230     0    10     1     5
 -2.6555106769617147E+00 a       231     0    10     1     6
  3.7241440422414565E+00 a       232     0    10     1     7
 -2.9400480366869535E+00 a       233     0    10     1     8
 -2.6896555826872182E+00 a       234     0    10     1     9
  9.1953716582685130E-01 a       235     0    10     1    10
 -1.0532214568315637E+00 a       236     0    10     1    11
 -5.6091444387859168E-01 a       237     0    10     1    12
  2.2602373531586828E+00 a       238     0    10     1    13
 -2.9559408843739061E+00 a       239     0    10     1    14
 -3.3902454245282976E+00 a       240     0    10     1    15
  2.5405926962879719E+00 a       241     0    10     1    16
  1.9677705992154464E+00 a       242     0    10     1    17
  1.6842553059985226E+00 a       243     0    10     1    18
 -5.4737726366283246E+00 a       244     0    10     1    19
 -5.1580937790924275E-01 a       245     0    10     1    20
 -2.1306096533046373E+00 a       246     0    10     1    21
 -3.8955684921390348E+00 a       247     0    10     1    22
  2.5669348870326387E+00 a       248     0    10     1    23
 -3.4498330525067233E-01 a       249     0    10     1    24
 -3.3887972453785387E+00 a       250     0    10     1    25
  3.5460212412108993E-01 a       251     0    11     1     1
  6.0221380437825334E-01 a       252     0    11     1     2
  1.6079910379918068E+00 a       253     0    11     1     3
  2.2425544118575649E-01 a       254     0    11     1     4
 -2.0860609038873973E-01 a       255     0    11     1     5
  1.0402263590266971E+00 a       256     0    11     1     6
 -4.4626483278485826E-02 a       257     0    11     1     7
  8.2204531946620463E-01 a       258     0    11     1     8
  1.8809545419071425E-01 a       259     0    11     1     9
 -1.4247662273879804E+00 a       260     0    11     1    10
  7.6400890365243435E-01 a       261     0    11     1    11
 -2.3492840215822641E-01 a       262     0    11     1    12
  1.4042696738752851E-02 a       263     0    11     1    13
 -2.1035697000661741E-01 a       264     0    11     1    14
  3.5267325451622616E-01 a       265     0    11     1    15
  9.7459520996450763E-02 a       266     0    11     1    16
 -2.0795124150310051E-02 a       267     0    11     1    17
  5.1003141370655725E-01 a       268     0    11     1    18
 -4.6617070446247211E-01 a       269     0    11     1    19
  1.4456670688114002E+00 a       270     0    11     1    20
 -3.6763409597576585E-01 a       271     0    11     1    21
 -2.9723995129149761E-01 a       272     0    11     1    22
  1.4861783535597477E+00 a       273     0    11     1    23
 -6.5205830128833797E-01 a       274     0    11     1    24
 -6.2726050935567476E-02 a       275     0    11     1    25
  3.0257050878394046E-02 a       276     0    12     1     1
 -8.1662224591194243E-01 a       277     0    12     1     2
 -2.9851491430571159E-03 a       278     0    12     1     3
 -3.1072349231942697E-01 a       279     0    12     1     4
 -3.2578579984455464E-01 a       280     0    12     1     5
  1.7776526290134841E-02 a       281     0    12     1     6
  2.8463354522310202E-01 a       282     0    12     1     7
 -5.6124322219228695E-01 a       283     0    12     1     8
 -2.0666215351028761E-01 a       284     0    12     1     9
  7.2118220097983332E-01 a       285     0    12     1    10
 -2.6839566705366336E-01 a       286     0    12     1    11
 -3.2800607201925425E-01 a       287     0    12     1    12
 -1.5873573728890222E-01 a       288     0    12     1    13
  2.2793559016243847E-01 a       289     0    12     1    14
 -3.7696621385688495E-01 a       290     0    12     1    15
  7.3169657612424333E-01 a       291     0    12     1    16
  5.5979844793430866E-01 a       292     0    12     1    17
 -7.4847750656983780E-01 a       293     0    12     1    18
  6.6869891357435085E-01 a       294     0    12     1    19
 -4.6753937253041283E-01 a       295     0    12     1    20
  2.4194900070049233E-01 a       296     0    12     1    21
 -4.9778652647748878E-01 a       297     0    12     1    22
  5.1522280821552291E-01 a       298     0    12     1    23
 -5.2506432673242898E-01 a       299     0    12     1    24
 -4.4267587294746258E-01 a       300     0    12     1    25
 -4.3625396568295799E-01 a       301     0    13     1     1
 -6.4954902622991950E-01 a       302     0    13     1     2
 -1.0469155975289843E-01 a       303     0    13     1     3
 -4.1826038515323455E-01 a       304     0    13     1     4
 -5.4000545936016864E-01 a       305     0    13     1     5
 -2.7497500486666626E-01 a       306     0    13     1     6
  3.9620269257443025E-01 a       307     0    13     1     7
 -3.5455570732395847E-01 a       308     0    13     1     8
 -2.8542934217635962E-01 a       309     0    13     1     9
  4.0800798471550653E-01 a       310     0    13     1    10
 -2.7713132475543972E-01 a       311     0    13     1    11
 -5.0466630797940426E-01 a       312     0    13     1    12
 -3.7486965221357049E-01 a       313     0    13     1    13
  5.9218841596160376E-01 a       314     0    13     1    14
 -3.6405496688471060E-02 a       315     0    13     1    15
  6.7361572876688447E-01 a       316     0    13     1    16
  9.2395183134256020E-01 a       317     0    13     1    17
 -8.8834586292375184E-01 a       318     0    13     1    18
  6.2309175713387510E-01 a       319     0    13     1    19
 -4.8656303453148858E-01 a       320     0    13     1    20
  4.4756027632865897E-01 a       321     0    13     1    21
 -3.5485410453833471E-01 a       322     0    13     1    22
  6.0714820054408181E-01 a       323     0    13     1    23
 -4.7779743886781451E-01 a       324     0    13     1    24
 -7.2682163111843012E-01 a       325     0    13     1    25
  3.7958787773813607E-01 a       326     0    14     1     1
  3.6086465810048740E-01 a       327     0    14     1     2
 -1.5036634681296276E-01 a       328     0    14     1     3
 -9.7550988978258646E-01 a       329     0    14     1     4
 -3.4368235414809711E-01 a       330     0    14     1     5
  6.3127250090463694E-01 a       331     0    14     1     6
  7.7285235866292296E-02 a       332     0    14     1     7
 -5.7560574313062185E-01 a       333     0    14     1     8
  7.9829594609679388E-01 a       334     0    14     1     9
  9.0902419045943289E-02 a       335     0    14     1    10
 -2.7879361804036462E-01 a       336     0    14     1    11
 -2.7566542068724643E-02 a       337     0    14     1    12
  1.7753942399288172E-01 a       338     0    14     1    13
 -9.5199110548835175E-01 a       339     0    14     1    14
 -1.7198048249391268E-01 a       340     0    14     1    15
 -8.9924822447354724E-01 a       341     0    14     1    16
  3.2136013554331105E-01 a       342     0    14     1    17
  5.2771278229405771E-01 a       343     0    14     1    18
  5.1047735235817696E-02 a       344     0    14     1    19
 -4.9896530344409512E-01 a       345     0    14     1    20
  7.5493282847593476E-02 a       346     0    14     1    21
 -3.2818621744528970E-01 a       347     0    14     1    22
 -5.3756113824304386E-01 a       348     0    14     1    23
 -5.0107000851127415E-01 a       349     0    14     1    24
 -2.2802565857981846E-01 a       350     0    14     1    25
  7.3113564219273142E-01 a       351     0    15     1     1
  3.7755560102290125E-01 a       352     0    15     1     2
 -3.3596451770926694E-01 a       353     0    15     1     3
 -9.2658906019072618E-01 a       354     0    15     1     4
 -1.4754573103899402E-01 a       355     0    15     1     5
  2.4093347281441502E-01 a       356     0    15     1     6
 -4.8615734063159569E-02 a       357     0    15     1     7
 -3.8787212201651000E-01 a       358     0    15     1     8
  5.0839044119048693E-01 a       359     0    15     1     9
  4.3389455734708715E-01 a       360     0    15     1    10
 -4.3906729602400142E-02 a       361     0    15     1    11
  6.4397805397970256E-02 a       362     0    15     1    12
 -6.2323738251964460E-02 a       363     0    15     1    13
 -9.2193415170895698E-01 a       364     0    15     1    14
 -4.7634022600348963E-02 a       365     0    15     1    15
 -1.0927336049697784E+00 a       366     0    15     1    16
  6.9187081963795860E-01 a       367     0    15     1    17
  6.9361698991385268E-01 a       368     0    15     1    18
  2.5951708398289725E-01 a       369     0    15     1    19
 -4.4207986664559695E-01 a       370     0    15     1    20
  2.1241560505037752E-01 a       371     0    15     1    21
 -2.3656312058740159E-01 a       372     0    15     1    22
 -7.5904928461979715E-01 a       373     0    15     1    23
 -3.9154683974302401E-01 a       374     0    15     1    24
 -4.0285232122464010E-01 a       375     0    15     1    25
  1.1528098533156879E-01 a       376     0    16     1     1
  8.9875988679429336E-02 a       377     0    16     1     2
 -1.3576578810887832E+00 a       378     0    16     1     3
  2.6512167952092586E-01 a       379     0    16     1     4
  7.4869328245788647E-01 a       380     0    16     1     5
 -6.1666100349810668E-02 a       381     0    16     1     6
 -2.0477708742343739E-01 a       382     0    16     1     7
 -2.4427481562936759E-01 a       383     0    16     1     8
  9.2077907687839999E-01 a       384     0    16     1     9
  8.8704448516690779E-02 a       385     0    16     1    10
  4.1436447633556300E-01 a       386     0    16     1    11
  5.2475080713511091E-01 a       387     0    16     1    12
  1.8404886547360827E-01 a       388     0    16     1    13
 -4.8105127981718826E-01 a       389     0    16     1    14
  7.0678451691809996E-01 a       390     0    16     1    15
 -5.1359472915684357E-01 a       391     0    16     1    16
  7.8207793288649421E-02 a       392     0    16     1    17
  5.5180885767621823E-01 a       393     0    16     1    18
  8.3509101092944640E-02 a       394     0    16     1    19
  2.6503394062687130E-01 a       395     0    16     1    20
  3.9399915322091791E-02 a       396     0    16     1    21
 -4.5538981774729892E-01 a       397     0    16     1    22
 -1.2486187114292958E-01 a       398     0    16     1    23
  3.7176134026964291E-01 a       399     0    16     1    24
 -7.1437912144469762E-02 a       400     0    16     1    25
  4.5107711580741067E-01 a       401     0    17     1     1
  5.2187395048548205E-02 a       402     0    17     1     2
 -1.6764433332714890E+00 a       403     0    17     1     3
  1.0268454592335519E-01 a       404     0    17     1     4
  7.5651177963550187E-01 a       405     0    17     1     5
  4.0847189777391707E-01 a       406     0    17     1     6
  1.9152139384580513E-01 a       407     0    17     1     7
 -1.9847684406000501E-01 a       408     0    17     1     8
  8.0218047695846906E-01 a       409     0    17     1     9
  4.8966834225435441E-01 a       410     0    17     1    10
  2.6336267664081808E-01 a       411     0    17     1    11
  6.7417475220119516E-01 a       412     0    17     1    12
 -1.4814999262811890E-01 a       413     0    17     1    13
 -5.9491372024982347E-01 a       414     0    17     1    14
  1.0531334968376402E+00 a       415     0    17     1    15
 -6.5001418213105278E-01 a       416     0    17     1    16
  1.2728556433619569E-02 a       417     0    17     1    17
  2.7478371530807055E-01 a       418     0    17     1    18
  1.9463778619532487E-01 a       419     0    17     1    19
  2.5038897808013511E-01 a       420     0    17     1    20
  2.5531503498318076E-01 a       421     0    17     1    21
 -7.0584105854811852E-01 a       422     0    17     1    22
 -5.4707464582886667E-01 a       423     0    17     1    23
  6.3712073290452236E-03 a       424     0    17     1    24
 -3.6770347130680336E-01 a       425     0    17     1    25
 -6.5411893194940440E-01 a       426     0    18     1     1
  1.6848156129498333E+00 a       427     0    18     1     2
  2.7236958846125304E-02 a       428     0    18     1     3
  5.0680981673241621E-01 a       429     0    18     1     4
  3.2420313359340935E-01 a       430     0    18     1     5
 -4.7826248747247774E-01 a       431     0    18     1     6
  9.1619188529043993E-01 a       432     0    18     1     7
  1.7930072126259137E-02 a       433     0    18     1     8
 -1.4318836638460068E+00 a       434     0    18     1     9
  2.3603322198098622E-01 a       435     0    18     1    10
  8.1537221815100958E-01 a       436     0    18     1    11
 -9.0187648194190473E-01 a       437     0    18     1    12
  6.7931219881427540E-01 a       438     0    18     1    13
 -8.1162025743632027E-01 a       439     0    18     1    14
 -7.6632208554332293E-01 a       440     0    18     1    15
 -8.3490266705345761E-01 a       441     0    18     1    16
 -5.3107936687211599E-01 a       442     0    18     1    17
 -5.2880352862119673E-01 a       443     0    18     1    18
  1.3528586744562536E+00 a       444     0    18     1    19
  7.3591569323491834E-01 a       445     0    18     1    20
 -1.0947596196343241E-02 a       446     0    18     1    21
  7.7488638606758442E-01 a       447     0    18     1    22
  1.4190883146532111E-02 a       448     0    18     1    23
 -1.0498978802015402E+00 a       449     0    18     1    24
 -7.6305031471453211E-01 a       450     0    18     1    25
  7.7299342671242888E-02 a       451     0    19     1     1
 -3.7441697919279898E-01 a       452     0    19     1     2
 -2.7684424748359510E-01 a       453     0    19     1     3
  4.0244955799752746E-01 a       454     0    19     1     4
 -2.3090371331461806E-01 a       455     0    19     1     5
  6.7281379782104844E-01 a       456     0    19     1     6
  5.6897390735224564E-03 a       457     0    19     1     7
 -6.1807796463176234E-01 a       458     0    19     1     8
  3.3326532762107494E-02 a       459     0    19     1     9
 -2.4232441466762433E-01 a       460     0    19     1    10
 -1.0354711756514556E-01 a       461     0    19     1    11
 -2.8310916224366561E-01 a       462     0    19     1    12
  2.0955154766776704E-01 a       463     0    19     1    13
  4.8239809530508826E-02 a       464     0    19     1    14
 -7.6518483065116799E-02 a       465     0    19     1    15
  3.1533968527380840E-01 a       466     0    19     1    16
 -8.9874695165554734E-03 a       467     0    19     1    17
 -5.6205914756402831E-01 a       468     0    19     1    18
 -1.4223694427115868E-01 a       469     0    19     1    19
  4.8139752338706480E-02 a       470     0    19     1    20
  5.9820436279333124E-02 a       471     0    19     1    21
 -4.0286289612348719E-01 a       472     0    19     1    22
  2.7758938369070540E-01 a       473     0    19     1    23
 -1.0362828588746913E-01 a       474     0    19     1    24
  3.7794983496893625E-01 a       475     0    19     1    25
  3.1722294088641634E-02 a       476     0    20     1     1
 -6.3820461834772069E-01 a       477     0    20     1     2
 -4.2842979909740919E-01 a       478     0    20     1     3
  2.4433611112219925E-01 a       479     0    20     1     4
 -4.1925346455985286E-02 a       480     0    20     1     5
  6.6255822062913616E-01 a       481     0    20     1     6
  1.0521134424087981E-01 a       482     0    20     1     7
 -4.1424030898978415E-01 a       483     0    20     1     8
  1.8737318892043570E-01 a       484     0    20     1     9
 -9.2899198804287153E-02 a       485     0    20     1    10
 -3.6398073019997135E-01 a       486     0    20     1    11
 -6.4641863928039855E-01 a       487     0    20     1    12
 -1.6591963924937739E-02 a       488     0    20     1    13
  4.0824782766336894E-02 a       489     0    20     1    14
  1.1211080417526778E-01 a       490     0    20     1    15
  5.6020438008427520E-01 a       491     0    20     1    16
 -3.9777031274051561E-01 a       492     0    20     1    17
 -4.3511623243962644E-01 a       493     0    20     1    18
 -4.9000642241261960E-01 a       494     0    20     1    19
 -4.8239728500298219E-03 a       495     0    20     1    20
  2.6461602767284509E-01 a       496     0    20     1    21
 -3.7792195327728451E-01 a       497     0    20     1    22
  1.1740704118950333E-01 a       498     0    20     1    23
  1.6783919676016162E-01 a       499     0    20     1    24
  1.9175592581832934E-01 a       500     0    20     1    25
  1.7875205164739674E-01 a       501     0    21     1     1
 -4.8259506019748194E-01 a       502     0    21     1     2
 -5.2452146790294452E-01 a       503     0    21     1     3
  1.7234778784367320E-02 a       504     0    21     1     4
 -5.2281273252869831E-01 a       505     0    21     1     5
 -5.3570985503709090E-01 a       506     0    21     1     6
  4.0463979330333733E-01 a       507     0    21     1     7
 -3.7960727173159992E-01 a       508     0    21     1     8
  1.6402821446695137E-01 a       509     0    21     1     9
 -1.0612980884493009E-03 a       510     0    21     1    10
  5.8421581704409220E-01 a       511     0    21     1    11
 -1.7959411458439672E-01 a       512     0    21     1    12
  1.5115772600162383E-02 a       513     0    21     1    13
 -2.2648275413004454E-01 a       514     0    21     1    14
  1.7933235949337145E-01 a       515     0    21     1    15
 -2.0523234117817415E-01 a       516     0    21     1    16
 -3.2991085028458284E-01 a       517     0    21     1    17
  3.5610380960467031E-01 a       518     0    21     1    18
 -2.0245985847955070E-01 a       519     0    21     1    19
 -3.5191977110648226E-02 a       520     0    21     1    20
  3.4276219637455257E-01 a       521     0    21     1    21
 -3.0293788577920477E-01 a       522     0    21     1    22
 -2.9744791466794718E-01 a       523     0    21     1    23
 -8.4297220219201074E-04 a       524     0    21     1    24
  7.1890481785584026E-01 a       525     0    21     1    25
  1.9160010904499583E-01 a       526     0    22     1     1
 -4.0413291855517491E-01 a       527     0    22     1     2
 -4.9752425813841178E-01 a       528     0    22     1     3
 -1.5721660176698585E-01 a       529     0    22     1     4
 -3.3863666415362442E-01 a       530     0    22     1     5
 -8.8727519860310550E-02 a       531     0    22     1     6
  1.2020415258847679E-01 a       532     0    22     1     7
 -2.9924169223832908E-02 a       533     0    22     1     8
  1.7309606890331342E-01 a       534     0    22     1     9
 -2.7642563132765502E-01 a       535     0    22     1    10
  2.3287631985983706E-01 a       536     0    22     1    11
 -1.2946050189019281E-01 a       537     0    22     1    12
 -2.0689699696657815E-01 a       538     0    22     1    13
  1.4273945301834370E-02 a       539     0    22     1    14
  3.1957170618340636E-01 a       540     0    22     1    15
 -4.4596683873227586E-02 a       541     0    22     1    16
 -1.2205574171498328E-01 a       542     0    22     1    17
  2.4977488870609704E-01 a       543     0    22     1    18
 -4.6241962991558751E-03 a       544     0    22     1    19
 -3.4050814813608948E-01 a       545     0    22     1    20
  2.4779976155074016E-01 a       546     0    22     1    21
 -4.3825991161696837E-01 a       547     0    22     1    22
 -3.2091432480636695E-01 a       548     0    22     1    23
  4.2610675374353448E-03 a       549     0    22     1    24
  6.8126945865265331E-01 a       550     0    22     1    25
  2.0757832043302846E-01 a       551     0    23     1     1
  2.8821877611795288E-01 a       552     0    23     1     2
  1.4224672630939466E+00 a       553     0    23     1     3
  3.1468764072870853E-01 a       554     0    23     1     4
 -3.4126168554517355E-01 a       555     0    23     1     5
  4.6461498816888147E-01 a       556     0    23     1     6
  5.1289362038637476E-01 a       557     0    23     1     7
  8.6564851926394737E-01 a       558     0    23     1     8
 -1.3246010794841551E-01 a       559     0    23     1     9
 -1.5143635055507936E+00 a       560     0    23     1    10
  3.9344808962337008E-01 a       561     0    23     1    11
 -4.5649826080696643E-01 a       562     0    23     1    12
 -4.4157170429884977E-03 a       563     0    23     1    13
 -1.2832682778230503E-01 a       564     0    23     1    14
  2.7790944771454784E-01 a       565     0    23     1    15
  6.4251158366308658E-01 a       566     0    23     1    16
 -3.8571729561358786E-01 a       567     0    23     1    17
  2.0902956740844184E-01 a       568     0    23     1    18
  2.5434491182004909E-01 a       569     0    23     1    19
  9.8340591187926729E-01 a       570     0    23     1    20
 -1.3502324569108473E-01 a       571     0    23     1    21
  1.5730146421767216E-01 a       572     0    23     1    22
  1.1955313149702613E+00 a       573     0    23     1    23
 -3.0133144202030659E-01 a       574     0    23     1    24
  1.2990929558789474E-01 a       575     0    23     1    25
 -6.8007876581021354E-01 a       576     0    24     1     1
 -1.1341226333605610E+00 a       577     0    24     1     2
 -3.5193719684330688E-01 a       578     0    24     1     3
  1.8863331298299946E-01 a       579     0    24     1     4
 -1.6017940939138736E-01 a       580     0    24     1     5
 -4.9182491465263919E-02 a       581     0    24     1     6
  3.6226387245867542E-01 a       582     0    24     1     7
 -1.6579176441964633E-01 a       583     0    24     1     8
 -1.4160031399649017E-01 a       584     0    24     1     9
  8.3498933606305492E-01 a       585     0    24     1    10
 -2.7431808024223608E-01 a       586     0    24     1    11
 -4.4919433687988913E-01 a       587     0    24     1    12
 -2.2554217641728269E-01 a       588     0    24     1    13
  4.7146584206316028E-01 a       589     0    24     1    14
  3.3437777579705386E-01 a       590     0    24     1    15
  6.0258209866221724E-01 a       591     0    24     1    16
  5.6885624666337575E-01 a       592     0    24     1    17
 -1.0661280576752876E+00 a       593     0    24     1    18
  1.6873654497160234E-01 a       594     0    24     1    19
 -1.6918755582810283E-01 a       595     0    24     1    20
 -3.9538951773282087E-02 a       596     0    24     1    21
  2.5004798534915773E-02 a       597     0    24     1    22
  1.8245470496559232E-01 a       598     0    24     1    23
  1.2530507459249371E-01 a       599     0    24     1    24
 -7.7563525451901605E-01 a       600     0    24     1    25
 -8.5007249964088305E-01 a       601     0    25     1     1
 -6.9419807621456919E-01 a       602     0    25     1     2
 -1.2352662788727863E-01 a       603     0    25     1     3
  3.0287931874468429E-03 a       604     0    25     1     4
 -7.9387267695892508E-02 a       605     0    25     1     5
  3.3769549291907824E-01 a       606     0    25     1     6
  5.6506509708649000E-01 a       607     0    25     1     7
 -3.6942578780598867E-02 a       608     0    25     1     8
 -2.5685627360621083E-01 a       609     0    25     1     9
  8.1440628402603688E-01 a       610     0    25     1    10
 -3.7983031800334360E-01 a       611     0    25     1    11
 -1.7268358089848049E-01 a       612     0    25     1    12
 -3.4831263966168376E-02 a       613     0    25     1    13
  1.0608834227540005E-01 a       614     0    25     1    14
 -1.3459844059283685E-01 a       615     0    25     1    15
  2.2253608625599419E-01 a       616     0    25     1    16
  3.4338071512341145E-01 a       617     0    25     1    17
 -8.9481300314577927E-01 a       618     0    25     1    18
  1.2567800275870541E-01 a       619     0    25     1    19
  2.5060352727568497E-01 a       620     0    25     1    20
  3.8354511961815518E-01 a       621     0    25     1    21
 -3.5688519429230729E-02 a       622     0    25     1    22
  1.6929034257323236E-01 a       623     0    25     1    23
 -1.7770625665277359E-01 a       624     0    25     1    24
 -8.3420180397816057E-01 a       625     0    25     1    25
  1.5677045856189598E-01 a       626     0    26     1     1
  1.0399359943443789E+00 a       627     0    26     1     2
  3.9303354369609861E-01 a       628     0    26     1     3
 -4.7662627073319430E-01 a       629     0    26     1     4
  1.0895552235629474E-01 a       630     0    26     1     5
 -1.6333207456102508E-03 a       631     0    26     1     6
 -1.9623172088305699E-01 a       632     0    26     1     7
  5.2924673587332727E-01 a       633     0    26     1     8
 -5.7140574358683950E-02 a       634     0    26     1     9
 -2.8140945377551052E-01 a       635     0    26     1    10
 -1.0350566319797781E-01 a       636     0    26     1    11
  1.1356251702176715E-01 a       637     0    26     1    12
 -7.6962785571775338E-01 a       638     0    26     1    13
  6.2951669942166699E-01 a       639     0    26     1    14
  1.6483040601552482E-01 a       640     0    26     1    15
  4.3102950006937463E-01 a       641     0    26     1    16
  3.7274128127338479E-01 a       642     0    26     1    17
  9.3449000340212784E-01 a       643     0    26     1    18
  2.8873961159752259E-01 a       644     0    26     1    19
  9.9015506349050722E-02 a       645     0    26     1    20
 -3.7197668579050908E-01 a       646     0    26     1    21
  4.0617334283207118E-01 a       647     0    26     1    22
  2.0748127404635047E-01 a       648     0    26     1    23
 -2.9281352693100349E-01 a       649     0    26     1    24
  3.2901810177013480E-01 a       650     0    26     1    25
 -2.3896498717876385E-01 a       651     0    27     1     1
  8.4592090252044982E-01 a       652     0    27     1     2
  7.8960482268261811E-01 a       653     0    27     1     3
 -3.9144442016807240E-01 a       654     0    27     1     4
  1.6334823940100412E-01 a       655     0    27     1     5
 -3.7578121248869661E-01 a       656     0    27     1     6
  2.9169717588811628E-01 a       657     0    27     1     7
  3.2850002832199038E-01 a       658     0    27     1     8
 -7.2765249043543478E-02 a       659     0    27     1     9
 -5.3951045226164740E-01 a       660     0    27     1    10
  1.3316636989448752E-01 a       661     0    27     1    11
 -2.1014466815621766E-01 a       662     0    27     1    12
 -7.9177385557808910E-01 a       663     0    27     1    13
  2.5889672635992483E-01 a       664     0    27     1    14
  2.3091780483512855E-01 a       665     0    27     1    15
  9.0119327334297772E-01 a       666     0    27     1    16
  2.9818716674013002E-01 a       667     0    27     1    17
  7.0587610406923407E-01 a       668     0    27     1    18
  4.7108065962879569E-01 a       669     0    27     1    19
  4.4918107672958729E-01 a       670     0    27     1    20
 -1.9616936483374353E-01 a       671     0    27     1    21
  4.2443219099886842E-01 a       672     0    27     1    22
  1.1279413136945662E-01 a       673     0    27     1    23
  4.7825672234882037E-02 a       674     0    27     1    24
  1.6539944977269172E-01 a       675     0    27     1    25
 -2.9232858179748017E-01 a       676     0    28     1     1
 -3.0949836976107081E-01 a       677     0    28     1     2
  3.9094833913979959E-01 a       678     0    28     1     3
  2.8976615260638205E-01 a       679     0    28     1     4
  2.1609287003736866E-02 a       680     0    28     1     5
 -2.0992714706555374E-01 a       681     0    28     1     6
  1.9492700907667168E-01 a       682     0    28     1     7
 -6.7210017315439633E-03 a       683     0    28     1     8
 -5.1254008860431344E-01 a       684     0    28     1     9
 -1.9107720512829018E-01 a       685     0    28     1    10
 -1.0280439257677772E-01 a       686     0    28     1    11
 -1.6445363707771229E-01 a       687     0    28     1    12
  5.1340013043200967E-02 a       688     0    28     1    13
  1.6227569325657246E-01 a       689     0    28     1    14
 -3.7972459288429494E-01 a       690     0    28     1    15
 -8.0460825516203524E-02 a       691     0    28     1    16
 -2.4611991298037586E-01 a       692     0    28     1    17
 -4.5619134679365680E-02 a       693     0    28     1    18
  6.5706240906000890E-01 a       694     0    28     1    19
 -3.0355240871420019E-01 a       695     0    28     1    20
 -1.9072662914511321E-02 a       696     0    28     1    21
  2.0721602990307478E-01 a       697     0    28     1    22
  2.4516424760428934E-01 a       698     0    28     1    23
 -4.1176516838000651E-02 a       699     0    28     1    24
  4.0670366264721208E-01 a       700     0    28     1    25
 -2.1367289221195998E-01 a       701     0    29     1     1
 -2.8952671975505873E-01 a       702     0    29     1     2
  2.6178879046971432E-01 a       703     0    29     1     3
  3.4030905276960782E-01 a       704     0    29     1     4
 -2.1839079241507595E-01 a       705     0    29     1     5
 -4.7554297513886501E-01 a       706     0    29     1     6
  1.4700514660076600E-01 a       707     0    29     1     7
  3.0744684758311180E-01 a       708     0    29     1     8
 -2.3399269044540902E-01 a       709     0    29     1     9
 -2.2606304611475594E-01 a       710     0    29     1    10
 -1.4617745291783546E-01 a       711     0    29     1    11
  2.1886372136573343E-01 a       712     0    29     1    12
  3.0027113781610017E-02 a       713     0    29     1    13
  1.0621312112544107E-01 a       714     0    29     1    14
 -2.7452449297104931E-01 a       715     0    29     1    15
  2.5663935434992829E-01 a       716     0    29     1    16
 -3.8417749839407900E-01 a       717     0    29     1    17
  2.2019415664396616E-01 a       718     0    29     1    18
  5.1033442103540028E-01 a       719     0    29     1    19
 -1.5328154120058848E-01 a       720     0    29     1    20
  1.0373867219460819E-01 a       721     0    29     1    21
  4.0901825106138651E-01 a       722     0    29     1    22
  2.2292818090195873E-01 a       723     0    29     1    23
  2.5210875358154444E-01 a       724     0    29     1    24
  5.8573954008611040E-01 a       725     0    29     1    25
 -3.8022792224021268E-01 a       726     0    30     1     1
  7.5648633178470437E-01 a       727     0    30     1     2
 -1.6385157224250917E+00 a       728     0    30     1     3
  1.5455748383466059E+00 a       729     0    30     1     4
  1.6787141707458351E+00 a       730     0    30     1     5
 -8.5002026399966257E-01 a       731     0    30     1     6
  1.2281208436905544E+00 a       732     0    30     1     7
  3.3608549592588327E-01 a       733     0    30     1     8
 -3.0639076000513316E-01 a       734     0    30     1     9
 -2.6446658573905996E-01 a       735     0    30     1    10
  1.8615924994024073E+00 a       736     0    30     1    11
 -9.7442263358916170E-01 a       737     0    30     1    12
  6.5048651702063454E-01 a       738     0    30     1    13
 -6.3438391163275420E-01 a       739     0    30     1    14
 -2.4508247009947026E-01 a       740     0    30     1    15
 -1.3983591623196214E+00 a       741     0    30     1    16
  6.8526954305334409E-01 a       742     0    30     1    17
 -7.2791116859713956E-01 a       743     0    30     1    18
  2.6430381385348602E+00 a       744     0    30     1    19
  5.3332550980102378E-01 a       745     0    30     1    20
 -1.7632805294374740E-01 a       746     0    30     1    21
  1.6449556486890631E+00 a       747     0    30     1    22
  6.7560153885159546E-01 a       748     0    30     1    23
 -6.9888363966471867E-01 a       749     0    30     1    24
 -7.4904180421913502E-01 a       750     0    30     1    25
 -3.3581169734780002E-02 a       751     0    31     1     1
 -4.1582475206966973E-01 a       752     0    31     1     2
  2.3263799327729381E-01 a       753     0    31     1     3
  1.9682909763432249E-01 a       754     0    31     1     4
 -3.1897921638890658E-01 a       755     0    31     1     5
  1.9340718656553865E-01 a       756     0    31     1     6
  3.2903685321114701E-01 a       757     0    31     1     7
 -2.0005040694551168E-01 a       758     0    31     1     8
 -2.5586685018522390E-02 a       759     0    31     1     9
 -1.8537070143017154E-01 a       760     0    31     1    10
  2.5416650827121839E-01 a       761     0    31     1    11
 -2.7356724125953430E-01 a       762     0    31     1    12
  3.0198800704795314E-01 a       763     0    31     1    13
 -5.0860192865253606E-01 a       764     0    31     1    14
 -6.7753166781082758E-02 a       765     0    31     1    15
  4.4620094005141775E-01 a       766     0    31     1    16
 -4.2749302710306447E-01 a       767     0    31     1    17
 -7.5885442082122423E-01 a       768     0    31     1    18
 -4.9369196495942053E-01 a       769     0    31     1    19
  2.6692155385126598E-01 a       770     0    31     1    20
 -4.5888510232047042E-02 a       771     0    31     1    21
 -6.5730483269675760E-02 a       772     0    31     1    22
 -2.0842586215740372E-01 a       773     0    31     1    23
 -8.4086055021180772E-02 a       774     0    31     1    24
 -8.9454113780740637E-03 a       775     0    31     1    25
  8.1557410483672522E-03 a       776     0    32     1     1
 -4.3776776786578536E-01 a       777     0    32     1     2
  1.9320712081934865E-02 a       778     0    32     1     3
  2.0513028415609547E-01 a       779     0    32     1     4
 -3.9075233103928519E-01 a       780     0    32     1     5
  4.3682024412852449E-01 a       781     0    32     1     6
  1.6039191802303196E-01 a       782     0    32     1     7
 -5.5125564936899865E-02 a       783     0    32     1     8
 -9.7808419289918083E-02 a       784     0    32     1     9
  1.7846130947128749E-01 a       785     0    32     1    10
  4.2480737426435822E-02 a       786     0    32     1    11
 -3.7911043833404229E-01 a       787     0    32     1    12
 -5.7249615820921355E-02 a       788     0    32     1    13
 -1.3489749510313376E-01 a       789     0    32     1    14
 -8.1215417607476525E-02 a       790     0    32     1    15
  6.6939318540168280E-01 a       791     0    32     1    16
 -4.0226050516859058E-01 a       792     0    32     1    17
 -4.0319851639129289E-01 a       793     0    32     1    18
 -5.5565283732050263E-01 a       794     0    32     1    19
  2.9988039158855584E-01 a       795     0    32     1    20
 -3.2013725931777093E-01 a       796     0    32     1    21
 -1.9304603893014138E-02 a       797     0    32     1    22
 -2.0401860147799128E-02 a       798     0    32     1    23
  1.7866581204091223E-01 a       799     0    32     1    24
 -4.7064311690357449E-02 a       800     0    32     1    25
  3.6929758419426562E-01 a       801     0    33     1     1
 -1.5744265107757854E-01 a       802     0    33     1     2
 -3.9534883283481204E-01 a       803     0    33     1     3
  1.0682363188774462E-01 a       804     0    33     1     4
 -5.2701264492228395E-01 a       805     0    33     1     5
  6.0896624830385604E-02 a       806     0    33     1     6
  9.8011000372770357E-02 a       807     0    33     1     7
 -2.5531754921918742E-01 a       808     0    33     1     8
  1.5356798420864196E-01 a       809     0    33     1     9
 -9.1080386518833961E-02 a       810     0    33     1    10
  2.1196889884108244E-01 a       811     0    33     1    11
  1.3846730125881351E-01 a       812     0    33     1    12
  2.8015744744188820E-01 a       813     0    33     1    13
 -2.6505453956833264E-01 a       814     0    33     1    14
  1.4773040128546722E-01 a       815     0    33     1    15
  2.1003947566347289E-01 a       816     0    33     1    16
 -2.0271878605318994E-01 a       817     0    33     1    17
  3.0989516651099069E-01 a       818     0    33     1    18
 -3.0796290972462970E-01 a       819     0    33     1    19
 -2.0833678340607201E-01 a       820     0    33     1    20
  1.1138373525554805E-01 a       821     0    33     1    21
 -1.7143487695029744E-01 a       822     0    33     1    22
 -6.1662670526461405E-01 a       823     0    33     1    23
  2.5447143457518456E-01 a       824     0    33     1    24
  4.1432936034745577E-01 a       825     0    33     1    25
 -1.6361524116942888E-02 a       826     0    34     1     1
 -4.4548681558105752E-01 a       827     0    34     1     2
 -9.1183794067124360E-02 a       828     0    34     1     3
 -9.0779941589283306E-02 a       829     0    34     1     4
 -3.7119949766768318E-01 a       830     0    34     1     5
  1.6353028408847306E-01 a       831     0    34     1     6
  5.5337701761505487E-01 a       832     0    34     1     7
 -2.2751584707523251E-01 a       833     0    34     1     8
  1.7387069798011860E-02 a       834     0    34     1     9
 -3.0214117983795424E-01 a       835     0    34     1    10
  4.3222201148673298E-02 a       836     0    34     1    11
 -2.6760780472551671E-01 a       837     0    34     1    12
 -7.3275624176813797E-02 a       838     0    34     1    13
  9.9580854113083039E-02 a       839     0    34     1    14
  3.0787261234528418E-01 a       840     0    34     1    15
 -1.1949685204199027E-01 a       841     0    34     1    16
 -3.9774699490258275E-01 a       842     0    34     1    17
  1.1288933186758664E-01 a       843     0    34     1    18
 -2.8553770357783348E-01 a       844     0    34     1    19
 -2.8480107915655151E-01 a       845     0    34     1    20
  2.1053567371680929E-01 a       846     0    34     1    21
 -2.2433862371538846E-01 a       847     0    34     1    22
 -5.0193179732411808E-01 a       848     0    34     1    23
  3.1870833256691916E-01 a       849     0    34     1    24
  5.0271860073575103E-01 a       850     0    34     1    25
  1.8627642427011121E-01 a       851     0    35     1     1
  6.4131664310320302E-02 a       852     0    35     1     2
 -7.8787559503822924E-01 a       853     0    35     1     3
  2.0031002206694642E-01 a       854     0    35     1     4
 -1.4154247226178338E-01 a       855     0    35     1     5
 -3.0611957059314754E-01 a       856     0    35     1     6
 -1.5562430617891543E-01 a       857     0    35     1     7
 -3.2688739751515045E-01 a       858     0    35     1     8
 -5.7809890476587300E-01 a       859     0    35     1     9
  1.4291312019501481E-01 a       860     0    35     1    10
  2.7608945135788809E-01 a       861     0    35     1    11
  4.9901407699267031E-01 a       862     0    35     1    12
  5.1620651304806042E-01 a       863     0    35     1    13
  1.8038158910377208E-01 a       864     0    35     1    14
 -2.0630638022383757E-01 a       865     0    35     1    15
 -7.7778427621227808E-01 a       866     0    35     1    16
 -5.1744475151453828E-01 a       867     0    35     1    17
 -5.7502133129686628E-01 a       868     0    35     1    18
 -2.6380161665058177E-01 a       869     0    35     1    19
 -1.5234666876972766E-01 a       870     0    35     1    20
  9.6840038184460159E-02 a       871     0    35     1    21
  1.9550978374352341E-02 a       872     0    35     1    22
 -2.5360114807625628E-01 a       873     0    35     1    23
  1.8217151477928037E-01 a       874     0    35     1    24
 -4.6958292798613016E-01 a       875     0    35     1    25
 -1.2066667617826550E-01 a       876     0    36     1     1
  3.3703510930258522E-02 a       877     0    36     1     2
  3.7093871436784381E-01 a       878     0    36     1     3
  1.5711778325996506E-01 a       879     0    36     1     4
 -2.0164888778530354E-01 a       880     0    36     1     5
 -1.0389241527597944E-01 a       881     0    36     1     6
 -6.6638804295685261E-01 a       882     0    36     1     7
 -1.7938196400525633E-01 a       883     0    36     1     8
 -1.9321751004884882E-02 a       884     0    36     1     9
 -1.1229519633665436E-01 a       885     0    36     1    10
  2.5595133988654850E-01 a       886     0    36     1    11
  2.7339469053404702E-01 a       887     0    36     1    12
 -3.6505080237635579E-01 a       888     0    36     1    13
 -2.0882571354033494E-01 a       889     0    36     1    14
  4.3198228591052122E-02 a       890     0    36     1    15
  3.1134174896028610E-01 a       891     0    36     1    16
  5.9710913528626552E-01 a       892     0    36     1    17
  3.8366628321688817E-01 a       893     0    36     1    18
  4.3201942905404467E-01 a       894     0    36     1    19
  5.7421261980037941E-01 a       895     0    36     1    20
 -4.3016082165921665E-01 a       896     0    36     1    21
  1.3727946057168647E-01 a       897     0    36     1    22
  1.3956242718972808E-01 a       898     0    36     1    23
  4.3765734934857309E-01 a       899     0    36     1    24
  3.3937559543302681E-01 a       900     0    36     1    25
  2.5971547654555971E-01 a       901     0    37     1     1
  1.2233228242068447E-01 a       902     0    37     1     2
  3.2621753096873074E-01 a       903     0    37     1     3
  2.1429236222189746E-01 a       904     0    37     1     4
 -2.8699062813406367E-01 a       905     0    37     1     5
 -1.4392090439284008E-01 a       906     0    37     1     6
 -6.4872587262850789E-01 a       907     0    37     1     7
 -7.7494853175831518E-02 a       908     0    37     1     8
 -1.3112064434915829E-01 a       909     0    37     1     9
 -4.5838839298399825E-01 a       910     0    37     1    10
  3.8194932840347257E-01 a       911     0    37     1    11
  1.6670326200249799E-01 a       912     0    37     1    12
 -4.2339723116770667E-01 a       913     0    37     1    13
 -2.4901935725234944E-01 a       914     0    37     1    14
  1.3754251809737677E-02 a       915     0    37     1    15
  1.8902658836004038E-01 a       916     0    37     1    16
  5.1886852468006672E-01 a       917     0    37     1    17
  3.5330725106767319E-01 a       918     0    37     1    18
  8.0999771684263178E-01 a       919     0    37     1    19
  6.1798257936278556E-01 a       920     0    37     1    20
 -3.8491233262249402E-01 a       921     0    37     1    21
  5.2761062500109890E-01 a       922     0    37     1    22
  7.1854448034259069E-02 a       923     0    37     1    23
  1.3463863941371679E-01 a       924     0    37     1    24
  5.3737835862032790E-01 a       925     0    37     1    25
 -2.7375597965696996E-01 a       926     0    38     1     1
  2.9148298473888591E-02 a       927     0    38     1     2
  1.2224715514787456E+00 a       928     0    38     1     3
  1.7107121401014982E-01 a       929     0    38     1     4
 -4.1965712745382355E-01 a       930     0    38     1     5
  9.0821037227216697E-02 a       931     0    38     1     6
 -3.6627562566971777E-02 a       932     0    38     1     7
  2.8253512956011845E-01 a       933     0    38     1     8
 -6.3973393236188636E-01 a       934     0    38     1     9
 -1.6171431880498927E-01 a       935     0    38     1    10
 -8.2701270818447831E-02 a       936     0    38     1    11
 -5.8182424699239260E-02 a       937     0    38     1    12
  2.3598374405798914E-01 a       938     0    38     1    13
  5.1022407476035414E-01 a       939     0    38     1    14
 -3.7471413539345966E-01 a       940     0    38     1    15
  1.3150113876600747E-01 a       941     0    38     1    16
  3.3887070923423757E-01 a       942     0    38     1    17
 -4.0649910403169059E-01 a       943     0    38     1    18
 -2.0415194391102606E-01 a       944     0    38     1    19
 -2.8007471122315208E-01 a       945     0    38     1    20
  8.2383982809825368E-03 a       946     0    38     1    21
  1.1571873967555225E-01 a       947     0    38     1    22
  5.2631005419850707E-01 a       948     0    38     1    23
  1.1137688269978258E-01 a       949     0    38     1    24
  2.0517441923644453E-01 a       950     0    38     1    25
 -2.0111860776504784E-01 a       951     0    39     1     1
 -1.0017882749513224E-01 a       952     0    39     1     2
  9.8310201088548999E-01 a       953     0    39     1     3
  4.4400539541824234E-02 a       954     0    39     1     4
 -5.7264738937440840E-01 a       955     0    39     1     5
  3.2515466231762724E-01 a       956     0    39     1     6
 -4.3368086816645163E-01 a       957     0    39     1     7
  2.0351180719460130E-01 a       958     0    39     1     8
 -3.1997634839352690E-01 a       959     0    39     1     9
 -3.0309678581652577E-01 a       960     0    39     1    10
 -1.3277556917297617E-01 a       961     0    39     1    11
 -4.3942063058797587E-01 a       962     0    39     1    12
  2.1836702080989778E-01 a       963     0    39     1    13
  3.9958796356102322E-01 a       964     0    39     1    14
 -4.4632334268875767E-01 a       965     0    39     1    15
  3.7614462173819940E-01 a       966     0    39     1    16
  1.8521645730976557E-02 a       967     0    39     1    17
 -3.8232674613819001E-01 a       968     0    39     1    18
 -2.7855104931630719E-02 a       969     0    39     1    19
 -2.0963477397317762E-01 a       970     0    39     1    20
  3.6395836484709426E-02 a       971     0    39     1    21
  5.1059268112754386E-01 a       972     0    39     1    22
  6.4757119694971854E-01 a       973     0    39     1    23
 -2.3118362410557508E-01 a       974     0    39     1    24
 -1.2140107786626848E-02 a       975     0    39     1    25
 -6.0156999704797409E-01 a       976     0    40     1     1
  2.4206925110178390E-01 a       977     0    40     1     2
  1.3216352920826440E+00 a       978     0    40     1     3
 -9.1889914977830656E-01 a       979     0    40     1     4
 -5.1226593098431705E-01 a       980     0    40     1     5
  1.0484407515334484E+00 a       981     0    40     1     6
 -2.4076801506133144E-01 a       982     0    40     1     7
 -3.3939983844036770E-01 a       983     0    40     1     8
 -6.2399974273285685E-01 a       984     0    40     1     9
  1.5216977483193707E-02 a       985     0    40     1    10
 -1.2612011044064360E+00 a       986     0    40     1    11
  1.4555206047019860E+00 a       987     0    40     1    12
 -3.6450523390929740E-01 a       988     0    40     1    13
  2.1325300413527201E-01 a       989     0    40     1    14
 -9.0802268972232125E-01 a       990     0    40     1    15
  1.0457199032925075E+00 a       991     0    40     1    16
 -1.8053164860555742E+00 a       992     0    40     1    17
  2.8882520923912725E-01 a       993     0    40     1    18
 -2.0245275283076394E+00 a       994     0    40     1    19
 -2.0168006203916219E-01 a       995     0    40     1    20
 -9.5444678924930068E-02 a       996     0    40     1    21
 -7.5518603240405957E-01 a       997     0    40     1    22
 -1.0880901647516046E+00 a       998     0    40     1    23
  6.9276754362866233E-01 a       999     0    40     1    24
  6.1262183147661284E-02 a      1000     0    40     1    25
 -4.3723088005487037E-01 a      1001     0    41     1     1
 -2.5481814940629050E-01 a      1002     0    41     1     2
  1.3984579280351639E-01 a      1003     0    41     1     3
  3.0448542785089355E-01 a      1004     0    41     1     4
 -1.3439890467276072E-01 a      1005     0    41     1     5
 -2.6243388875342921E-01 a      1006     0    41     1     6
 -2.6500350139139223E-01 a      1007     0    41     1     7
  2.8244309443103260E-01 a      1008     0    41     1     8
 -3.4091727058983906E-01 a      1009     0    41     1     9
  2.2756801321426889E-01 a      1010     0    41     1    10
  2.0565548700240174E-02 a      1011     0    41     1    11
  3.6043941048941514E-01 a      1012     0    41     1    12
  8.9809221656301473E-03 a      1013     0    41     1    13
  4.6716391953555964E-01 a      1014     0    41     1    14
 -3.3342812752259282E-01 a      1015     0    41     1    15
 -4.8710636624902787E-01 a      1016     0    41     1    16
 -5.5630734776363367E-03 a      1017     0    41     1    17
  2.0003467393794314E-01 a      1018     0    41     1    18
  1.0238234754500619E-01 a      1019     0    41     1    19
 -2.8149240598114761E-01 a      1020     0    41     1    20
  1.0591869098326613E-01 a      1021     0    41     1    21
 -1.7585014861395615E-01 a      1022     0    41     1    22
  2.4493862116668602E-01 a      1023     0    41     1    23
  2.0487142979776238E-01 a      1024     0    41     1    24
  2.8317222657798441E-01 a      1025     0    41     1    25
  2.8932784317561404E-02 a      1026     0    42     1     1
 -7.4214299903479219E-02 a      1027     0    42     1     2
  1.6580964465585935E-01 a      1028     0    42     1     3
  3.3968186488610948E-02 a      1029     0    42     1     4
  1.4422980224362892E-03 a      1030     0    42     1     5
 -6.2542017586881316E-01 a      1031     0    42     1     6
 -3.4832970303802663E-01 a      1032     0    42     1     7
  2.8447902206611869E-01 a      1033     0    42     1     8
 -7.0720157379530038E-02 a      1034     0    42     1     9
  2.9124618314943657E-01 a      1035     0    42     1    10
 -4.0054853422806284E-02 a      1036     0    42     1    11
  3.4192101919693477E-02 a      1037     0    42     1    12
  2.3172826681195452E-01 a      1038     0    42     1    13
  4.9366576717905397E-01 a      1039     0    42     1    14
 -7.0575483481142842E-02 a      1040     0    42     1    15
 -1.0093362514997044E-01 a      1041     0    42     1    16
  1.7462532617660453E-01 a      1042     0    42     1    17
  2.3881723846677622E-01 a      1043     0    42     1    18
  1.6224091005333127E-01 a      1044     0    42     1    19
 -1.3257200294298582E-01 a      1045     0    42     1    20
  1.9803166907939915E-01 a      1046     0    42     1    21
 -2.2315648077022413E-02 a      1047     0    42     1    22
  5.1627658669443244E-01 a      1048     0    42     1    23
  3.1225764079836509E-03 a      1049     0    42     1    24
  2.3316025895232248E-01 a      1050     0    42     1    25
  3.7709500885638253E-01 a      1051     0    43     1     1
  1.4999917494317554E-02 a      1052     0    43     1     2
 -3.2771532719751845E-01 a      1053     0    43     1     3
 -1.7752933096150450E-03 a      1054     0    43     1     4
 -7.1798741447446676E-02 a      1055     0    43     1     5
 -7.8368738669146254E-01 a      1056     0    43     1     6
 -2.1828710571098386E-01 a      1057     0    43     1     7
  1.2272422335196226E-01 a      1058     0    43     1     8
 -1.0152422488537188E-01 a      1059     0    43     1     9
  5.3080538650132036E-01 a      1060     0    43     1    10
 -2.0781126591140126E-01 a      1061     0    43     1    11
  7.8700076709030592E-02 a      1062     0    43     1    12
 -5.9944179705758625E-02 a      1063     0    43     1    13
  6.1824460914461821E-01 a      1064     0    43     1    14
 -1.6614919318957108E-01 a      1065     0    43     1    15
 -5.8923986071755485E-01 a      1066     0    43     1    16
  2.6646529048566681E-02 a      1067     0    43     1    17
 -1.1471898069579246E-02 a      1068     0    43     1    18
  2.0190681915499736E-01 a      1069     0    43     1    19
  3.5566593522904710E-01 a      1070     0    43     1    20
 -8.1901099198535124E-02 a      1071     0    43     1    21
  2.6240492103808072E-01 a      1072     0    43     1    22
  3.5140593067654075E-01 a      1073     0    43     1    23
  1.1111049958236320E-01 a      1074     0    43     1    24
  8.0166202407209369E-02 a      1075     0    43     1    25
 -2.4609934449740180E-03 a      1076     0    44     1     1
 -7.5843638922139314E-02 a      1077     0    44     1     2
  5.2403345620271789E-02 a      1078     0    44     1     3
  1.4624275473541783E-02 a      1079     0    44     1     4
  3.8637135146974821E-01 a      1080     0    44     1     5
 -6.3608902472170004E-01 a      1081     0    44     1     6
 -5.8858272199574857E-01 a      1082     0    44     1     7
  5.8186942527119445E-01 a      1083     0    44     1     8
  1.8855617123953705E-01 a      1084     0    44     1     9
  3.4285610718303400E-01 a      1085     0    44     1    10
 -4.1537923646817265E-01 a      1086     0    44     1    11
  8.6822209553329130E-02 a      1087     0    44     1    12
 -5.1786096183015363E-02 a      1088     0    44     1    13
  4.6135915749494799E-01 a      1089     0    44     1    14
 -2.6426162016561522E-01 a      1090     0    44     1    15
 -3.2721841899422627E-01 a      1091     0    44     1    16
  3.1647161064100199E-01 a      1092     0    44     1    17
  1.5166411312263336E-01 a      1093     0    44     1    18
  2.9631022945641457E-02 a      1094     0    44     1    19
  3.4957569707612807E-01 a      1095     0    44     1    20
  6.4150379249571940E-02 a      1096     0    44     1    21
  3.2069309654004813E-02 a      1097     0    44     1    22
  4.0459244082114221E-01 a      1098     0    44     1    23
 -1.4582377364766211E-01 a      1099     0    44     1    24
 -7.2856843736575069E-02 a      1100     0    44     1    25
 -6.4740827853603522E-01 a      1101     0    45     1     1
 -7.5027042205025585E-01 a      1102     0    45     1     2
 -5.8855503777852891E-01 a      1103     0    45     1     3
  3.0409961667234225E-01 a      1104     0    45     1     4
 -2.1064612236827543E-01 a      1105     0    45     1     5
 -5.0948129484937765E-01 a      1106     0    45     1     6
  8.3101291912595210E-01 a      1107     0    45     1     7
 -5.7774669082674834E-01 a      1108     0    45     1     8
 -8.1320495619004185E-01 a      1109     0    45     1     9
  9.6606231836442027E-02 a      1110     0    45     1    10
 -1.9612980744812336E-01 a      1111     0    45     1    11
  4.2201318006492300E-01 a      1112     0    45     1    12
  2.3362146844067258E-01 a      1113     0    45     1    13
  1.9609624931535841E-01 a      1114     0    45     1    14
 -3.9001148768048466E-01 a      1115     0    45     1    15
 -3.9240829976213898E-01 a      1116     0    45     1    16
 -9.5476306421854762E-01 a      1117     0    45     1    17
 -4.3514930675558794E-01 a      1118     0    45     1    18
  7.6789337848774647E-02 a      1119     0    45     1    19
 -9.0673718471971354E-01 a      1120     0    45     1    20
  9.4466036007222406E-02 a      1121     0    45     1    21
  7.2053912820626842E-01 a      1122     0    45     1    22
 -9.3300108545130322E-02 a      1123     0    45     1    23
  6.5252016769358046E-01 a      1124     0    45     1    24
 -1.0376711593372014E-01 a      1125     0    45     1    25
 -8.9535377032957975E-01 a      1126     0    46     1     1
 -7.2894882588170617E-03 a      1127     0    46     1     2
  3.3512668174483529E-01 a      1128     0    46     1     3
  6.8556572367018420E-01 a      1129     0    46     1     4
  4.9491610268112401E-01 a      1130     0    46     1     5
  1.7668260147375350E-01 a      1131     0    46     1     6
 -4.2359106937339042E-01 a      1132     0    46     1     7
  3.8770582202656906E-01 a      1133     0    46     1     8
 -3.7358827530858324E-01 a      1134     0    46     1     9
  2.0210896683322113E-01 a      1135     0    46     1    10
  7.8127057282978155E-02 a      1136     0    46     1    11
  4.7193080469719578E-01 a      1137     0    46     1    12
 -2.3545730417283681E-01 a      1138     0    46     1    13
 -1.6575016350415520E-01 a      1139     0    46     1    14
  1.5723859816795849E-01 a      1140     0    46     1    15
 -1.5241804097576298E-01 a      1141     0    46     1    16
  2.8140304535696024E-02 a      1142     0    46     1    17
  1.8053555577982994E-02 a      1143     0    46     1    18
  5.3040715591666850E-02 a      1144     0    46     1    19
  6.3429235905521719E-01 a      1145     0    46     1    20
 -4.8941842318141027E-01 a      1146     0    46     1    21
  7.0758417677088870E-01 a      1147     0    46     1    22
  2.1118574174078829E-02 a      1148     0    46     1    23
  9.9875728214791937E-01 a      1149     0    46     1    24
  3.0032674713247670E-01 a      1150     0    46     1    25
 -6.5987739208012597E-01 a      1151     0    47     1     1
 -1.6706148223059955E-01 a      1152     0    47     1     2
  2.5855251829385428E-01 a      1153     0    47     1     3
  6.9204650155020608E-01 a      1154     0    47     1     4
  5.8405846838367392E-01 a      1155     0    47     1     5
 -6.0510164192133800E-02 a      1156     0    47     1     6
 -7.1227854507688937E-01 a      1157     0    47     1     7
  1.7927532819745431E-01 a      1158     0    47     1     8
 -4.1660344908192593E-01 a      1159     0    47     1     9
  4.1433314628506190E-01 a      1160     0    47     1    10
 -4.0826821574915440E-01 a      1161     0    47     1    11
  5.5153372301301906E-01 a      1162     0    47     1    12
 -2.9085143388751328E-01 a      1163     0    47     1    13
 -2.3081691933616777E-01 a      1164     0    47     1    14
  3.7126520231256566E-01 a      1165     0    47     1    15
  2.5413197398330495E-01 a      1166     0    47     1    16
  4.3156879347422394E-01 a      1167     0    47     1    17
  7.0431898958506031E-02 a      1168     0    47     1    18
 -2.9959209133892151E-01 a      1169     0    47     1    19
  6.5179091336617578E-01 a      1170     0    47     1    20
 -3.1529567489239191E-01 a      1171     0    47     1    21
  6.4961724207135418E-01 a      1172     0    47     1    22
 -1.1246031702659810E-01 a      1173     0    47     1    23
  8.3793285733595613E-01 a      1174     0    47     1    24
  2.1335362762308899E-01 a      1175     0    47     1    25
  2.5713928094271837E-01 a      1176     0    48     1     1
 -8.0448861265473881E-01 a      1177     0    48     1     2
 -1.3301195477335790E+00 a      1178     0    48     1     3
  3.7335661431910049E-02 a      1179     0    48     1     4
  5.4962402323517967E-01 a      1180     0    48     1     5
  2.5139653998230765E-01 a      1181     0    48     1     6
  2.2325531529873524E-01 a      1182     0    48     1     7
 -1.8167852441261509E-01 a      1183     0    48     1     8
  1.1230657625798710E+00 a      1184     0    48     1     9
 -3.8758286007710591E-01 a      1185     0    48     1    10
 -5.5788040555884200E-01 a      1186     0    48     1    11
  1.9204067151633510E+00 a      1187     0    48     1    12
 -3.7458253794812224E-01 a      1188     0    48     1    13
  5.4548761765354692E-01 a      1189     0    48     1    14
 -6.9421604671513745E-02 a      1190     0    48     1    15
  3.3001185968070207E-01 a      1191     0    48     1    16
  2.6300507621479535E-01 a      1192     0    48     1    17
  5.6550272377668118E-02 a      1193     0    48     1    18
 -2.3600708759592828E-01 a      1194     0    48     1    19
 -1.0891609203192634E+00 a      1195     0    48     1    20
  3.1268706160046678E-01 a      1196     0    48     1    21
 -1.0460491205236584E-02 a      1197     0    48     1    22
 -1.0174725852916191E+00 a      1198     0    48     1    23
  8.1979062696965888E-01 a      1199     0    48     1    24
 -2.5299068112101403E-01 a      1200     0    48     1    25
 -1.1005499309480911E-01 a      1201     0    49     1     1
  3.9312983736536300E-01 a      1202     0    49     1     2
  2.0901894236638713E-01 a      1203     0    49     1     3
  9.2642276290945305E-02 a      1204     0    49     1     4
  1.4587880817538715E-01 a      1205     0    49     1     5
 -4.0295579099298784E-01 a      1206     0    49     1     6
 -3.4131442440926046E-01 a      1207     0    49     1     7
  3.2346362959903463E-01 a      1208     0    49     1     8
 -1.8537464732078515E-01 a      1209     0    49     1     9
 -6.6020289106251379E-02 a      1210     0    49     1    10
  2.0149511107650586E-01 a      1211     0    49     1    11
  2.4707186286389160E-01 a      1212     0    49     1    12
  1.7779987611820228E-01 a      1213     0    49     1    13
  3.5460737706943651E-01 a      1214     0    49     1    14
 -1.0139124526801618E-01 a      1215     0    49     1    15
 -6.9794305702159876E-01 a      1216     0    49     1    16
 -4.0324869769451585E-02 a      1217     0    49     1    17
  3.4022236220599092E-02 a      1218     0    49     1    18
  9.5808963562783150E-02 a      1219     0    49     1    19
 -3.6403780154921223E-01 a      1220     0    49     1    20
 -1.3342347473895406E-02 a      1221     0    49     1    21
  1.2050425324945610E-01 a      1222     0    49     1    22
 -9.9643688135944306E-02 a      1223     0    49     1    23
  4.5593561163107296E-02 a      1224     0    49     1    24
 -2.5066801975319947E-01 a      1225     0    49     1    25
 -1.6365267512353573E-01 a      1226     0    50     1     1
  4.6753890162209283E-01 a      1227     0    50     1     2
  4.0236049663322976E-01 a      1228     0    50     1     3
 -7.3844550590864699E-02 a      1229     0    50     1     4
  3.6492998859901662E-02 a      1230     0    50     1     5
 -3.3432718283333546E-01 a      1231     0    50     1     6
 -2.7373940823873405E-01 a      1232     0    50     1     7
  3.5265310837735725E-01 a      1233     0    50     1     8
 -3.6392390136695674E-01 a      1234     0    50     1     9
  4.0085030666139297E-02 a      1235     0    50     1    10
  5.6655313654683861E-02 a      1236     0    50     1    11
  5.6445574056506798E-02 a      1237     0    50     1    12
  1.2670475983480839E-01 a      1238     0    50     1    13
  3.8992740668562376E-01 a      1239     0    50     1    14
  2.0941817492629383E-01 a      1240     0    50     1    15
 -2.5924414541149365E-01 a      1241     0    50     1    16
 -8.6686674084476389E-02 a      1242     0    50     1    17
 -2.1002824069450121E-01 a      1243     0    50     1    18
  1.5865267123360771E-01 a      1244     0    50     1    19
 -4.1545457938679746E-02 a      1245     0    50     1    20
  2.0284973786335220E-01 a      1246     0    50     1    21
  4.4831196859199361E-02 a      1247     0    50     1    22
  2.1233219670098794E-04 a      1248     0    50     1    23
  2.3645044831160456E-01 a      1249     0    50     1    24
 -3.6126914063495530E-01 a      1250     0    50     1    25
  1.8674255306166443E-01 a      1251     0    51     1     1
  4.8101471165960946E-01 a      1252     0    51     1     2
 -7.7993103127654673E-02 a      1253     0    51     1     3
 -3.3307591481791260E-01 a      1254     0    51     1     4
  2.8796171835667078E-01 a      1255     0    51     1     5
 -2.4760367017123902E-01 a      1256     0    51     1     6
 -7.8621847259115285E-01 a      1257     0    51     1     7
  5.7783683551447884E-01 a      1258     0    51     1     8
 -2.2643911708076833E-01 a      1259     0    51     1     9
  6.4424635418687515E-01 a      1260     0    51     1    10
 -4.5992093175030352E-01 a      1261     0    51     1    11
  7.1281124281970157E-02 a      1262     0    51     1    12
  3.5067128250904772E-01 a      1263     0    51     1    13
  1.1538858548714070E-01 a      1264     0    51     1    14
 -1.5983205301852241E-02 a      1265     0    51     1    15
 -5.1363301558226504E-01 a      1266     0    51     1    16
  9.1713205883732010E-02 a      1267     0    51     1    17
 -1.6240060077120871E-01 a      1268     0    51     1    18
  6.2929685558709536E-02 a      1269     0    51     1    19
  4.2177388232106822E-01 a      1270     0    51     1    20
  7.3686701680139674E-02 a      1271     0    51     1    21
  1.4051403105790067E-01 a      1272     0    51     1    22
 -4.7022155019793531E-02 a      1273     0    51     1    23
 -1.7581134540260035E-01 a      1274     0    51     1    24
 -5.0223899591610133E-01 a      1275     0    51     1    25
 -2.7357953922674233E-01 a      1276     0    52     1     1
  4.3754119889801546E-01 a      1277     0    52     1     2
  2.1018303537907446E-01 a      1278     0    52     1     3
 -3.8837996675056663E-01 a      1279     0    52     1     4
  5.1397808512429088E-01 a      1280     0    52     1     5
 -2.7608523568553361E-01 a      1281     0    52     1     6
 -7.7706797428239671E-01 a      1282     0    52     1     7
  1.4218584607421111E-01 a      1283     0    52     1     8
 -2.0471519319933926E-01 a      1284     0    52     1     9
  5.3926025006678013E-01 a      1285     0    52     1    10
 -5.7441287706372379E-01 a      1286     0    52     1    11
  3.8351309367866349E-01 a      1287     0    52     1    12
  2.6233406865774556E-01 a      1288     0    52     1    13
  1.5638458624813520E-01 a      1289     0    52     1    14
 -1.9544158122218577E-01 a      1290     0    52     1    15
 -2.2290890038419206E-01 a      1291     0    52     1    16
  3.7397407312165892E-01 a      1292     0    52     1    17
  1.6642039021366817E-01 a      1293     0    52     1    18
  1.2722592405785224E-01 a      1294     0    52     1    19
  1.5796673505714154E-01 a      1295     0    52     1    20
 -1.0366861546371782E-01 a      1296     0    52     1    21
  2.7037835122734077E-01 a      1297     0    52     1    22
  1.7117130892118412E-01 a      1298     0    52     1    23
 -1.3007583129231423E-01 a      1299     0    52     1    24
 -3.2970686313226100E-01 a      1300     0    52     1    25
  7.0597336244483344E-01 a      1301     0    53     1     1
  2.8248269609725446E-01 a      1302     0    53     1     2
  6.7048950230854804E-02 a      1303     0    53     1     3
  2.2765627154243603E-01 a      1304     0    53     1     4
  2.7285373340983976E-01 a      1305     0    53     1     5
  1.0557115750303089E-01 a      1306     0    53     1     6
 -4.9529704807995556E-01 a      1307     0    53     1     7
  8.1568407310875879E-01 a      1308     0    53     1     8
  5.5460902949345092E-01 a      1309     0    53     1     9
 -3.2128721729640758E-01 a      1310     0    53     1    10
 -3.6284007410954333E-01 a      1311     0    53     1    11
 -1.8357826486293186E-01 a      1312     0    53     1    12
  2.8286073694272409E-03 a      1313     0    53     1    13
 -3.3869636899845018E-01 a      1314     0    53     1    14
  2.3150237242871802E-01 a      1315     0    53     1    15
 -6.2602565996965054E-01 a      1316     0    53     1    16
 -4.3733929942223596E-02 a      1317     0    53     1    17
  5.9783743992806282E-01 a      1318     0    53     1    18
  3.0611344585695865E-02 a      1319     0    53     1    19
  5.0742338475849869E-01 a      1320     0    53     1    20
 -2.4355169452314773E-01 a      1321     0    53     1    21
 -8.9727082429088778E-02 a      1322     0    53     1    22
 -1.8718596521627540E-01 a      1323     0    53     1    23
  5.7444455807858751E-02 a      1324     0    53     1    24
  4.8452904298614158E-01 a      1325     0    53     1    25
  8.1173217509287177E-01 a      1326     0    54     1     1
  6.3289027572538814E-01 a      1327     0    54     1     2
  1.3985012294899540E-01 a      1328     0    54     1     3
  1.9082622215398085E-01 a      1329     0    54     1     4
  4.3363223191229983E-01 a      1330     0    54     1     5
 -2.3108592863834174E-01 a      1331     0    54     1     6
 -1.2282276825876094E-01 a      1332     0    54     1     7
  6.1970957256093129E-01 a      1333     0    54     1     8
  3.3082197204216024E-01 a      1334     0    54     1     9
 -7.3046967514587471E-03 a      1335     0    54     1    10
 -1.2536963405106435E-01 a      1336     0    54     1    11
 -1.5607785027205257E-01 a      1337     0    54     1    12
 -1.8239618573509545E-02 a      1338     0    54     1    13
 -2.2314647972581320E-01 a      1339     0    54     1    14
  3.3433326786417739E-01 a      1340     0    54     1    15
 -4.4460030083822216E-01 a      1341     0    54     1    16
 -2.5085790447831557E-01 a      1342     0    54     1    17
  5.6850782798390631E-01 a      1343     0    54     1    18
 -3.2042979513900061E-01 a      1344     0    54     1    19
  9.3868143634849355E-01 a      1345     0    54     1    20
 -3.4953484642608418E-01 a      1346     0    54     1    21
  1.5044391338316951E-01 a      1347     0    54     1    22
  9.5414096603776324E-02 a      1348     0    54     1    23
  2.0614979845236595E-01 a      1349     0    54     1    24
  7.6711229237188683E-01 a      1350     0    54     1    25
 -6.5742604442132524E-01 a      1351     0    55     1     1
 -1.2631701859412126E+00 a      1352     0    55     1     2
 -1.5547484051483806E+00 a      1353     0    55     1     3
  4.0787646429283231E-01 a      1354     0    55     1     4
  1.1476639416554923E+00 a      1355     0    55     1     5
  1.0586945261042885E-01 a      1356     0    55     1     6
  1.1772524471786745E+00 a      1357     0    55     1     7
  2.6808862067884881E-01 a      1358     0    55     1     8
  7.8918190379249453E-01 a      1359     0    55     1     9
 -5.9498707924560035E-01 a      1360     0    55     1    10
  6.2146344971242384E-01 a      1361     0    55     1    11
  8.1128905039013477E-01 a      1362     0    55     1    12
 -2.5795444728704264E-03 a      1363     0    55     1    13
 -6.7281343377656377E-01 a      1364     0    55     1    14
  1.3502358314369423E+00 a      1365     0    55     1    15
  6.8920566151749740E-01 a      1366     0    55     1    16
  1.7300390954532168E+00 a      1367     0    55     1    17
 -2.2262260007896267E-01 a      1368     0    55     1    18
  1.0868836214051247E+00 a      1369     0    55     1    19
 -9.4890681419499009E-02 a      1370     0    55     1    20
 -2.3380679348817407E-01 a      1371     0    55     1    21
  6.5497148010321704E-01 a      1372     0    55     1    22
  2.3262613736740040E-01 a      1373     0    55     1    23
  4.6394725836888623E-01 a      1374     0    55     1    24
 -6.9653408053981192E-01 a      1375     0    55     1    25
  1.0935670379005562E+00 a      1376     0    56     1     1
  9.5864124615898016E-01 a      1377     0    56     1     2
  3.5249247835405750E-01 a      1378     0    56     1     3
 -5.7318852839785139E-01 a      1379     0    56     1     4
  1.1576821977173651E-01 a      1380     0    56     1     5
  2.9028078221648351E-01 a      1381     0    56     1     6
 -5.1757057643856419E-01 a      1382     0    56     1     7
  2.2653837370369648E-01 a      1383     0    56     1     8
  4.1346441098288728E-01 a      1384     0    56     1     9
 -4.6103301279119813E-01 a      1385     0    56     1    10
  3.0953952449541505E-02 a      1386     0    56     1    11
 -5.9109190810935353E-01 a      1387     0    56     1    12
 -3.8372352163367263E-01 a      1388     0    56     1    13
 -4.8319098396147696E-02 a      1389     0    56     1    14
  1.6830843956124458E-01 a      1390     0    56     1    15
 -6.9656857047280907E-01 a      1391     0    56     1    16
 -1.3577193718246547E-01 a      1392     0    56     1    17
  9.0469811584611079E-02 a      1393     0    56     1    18
 -2.7063760906369944E-01 a      1394     0    56     1    19
  4.8730817783549768E-01 a      1395     0    56     1    20
 -1.4808116645670694E-01 a      1396     0    56     1    21
 -2.7895078950124796E-01 a      1397     0    56     1    22
  7.2386602148567195E-02 a      1398     0    56     1    23
 -4.1929469125301400E-01 a      1399     0    56     1    24
  6.7741468539668193E-01 a      1400     0    56     1    25
  9.9710668331039032E-01 a      1401     0    57     1     1
  6.8811970827467095E-01 a      1402     0    57     1     2
  3.2110994241186380E-01 a      1403     0    57     1     3
 -6.8994979805892165E-01 a      1404     0    57     1     4
 -3.5176727163639748E-01 a      1405     0    57     1     5
  6.9294384164527018E-02 a      1406     0    57     1     6
 -7.5062033676021067E-01 a      1407     0    57     1     7
  6.4747848397038632E-01 a      1408     0    57     1     8
  7.2463426742991954E-01 a      1409     0    57     1     9
 -3.9673395919932009E-01 a      1410     0    57     1    10
  3.9648754769499320E-02 a      1411     0    57     1    11
 -5.9552318734321619E-01 a      1412     0    57     1    12
 -2.0214348188743156E-01 a      1413     0    57     1    13
 -4.3335715992415086E-01 a      1414     0    57     1    14
  3.9768080950146950E-01 a      1415     0    57     1    15
 -4.8011655129210273E-01 a      1416     0    57     1    16
  5.7771548454634322E-02 a      1417     0    57     1    17
  1.6728851118366531E-01 a      1418     0    57     1    18
 -4.1549882975907876E-01 a      1419     0    57     1    19
  9.0795588016945505E-01 a      1420     0    57     1    20
 -1.5328202508271963E-01 a      1421     0    57     1    21
 -2.6804713570529476E-01 a      1422     0    57     1    22
  3.3634351926386241E-01 a      1423     0    57     1    23
 -1.1772268033180222E-01 a      1424     0    57     1    24
  6.3718908085508108E-01 a      1425     0    57     1    25
 -9.4469157418862096E-02 a      1426     0    58     1     1
  7.8856965504916865E-01 a      1427     0    58     1     2
  4.5410595040063717E-01 a      1428     0    58     1     3
 -1.4478210792141175E+00 a      1429     0    58     1     4
 -2.4161623562805543E+00 a      1430     0    58     1     5
  6.4845480406165290E-01 a      1431     0    58     1     6
  1.4739623975896483E+00 a      1432     0    58     1     7
 -1.6480499321377809E-01 a      1433     0    58     1     8
 -2.1402598699442312E+00 a      1434     0    58     1     9
 -6.6710073716898555E-01 a      1435     0    58     1    10
 -7.0309595686107351E-01 a      1436     0    58     1    11
 -2.4662080393926095E-01 a      1437     0    58     1    12
 -5.2388997701512707E-01 a      1438     0    58     1    13
 -1.2856087806299723E+00 a      1439     0    58     1    14
 -4.8591719745103834E-01 a      1440     0    58     1    15
  5.1416408419812687E-01 a      1441     0    58     1    16
 -6.5994776189953697E-01 a      1442     0    58     1    17
 -2.3657235185080069E-01 a      1443     0    58     1    18
 -6.5345664229402978E-01 a      1444     0    58     1    19
  3.3981892234647038E-01 a      1445     0    58     1    20
 -1.3274586716167697E-01 a      1446     0    58     1    21
 -3.5176851992661495E-01 a      1447     0    58     1    22
  3.6986434883597002E-01 a      1448     0    58     1    23
 -6.6010386906363905E-01 a      1449     0    58     1    24
  4.9537834427423727E-01 a      1450     0    58     1    25
 -7.8473217639270704E-02 a      1451     0    59     1     1
 -2.7560209591571744E-01 a      1452     0    59     1     2
 -5.1679279719912652E-01 a      1453     0    59     1     3
 -7.4677276879384233E-02 a      1454     0    59     1     4
  1.2383806536009088E-01 a      1455     0    59     1     5
 -2.1702840995318363E-02 a      1456     0    59     1     6
  2.8639906110980634E-01 a      1457     0    59     1     7
 -1.6260401716735964E-01 a      1458     0    59     1     8
 -2.4957227302528129E-01 a      1459     0    59     1     9
  2.1900070821120574E-01 a      1460     0    59     1    10
  1.3579911421705270E-02 a      1461     0    59     1    11
  3.9643093001816254E-01 a      1462     0    59     1    12
  1.0741358809068895E-01 a      1463     0    59     1    13
  3.1776565615448282E-01 a      1464     0    59     1    14
 -2.3298021630656646E-01 a      1465     0    59     1    15
  3.5329023733861692E-01 a      1466     0    59     1    16
 -3.1046821776088573E-01 a      1467     0    59     1    17
  1.8424015137647569E-02 a      1468     0    59     1    18
 -4.3489776896827814E-01 a      1469     0    59     1    19
 -9.2985461865214003E-01 a      1470     0    59     1    20
  1.0056719062838351E-01 a      1471     0    59     1    21
 -2.8586978437065874E-01 a      1472     0    59     1    22
 -2.2709820148872906E-01 a      1473     0    59     1    23
  3.6708955562696188E-01 a      1474     0    59     1    24
 -3.3922878881056107E-01 a      1475     0    59     1    25
 -1.8547099329439459E-01 a      1476     0    60     1     1
 -2.0664285482028066E-01 a      1477     0    60     1     2
 -2.0430025156521384E-01 a      1478     0    60     1     3
  3.1246593362174535E-01 a      1479     0    60     1     4
 -9.3630145441664120E-02 a      1480     0    60     1     5
 -3.7542239956905293E-01 a      1481     0    60     1     6
  3.3153880542839070E-01 a      1482     0    60     1     7
 -1.0757473975620625E-01 a      1483     0    60     1     8
 -4.6200995569658654E-01 a      1484     0    60     1     9
  7.6069102142741415E-02 a      1485     0    60     1    10
 -1.9828131608836044E-01 a      1486     0    60     1    11
  5.0143036662914864E-01 a      1487     0    60     1    12
  3.0776141540409158E-01 a      1488     0    60     1    13
  1.2138014739681567E-02 a      1489     0    60     1    14
 -1.5751704293360030E-01 a      1490     0    60     1    15
  1.2674735521269281E-01 a      1491     0    60     1    16
 -6.6945826879202464E-01 a      1492     0    60     1    17
  1.5564528053638652E-01 a      1493     0    60     1    18
 -1.2746364494372239E-01 a      1494     0    60     1    19
 -9.7270769298003901E-01 a      1495     0    60     1    20
  1.1189533454894529E-01 a      1496     0    60     1    21
 -1.3143434635730250E-02 a      1497     0    60     1    22
 -4.3448476571698458E-01 a      1498     0    60     1    23
  1.1054177118139446E-02 a      1499     0    60     1    24
 -2.3930028746381718E-01 a      1500     0    60     1    25
  6.6518723110237599E-01 a      1501     0    61     1     1
  6.4369490444488156E-02 a      1502     0    61     1     2
  2.1263081872519396E-01 a      1503     0    61     1     3
 -3.1285697568089293E-01 a      1504     0    61     1     4
 -6.7470764817982898E-01 a      1505     0    61     1     5
  5.3280879943814019E-01 a      1506     0    61     1     6
 -1.6582185580638226E-01 a      1507     0    61     1     7
 -5.9895249154535901E-01 a      1508     0    61     1     8
 -1.2068709395152578E-01 a      1509     0    61     1     9
 -6.6526956483091745E-02 a      1510     0    61     1    10
 -9.7132248190963222E-02 a      1511     0    61     1    11
 -3.9675538650257564E-01 a      1512     0    61     1    12
  1.6809229163291550E-01 a      1513     0    61     1    13
  5.1198296386051723E-01 a      1514     0    61     1    14
 -4.9367754960597743E-01 a      1515     0    61     1    15
  3.3180210331405408E-01 a      1516     0    61     1    16
 -1.1518421302814831E-01 a      1517     0    61     1    17
 -6.2180482222426892E-01 a      1518     0    61     1    18
 -1.2527343608739838E-01 a      1519     0    61     1    19
 -1.0740431603874752E+00 a      1520     0    61     1    20
  4.0538839946578903E-01 a      1521     0    61     1    21
 -5.4210315684433186E-01 a      1522     0    61     1    22
  2.2813235495798037E-01 a      1523     0    61     1    23
 -5.0787705316755760E-01 a      1524     0    61     1    24
 -6.2748573317583345E-01 a      1525     0    61     1    25
  2.5023429834476596E-01 a      1526     0    62     1     1
  4.1770841460703273E-01 a      1527     0    62     1     2
  3.8024878731227557E-01 a      1528     0    62     1     3
 -5.7304141572952760E-01 a      1529     0    62     1     4
 -6.2086149318335870E-01 a      1530     0    62     1     5
  3.9227390325823752E-01 a      1531     0    62     1     6
 -4.8122843656114099E-02 a      1532     0    62     1     7
 -3.8244061637851695E-01 a      1533     0    62     1     8
 -6.6630711715139151E-02 a      1534     0    62     1     9
 -2.1157942380243913E-01 a      1535     0    62     1    10
 -1.1622192101093017E-01 a      1536     0    62     1    11
  1.2411291513080567E-02 a      1537     0    62     1    12
  3.9315010903272785E-01 a      1538     0    62     1    13
  3.5438820600891940E-01 a      1539     0    62     1    14
 -3.2826639897859206E-01 a      1540     0    62     1    15
  8.4525482288930517E-02 a      1541     0    62     1    16
  3.6506508103553697E-03 a      1542     0    62     1    17
 -6.1932884824805245E-01 a      1543     0    62     1    18
 -5.2074603327532698E-01 a      1544     0    62     1    19
 -8.0792375870530497E-01 a      1545     0    62     1    20
  4.7278042538332521E-01 a      1546     0    62     1    21
 -4.2907266105490866E-01 a      1547     0    62     1    22
  5.4289715949492841E-02 a      1548     0    62     1    23
 -6.3155833741068068E-01 a      1549     0    62     1    24
 -5.6140320868207638E-01 a      1550     0    62     1    25
  6.0377438432803232E-01 b      1551     1     1
 -1.8247097726583028E-01 b      1552     1     2
  1.7770437994152127E-01 b      1553     1     3
 -2.5344728633804187E-01 b      1554     1     4
 -6.6432701010364115E-01 b      1555     1     5
 -8.3640332549580226E-02 b      1556     1     6
  2.6946324946325340E-01 b      1557     1     7
  3.7057513409253934E-01 b      1558     1     8
  4.6100342212868650E-01 b      1559     1     9
 -4.0767121755560159E-01 b      1560     1    10
 -2.0236451207572792E-01 b      1561     1    11
 -7.4445982724566817E-01 b      1562     1    12
  3.0960504584314690E-02 b      1563     1    13
 -2.4534411423672225E-01 b      1564     1    14
  8.5935228926466900E-01 b      1565     1    15
 -6.7505842674708472E-01 b      1566     1    16
  9.3903841303123542E-02 b      1567     1    17
 -5.8289642149251808E-01 b      1568     1    18
  4.0093638035803558E-01 b      1569     1    19
 -5.1840761686287506E-01 b      1570     1    20
  1.0360564829481511E-01 b      1571     1    21
 -4.1604840178999519E-01 b      1572     1    22
  4.7340637107645994E-01 b      1573     1    23
 -5.1191298764599635E-01 b      1574     1    24
 -4.8362001515311465E-01 b      1575     1    25
  2.2749806333584513E-01 a      1576     1     1     2     1
 -4.0805116691714682E-01 a      1577     1     1     2     2
  5.5089146562696541E-02 a      1578     1     1     2     3
  4.2899492851836460E-02 a      1579     1     1     2     4
  1.0796548093133025E-01 a      1580     1     1     2     5
 -6.8686299432025089E-02 a      1581     1     1     2     6
  7.1002228921412125E-01 a      1582     1     1     2     7
 -4.7829492474905776E-02 a      1583     1     1     2     8
 -2.3543766950832384E-01 a      1584     1     1     2     9
 -4.1754309294645298E-01 a      1585     1     1     2    10
 -3.1618889234717840E-01 a      1586     1     1     2    11
  4.6167797378370945E-01 a      1587     1     1     2    12
  2.0214083041595485E-01 a      1588     1     1     2    13
  2.6812073902605460E-01 a      1589     1     1     2    14
  4.7180039235518573E-01 a      1590     1     1     2    15
 -4.3916263487019475E-01 a      1591     1     1     2    16
  1.0195927451151984E-01 a      1592     1     1     2    17
  1.9991581452259544E-01 a      1593     1     1     2    18
  4.0069646777640444E-01 a      1594     1     1     2    19
  1.4081086075810606E-01 a      1595     1     1     2    20
  9.7854007692579958E-02 a      1596     1     1     2    21
  8.0689476841182148E-02 a      1597     1     1     2    22
 -2.3021104148102337E-01 a      1598     1     1     2    23
 -1.4217716691802443E-01 a      1599     1     1     2    24
 -9.0764494239442428E-01 a      1600     1     1     2    25
 -7.0333837371894870E-01 a      1601     1     2     2     1
  1.0099376530957466E-01 a      1602     1     2     2     2
  4.0517686443541479E-01 a      1603     1     2     2     3
  1.5545170644042255E-01 a      1604     1     2     2     4
  1.0875477594716500E-01 a      1605     1     2     2     5
  9.1631119878080936E-01 a      1606     1     2     2     6
 -9.4070065635299771E-01 a      1607     1     2     2     7
  1.1591738391615190E-01 a      1608     1     2     2     8
  4.6328658230033776E-01 a      1609     1     2     2     9
 -3.1717973850738462E-01 a      1610     1     2     2    10
 -2.2640912837658689E-01 a      1611     1     2     2    11
 -3.2198235058922697E-01 a      1612     1     2     2    12
 -4.5482755250783213E-02 a      1613     1     2     2    13
 -6.1363114733545976E-01 a      1614     1     2     2    14
  3.0064079536965094E-01 a      1615     1     2     2    15
 -9.9085218546502696E-01 a      1616     1     2     2    16
  1.3176541579107148E-01 a      1617     1     2     2    17
  2.0531191683825685E+00 a      1618     1     2     2    18
  1.0745613873988336E+00 a      1619     1     2     2    19
 -9.3476359172000922E-02 a      1620     1     2     2    20
 -3.7492754977015888E-02 a      1621     1     2     2    21
  6.5428906722849914E-02 a      1622     1     2     2    22
  1.6660814918994524E-01 a      1623     1     2     2    23
  2.6112538942143315E-01 a      1624     1     2     2    24
  2.5992479336073804E-01 a      1625     1     2     2    25
 -1.0985600964092658E-01 a      1626     1     3     2     1
  3.7547422740233011E-02 a      1627     1     3     2     2
 -1.4235690825662325E-01 a      1628     1     3     2     3
