################################################################################
# Neural network connection values (weights and biases).
################################################################################
# Col  Name       Description
################################################################################
# 1    connection Neural network connection value.
# 2    t          Connection type (a = weight, b = bias).
# 3    index      Index enumerating weights.
# 4    l_s        Starting point layer (end point layer for biases).
# 5    n_s        Starting point neuron in starting layer (end point neuron for biases).
# 6    l_e        End point layer.
# 7    n_e        End point neuron in end layer.
################################################################################
#                      1 2         3     4     5     6     7
#             connection t     index   l_s   n_s   l_e   n_e
############################################################
 -1.5066773349428400E-01 a         1     0     1     1     1
  2.5079778084021248E-01 a         2     0     1     1     2
  8.6049451183128595E-02 a         3     0     1     1     3
  3.0419445105227794E-01 a         4     0     1     1     4
 -1.4895592702815316E-01 a         5     0     1     1     5
  3.3327134220926963E-01 a         6     0     1     1     6
 -1.8696111381345842E-01 a         7     0     1     1     7
 -1.9074781461827514E-01 a         8     0     1     1     8
 -9.6900862810103350E-02 a         9     0     1     1     9
 -4.3798760890078908E-01 a        10     0     1     1    10
  4.6548851677596775E-01 a        11     0     1     1    11
  6.8363044481661162E-01 a        12     0     1     1    12
 -6.5015701478458254E-02 a        13     0     1     1    13
  1.7765814227485491E-01 a        14     0     1     1    14
 -2.6424981257023950E-01 a        15     0     1     1    15
  2.2801129808442518E-02 a        16     0     1     1    16
 -4.8613939691160929E-01 a        17     0     1     1    17
 -3.7057516628394899E-01 a        18     0     1     1    18
  4.3213571361919983E-01 a        19     0     1     1    19
  3.3115501628617143E-02 a        20     0     1     1    20
  1.2228559067180850E-01 a        21     0     1     1    21
 -6.7743128661098134E-02 a        22     0     1     1    22
 -8.9247775825916476E-02 a        23     0     1     1    23
 -1.4435312416965576E-01 a        24     0     1     1    24
 -3.2359930944132004E-01 a        25     0     1     1    25
 -1.9541447897865208E-01 a        26     0     2     1     1
 -1.0294462452584367E-01 a        27     0     2     1     2
 -2.2560933189331644E-01 a        28     0     2     1     3
 -6.3891189157353223E-01 a        29     0     2     1     4
 -6.1173971594555698E-01 a        30     0     2     1     5
 -5.5340200888424035E-02 a        31     0     2     1     6
  9.4336897851921092E-02 a        32     0     2     1     7
  5.8955308706794073E-02 a        33     0     2     1     8
  7.7352104538412758E-01 a        34     0     2     1     9
 -1.0689578789273091E-01 a        35     0     2     1    10
 -9.7999108140541302E-02 a        36     0     2     1    11
 -3.7755676494126789E-01 a        37     0     2     1    12
 -1.8880514409459379E-01 a        38     0     2     1    13
 -9.6843089438580863E-03 a        39     0     2     1    14
  3.4371545803011677E-01 a        40     0     2     1    15
 -1.6275327293959183E-01 a        41     0     2     1    16
 -3.4716547463607694E-02 a        42     0     2     1    17
 -2.5890931686305459E-02 a        43     0     2     1    18
 -1.2299297405526737E-01 a        44     0     2     1    19
 -8.2907850265219213E-02 a        45     0     2     1    20
 -1.3306929772874029E-01 a        46     0     2     1    21
 -1.7535159602817602E-01 a        47     0     2     1    22
 -5.0465003121645959E-02 a        48     0     2     1    23
  3.3878930497302943E-02 a        49     0     2     1    24
 -4.8642471461357972E-02 a        50     0     2     1    25
 -1.5173275505699021E-02 a        51     0     3     1     1
  1.4057643060536643E-01 a        52     0     3     1     2
 -4.6235046014971259E-01 a        53     0     3     1     3
  4.9239181144498867E-01 a        54     0     3     1     4
 -1.2545360455891966E-01 a        55     0     3     1     5
 -1.0281568878971940E-01 a        56     0     3     1     6
 -2.3794037174415677E-02 a        57     0     3     1     7
 -1.7173692065575974E-01 a        58     0     3     1     8
 -2.5163796880040290E-01 a        59     0     3     1     9
  4.2757564862658148E-01 a        60     0     3     1    10
  8.4422621873337253E-02 a        61     0     3     1    11
 -2.4523268937762455E-01 a        62     0     3     1    12
 -1.4217921472919617E-01 a        63     0     3     1    13
  1.8737165626250413E-01 a        64     0     3     1    14
 -2.0426323768835733E-01 a        65     0     3     1    15
  2.0507574950985613E-01 a        66     0     3     1    16
 -4.0347465577787189E-01 a        67     0     3     1    17
 -1.5122372064461040E-01 a        68     0     3     1    18
 -2.3125672831207350E-01 a        69     0     3     1    19
  3.8630131921795607E-01 a        70     0     3     1    20
 -4.5742609950594210E-01 a        71     0     3     1    21
  2.3577543400222975E-01 a        72     0     3     1    22
  1.0733373453479290E-02 a        73     0     3     1    23
 -1.3719409418843242E-01 a        74     0     3     1    24
  5.8836129380854296E-01 a        75     0     3     1    25
 -4.1042746131695201E-01 a        76     0     4     1     1
 -1.8343828745521892E-01 a        77     0     4     1     2
 -1.0566820565011635E-01 a        78     0     4     1     3
 -1.1912703109352500E-01 a        79     0     4     1     4
 -5.4366072250955105E-02 a        80     0     4     1     5
 -1.3181009179196462E-01 a        81     0     4     1     6
 -2.8851860877436558E-01 a        82     0     4     1     7
  4.4888527166666137E-02 a        83     0     4     1     8
  2.0667966048010508E-01 a        84     0     4     1     9
 -1.8815291735047599E-03 a        85     0     4     1    10
  2.4488282658635260E-01 a        86     0     4     1    11
 -2.7407645981633266E-01 a        87     0     4     1    12
 -2.6696228148612022E-01 a        88     0     4     1    13
  2.1492707272322820E-01 a        89     0     4     1    14
  3.5419635213174594E-01 a        90     0     4     1    15
 -5.6359457177076333E-01 a        91     0     4     1    16
 -6.4158928758957068E-01 a        92     0     4     1    17
  4.7784692226673203E-01 a        93     0     4     1    18
 -6.5843627552194939E-01 a        94     0     4     1    19
 -1.7839787681787075E-01 a        95     0     4     1    20
 -8.2331844565508329E-03 a        96     0     4     1    21
  4.8920681367446366E-02 a        97     0     4     1    22
 -3.9457324000861599E-01 a        98     0     4     1    23
  4.5987219231471463E-02 a        99     0     4     1    24
 -1.4234759446758849E-01 a       100     0     4     1    25
  4.3265294355466874E-02 a       101     0     5     1     1
 -4.7259604919984204E-02 a       102     0     5     1     2
  6.2247467966938946E-02 a       103     0     5     1     3
  1.9465751945642772E-02 a       104     0     5     1     4
  2.2536383713822375E-01 a       105     0     5     1     5
  9.8145025839370487E-02 a       106     0     5     1     6
 -1.6663908764473506E-01 a       107     0     5     1     7
  1.8195180842367639E-02 a       108     0     5     1     8
 -2.2397044761537171E-01 a       109     0     5     1     9
 -1.4404664585847152E-01 a       110     0     5     1    10
  3.4528327102287470E-01 a       111     0     5     1    11
  4.4324708116424133E-01 a       112     0     5     1    12
  1.7655702091373207E-03 a       113     0     5     1    13
  1.1780010576909479E-01 a       114     0     5     1    14
 -9.9029124505040589E-02 a       115     0     5     1    15
 -2.4048768388254041E-01 a       116     0     5     1    16
  2.4252073477974601E-01 a       117     0     5     1    17
 -2.8996370266718763E-01 a       118     0     5     1    18
  2.6610508672257133E-01 a       119     0     5     1    19
 -8.6217555969212600E-02 a       120     0     5     1    20
  3.5322892004917622E-01 a       121     0     5     1    21
  1.1255000145575390E-01 a       122     0     5     1    22
  7.0932062764608117E-02 a       123     0     5     1    23
 -1.8434698434148461E-01 a       124     0     5     1    24
 -8.5431983197526914E-02 a       125     0     5     1    25
  1.5289253234323721E-01 a       126     0     6     1     1
 -2.5716035107094209E-01 a       127     0     6     1     2
 -1.8677695660427596E-01 a       128     0     6     1     3
 -3.6321305226369011E-01 a       129     0     6     1     4
  9.5001313706595415E-03 a       130     0     6     1     5
  3.2711769315887645E-01 a       131     0     6     1     6
  3.1455482106880733E-01 a       132     0     6     1     7
  1.4782003831665011E-01 a       133     0     6     1     8
  3.0044207870466511E-01 a       134     0     6     1     9
 -3.8226541756816879E-01 a       135     0     6     1    10
 -7.0921134661848559E-02 a       136     0     6     1    11
 -2.6866963809317742E-02 a       137     0     6     1    12
 -1.2951647123766431E-02 a       138     0     6     1    13
 -1.0016860768580017E-01 a       139     0     6     1    14
  2.3827149631206454E-01 a       140     0     6     1    15
  1.7790162489084205E-01 a       141     0     6     1    16
  3.8000498236594410E-01 a       142     0     6     1    17
  1.8500965317220658E-01 a       143     0     6     1    18
  1.0284001215586137E-02 a       144     0     6     1    19
  5.7164769395939237E-02 a       145     0     6     1    20
 -1.1112619462384996E-01 a       146     0     6     1    21
  1.5989444915504018E-02 a       147     0     6     1    22
 -1.0785117668970853E-01 a       148     0     6     1    23
  1.1099764594496976E-01 a       149     0     6     1    24
 -8.9611812483294417E-02 a       150     0     6     1    25
 -3.4418396986008154E-02 a       151     0     7     1     1
 -1.9746517694700910E-01 a       152     0     7     1     2
 -6.7285511855764216E-02 a       153     0     7     1     3
  1.1572997908172081E-01 a       154     0     7     1     4
  2.7449933333099596E-01 a       155     0     7     1     5
  8.6768797512194851E-02 a       156     0     7     1     6
 -1.1422658016204089E-01 a       157     0     7     1     7
  8.7493267978613426E-02 a       158     0     7     1     8
 -4.3440165011441140E-01 a       159     0     7     1     9
  1.9757424324807402E-02 a       160     0     7     1    10
 -1.9173598334754186E-02 a       161     0     7     1    11
  5.2872331961346317E-02 a       162     0     7     1    12
 -1.7079817821292068E-01 a       163     0     7     1    13
  7.8337376852598298E-02 a       164     0     7     1    14
  3.3626359403548833E-01 a       165     0     7     1    15
 -7.5898395708548352E-02 a       166     0     7     1    16
  1.2852720203498250E-01 a       167     0     7     1    17
  4.0562585677843550E-02 a       168     0     7     1    18
 -1.7979327934610512E-01 a       169     0     7     1    19
  3.5627885471297727E-01 a       170     0     7     1    20
 -1.2120099512573343E-01 a       171     0     7     1    21
  3.3536275564312346E-01 a       172     0     7     1    22
  1.3546445459406509E-01 a       173     0     7     1    23
 -2.3562202914098709E-01 a       174     0     7     1    24
  3.2273066748275053E-01 a       175     0     7     1    25
 -2.7519971480155464E-01 a       176     0     8     1     1
 -3.2237702369614668E-01 a       177     0     8     1     2
 -8.2141658760239322E-02 a       178     0     8     1     3
 -7.6492714289252375E-02 a       179     0     8     1     4
  1.9894555146289697E-02 a       180     0     8     1     5
  2.1171976275264770E-01 a       181     0     8     1     6
 -1.8455467193124386E-01 a       182     0     8     1     7
  8.0846658111779754E-02 a       183     0     8     1     8
  1.5353136528930408E-01 a       184     0     8     1     9
 -5.3957741290081969E-02 a       185     0     8     1    10
  1.6517909077791265E-01 a       186     0     8     1    11
 -1.7323744724866710E-01 a       187     0     8     1    12
 -2.4360437554416942E-01 a       188     0     8     1    13
  4.2147425513108377E-02 a       189     0     8     1    14
  3.1153790405085202E-01 a       190     0     8     1    15
 -5.7927656313864684E-01 a       191     0     8     1    16
 -2.8387394815889583E-01 a       192     0     8     1    17
  1.8586376904474669E-01 a       193     0     8     1    18
 -4.5054658520026181E-01 a       194     0     8     1    19
 -6.5929429275546861E-02 a       195     0     8     1    20
  2.5192754842200075E-02 a       196     0     8     1    21
 -2.0866350150115530E-02 a       197     0     8     1    22
 -5.9963961594937935E-02 a       198     0     8     1    23
  1.2310032767870731E-01 a       199     0     8     1    24
 -6.3319530359217752E-02 a       200     0     8     1    25
  1.4818817751870317E-01 a       201     0     9     1     1
  1.4836374690472409E-01 a       202     0     9     1     2
 -2.1845196610453282E-01 a       203     0     9     1     3
  3.7806468202340585E-02 a       204     0     9     1     4
  4.6408687123002329E-01 a       205     0     9     1     5
 -4.5306402740057217E-01 a       206     0     9     1     6
 -3.1055563868518143E-01 a       207     0     9     1     7
 -1.1330022848687504E-01 a       208     0     9     1     8
 -8.0188351463162152E-02 a       209     0     9     1     9
  3.2190964083428336E-01 a       210     0     9     1    10
 -7.0939003362198536E-02 a       211     0     9     1    11
 -1.8950561640465807E-01 a       212     0     9     1    12
 -8.0883905495992767E-02 a       213     0     9     1    13
 -8.2484784387943641E-02 a       214     0     9     1    14
  1.8399543325541334E-02 a       215     0     9     1    15
 -3.7914669851024840E-01 a       216     0     9     1    16
  4.1487098884711543E-01 a       217     0     9     1    17
 -2.1309330981233024E-01 a       218     0     9     1    18
 -9.4375685646993931E-02 a       219     0     9     1    19
 -1.1261657890838268E-01 a       220     0     9     1    20
  1.4944679620120363E-01 a       221     0     9     1    21
  2.8129799737124267E-01 a       222     0     9     1    22
 -4.4367831950139755E-02 a       223     0     9     1    23
  9.8643817916258432E-03 a       224     0     9     1    24
  3.9964821883314000E-01 a       225     0     9     1    25
  1.1670044795785106E-01 a       226     0    10     1     1
  3.9047961989251104E-02 a       227     0    10     1     2
 -2.8602030055949151E-01 a       228     0    10     1     3
  2.8438532414656947E-01 a       229     0    10     1     4
  2.6957879461514977E-01 a       230     0    10     1     5
  1.2953158436804646E-01 a       231     0    10     1     6
  5.2296162258076428E-01 a       232     0    10     1     7
 -7.9966707413296229E-02 a       233     0    10     1     8
  4.5002700900813632E-02 a       234     0    10     1     9
  7.8098271798283159E-02 a       235     0    10     1    10
 -8.6445678456102640E-02 a       236     0    10     1    11
  2.1659173072096552E-01 a       237     0    10     1    12
 -1.9688901507916395E-01 a       238     0    10     1    13
 -5.2751369226597247E-02 a       239     0    10     1    14
 -9.0983781206186817E-02 a       240     0    10     1    15
  6.3391989240851865E-01 a       241     0    10     1    16
  1.2418996665308855E-01 a       242     0    10     1    17
 -5.3222072774695518E-02 a       243     0    10     1    18
  1.9350605718670200E-01 a       244     0    10     1    19
  2.5728776688558014E-01 a       245     0    10     1    20
 -3.6208277813366119E-01 a       246     0    10     1    21
  1.8933159730896515E-01 a       247     0    10     1    22
 -2.0068451128861620E-01 a       248     0    10     1    23
  4.6450791457815382E-01 a       249     0    10     1    24
 -9.5421620979068061E-02 a       250     0    10     1    25
  6.5643437394303242E-02 a       251     0    11     1     1
 -1.3024276166215562E-01 a       252     0    11     1     2
  4.3768179488365944E-01 a       253     0    11     1     3
 -9.5795567307032509E-02 a       254     0    11     1     4
  5.0842752942768810E-01 a       255     0    11     1     5
  2.5120523442188392E-01 a       256     0    11     1     6
 -1.0315272375413609E-01 a       257     0    11     1     7
  5.0207023942429721E-02 a       258     0    11     1     8
 -3.0101342171549600E-01 a       259     0    11     1     9
 -4.6792015454823888E-01 a       260     0    11     1    10
 -6.2488735920716111E-02 a       261     0    11     1    11
  1.3852082801875268E-01 a       262     0    11     1    12
 -2.2463320787351515E-01 a       263     0    11     1    13
 -1.6461434665308916E-01 a       264     0    11     1    14
  5.7283956100046363E-01 a       265     0    11     1    15
 -4.3144408263499179E-01 a       266     0    11     1    16
  3.9029155612361699E-01 a       267     0    11     1    17
  9.2599193225425244E-02 a       268     0    11     1    18
 -2.4954302128257858E-01 a       269     0    11     1    19
 -5.5381025372799500E-02 a       270     0    11     1    20
  3.2997221993975945E-01 a       271     0    11     1    21
  1.9742708522969601E-01 a       272     0    11     1    22
 -2.1915150701925953E-01 a       273     0    11     1    23
 -2.2467836420148002E-01 a       274     0    11     1    24
  1.7767379143277459E-02 a       275     0    11     1    25
  4.1696061089489977E-02 a       276     0    12     1     1
 -1.7772519620226679E-01 a       277     0    12     1     2
 -7.5034453729608420E-03 a       278     0    12     1     3
  7.5143075636375137E-02 a       279     0    12     1     4
 -1.9474103553761846E-01 a       280     0    12     1     5
  3.3011425895472046E-01 a       281     0    12     1     6
 -1.0760618859530487E-01 a       282     0    12     1     7
 -2.2625663002847771E-02 a       283     0    12     1     8
 -1.5211438261440505E-01 a       284     0    12     1     9
  3.0822424524656222E-01 a       285     0    12     1    10
 -1.4844137253813880E-01 a       286     0    12     1    11
  1.5072214492409971E-02 a       287     0    12     1    12
 -5.2675739606439564E-02 a       288     0    12     1    13
 -2.1300222335014224E-01 a       289     0    12     1    14
  9.2102993295551591E-02 a       290     0    12     1    15
 -8.6479091797099880E-02 a       291     0    12     1    16
 -5.9053821469371201E-02 a       292     0    12     1    17
  5.2857989969069950E-02 a       293     0    12     1    18
 -3.1899523816182096E-01 a       294     0    12     1    19
  1.4810381836364653E-01 a       295     0    12     1    20
 -2.0282224682027669E-01 a       296     0    12     1    21
 -1.1120494211392792E-01 a       297     0    12     1    22
  1.2311011947961240E-01 a       298     0    12     1    23
  2.8914282575152767E-01 a       299     0    12     1    24
  3.8046218580853564E-01 a       300     0    12     1    25
  1.3952579918242597E-01 a       301     0    13     1     1
  3.2808675617080690E-01 a       302     0    13     1     2
 -4.1934145533310990E-01 a       303     0    13     1     3
  1.2486036129045969E-01 a       304     0    13     1     4
 -5.3418172676756581E-02 a       305     0    13     1     5
 -4.1529983585007396E-01 a       306     0    13     1     6
 -2.4483735461711853E-01 a       307     0    13     1     7
 -1.1334360639050699E-01 a       308     0    13     1     8
  2.0067875274070206E-02 a       309     0    13     1     9
  4.6263350202650511E-01 a       310     0    13     1    10
 -3.4887360756089808E-01 a       311     0    13     1    11
 -5.1177004104064772E-01 a       312     0    13     1    12
 -9.8179211745469397E-03 a       313     0    13     1    13
 -9.6433078096266944E-02 a       314     0    13     1    14
 -4.9225157437596451E-02 a       315     0    13     1    15
 -5.3653930263141886E-02 a       316     0    13     1    16
 -8.8108878533759483E-02 a       317     0    13     1    17
  5.5498474707319875E-02 a       318     0    13     1    18
 -7.9505969298094212E-02 a       319     0    13     1    19
 -2.9849541040647287E-01 a       320     0    13     1    20
 -1.1628805842225740E-03 a       321     0    13     1    21
  2.2936150093703542E-01 a       322     0    13     1    22
 -1.7733599035009343E-01 a       323     0    13     1    23
  2.2217531820351655E-01 a       324     0    13     1    24
  3.4614012660009025E-01 a       325     0    13     1    25
 -3.0413965225945999E-01 a       326     0    14     1     1
  2.1898475850527005E-01 a       327     0    14     1     2
 -1.9046016803196938E-01 a       328     0    14     1     3
  2.1212948131947870E-01 a       329     0    14     1     4
  9.6050912978433989E-02 a       330     0    14     1     5
  1.5414282456021841E-01 a       331     0    14     1     6
  4.5101122023100648E-01 a       332     0    14     1     7
  2.9564353730409621E-03 a       333     0    14     1     8
  3.1987782952159760E-02 a       334     0    14     1     9
  1.7969599692014943E-01 a       335     0    14     1    10
 -2.4207490797105571E-01 a       336     0    14     1    11
  1.0162620594130269E-01 a       337     0    14     1    12
 -3.9520957455173511E-01 a       338     0    14     1    13
  1.0004394960192219E-01 a       339     0    14     1    14
  1.8405137459414264E-01 a       340     0    14     1    15
  5.3764024254862786E-01 a       341     0    14     1    16
  1.9649342843024040E-01 a       342     0    14     1    17
  1.3313484780918976E-02 a       343     0    14     1    18
  6.8560305801711645E-03 a       344     0    14     1    19
 -3.5231162881524461E-02 a       345     0    14     1    20
 -4.0628894604778046E-02 a       346     0    14     1    21
  2.2086176062245522E-01 a       347     0    14     1    22
 -1.4785079365076501E-01 a       348     0    14     1    23
 -5.1473041993475424E-02 a       349     0    14     1    24
  1.0239081614024004E-01 a       350     0    14     1    25
 -1.4575816082625511E-02 a       351     0    15     1     1
  2.9502956256051699E-01 a       352     0    15     1     2
 -1.0488427995415758E-01 a       353     0    15     1     3
  1.7190522419281754E-01 a       354     0    15     1     4
  9.8948851738840674E-02 a       355     0    15     1     5
 -2.9774876825348778E-01 a       356     0    15     1     6
 -3.0635057715725977E-01 a       357     0    15     1     7
 -3.7288521125546253E-01 a       358     0    15     1     8
  8.2728285789067879E-02 a       359     0    15     1     9
 -1.7519448203924190E-01 a       360     0    15     1    10
 -9.4519423100189251E-02 a       361     0    15     1    11
  7.6221257876047513E-02 a       362     0    15     1    12
 -2.2472163148818786E-01 a       363     0    15     1    13
  5.2739373540638193E-02 a       364     0    15     1    14
 -4.3009698170743189E-02 a       365     0    15     1    15
 -2.4555017102174229E-01 a       366     0    15     1    16
 -3.4424914901077130E-01 a       367     0    15     1    17
  8.9368454493086391E-02 a       368     0    15     1    18
 -1.1331009792136314E-01 a       369     0    15     1    19
 -6.4348547874936712E-01 a       370     0    15     1    20
  3.6417144410712854E-01 a       371     0    15     1    21
 -2.0257060873875890E-01 a       372     0    15     1    22
 -6.3104677866390091E-01 a       373     0    15     1    23
  3.7051438505516054E-01 a       374     0    15     1    24
 -2.8020818320093632E-01 a       375     0    15     1    25
  3.6004448828186736E-01 a       376     0    16     1     1
  2.7995187806685428E-02 a       377     0    16     1     2
  2.9063494171246690E-01 a       378     0    16     1     3
 -1.2620032111815699E-03 a       379     0    16     1     4
 -1.7949577352616872E-01 a       380     0    16     1     5
  6.1006692516490146E-01 a       381     0    16     1     6
 -1.7497408247322818E-01 a       382     0    16     1     7
  1.0540916085584869E-01 a       383     0    16     1     8
 -4.2000401201096021E-01 a       384     0    16     1     9
  2.1726814015879967E-01 a       385     0    16     1    10
 -2.4641571532990109E-01 a       386     0    16     1    11
  3.6397773475537154E-01 a       387     0    16     1    12
  9.5395566280450234E-02 a       388     0    16     1    13
 -4.2093225310087751E-01 a       389     0    16     1    14
 -8.9255776315536953E-02 a       390     0    16     1    15
  1.4220452546873577E-01 a       391     0    16     1    16
  2.9631795074898343E-01 a       392     0    16     1    17
 -3.2664763444413758E-01 a       393     0    16     1    18
 -5.3621071668904272E-02 a       394     0    16     1    19
  1.1447998230888762E-01 a       395     0    16     1    20
 -1.6300453162814987E-02 a       396     0    16     1    21
 -6.7950467671706177E-02 a       397     0    16     1    22
  3.5532609915931779E-01 a       398     0    16     1    23
  1.0454582459343323E-02 a       399     0    16     1    24
  4.3418270322559338E-01 a       400     0    16     1    25
  4.3035266468599245E-02 a       401     0    17     1     1
  1.1639450186553184E-01 a       402     0    17     1     2
  4.3307785245367179E-02 a       403     0    17     1     3
 -1.1457624784134987E-01 a       404     0    17     1     4
  4.3519336700745315E-02 a       405     0    17     1     5
  1.3563441934823534E-02 a       406     0    17     1     6
  2.0268439060258079E-02 a       407     0    17     1     7
  8.8913459699806654E-03 a       408     0    17     1     8
 -9.3710873795817794E-03 a       409     0    17     1     9
  1.8407515053670231E-02 a       410     0    17     1    10
  4.5439954576605254E-02 a       411     0    17     1    11
  2.6816358711954584E-02 a       412     0    17     1    12
  1.9818765753576974E-02 a       413     0    17     1    13
  2.2255597385330575E-02 a       414     0    17     1    14
 -8.3117553261673166E-02 a       415     0    17     1    15
 -6.4049332088887440E-02 a       416     0    17     1    16
  2.9297262561040399E-02 a       417     0    17     1    17
 -7.8627746473304588E-02 a       418     0    17     1    18
 -1.6036641682127983E-02 a       419     0    17     1    19
  1.7594889983500178E-01 a       420     0    17     1    20
  1.1785267485187255E-02 a       421     0    17     1    21
  2.7825999999057240E-02 a       422     0    17     1    22
 -1.4452576007583876E-02 a       423     0    17     1    23
  1.2883890550395594E-01 a       424     0    17     1    24
  7.9421629364870655E-02 a       425     0    17     1    25
  1.1616880469636165E-01 a       426     0    18     1     1
 -1.2426867451569600E-01 a       427     0    18     1     2
 -7.6891680814487315E-02 a       428     0    18     1     3
  5.4194238391612894E-02 a       429     0    18     1     4
 -3.4583379207886608E-02 a       430     0    18     1     5
 -1.6931633769956225E-02 a       431     0    18     1     6
 -1.3488896183374488E-01 a       432     0    18     1     7
  5.6625353913051804E-02 a       433     0    18     1     8
 -3.1790598352830143E-02 a       434     0    18     1     9
  1.0194642110747142E-01 a       435     0    18     1    10
  1.1145568108195418E-02 a       436     0    18     1    11
  1.4834610876155292E-02 a       437     0    18     1    12
 -1.0872495389159366E-01 a       438     0    18     1    13
  6.3862953470757239E-02 a       439     0    18     1    14
  7.2288492036635760E-02 a       440     0    18     1    15
  8.5538864635219036E-02 a       441     0    18     1    16
  9.4730644571652173E-02 a       442     0    18     1    17
 -8.2370277621112514E-02 a       443     0    18     1    18
 -7.0286974838048133E-02 a       444     0    18     1    19
  3.3751506741060394E-02 a       445     0    18     1    20
 -2.9139878799429794E-02 a       446     0    18     1    21
  3.5063639221943388E-02 a       447     0    18     1    22
  1.0029930956992097E-01 a       448     0    18     1    23
  2.0210971150885687E-01 a       449     0    18     1    24
 -4.1464159861474149E-02 a       450     0    18     1    25
  1.2090310312225939E-01 a       451     0    19     1     1
 -7.3579854587875498E-02 a       452     0    19     1     2
 -8.2388040047595965E-02 a       453     0    19     1     3
 -4.4286591350642217E-02 a       454     0    19     1     4
 -9.7111847538607340E-02 a       455     0    19     1     5
 -1.3940298578435775E-02 a       456     0    19     1     6
  3.8830206556815315E-02 a       457     0    19     1     7
  1.5881882731550001E-02 a       458     0    19     1     8
 -7.1066375805914683E-02 a       459     0    19     1     9
  1.1923731636945632E-02 a       460     0    19     1    10
 -1.1098050006452602E-01 a       461     0    19     1    11
  9.9458271259525957E-02 a       462     0    19     1    12
  1.3855094732552214E-01 a       463     0    19     1    13
 -1.1288973885130874E-01 a       464     0    19     1    14
 -6.5168689462503204E-02 a       465     0    19     1    15
  5.7737374063615697E-02 a       466     0    19     1    16
  6.4454431130069781E-02 a       467     0    19     1    17
  1.0367363036161398E-01 a       468     0    19     1    18
  4.7796142869436203E-02 a       469     0    19     1    19
  3.7812261534928483E-02 a       470     0    19     1    20
  2.0654765759327448E-01 a       471     0    19     1    21
  1.3142695287476658E-01 a       472     0    19     1    22
 -9.0941359400078345E-02 a       473     0    19     1    23
  5.4520675883714259E-03 a       474     0    19     1    24
 -1.5172441060338547E-02 a       475     0    19     1    25
  2.1435844657043621E-01 a       476     0    20     1     1
  5.1591989288057982E-03 a       477     0    20     1     2
  4.7268281084634753E-02 a       478     0    20     1     3
  3.9505536491509959E-02 a       479     0    20     1     4
 -2.1714947904525037E-01 a       480     0    20     1     5
  3.9445952599158444E-02 a       481     0    20     1     6
  1.9215654456553228E-02 a       482     0    20     1     7
  1.6354623640208489E-02 a       483     0    20     1     8
 -4.0300631178968711E-02 a       484     0    20     1     9
 -7.6314841221557447E-02 a       485     0    20     1    10
 -1.5149621359384172E-01 a       486     0    20     1    11
  2.1577225861495933E-01 a       487     0    20     1    12
 -8.6869784685593324E-02 a       488     0    20     1    13
 -6.8579113550401583E-02 a       489     0    20     1    14
  5.1759201721480533E-03 a       490     0    20     1    15
  1.5206859506343584E-01 a       491     0    20     1    16
 -9.6956824824634857E-02 a       492     0    20     1    17
 -1.4571138944212614E-01 a       493     0    20     1    18
  1.7383704066058311E-01 a       494     0    20     1    19
  2.7021128845072157E-01 a       495     0    20     1    20
  2.3441137418787000E-01 a       496     0    20     1    21
  2.0849081255677038E-01 a       497     0    20     1    22
  4.8837900612571941E-02 a       498     0    20     1    23
  1.6156718349841183E-03 a       499     0    20     1    24
 -2.5988002616738320E-02 a       500     0    20     1    25
 -4.1356971203433901E-02 a       501     0    21     1     1
 -1.6184811851231123E-01 a       502     0    21     1     2
  1.3441007684058315E-01 a       503     0    21     1     3
  3.5841757868184293E-01 a       504     0    21     1     4
 -2.1727560624264375E-01 a       505     0    21     1     5
 -4.1396846834532736E-01 a       506     0    21     1     6
  2.5511284277214069E-01 a       507     0    21     1     7
 -1.2736869019635816E-01 a       508     0    21     1     8
  2.0098650342699620E-01 a       509     0    21     1     9
  1.5651167336047531E-01 a       510     0    21     1    10
  1.2909737575830207E-01 a       511     0    21     1    11
  2.2999761165746482E-01 a       512     0    21     1    12
 -1.1322356948092985E-01 a       513     0    21     1    13
  1.5277764698045396E-01 a       514     0    21     1    14
 -4.6862110365529575E-01 a       515     0    21     1    15
  5.7185956091294336E-02 a       516     0    21     1    16
  4.3537431860703669E-02 a       517     0    21     1    17
 -8.2254720419205368E-02 a       518     0    21     1    18
  7.6436789085481557E-02 a       519     0    21     1    19
  2.0997433999529527E-01 a       520     0    21     1    20
 -1.4731565547498293E-01 a       521     0    21     1    21
 -3.0148405450172411E-01 a       522     0    21     1    22
 -5.0319911162508786E-02 a       523     0    21     1    23
  7.0501890132597259E-03 a       524     0    21     1    24
 -2.2577758875447376E-01 a       525     0    21     1    25
 -2.1719009454445509E-01 a       526     0    22     1     1
  2.4469786568858209E-01 a       527     0    22     1     2
 -9.6298739708888281E-01 a       528     0    22     1     3
  3.4373869553770431E-01 a       529     0    22     1     4
 -8.4852005577469658E-01 a       530     0    22     1     5
 -6.5531002878292277E-01 a       531     0    22     1     6
 -1.7778554864133952E-01 a       532     0    22     1     7
 -5.2091613373873358E-01 a       533     0    22     1     8
  4.7030891580653633E-01 a       534     0    22     1     9
  8.0650896369405611E-01 a       535     0    22     1    10
  3.1143681653119903E-01 a       536     0    22     1    11
  4.8205524934781474E-02 a       537     0    22     1    12
 -2.6376571177356367E-01 a       538     0    22     1    13
 -1.9428738915222143E-01 a       539     0    22     1    14
 -7.3371217493581942E-01 a       540     0    22     1    15
  2.9820065360880527E-01 a       541     0    22     1    16
 -9.8564011856804257E-01 a       542     0    22     1    17
 -1.4479363488165606E-01 a       543     0    22     1    18
 -4.0221072674134234E-01 a       544     0    22     1    19
  2.6453451038790254E-01 a       545     0    22     1    20
 -4.0961798439762204E-01 a       546     0    22     1    21
 -2.6425914970281206E-01 a       547     0    22     1    22
 -3.0560479143257463E-01 a       548     0    22     1    23
  4.4872704306315320E-01 a       549     0    22     1    24
  4.2181836596465844E-01 a       550     0    22     1    25
  6.3312388167905054E-01 a       551     0    23     1     1
 -2.2938450415320288E-01 a       552     0    23     1     2
  3.1832198927795902E-01 a       553     0    23     1     3
  1.5487753417615643E-02 a       554     0    23     1     4
  6.2712407506558532E-01 a       555     0    23     1     5
  4.8375948911916605E-01 a       556     0    23     1     6
 -6.9651152202374139E-02 a       557     0    23     1     7
  4.9984521381765112E-01 a       558     0    23     1     8
 -3.7388943971051586E-01 a       559     0    23     1     9
 -5.4174302358378679E-01 a       560     0    23     1    10
 -1.8694972503583418E-01 a       561     0    23     1    11
 -2.1997899231826707E-04 a       562     0    23     1    12
  5.5460213104011558E-01 a       563     0    23     1    13
  3.2334078620981099E-01 a       564     0    23     1    14
 -2.6250852312125098E-02 a       565     0    23     1    15
 -4.1463619966986415E-01 a       566     0    23     1    16
  7.4579009105721039E-01 a       567     0    23     1    17
 -2.4642170803075464E-01 a       568     0    23     1    18
  8.2647665661683245E-01 a       569     0    23     1    19
  6.8723989435768698E-02 a       570     0    23     1    20
  2.3250276409111525E-01 a       571     0    23     1    21
  4.4469095257838448E-01 a       572     0    23     1    22
  1.3959495414602011E-01 a       573     0    23     1    23
 -3.5152081425682197E-01 a       574     0    23     1    24
 -2.6977047328662013E-01 a       575     0    23     1    25
  9.8556029951186175E-03 a       576     0    24     1     1
 -1.1770293403584192E-03 a       577     0    24     1     2
 -2.3539565803715034E-02 a       578     0    24     1     3
  5.8582782892805055E-03 a       579     0    24     1     4
  7.0910840632549777E-03 a       580     0    24     1     5
  3.6728688896035676E-03 a       581     0    24     1     6
  3.5360513453904736E-02 a       582     0    24     1     7
 -3.6389590091651665E-02 a       583     0    24     1     8
 -4.0244372998532597E-02 a       584     0    24     1     9
 -2.0900071936410126E-02 a       585     0    24     1    10
 -1.2946070808226982E-02 a       586     0    24     1    11
  1.0128301258642041E-02 a       587     0    24     1    12
 -1.8795099957738624E-03 a       588     0    24     1    13
 -2.9847322103855108E-02 a       589     0    24     1    14
 -5.0620356143050525E-03 a       590     0    24     1    15
 -1.9404027183295936E-03 a       591     0    24     1    16
 -5.0586528023744935E-02 a       592     0    24     1    17
 -2.3315909751724005E-02 a       593     0    24     1    18
 -1.6389677493275277E-02 a       594     0    24     1    19
  3.7318922633137075E-02 a       595     0    24     1    20
  4.2227604786851954E-02 a       596     0    24     1    21
  2.7036521557505175E-02 a       597     0    24     1    22
  4.9634363474624771E-03 a       598     0    24     1    23
 -2.3159192431443907E-02 a       599     0    24     1    24
 -3.5940323141295270E-02 a       600     0    24     1    25
  6.5603235953288569E-02 a       601     0    25     1     1
 -6.6467603992568266E-04 a       602     0    25     1     2
 -2.4815755510967038E-02 a       603     0    25     1     3
  6.7975371667042652E-03 a       604     0    25     1     4
 -5.6447004972746458E-03 a       605     0    25     1     5
  2.9616667781558404E-02 a       606     0    25     1     6
 -6.3175242815102317E-04 a       607     0    25     1     7
 -4.4877223534560834E-02 a       608     0    25     1     8
  3.6717858529521329E-02 a       609     0    25     1     9
  3.5437269821786345E-03 a       610     0    25     1    10
 -4.6027508322427815E-02 a       611     0    25     1    11
  3.5668617803018228E-02 a       612     0    25     1    12
 -5.1570994479454887E-02 a       613     0    25     1    13
 -6.9156991800921660E-03 a       614     0    25     1    14
  1.4802202036281917E-02 a       615     0    25     1    15
 -3.5623592965535578E-02 a       616     0    25     1    16
  8.3614356738733586E-03 a       617     0    25     1    17
  8.1594451096706197E-02 a       618     0    25     1    18
  2.0162793382568722E-02 a       619     0    25     1    19
  2.6373852876191498E-02 a       620     0    25     1    20
  9.8030228122275506E-03 a       621     0    25     1    21
 -8.9752811958851264E-02 a       622     0    25     1    22
 -1.0854182512982754E-02 a       623     0    25     1    23
 -4.7257476426116163E-02 a       624     0    25     1    24
  3.3084625762973718E-02 a       625     0    25     1    25
 -4.0314343773226093E-03 a       626     0    26     1     1
 -7.2098988604137838E-03 a       627     0    26     1     2
 -2.8316942247665445E-02 a       628     0    26     1     3
 -1.1430226114980870E-02 a       629     0    26     1     4
  6.0884063908309936E-03 a       630     0    26     1     5
 -1.6732231347993544E-02 a       631     0    26     1     6
 -6.6457224539518474E-04 a       632     0    26     1     7
 -4.6601456855275662E-02 a       633     0    26     1     8
 -3.4381547937058494E-03 a       634     0    26     1     9
 -1.5284979658104186E-02 a       635     0    26     1    10
 -5.5260018039468270E-02 a       636     0    26     1    11
 -2.8742982884578921E-02 a       637     0    26     1    12
 -3.2951904748183720E-02 a       638     0    26     1    13
 -6.3999542159784810E-03 a       639     0    26     1    14
  2.1551814966231059E-02 a       640     0    26     1    15
  2.4109342364166311E-02 a       641     0    26     1    16
 -1.5026190133871453E-03 a       642     0    26     1    17
 -2.9736335517297478E-02 a       643     0    26     1    18
 -2.5776849401703768E-02 a       644     0    26     1    19
  7.2501463401867167E-02 a       645     0    26     1    20
 -1.9742490694384131E-02 a       646     0    26     1    21
 -6.2368389574456638E-02 a       647     0    26     1    22
  4.4671961244161972E-02 a       648     0    26     1    23
  1.5715925467173560E-03 a       649     0    26     1    24
 -3.7028651980057024E-02 a       650     0    26     1    25
 -2.1723070672461538E-02 a       651     0    27     1     1
 -1.2624382483779648E-02 a       652     0    27     1     2
  6.1770955901700279E-02 a       653     0    27     1     3
 -4.4483023514256557E-02 a       654     0    27     1     4
  7.4716145616007409E-02 a       655     0    27     1     5
 -5.6797213628102198E-03 a       656     0    27     1     6
 -6.6651550854183547E-02 a       657     0    27     1     7
  2.1993866314451955E-02 a       658     0    27     1     8
  5.9598632630994249E-02 a       659     0    27     1     9
 -1.0519433943336008E-02 a       660     0    27     1    10
  4.2933008203788280E-02 a       661     0    27     1    11
 -8.7918793506555126E-02 a       662     0    27     1    12
  3.8708788405875494E-02 a       663     0    27     1    13
 -5.9093898310823647E-04 a       664     0    27     1    14
  1.8704737282813915E-03 a       665     0    27     1    15
 -3.0475375822371281E-02 a       666     0    27     1    16
 -4.4152560455756322E-02 a       667     0    27     1    17
 -6.9901465701568188E-02 a       668     0    27     1    18
 -6.6508463029422177E-02 a       669     0    27     1    19
 -2.4108567866974469E-02 a       670     0    27     1    20
 -5.4922353661892465E-02 a       671     0    27     1    21
 -4.5764637624265423E-03 a       672     0    27     1    22
 -3.9297894582044531E-03 a       673     0    27     1    23
  4.9193340049485799E-02 a       674     0    27     1    24
 -4.3459211644594070E-02 a       675     0    27     1    25
 -1.4696194747554847E-01 a       676     0    28     1     1
 -3.3306800174955653E-01 a       677     0    28     1     2
  7.1204034235672986E-01 a       678     0    28     1     3
 -6.2223192110825776E-01 a       679     0    28     1     4
  4.5443944007392217E-01 a       680     0    28     1     5
  1.9761713873311396E-01 a       681     0    28     1     6
  1.0703293515765160E-01 a       682     0    28     1     7
 -2.4974738663978541E-01 a       683     0    28     1     8
  4.4021842906529197E-02 a       684     0    28     1     9
 -1.9708889998194487E-01 a       685     0    28     1    10
 -5.8484292260204601E-02 a       686     0    28     1    11
  2.4838232582920478E-01 a       687     0    28     1    12
 -1.4738103962498028E-01 a       688     0    28     1    13
 -5.0955775046247842E-01 a       689     0    28     1    14
  7.6342927361391000E-01 a       690     0    28     1    15
  1.3702626799684392E-01 a       691     0    28     1    16
  4.2336601059162821E-01 a       692     0    28     1    17
  3.8770156910334247E-01 a       693     0    28     1    18
 -6.3902799907511043E-01 a       694     0    28     1    19
  8.9857656027516677E-03 a       695     0    28     1    20
  1.3873134315518987E-01 a       696     0    28     1    21
  2.3220336401596009E-01 a       697     0    28     1    22
  2.9806731681049292E-01 a       698     0    28     1    23
 -8.7768341020660282E-03 a       699     0    28     1    24
  7.3723373784662614E-03 a       700     0    28     1    25
  1.3387308101186657E-01 a       701     0    29     1     1
 -2.5095564503879474E-02 a       702     0    29     1     2
 -1.2520362000408822E-01 a       703     0    29     1     3
  2.9929092375348776E-01 a       704     0    29     1     4
  9.4664170327518657E-02 a       705     0    29     1     5
  5.5630351458409144E-01 a       706     0    29     1     6
 -2.6458248064692913E-01 a       707     0    29     1     7
  4.9515900395602569E-01 a       708     0    29     1     8
 -2.2681440005650894E-01 a       709     0    29     1     9
 -1.3486345016615964E-01 a       710     0    29     1    10
 -3.5351235101381537E-02 a       711     0    29     1    11
  6.2965006518040906E-02 a       712     0    29     1    12
  3.0851400681451802E-01 a       713     0    29     1    13
  3.3941774299605837E-01 a       714     0    29     1    14
 -3.9083142832295931E-01 a       715     0    29     1    15
 -1.6690575147113759E-01 a       716     0    29     1    16
  7.2524421738426367E-02 a       717     0    29     1    17
 -2.2265427232804741E-01 a       718     0    29     1    18
  5.3819765716839418E-01 a       719     0    29     1    19
 -1.0959356857240912E-01 a       720     0    29     1    20
  2.1139090530728072E-01 a       721     0    29     1    21
 -4.4501821783433605E-03 a       722     0    29     1    22
 -1.3476867769681819E-01 a       723     0    29     1    23
 -1.7913397959074287E-01 a       724     0    29     1    24
 -1.1914530068612285E-01 a       725     0    29     1    25
  3.2373599389068042E-01 a       726     0    30     1     1
 -5.9024898612538024E-01 a       727     0    30     1     2
 -2.1160836012915515E-02 a       728     0    30     1     3
 -2.6302052675343124E-01 a       729     0    30     1     4
 -3.9093485332809219E-01 a       730     0    30     1     5
  7.0921701516109703E-01 a       731     0    30     1     6
  5.9283934044601827E-01 a       732     0    30     1     7
  4.5760996155027950E-01 a       733     0    30     1     8
  6.7174439866200530E-01 a       734     0    30     1     9
  1.2103819267287221E-01 a       735     0    30     1    10
 -4.3741789538627956E-01 a       736     0    30     1    11
  6.7215433450132678E-01 a       737     0    30     1    12
  1.4920269236402974E+00 a       738     0    30     1    13
 -6.6171256261198197E-01 a       739     0    30     1    14
 -8.4200266730398987E-01 a       740     0    30     1    15
  4.1408704318470141E-01 a       741     0    30     1    16
  7.4426950489042720E-01 a       742     0    30     1    17
  1.0716338753220378E+00 a       743     0    30     1    18
  2.8474271810659896E-01 a       744     0    30     1    19
  3.0192682563903050E-01 a       745     0    30     1    20
 -7.5254662973698327E-01 a       746     0    30     1    21
 -8.6856480638329370E-01 a       747     0    30     1    22
  9.9557919103152481E-01 a       748     0    30     1    23
  9.1091470586424406E-01 a       749     0    30     1    24
 -3.2415713442542876E-02 a       750     0    30     1    25
 -9.9394054066483828E-01 a       751     0    31     1     1
  1.0883082449128909E+00 a       752     0    31     1     2
 -2.3942145402348478E-01 a       753     0    31     1     3
  6.3550556697687874E-02 a       754     0    31     1     4
  6.8198935030271424E-01 a       755     0    31     1     5
 -1.5264105556884691E+00 a       756     0    31     1     6
 -1.5215541582432686E+00 a       757     0    31     1     7
 -9.1014809572025246E-01 a       758     0    31     1     8
 -1.0656722087733201E+00 a       759     0    31     1     9
  5.6876343886565073E-01 a       760     0    31     1    10
  1.5995678233176538E+00 a       761     0    31     1    11
 -1.4611210104246577E+00 a       762     0    31     1    12
 -2.3714554621565536E+00 a       763     0    31     1    13
  9.5876525285709258E-01 a       764     0    31     1    14
  2.1686265945596843E+00 a       765     0    31     1    15
 -1.3006057011314871E+00 a       766     0    31     1    16
 -9.0469559132416011E-01 a       767     0    31     1    17
 -7.7986634018911749E-01 a       768     0    31     1    18
 -7.2324442381396148E-01 a       769     0    31     1    19
 -1.0007814459682769E+00 a       770     0    31     1    20
  2.2887123188375980E+00 a       771     0    31     1    21
  6.3418087367451681E-01 a       772     0    31     1    22
 -1.9800282780545944E+00 a       773     0    31     1    23
 -1.3725060273626997E+00 a       774     0    31     1    24
  3.3476040451371469E-01 a       775     0    31     1    25
 -3.0613812790773737E-01 a       776     0    32     1     1
  2.4924675384197945E-01 a       777     0    32     1     2
 -4.2698852882078486E-01 a       778     0    32     1     3
  2.9462131915696200E-03 a       779     0    32     1     4
  4.1192233033708836E-01 a       780     0    32     1     5
  3.8446085601622648E-01 a       781     0    32     1     6
  3.4211679093097125E-01 a       782     0    32     1     7
  2.3117959136267233E-01 a       783     0    32     1     8
  1.2981319502401369E-02 a       784     0    32     1     9
  8.1271512493238288E-02 a       785     0    32     1    10
 -1.0460123691488878E+00 a       786     0    32     1    11
  6.5196836458033280E-01 a       787     0    32     1    12
  5.5661013292463002E-01 a       788     0    32     1    13
  4.1607980762971349E-02 a       789     0    32     1    14
  5.5927597851948485E-03 a       790     0    32     1    15
 -3.4172182061570755E-01 a       791     0    32     1    16
  7.1562436796616691E-01 a       792     0    32     1    17
  6.9602532873885667E-02 a       793     0    32     1    18
  1.7892728543300698E-01 a       794     0    32     1    19
  3.9294321010455535E-01 a       795     0    32     1    20
 -5.3307321258523743E-01 a       796     0    32     1    21
  2.7043962713437059E-01 a       797     0    32     1    22
  2.5052960693700427E-01 a       798     0    32     1    23
  1.4275920742026587E+00 a       799     0    32     1    24
 -8.2748322224262691E-02 a       800     0    32     1    25
 -1.8129832115294015E-01 a       801     0    33     1     1
 -1.0940242163713014E+00 a       802     0    33     1     2
  7.5389290963672573E-01 a       803     0    33     1     3
  2.9484403235286499E-01 a       804     0    33     1     4
 -5.6826274026033985E-01 a       805     0    33     1     5
  5.1245724545224547E-01 a       806     0    33     1     6
  2.0751638832991164E+00 a       807     0    33     1     7
  3.2967807004609023E-01 a       808     0    33     1     8
  5.7675355325022959E-01 a       809     0    33     1     9
 -6.6763947980645655E-01 a       810     0    33     1    10
 -9.6413075156094541E-01 a       811     0    33     1    11
  1.0232825174236584E+00 a       812     0    33     1    12
  1.3209600963546402E+00 a       813     0    33     1    13
 -8.6533635493279526E-01 a       814     0    33     1    14
 -1.3800432424084346E+00 a       815     0    33     1    15
  1.0198143421177617E+00 a       816     0    33     1    16
  1.0142966408889180E+00 a       817     0    33     1    17
  3.7071478553444998E-01 a       818     0    33     1    18
  1.0384255443072805E+00 a       819     0    33     1    19
  9.9189100433670108E-01 a       820     0    33     1    20
 -6.2877243498239488E-01 a       821     0    33     1    21
  4.6698083576788757E-02 a       822     0    33     1    22
  1.3630942534772426E+00 a       823     0    33     1    23
  9.4753707255745745E-01 a       824     0    33     1    24
 -9.8751483164520787E-02 a       825     0    33     1    25
 -5.1359219010367729E-01 a       826     0    34     1     1
  9.3083851029280873E-01 a       827     0    34     1     2
 -6.1326203461822948E-01 a       828     0    34     1     3
  6.1630129972626357E-01 a       829     0    34     1     4
  9.6516564835015251E-01 a       830     0    34     1     5
 -1.1198020485082696E+00 a       831     0    34     1     6
 -1.5705179597751571E+00 a       832     0    34     1     7
  6.2727866003286525E-01 a       833     0    34     1     8
 -7.7334905828015565E-01 a       834     0    34     1     9
  3.2053826654921395E-02 a       835     0    34     1    10
  3.4821199341868658E-01 a       836     0    34     1    11
 -1.0466294637077409E+00 a       837     0    34     1    12
 -2.0199907108377024E+00 a       838     0    34     1    13
  1.0769570466439522E+00 a       839     0    34     1    14
  1.3666934519342280E+00 a       840     0    34     1    15
 -1.0774166298247996E+00 a       841     0    34     1    16
 -1.0308367927257516E+00 a       842     0    34     1    17
 -7.9971957585435571E-01 a       843     0    34     1    18
  3.4251267878278938E-02 a       844     0    34     1    19
 -1.8210662155713733E-01 a       845     0    34     1    20
  1.6677462998167911E+00 a       846     0    34     1    21
  1.4390106937036282E+00 a       847     0    34     1    22
 -2.1122082035950505E+00 a       848     0    34     1    23
 -1.8907371801056518E+00 a       849     0    34     1    24
  5.6920466122961033E-01 a       850     0    34     1    25
  5.3744702965354074E-01 a       851     0    35     1     1
 -1.7846368836099931E+00 a       852     0    35     1     2
  3.1236610588234609E-01 a       853     0    35     1     3
 -3.0402544702702872E-01 a       854     0    35     1     4
 -8.3601876896030936E-01 a       855     0    35     1     5
  2.2628873341457845E+00 a       856     0    35     1     6
  2.6823724617910605E+00 a       857     0    35     1     7
  9.0838438157926071E-01 a       858     0    35     1     8
  9.9069484064486779E-01 a       859     0    35     1     9
 -9.9347457274844297E-01 a       860     0    35     1    10
 -2.3416440016067410E+00 a       861     0    35     1    11
  1.2839065193666928E+00 a       862     0    35     1    12
  3.0320514909343292E+00 a       863     0    35     1    13
 -1.3066583501223941E+00 a       864     0    35     1    14
 -2.5618189240855602E+00 a       865     0    35     1    15
  3.0827648217159895E+00 a       866     0    35     1    16
  1.2212683252656769E+00 a       867     0    35     1    17
  1.7082421736577222E+00 a       868     0    35     1    18
  1.8661324698211208E+00 a       869     0    35     1    19
  1.4908306434443837E+00 a       870     0    35     1    20
 -3.3262105521265446E+00 a       871     0    35     1    21
 -1.3979403517856996E+00 a       872     0    35     1    22
  2.7286462317200129E+00 a       873     0    35     1    23
  1.5803735685545957E+00 a       874     0    35     1    24
 -6.0366951518044465E-01 a       875     0    35     1    25
 -5.8753850782968087E-01 a       876     0    36     1     1
  3.5814256944646311E-01 a       877     0    36     1     2
 -8.2187660045675182E-02 a       878     0    36     1     3
  1.0959268151230943E-01 a       879     0    36     1     4
 -6.7251644694278245E-02 a       880     0    36     1     5
 -6.5454592745943785E-01 a       881     0    36     1     6
 -1.0272373824926617E+00 a       882     0    36     1     7
 -3.8707503143071631E-01 a       883     0    36     1     8
 -3.9474659637188353E-01 a       884     0    36     1     9
  3.0476176030689833E-02 a       885     0    36     1    10
  1.1269823338413318E+00 a       886     0    36     1    11
 -3.1265325232926677E-01 a       887     0    36     1    12
 -1.9763626919873079E+00 a       888     0    36     1    13
  2.0246168463475706E-01 a       889     0    36     1    14
  7.3300600148524542E-01 a       890     0    36     1    15
 -6.5315480745505494E-01 a       891     0    36     1    16
 -1.3464246602869636E+00 a       892     0    36     1    17
 -7.1925255564545276E-01 a       893     0    36     1    18
 -3.2630611344904348E-01 a       894     0    36     1    19
 -3.2046400294780869E-01 a       895     0    36     1    20
  1.3693911319016343E+00 a       896     0    36     1    21
  2.4660480679829180E-01 a       897     0    36     1    22
 -1.2169419361678786E+00 a       898     0    36     1    23
 -2.8146872349707797E-01 a       899     0    36     1    24
 -5.1310170821384127E-01 a       900     0    36     1    25
 -1.0495810834324069E+00 a       901     0    37     1     1
  1.9636434386329205E+00 a       902     0    37     1     2
 -1.3904976019193840E+00 a       903     0    37     1     3
  5.9333022425900261E-01 a       904     0    37     1     4
 -1.5919063272834974E-01 a       905     0    37     1     5
 -4.2295052558582019E-01 a       906     0    37     1     6
 -2.0592351065480119E+00 a       907     0    37     1     7
 -1.4527937961818147E+00 a       908     0    37     1     8
 -8.3122166815499354E-01 a       909     0    37     1     9
  1.7172538728434197E+00 a       910     0    37     1    10
  1.5210516882368412E+00 a       911     0    37     1    11
 -6.3122352067851051E-01 a       912     0    37     1    12
 -1.9994331237814718E+00 a       913     0    37     1    13
  1.5252534133796891E-01 a       914     0    37     1    14
  2.5479329009088021E+00 a       915     0    37     1    15
 -2.0673913703004865E+00 a       916     0    37     1    16
 -9.8911689714223927E-01 a       917     0    37     1    17
 -1.0852748496245228E+00 a       918     0    37     1    18
 -2.3357005685172005E+00 a       919     0    37     1    19
 -1.6388972727595787E+00 a       920     0    37     1    20
  2.5913875464131686E+00 a       921     0    37     1    21
  1.3807369624072650E+00 a       922     0    37     1    22
 -3.1757036516258101E+00 a       923     0    37     1    23
 -4.7948488378680121E-01 a       924     0    37     1    24
  4.7565081653565444E-01 a       925     0    37     1    25
 -2.5988329667806714E-01 a       926     0    38     1     1
 -4.7022789930481085E-01 a       927     0    38     1     2
  1.2965273311534631E-01 a       928     0    38     1     3
 -6.4269097924552543E-02 a       929     0    38     1     4
 -7.5014295596630842E-01 a       930     0    38     1     5
  4.8964222759091702E-01 a       931     0    38     1     6
  9.0764833108241483E-01 a       932     0    38     1     7
  2.4038492161951491E-01 a       933     0    38     1     8
  6.1201297944789845E-01 a       934     0    38     1     9
 -1.0807366444265240E-01 a       935     0    38     1    10
 -6.3612186729523867E-01 a       936     0    38     1    11
  6.1204697156644106E-01 a       937     0    38     1    12
  3.9299361077788508E-01 a       938     0    38     1    13
 -2.8880347815494911E-01 a       939     0    38     1    14
 -5.2196706792143210E-01 a       940     0    38     1    15
  4.3100581641799285E-01 a       941     0    38     1    16
  1.4273810864461309E-01 a       942     0    38     1    17
  7.6251676530871726E-01 a       943     0    38     1    18
  8.6536154516529407E-02 a       944     0    38     1    19
  4.0827405527127947E-01 a       945     0    38     1    20
 -3.9450875329543278E-01 a       946     0    38     1    21
 -4.0200422419165460E-01 a       947     0    38     1    22
  4.4637046516332946E-01 a       948     0    38     1    23
  7.6790613713764921E-01 a       949     0    38     1    24
 -1.6950737579324521E-01 a       950     0    38     1    25
 -2.7070141231373201E-01 a       951     0    39     1     1
  3.5168900780202561E-01 a       952     0    39     1     2
 -2.6942653759362856E-01 a       953     0    39     1     3
  1.5729722598291965E-01 a       954     0    39     1     4
  3.4008239619188102E-01 a       955     0    39     1     5
 -2.4337446711534888E-01 a       956     0    39     1     6
 -1.3424398831044992E+00 a       957     0    39     1     7
 -3.4671467514331206E-01 a       958     0    39     1     8
 -4.4534159542038848E-01 a       959     0    39     1     9
  5.9911511467686729E-01 a       960     0    39     1    10
  7.8316349296303511E-01 a       961     0    39     1    11
 -7.9921573066334384E-01 a       962     0    39     1    12
 -4.8002932402097537E-01 a       963     0    39     1    13
  1.6239997984354904E-01 a       964     0    39     1    14
  3.2283446754106843E-01 a       965     0    39     1    15
 -1.2246983073230469E+00 a       966     0    39     1    16
 -3.1807637391687593E-01 a       967     0    39     1    17
 -4.9487488699668808E-01 a       968     0    39     1    18
 -7.3134729644331031E-01 a       969     0    39     1    19
 -1.7997986566532431E-01 a       970     0    39     1    20
  2.5883760425251773E-01 a       971     0    39     1    21
  2.3963344415449542E-01 a       972     0    39     1    22
 -6.0471527154778559E-01 a       973     0    39     1    23
 -1.1236022526287432E+00 a       974     0    39     1    24
  6.2306880378318963E-01 a       975     0    39     1    25
  2.5064599799891912E-01 a       976     0    40     1     1
 -7.1066485056931272E-01 a       977     0    40     1     2
  7.2049104242615103E-01 a       978     0    40     1     3
 -6.4168332089127056E-01 a       979     0    40     1     4
 -3.0251056176693936E-01 a       980     0    40     1     5
  4.3041367856721557E-01 a       981     0    40     1     6
  6.8362484208195973E-01 a       982     0    40     1     7
  2.5351204058385440E-01 a       983     0    40     1     8
  5.9432859933694127E-01 a       984     0    40     1     9
 -1.8115191581712359E-01 a       985     0    40     1    10
  3.0881706618864269E-01 a       986     0    40     1    11
  1.8333872055099698E-01 a       987     0    40     1    12
  2.7179119303890542E-01 a       988     0    40     1    13
 -1.5610208545699250E-01 a       989     0    40     1    14
 -6.1365658015075941E-01 a       990     0    40     1    15
  3.0799651201580658E-01 a       991     0    40     1    16
  2.0299092851583977E-01 a       992     0    40     1    17
  4.8309922404008457E-02 a       993     0    40     1    18
  5.6395812211818031E-01 a       994     0    40     1    19
  2.4615455886119497E-01 a       995     0    40     1    20
  2.9017613715126922E-01 a       996     0    40     1    21
 -2.9113069069624681E-01 a       997     0    40     1    22
  5.0707618628556250E-01 a       998     0    40     1    23
 -2.0838067609603483E-01 a       999     0    40     1    24
 -7.3105123781819326E-01 a      1000     0    40     1    25
  2.0396984777116806E-01 a      1001     0    41     1     1
 -3.2182409893859171E-01 a      1002     0    41     1     2
  4.5455393034980501E-01 a      1003     0    41     1     3
  2.2156170911422125E-02 a      1004     0    41     1     4
  4.9033543913786742E-01 a      1005     0    41     1     5
  5.6033787681583687E-02 a      1006     0    41     1     6
  5.4668361697181767E-01 a      1007     0    41     1     7
  3.1378648000783427E-01 a      1008     0    41     1     8
 -4.1819123330237534E-01 a      1009     0    41     1     9
 -6.6593066095544406E-01 a      1010     0    41     1    10
 -4.4168227570182322E-01 a      1011     0    41     1    11
  8.7836828025226055E-01 a      1012     0    41     1    12
  1.5053504715719077E+00 a      1013     0    41     1    13
 -2.2601332457696241E-01 a      1014     0    41     1    14
 -8.6991259017562139E-01 a      1015     0    41     1    15
  1.3937915200884068E-01 a      1016     0    41     1    16
  2.7498059810230668E-01 a      1017     0    41     1    17
  3.1921108360714723E-01 a      1018     0    41     1    18
  1.4230040501129135E+00 a      1019     0    41     1    19
  7.4150717535880997E-02 a      1020     0    41     1    20
 -4.1537439127333853E-01 a      1021     0    41     1    21
 -2.4069556109834622E-01 a      1022     0    41     1    22
  3.6847613947943642E-01 a      1023     0    41     1    23
  4.7082134183999519E-01 a      1024     0    41     1    24
 -8.8344027312314022E-01 a      1025     0    41     1    25
 -9.1743041550071625E-02 a      1026     0    42     1     1
 -3.7690641545464332E-01 a      1027     0    42     1     2
  5.0355155484254466E-01 a      1028     0    42     1     3
 -5.2961474060073732E-01 a      1029     0    42     1     4
 -6.7420844101230171E-01 a      1030     0    42     1     5
  3.2271398784227856E-01 a      1031     0    42     1     6
  7.9127853201680376E-01 a      1032     0    42     1     7
  4.0849999318201602E-02 a      1033     0    42     1     8
  3.4735946076128738E-01 a      1034     0    42     1     9
 -2.3165561998920184E-01 a      1035     0    42     1    10
 -3.3247767872568929E-01 a      1036     0    42     1    11
  1.5570019348533640E-01 a      1037     0    42     1    12
  1.8212488866132581E-01 a      1038     0    42     1    13
 -5.1645726284983962E-01 a      1039     0    42     1    14
 -9.8839273623515217E-02 a      1040     0    42     1    15
  3.7152621873620595E-01 a      1041     0    42     1    16
  5.5219158421323278E-01 a      1042     0    42     1    17
  4.9556810750837438E-01 a      1043     0    42     1    18
 -2.4505799176961429E-01 a      1044     0    42     1    19
  2.5242463242605195E-01 a      1045     0    42     1    20
 -3.8611816141410649E-01 a      1046     0    42     1    21
 -3.1193041182412629E-01 a      1047     0    42     1    22
  7.5351716017225978E-01 a      1048     0    42     1    23
  6.1073553062569619E-01 a      1049     0    42     1    24
  6.1414016158526381E-02 a      1050     0    42     1    25
  1.2055575816785469E-01 a      1051     0    43     1     1
  2.8064563527717901E-02 a      1052     0    43     1     2
  5.3577389114587559E-01 a      1053     0    43     1     3
  5.1717733112392617E-01 a      1054     0    43     1     4
  5.9503624221512608E-01 a      1055     0    43     1     5
 -6.3616887059190097E-01 a      1056     0    43     1     6
 -1.0804229199833384E+00 a      1057     0    43     1     7
 -2.9585674824374419E-01 a      1058     0    43     1     8
 -9.8727383352951004E-01 a      1059     0    43     1     9
  2.8246242374568836E-03 a      1060     0    43     1    10
  1.1829968392253236E+00 a      1061     0    43     1    11
  5.7236488627954565E-02 a      1062     0    43     1    12
  1.3783238734157646E-01 a      1063     0    43     1    13
  1.6507368611856449E-01 a      1064     0    43     1    14
 -9.6052158413318975E-02 a      1065     0    43     1    15
 -1.3729931128063408E+00 a      1066     0    43     1    16
 -6.8293980557755296E-01 a      1067     0    43     1    17
 -3.2466208016077197E-01 a      1068     0    43     1    18
 -1.6340505182020015E-02 a      1069     0    43     1    19
 -2.4372778666765718E-01 a      1070     0    43     1    20
  6.7703375747084993E-01 a      1071     0    43     1    21
 -4.3136118684998570E-01 a      1072     0    43     1    22
 -9.3349626766410482E-02 a      1073     0    43     1    23
 -1.2471220151622894E-01 a      1074     0    43     1    24
  2.9914215460591292E-01 a      1075     0    43     1    25
  3.2953631570226199E-01 a      1076     0    44     1     1
 -4.2564557915497908E-01 a      1077     0    44     1     2
  1.1525045608932254E-01 a      1078     0    44     1     3
 -4.0064702227875160E-01 a      1079     0    44     1     4
 -6.0663567294639176E-01 a      1080     0    44     1     5
  3.5710991405361020E-01 a      1081     0    44     1     6
  8.9009788966330217E-01 a      1082     0    44     1     7
  2.1710184965223642E-01 a      1083     0    44     1     8
  6.6426487691208058E-01 a      1084     0    44     1     9
  5.2999132239530851E-02 a      1085     0    44     1    10
 -4.1903931597626221E-01 a      1086     0    44     1    11
 -4.0803459341183415E-02 a      1087     0    44     1    12
  9.3896465939807305E-01 a      1088     0    44     1    13
 -9.7120522672754908E-02 a      1089     0    44     1    14
 -6.2524215758610135E-01 a      1090     0    44     1    15
  7.4879975410574395E-01 a      1091     0    44     1    16
  6.7800101556619119E-01 a      1092     0    44     1    17
  2.1697098369870910E-02 a      1093     0    44     1    18
  5.6142783530079898E-01 a      1094     0    44     1    19
  3.3740615813810648E-01 a      1095     0    44     1    20
 -3.2807929794279567E-01 a      1096     0    44     1    21
 -4.2902440239938194E-01 a      1097     0    44     1    22
  5.8857349991897179E-01 a      1098     0    44     1    23
  6.5349711861859894E-02 a      1099     0    44     1    24
 -7.3440611713867759E-02 a      1100     0    44     1    25
  4.1363864943170209E-01 a      1101     0    45     1     1
 -8.2626405685652038E-01 a      1102     0    45     1     2
  4.0351101402695250E-01 a      1103     0    45     1     3
 -1.9800583756866666E-01 a      1104     0    45     1     4
  5.8334431341930271E-01 a      1105     0    45     1     5
 -4.2747209897161126E-01 a      1106     0    45     1     6
  9.6155016773909052E-01 a      1107     0    45     1     7
  6.6670220094571853E-01 a      1108     0    45     1     8
  4.2417465748814631E-01 a      1109     0    45     1     9
 -1.3157823008132594E+00 a      1110     0    45     1    10
 -5.5508431614912257E-01 a      1111     0    45     1    11
 -2.7068064561186267E-02 a      1112     0    45     1    12
  7.1544790632748723E-01 a      1113     0    45     1    13
  2.4196234066149244E-01 a      1114     0    45     1    14
 -1.0512251772984753E+00 a      1115     0    45     1    15
  1.0754479778065527E+00 a      1116     0    45     1    16
  7.5489541221630252E-01 a      1117     0    45     1    17
  2.8418939637376728E-01 a      1118     0    45     1    18
  1.6468439884031703E+00 a      1119     0    45     1    19
  7.6793976736847025E-01 a      1120     0    45     1    20
 -6.7393413721078566E-01 a      1121     0    45     1    21
 -1.3949863653057332E-01 a      1122     0    45     1    22
  1.0927703015545869E+00 a      1123     0    45     1    23
 -4.3228031627381946E-01 a      1124     0    45     1    24
 -7.0074240997142989E-01 a      1125     0    45     1    25
 -1.3669925403159340E-02 a      1126     0    46     1     1
  7.8686623234790365E-02 a      1127     0    46     1     2
 -9.3489910121582587E-02 a      1128     0    46     1     3
 -1.2167758702056430E-01 a      1129     0    46     1     4
 -7.3874368744246466E-02 a      1130     0    46     1     5
 -2.2279298329943079E-01 a      1131     0    46     1     6
 -6.7588560620571669E-02 a      1132     0    46     1     7
  8.3968207999555886E-02 a      1133     0    46     1     8
 -6.5089184663170041E-02 a      1134     0    46     1     9
  1.0797014964689418E-01 a      1135     0    46     1    10
 -1.2397874605410220E-01 a      1136     0    46     1    11
 -5.1233846745528755E-01 a      1137     0    46     1    12
 -3.2591446179376560E-01 a      1138     0    46     1    13
  1.1106375007897067E-02 a      1139     0    46     1    14
  1.6229291131811535E-01 a      1140     0    46     1    15
  2.5386189459090394E-02 a      1141     0    46     1    16
 -3.2181732671476581E-03 a      1142     0    46     1    17
 -1.3223858296462457E-02 a      1143     0    46     1    18
 -1.9264200134022536E-01 a      1144     0    46     1    19
 -1.7003404480256470E-01 a      1145     0    46     1    20
  1.2766275806314595E-01 a      1146     0    46     1    21
  2.7376630956134496E-01 a      1147     0    46     1    22
 -5.7635908563233466E-02 a      1148     0    46     1    23
  1.9134654587535216E-01 a      1149     0    46     1    24
  3.9287396944419056E-01 a      1150     0    46     1    25
  1.0319045789291660E-02 a      1151     0    47     1     1
 -1.8496667405634597E-02 a      1152     0    47     1     2
  2.1640553813740654E-01 a      1153     0    47     1     3
  3.3250431849277517E-01 a      1154     0    47     1     4
 -2.5038028441076762E-02 a      1155     0    47     1     5
  2.3816608667910466E-02 a      1156     0    47     1     6
  2.6943732420175054E-01 a      1157     0    47     1     7
  1.4023010437931130E-01 a      1158     0    47     1     8
 -3.1862207750964749E-01 a      1159     0    47     1     9
 -3.8334657724384776E-02 a      1160     0    47     1    10
 -4.3730431238442301E-03 a      1161     0    47     1    11
  3.2438445167845736E-01 a      1162     0    47     1    12
  6.5228383558029429E-02 a      1163     0    47     1    13
 -6.8646641593809038E-02 a      1164     0    47     1    14
 -1.6185658081223095E-01 a      1165     0    47     1    15
  5.1482607086509376E-02 a      1166     0    47     1    16
  1.4779516349586921E-02 a      1167     0    47     1    17
  8.3406168505010148E-02 a      1168     0    47     1    18
  2.2717307909693815E-01 a      1169     0    47     1    19
 -6.3741126935843870E-02 a      1170     0    47     1    20
 -1.5709278598670728E-02 a      1171     0    47     1    21
 -3.7843019774501940E-01 a      1172     0    47     1    22
  1.2767668015435424E-01 a      1173     0    47     1    23
  2.4495728051518501E-01 a      1174     0    47     1    24
  9.8705324975634820E-02 a      1175     0    47     1    25
 -5.3644829689310416E-03 a      1176     0    48     1     1
  7.4181863961760991E-02 a      1177     0    48     1     2
 -2.0637290166882682E-01 a      1178     0    48     1     3
 -7.5050574034191159E-02 a      1179     0    48     1     4
 -4.0159485261210992E-01 a      1180     0    48     1     5
 -5.0728918691223278E-02 a      1181     0    48     1     6
 -5.2427219416562108E-02 a      1182     0    48     1     7
 -1.1420965166624551E-01 a      1183     0    48     1     8
  1.6886390144991989E-01 a      1184     0    48     1     9
 -1.3446438472069080E-01 a      1185     0    48     1    10
 -2.2376457852814685E-01 a      1186     0    48     1    11
 -7.0011170664523850E-02 a      1187     0    48     1    12
  2.5449296455839809E-01 a      1188     0    48     1    13
  9.9585520542381817E-02 a      1189     0    48     1    14
 -1.3136358665937134E-01 a      1190     0    48     1    15
  7.7309098641948404E-02 a      1191     0    48     1    16
 -7.0893065244088574E-02 a      1192     0    48     1    17
 -1.3956101312995547E-01 a      1193     0    48     1    18
  6.9810473373796034E-02 a      1194     0    48     1    19
 -3.3451644325632013E-01 a      1195     0    48     1    20
  1.6805864580758995E-01 a      1196     0    48     1    21
 -1.3674086939006838E-01 a      1197     0    48     1    22
 -1.2296278208512067E-01 a      1198     0    48     1    23
  3.2940857223555131E-01 a      1199     0    48     1    24
  1.8301945687626144E-02 a      1200     0    48     1    25
  2.0714113278948641E-02 a      1201     0    49     1     1
  3.2158681942644141E-01 a      1202     0    49     1     2
 -6.0634860300774795E-01 a      1203     0    49     1     3
  1.7803034204903845E-01 a      1204     0    49     1     4
 -3.4277776417170824E-01 a      1205     0    49     1     5
 -5.3705814534022189E-01 a      1206     0    49     1     6
 -2.4455779322847865E-01 a      1207     0    49     1     7
 -3.6031608165608364E-01 a      1208     0    49     1     8
  7.8516821100414053E-02 a      1209     0    49     1     9
  6.4064739655998182E-02 a      1210     0    49     1    10
  3.3216679597695906E-03 a      1211     0    49     1    11
 -7.4609419599939752E-01 a      1212     0    49     1    12
 -8.4239644493450649E-01 a      1213     0    49     1    13
  4.4058182699984116E-01 a      1214     0    49     1    14
 -8.6257199872526780E-02 a      1215     0    49     1    15
  3.9621572837079022E-01 a      1216     0    49     1    16
 -1.8679708236582576E-01 a      1217     0    49     1    17
 -3.5789909390817171E-01 a      1218     0    49     1    18
 -1.2641653236708802E-01 a      1219     0    49     1    19
  1.7035018444231873E-01 a      1220     0    49     1    20
  2.5430325314673108E-01 a      1221     0    49     1    21
  1.1701528931893244E-01 a      1222     0    49     1    22
 -2.8535799536461248E-01 a      1223     0    49     1    23
 -6.4996434088213073E-01 a      1224     0    49     1    24
  3.0844494702952518E-01 a      1225     0    49     1    25
 -7.1915385661266651E-02 a      1226     0    50     1     1
 -3.6210408754463780E-01 a      1227     0    50     1     2
  2.7541231687805812E-01 a      1228     0    50     1     3
  2.0094226440082003E-01 a      1229     0    50     1     4
  9.0949810968417796E-03 a      1230     0    50     1     5
  5.5872511640776712E-01 a      1231     0    50     1     6
  2.0720020662083585E-01 a      1232     0    50     1     7
  3.3745804029526072E-01 a      1233     0    50     1     8
  1.1229085247276664E-02 a      1234     0    50     1     9
 -7.1262303643333047E-01 a      1235     0    50     1    10
 -4.3687410517591468E-01 a      1236     0    50     1    11
  2.2335860944808239E-01 a      1237     0    50     1    12
 -5.7813425946137125E-03 a      1238     0    50     1    13
 -1.9652134326743070E-01 a      1239     0    50     1    14
  3.1676042164077539E-01 a      1240     0    50     1    15
  1.4269917818110742E-01 a      1241     0    50     1    16
 -2.3806559173611946E-01 a      1242     0    50     1    17
  6.2591748035250236E-02 a      1243     0    50     1    18
  9.5046491062707225E-02 a      1244     0    50     1    19
 -1.4240657097689161E-01 a      1245     0    50     1    20
 -3.4705073256898711E-01 a      1246     0    50     1    21
 -5.5985063847604405E-02 a      1247     0    50     1    22
 -8.7272499267102135E-02 a      1248     0    50     1    23
 -2.4833662526267780E-01 a      1249     0    50     1    24
 -4.9133833341002958E-01 a      1250     0    50     1    25
 -6.8837277459795054E-01 a      1251     0    51     1     1
 -3.3361455002721523E-02 a      1252     0    51     1     2
  5.8720150949324224E-01 a      1253     0    51     1     3
 -5.1572896282587943E-01 a      1254     0    51     1     4
 -5.1847972492496230E-01 a      1255     0    51     1     5
  1.6475094892699244E-01 a      1256     0    51     1     6
  1.9389179275171795E-01 a      1257     0    51     1     7
  1.4668344380914980E-01 a      1258     0    51     1     8
  2.1989268276362692E-01 a      1259     0    51     1     9
 -4.3685109805113961E-02 a      1260     0    51     1    10
 -2.0980170572530699E-01 a      1261     0    51     1    11
 -1.5140977622554630E-01 a      1262     0    51     1    12
 -3.9307440913777963E-01 a      1263     0    51     1    13
 -2.3414441423049204E-01 a      1264     0    51     1    14
  7.7552930102970286E-01 a      1265     0    51     1    15
 -8.9821285973856510E-02 a      1266     0    51     1    16
  9.6943723564093184E-02 a      1267     0    51     1    17
  6.2585846252416144E-01 a      1268     0    51     1    18
 -8.2181916404300548E-01 a      1269     0    51     1    19
 -5.0678357953882425E-01 a      1270     0    51     1    20
  1.1717641453182616E-01 a      1271     0    51     1    21
 -2.1973898274165937E-01 a      1272     0    51     1    22
  6.3485621892978883E-01 a      1273     0    51     1    23
 -2.9884491691254145E-01 a      1274     0    51     1    24
  1.7664843679656404E-02 a      1275     0    51     1    25
  2.4667760195529773E-01 a      1276     0    52     1     1
  2.3592678223135155E-02 a      1277     0    52     1     2
  1.4683509044024462E-01 a      1278     0    52     1     3
  1.5937235392048485E-01 a      1279     0    52     1     4
 -9.9627706100560195E-02 a      1280     0    52     1     5
 -2.4513547731609582E-02 a      1281     0    52     1     6
 -5.7664957206175961E-02 a      1282     0    52     1     7
  2.0770920476551427E-01 a      1283     0    52     1     8
 -1.3236599299808113E-01 a      1284     0    52     1     9
  1.5732569458826412E-01 a      1285     0    52     1    10
  4.6908818298248639E-02 a      1286     0    52     1    11
 -4.5584215136148319E-02 a      1287     0    52     1    12
 -2.0375420362625535E-01 a      1288     0    52     1    13
  1.6140692857033748E-01 a      1289     0    52     1    14
 -1.0624594319943198E-01 a      1290     0    52     1    15
 -8.2642539034875631E-02 a      1291     0    52     1    16
  9.9039163845932199E-02 a      1292     0    52     1    17
 -8.8032149523929751E-02 a      1293     0    52     1    18
 -9.5247085311861074E-02 a      1294     0    52     1    19
  2.8674988078042651E-01 a      1295     0    52     1    20
 -2.5251741240870734E-01 a      1296     0    52     1    21
  1.8273434378353298E-01 a      1297     0    52     1    22
  3.1089425642102864E-01 a      1298     0    52     1    23
 -2.7495115487952172E-02 a      1299     0    52     1    24
  2.3330183585313405E-01 a      1300     0    52     1    25
 -2.2712056219608004E-01 a      1301     0    53     1     1
 -1.8060128143872542E-01 a      1302     0    53     1     2
  2.1955208284551819E-01 a      1303     0    53     1     3
  2.0893301917571336E-01 a      1304     0    53     1     4
  7.3659188931503652E-02 a      1305     0    53     1     5
 -1.5596423383202129E-01 a      1306     0    53     1     6
  3.3490404137127733E-01 a      1307     0    53     1     7
  2.4774511433990895E-01 a      1308     0    53     1     8
  1.8039277252957397E-01 a      1309     0    53     1     9
  7.9289080834735820E-02 a      1310     0    53     1    10
  6.8760561948263341E-02 a      1311     0    53     1    11
  6.5886905236674552E-03 a      1312     0    53     1    12
  4.3982692178958327E-01 a      1313     0    53     1    13
  2.1732467516455992E-01 a      1314     0    53     1    14
  2.0967769491621285E-01 a      1315     0    53     1    15
 -4.9499856576257090E-01 a      1316     0    53     1    16
  1.4163895700772772E-01 a      1317     0    53     1    17
  4.0151128871211517E-01 a      1318     0    53     1    18
 -3.2033622239549843E-02 a      1319     0    53     1    19
 -4.9826577234255209E-01 a      1320     0    53     1    20
  1.9344596015610488E-01 a      1321     0    53     1    21
 -2.3952961568342124E-01 a      1322     0    53     1    22
 -6.8909910686209452E-01 a      1323     0    53     1    23
  3.0487959838165912E-01 a      1324     0    53     1    24
 -4.7040092872330791E-01 a      1325     0    53     1    25
  9.2458212244034763E-02 a      1326     0    54     1     1
  3.2228844793318573E-03 a      1327     0    54     1     2
  1.4455865108256213E-01 a      1328     0    54     1     3
 -3.7464240446587038E-01 a      1329     0    54     1     4
 -1.5427851716157026E-01 a      1330     0    54     1     5
  1.2967706888189667E-01 a      1331     0    54     1     6
 -1.4096419771425298E-01 a      1332     0    54     1     7
  3.0455494446221303E-02 a      1333     0    54     1     8
 -1.8845940577593939E-01 a      1334     0    54     1     9
  3.4921355052101150E-01 a      1335     0    54     1    10
 -2.1416456746439069E-01 a      1336     0    54     1    11
 -1.4797446229243161E-01 a      1337     0    54     1    12
 -1.5167226028715407E-02 a      1338     0    54     1    13
  1.2202441171324871E-01 a      1339     0    54     1    14
  1.2632978949164472E-01 a      1340     0    54     1    15
 -1.6754672719418456E-01 a      1341     0    54     1    16
  9.9413974089371568E-02 a      1342     0    54     1    17
  2.1314658726701269E-01 a      1343     0    54     1    18
 -2.5708139668780522E-02 a      1344     0    54     1    19
  8.1912530164091751E-02 a      1345     0    54     1    20
  5.2040220321820119E-01 a      1346     0    54     1    21
  1.9079867388712601E-01 a      1347     0    54     1    22
 -2.7341074393764452E-02 a      1348     0    54     1    23
 -6.5935213720390694E-03 a      1349     0    54     1    24
  2.0503811876065614E-01 a      1350     0    54     1    25
  3.5425262832317250E-01 a      1351     0    55     1     1
 -4.6746597523415750E-01 a      1352     0    55     1     2
  5.1903240239668602E-01 a      1353     0    55     1     3
 -4.9638365564483966E-01 a      1354     0    55     1     4
  1.0136282347119450E+00 a      1355     0    55     1     5
  3.4977954787866805E-01 a      1356     0    55     1     6
 -9.7151264696175021E-02 a      1357     0    55     1     7
  4.5692829078452257E-01 a      1358     0    55     1     8
 -1.4748619602054613E-01 a      1359     0    55     1     9
 -5.5757914662791552E-01 a      1360     0    55     1    10
  1.4607534728960073E-01 a      1361     0    55     1    11
  1.5599450195269907E-01 a      1362     0    55     1    12
 -1.4238031022025102E-02 a      1363     0    55     1    13
 -3.1296336762343324E-01 a      1364     0    55     1    14
  2.8587309616007772E-01 a      1365     0    55     1    15
 -4.4199243438537000E-01 a      1366     0    55     1    16
  9.8467471565713061E-01 a      1367     0    55     1    17
 -2.2917734790268432E-01 a      1368     0    55     1    18
  1.1910984569541705E-01 a      1369     0    55     1    19
  3.3002424818003306E-01 a      1370     0    55     1    20
  3.7390367071869485E-01 a      1371     0    55     1    21
  5.8968727339853000E-01 a      1372     0    55     1    22
  2.6419766764819463E-01 a      1373     0    55     1    23
 -3.3945948509784246E-01 a      1374     0    55     1    24
 -1.4833620354883931E-01 a      1375     0    55     1    25
  3.3941144817692398E-01 a      1376     0    56     1     1
  2.7154132089266669E-01 a      1377     0    56     1     2
 -4.7336864430227393E-01 a      1378     0    56     1     3
  4.7174099079459475E-01 a      1379     0    56     1     4
 -1.6459418599052622E-01 a      1380     0    56     1     5
 -4.7682163467701155E-02 a      1381     0    56     1     6
 -2.9641851798307078E-01 a      1382     0    56     1     7
  9.8964959297322699E-02 a      1383     0    56     1     8
 -2.0565060928373913E-01 a      1384     0    56     1     9
  9.6582185344270197E-02 a      1385     0    56     1    10
 -8.7899616447504408E-02 a      1386     0    56     1    11
 -4.4303986009063095E-01 a      1387     0    56     1    12
  4.1448575094558415E-01 a      1388     0    56     1    13
  4.7944778315417264E-01 a      1389     0    56     1    14
 -7.1707227316121869E-01 a      1390     0    56     1    15
 -6.6185397207182556E-02 a      1391     0    56     1    16
 -4.6266644180311789E-01 a      1392     0    56     1    17
 -3.3231606613839315E-01 a      1393     0    56     1    18
  8.4754524964488009E-01 a      1394     0    56     1    19
 -1.7519395268219981E-01 a      1395     0    56     1    20
 -1.5085756040780776E-01 a      1396     0    56     1    21
 -1.9532294144116774E-01 a      1397     0    56     1    22
 -3.5781800317750567E-01 a      1398     0    56     1    23
  1.1352496855713597E-01 a      1399     0    56     1    24
 -2.3755465388204050E-01 a      1400     0    56     1    25
 -1.4635817682707220E-01 a      1401     0    57     1     1
  5.0680810118152841E-01 a      1402     0    57     1     2
 -5.8876611362488740E-01 a      1403     0    57     1     3
  2.9395442486963769E-01 a      1404     0    57     1     4
 -6.5610796754929712E-01 a      1405     0    57     1     5
 -3.7245327447474319E-01 a      1406     0    57     1     6
 -1.5863910550499846E-01 a      1407     0    57     1     7
 -4.9238598946675527E-01 a      1408     0    57     1     8
  1.9073904287004917E-01 a      1409     0    57     1     9
  5.0642689923105111E-01 a      1410     0    57     1    10
 -1.2277388758951875E-01 a      1411     0    57     1    11
 -1.3779764683247406E-01 a      1412     0    57     1    12
  1.3527458112241145E-01 a      1413     0    57     1    13
  2.0605782091254851E-01 a      1414     0    57     1    14
 -5.5321917275654353E-01 a      1415     0    57     1    15
  3.7967140260099297E-01 a      1416     0    57     1    16
 -9.6741102822981395E-01 a      1417     0    57     1    17
  5.4776209452137598E-02 a      1418     0    57     1    18
  5.5639621556007900E-02 a      1419     0    57     1    19
 -1.7444618583999369E-01 a      1420     0    57     1    20
 -4.4412656843245052E-01 a      1421     0    57     1    21
 -5.4096982680790939E-01 a      1422     0    57     1    22
 -4.2631843730489383E-01 a      1423     0    57     1    23
  3.4710997485802308E-01 a      1424     0    57     1    24
  8.8707317667226351E-02 a      1425     0    57     1    25
 -3.5196554509170153E-01 a      1426     0    58     1     1
 -3.7726142117923151E-03 a      1427     0    58     1     2
  2.1176493990427858E-01 a      1428     0    58     1     3
 -2.0119039990352469E-01 a      1429     0    58     1     4
 -1.7656021033770300E-01 a      1430     0    58     1     5
 -6.5556363334771806E-01 a      1431     0    58     1     6
  4.6625966729030222E-01 a      1432     0    58     1     7
 -3.3196566111076681E-01 a      1433     0    58     1     8
  2.7650131791164551E-01 a      1434     0    58     1     9
  1.2692256715975472E-01 a      1435     0    58     1    10
  2.2039148382622822E-01 a      1436     0    58     1    11
 -7.1431365110979653E-02 a      1437     0    58     1    12
 -5.9628540978786648E-01 a      1438     0    58     1    13
 -3.6260224803491820E-01 a      1439     0    58     1    14
  5.3092371101389613E-01 a      1440     0    58     1    15
  6.8309804927316031E-02 a      1441     0    58     1    16
  7.0189324163075578E-02 a      1442     0    58     1    17
  2.3518075508026137E-01 a      1443     0    58     1    18
 -7.8260512176220975E-01 a      1444     0    58     1    19
  1.6712603784610994E-01 a      1445     0    58     1    20
 -7.5649475967445146E-02 a      1446     0    58     1    21
  6.2999283142969348E-02 a      1447     0    58     1    22
  2.2835476466025587E-01 a      1448     0    58     1    23
  8.7123619187555235E-02 a      1449     0    58     1    24
  2.3106223249064392E-01 a      1450     0    58     1    25
 -9.9448691827671493E-02 a      1451     0    59     1     1
 -3.4960080423546036E-02 a      1452     0    59     1     2
 -2.2776609116073138E-01 a      1453     0    59     1     3
  2.1428809953162148E-01 a      1454     0    59     1     4
  2.8794296019207111E-01 a      1455     0    59     1     5
  2.1140216297274098E-01 a      1456     0    59     1     6
 -2.1241529858746538E-01 a      1457     0    59     1     7
  1.3860935933663149E-01 a      1458     0    59     1     8
 -7.5032784814576897E-02 a      1459     0    59     1     9
 -2.9830412199524668E-02 a      1460     0    59     1    10
  2.1635294653241176E-02 a      1461     0    59     1    11
  3.1650945467152851E-02 a      1462     0    59     1    12
  5.9187921674765803E-02 a      1463     0    59     1    13
  5.4848638271348837E-01 a      1464     0    59     1    14
 -2.8721114808251424E-01 a      1465     0    59     1    15
  2.3362485341513139E-01 a      1466     0    59     1    16
  1.2485641837615685E-01 a      1467     0    59     1    17
  3.3297677012426374E-01 a      1468     0    59     1    18
 -1.3868609989727787E-01 a      1469     0    59     1    19
 -8.9466276576222012E-02 a      1470     0    59     1    20
 -1.1900325773085160E-01 a      1471     0    59     1    21
 -3.0293821241058128E-01 a      1472     0    59     1    22
  8.9404931948230307E-02 a      1473     0    59     1    23
 -3.6897110650861564E-01 a      1474     0    59     1    24
 -1.4013283387461439E-01 a      1475     0    59     1    25
 -9.3708867095142492E-02 a      1476     0    60     1     1
 -9.6068050934596194E-02 a      1477     0    60     1     2
 -2.5608426164190573E-01 a      1478     0    60     1     3
  2.0162470217354150E-01 a      1479     0    60     1     4
  2.0898907743136644E-01 a      1480     0    60     1     5
  1.1553585737210963E-01 a      1481     0    60     1     6
 -1.9102762153166414E-01 a      1482     0    60     1     7
  1.4476019579077565E-01 a      1483     0    60     1     8
 -1.3693526600868698E-02 a      1484     0    60     1     9
 -6.5653799021689217E-03 a      1485     0    60     1    10
  6.1063608008583275E-03 a      1486     0    60     1    11
  8.8417664496755269E-02 a      1487     0    60     1    12
  8.2162671741053983E-04 a      1488     0    60     1    13
  5.3298886942866397E-01 a      1489     0    60     1    14
 -1.6460654259426499E-01 a      1490     0    60     1    15
  2.0747376356236044E-01 a      1491     0    60     1    16
  1.9415815540117654E-01 a      1492     0    60     1    17
  2.8115626874063293E-01 a      1493     0    60     1    18
  3.7936684949561703E-03 a      1494     0    60     1    19
 -1.3736799313273210E-01 a      1495     0    60     1    20
 -2.1247054395076553E-03 a      1496     0    60     1    21
 -2.6700266430170289E-01 a      1497     0    60     1    22
  1.5624985912452271E-02 a      1498     0    60     1    23
 -3.3103508069614235E-01 a      1499     0    60     1    24
 -5.3463485655240631E-02 a      1500     0    60     1    25
  2.3096794789596922E-01 a      1501     0    61     1     1
  2.8553775780519225E-01 a      1502     0    61     1     2
 -4.6907565213357633E-01 a      1503     0    61     1     3
  8.2531311290719694E-02 a      1504     0    61     1     4
  6.2824497318745243E-01 a      1505     0    61     1     5
  3.9977853775714549E-02 a      1506     0    61     1     6
 -2.8077785507161118E-01 a      1507     0    61     1     7
  3.8122405672474291E-01 a      1508     0    61     1     8
 -2.5098724742346079E-01 a      1509     0    61     1     9
  6.2855079288609950E-01 a      1510     0    61     1    10
 -3.6184926769250669E-01 a      1511     0    61     1    11
 -8.7301845262550401E-02 a      1512     0    61     1    12
 -6.3335343592731808E-01 a      1513     0    61     1    13
  1.0367251302911815E-01 a      1514     0    61     1    14
  5.9503536821671428E-02 a      1515     0    61     1    15
  2.9951860669617369E-01 a      1516     0    61     1    16
 -3.3160763479637095E-01 a      1517     0    61     1    17
 -1.5680045811471477E-01 a      1518     0    61     1    18
 -4.9990192378924053E-01 a      1519     0    61     1    19
  6.2873375233974682E-02 a      1520     0    61     1    20
 -3.3206710856258997E-01 a      1521     0    61     1    21
  4.3739137123946131E-01 a      1522     0    61     1    22
 -3.9963058023111730E-01 a      1523     0    61     1    23
 -2.0303153104491858E-01 a      1524     0    61     1    24
  4.0378787174444880E-01 a      1525     0    61     1    25
 -8.9551505883570498E-02 a      1526     0    62     1     1
 -9.4458780656120817E-02 a      1527     0    62     1     2
  3.8997079814359914E-01 a      1528     0    62     1     3
 -6.8200939724537987E-02 a      1529     0    62     1     4
 -1.3979584999902100E-01 a      1530     0    62     1     5
 -1.8081025640973888E-01 a      1531     0    62     1     6
 -2.0497275155662889E-01 a      1532     0    62     1     7
  6.3541520039240407E-02 a      1533     0    62     1     8
 -2.2551784912294044E-02 a      1534     0    62     1     9
  2.7913764830687032E-01 a      1535     0    62     1    10
 -5.0398219642783307E-02 a      1536     0    62     1    11
  2.3371169981678835E-01 a      1537     0    62     1    12
 -4.0034855939711678E-01 a      1538     0    62     1    13
  3.0814880919549364E-01 a      1539     0    62     1    14
  2.0777267043134284E-01 a      1540     0    62     1    15
 -2.6499243026315411E-01 a      1541     0    62     1    16
 -9.4346852300535682E-03 a      1542     0    62     1    17
 -1.1253151114704539E-01 a      1543     0    62     1    18
 -8.6198133449035666E-02 a      1544     0    62     1    19
 -8.5399307778862871E-02 a      1545     0    62     1    20
  3.0670622478264448E-01 a      1546     0    62     1    21
 -1.6625326545447533E-01 a      1547     0    62     1    22
 -8.0311718259452498E-03 a      1548     0    62     1    23
 -3.3216509642731640E-01 a      1549     0    62     1    24
 -4.5318129663073574E-02 a      1550     0    62     1    25
  9.3466409290612326E-02 a      1551     0    63     1     1
  8.5444460024907354E-02 a      1552     0    63     1     2
 -1.2787667242283104E-01 a      1553     0    63     1     3
  7.3385057792583946E-02 a      1554     0    63     1     4
  2.4221485425736838E-01 a      1555     0    63     1     5
  3.4725190526282729E-02 a      1556     0    63     1     6
 -5.3806791068486237E-01 a      1557     0    63     1     7
  6.8416516972843219E-02 a      1558     0    63     1     8
 -1.4136707947334815E-01 a      1559     0    63     1     9
  1.0543570995419436E-01 a      1560     0    63     1    10
  8.3225192305551518E-02 a      1561     0    63     1    11
  1.5583395712910308E-01 a      1562     0    63     1    12
 -1.2778509263490909E-01 a      1563     0    63     1    13
  2.9280237954904115E-01 a      1564     0    63     1    14
 -3.3339127762374404E-01 a      1565     0    63     1    15
 -8.6995235578210026E-02 a      1566     0    63     1    16
  5.8724621106545430E-03 a      1567     0    63     1    17
  3.1967714093207963E-02 a      1568     0    63     1    18
  1.6158554067452333E-01 a      1569     0    63     1    19
 -3.2217066445527187E-02 a      1570     0    63     1    20
 -8.0222111894025269E-02 a      1571     0    63     1    21
  2.7844646619334733E-02 a      1572     0    63     1    22
 -1.9429378986508580E-02 a      1573     0    63     1    23
 -1.2281607095945739E-01 a      1574     0    63     1    24
  1.6799254575731368E-01 a      1575     0    63     1    25
  1.2474618855339321E-01 a      1576     0    64     1     1
 -4.4419766822730862E-02 a      1577     0    64     1     2
 -3.3075196849206455E-04 a      1578     0    64     1     3
  8.0349437998027462E-02 a      1579     0    64     1     4
  1.0433768935747743E-01 a      1580     0    64     1     5
 -6.9357531473056358E-02 a      1581     0    64     1     6
 -5.1805037266424125E-01 a      1582     0    64     1     7
  2.7954693771354944E-01 a      1583     0    64     1     8
 -1.6399666911178573E-01 a      1584     0    64     1     9
  3.5912953788126298E-02 a      1585     0    64     1    10
  2.4035770517010314E-02 a      1586     0    64     1    11
 -1.4288641141220767E-02 a      1587     0    64     1    12
 -3.9359644980056029E-02 a      1588     0    64     1    13
  2.0891468357813192E-01 a      1589     0    64     1    14
 -3.0644353449430467E-01 a      1590     0    64     1    15
 -1.9798002030341244E-01 a      1591     0    64     1    16
 -2.9420273098873184E-02 a      1592     0    64     1    17
  6.3715325647767856E-02 a      1593     0    64     1    18
  2.0028528894607461E-01 a      1594     0    64     1    19
  5.1570335754563240E-02 a      1595     0    64     1    20
 -3.8946817714894011E-03 a      1596     0    64     1    21
  1.0390910282555902E-02 a      1597     0    64     1    22
 -3.2030185828523280E-02 a      1598     0    64     1    23
 -6.7623136094936961E-02 a      1599     0    64     1    24
  1.4703858515938908E-01 a      1600     0    64     1    25
 -4.4708358229559431E-02 a      1601     0    65     1     1
 -7.5733637725515918E-02 a      1602     0    65     1     2
  3.2401362383233928E-01 a      1603     0    65     1     3
  4.3615875484561816E-03 a      1604     0    65     1     4
 -3.7086802391292112E-01 a      1605     0    65     1     5
  4.1104267141294955E-02 a      1606     0    65     1     6
 -3.3360210477751495E-01 a      1607     0    65     1     7
 -3.1983143318700030E-01 a      1608     0    65     1     8
 -3.9315080238020855E-01 a      1609     0    65     1     9
 -2.3268181562477877E-01 a      1610     0    65     1    10
 -7.2265304148491985E-02 a      1611     0    65     1    11
 -1.5941660777179995E-01 a      1612     0    65     1    12
 -9.8579314817701658E-02 a      1613     0    65     1    13
  1.9669740670727142E-02 a      1614     0    65     1    14
  6.2628667216310913E-02 a      1615     0    65     1    15
  5.9547938265458469E-02 a      1616     0    65     1    16
  2.8930672673863977E-01 a      1617     0    65     1    17
 -9.9160798993611854E-02 a      1618     0    65     1    18
  5.1347196184402893E-02 a      1619     0    65     1    19
 -1.3705114052174233E-01 a      1620     0    65     1    20
 -2.5527379527508959E-01 a      1621     0    65     1    21
 -1.8719416669775271E-01 a      1622     0    65     1    22
  3.4578358582271851E-01 a      1623     0    65     1    23
